tree
version=v3
num_class=1
num_tree_per_iteration=1
label_index=0
max_feature_idx=9
objective=quantile
feature_names=Month Hour hour_x hour_y month_x month_y net_target-23 diffuse_solar_radiation+1 relative_humidity+1 drybulb_temp+1
feature_infos=[1:12] [1:24] [-1:1] [-1:1] [-1:1] [-1:1] [0:1] [0:6.9255951971104679] [10:100] [5.5999999999999996:32.200000000000003]
tree_sizes=2717 2835 2839 2839 2861 2808 2886 2837 2873 2849 2881 2850 2825 2884 2902 2861 2918 2884 2890 2871 2857 2930 2899 2899 2887 2920 2876 2895 2921 2929 2892 2887 2932 2920 2880 2882 2892 2933 2926 2901 2885 2910 2936 2929 2932 2913 2912 2909 2922 2882 2918 2916 2902 2912 2946 2914 2888 2929 2933 2921 2906 2911 2886 2945 2963 2915 2907 2906 2955 2922 2923 2904 2931 2908 2898 2857 2899 2913 2957 2941 2948 2941 2921 2924 2909 2960 2923 2952 2924 2926 2917 2906 2926 2920 2902 2868 2879 2890 2931 2887 2934 2903 2936 2904 2911 2928 2907 2874 2898 2935 2925 2920 2882 2936 2868 2904 2862 2898 2876 2910 2893 2896 2898 2936 2880 2895 2887 2912 2927 2892 2892 2904 2872 2934 2920 2868 2948 2956 2858 2962 2920 2848 2925 2871 2898 2877 2893 2913 2885 2910 2905 2856 2886 2917 2918 2917 2866 2959 2887 2921 2860 2903 2944 2917 2900 2893 2893 2881 2942 2872 2883 2889 2882 2853 2896 2913 2926 2892 2869 2878 2906 2904 2890 2868 2850 2899 2870 2898 2870 2903 2871 2860 2892 2901 2900 2941 2896 2916 2875 2848

Tree=0
num_leaves=31
num_cat=0
split_feature=6 6 6 4 0 1 0 6 1 6 1 0 1 7 8 2 4 0 1 6 4 7 8 0 1 0 8 6 1 6
split_gain=389.985 41.9999 27.5644 11.4724 14.6528 12.6 9.01449 7.47577 7.43493 6.05012 5.35222 6.24144 5.21652 5.05832 4.06829 3.37794 6.54331 3.86668 3.07859 2.95234 2.70793 2.62204 2.2803 2.26389 2.20999 2.12125 2.52553 2.1116 2.74615 2.00121
threshold=0.52091241958869483 0.59058765741906061 0.42761989604726536 -0.5 5.5000000000000009 13.500000000000002 1.5000000000000002 0.50162215986876901 14.500000000000002 0.64955479807325567 16.500000000000004 6.5000000000000009 13.500000000000002 1.8688348091416842 89.500000000000014 0.25881904510252057 1.0000000180025095e-35 8.5000000000000018 20.500000000000004 0.40426863928743112 -0.5 5.3636340903656388 71.500000000000014 7.5000000000000009 12.500000000000002 11.500000000000002 89.500000000000014 0.55743943049904099 17.500000000000004 0.64955479807325567
decision_type=2 2 2 2 2 2 2 2 2 2 2 2 2 2 2 2 2 2 2 2 2 2 2 2 2 2 2 2 2 2
left_child=2 10 8 4 -3 -6 13 12 -1 -7 -2 14 -4 -5 27 16 17 -8 19 -10 23 -11 -13 -14 -18 26 -17 -12 -29 -19
right_child=1 3 7 6 5 9 15 -9 18 21 11 22 20 -15 -16 25 24 29 -20 -21 -22 -23 -24 -25 -26 -27 -28 28 -30 -31
leaf_value=0.56651953618584228 0.57566334642351646 0.57622196899275191 0.57122968345684055 0.58194746706782896 0.57866761168589842 0.58118445659973761 0.57101556532676345 0.57521420354732977 0.57140828145566047 0.58364707545119932 0.57434100927889631 0.57644212450147736 0.57464003850636802 0.5809821608503597 0.57639160367509701 0.57728445759674973 0.57067150459940164 0.58025793834298445 0.56889214463176363 0.57482457972816969 0.57311246407152794 0.58316362547352585 0.57806181849030058 0.57791535771374358 0.57672340046365211 0.57807392184170969 0.57906245202461837 0.5795704981406693 0.57627590509293891 0.58215430703771176
leaf_weight=12397 1288 127 3057 279 175 352 21 1077 1988 377 329 70 820 71 224 238 44 66 1952 656 3043 84 633 247 349 131 133 26 167 78
leaf_count=12397 1288 127 3057 279 175 352 21 1077 1988 377 329 70 820 71 224 238 44 66 1952 656 3043 84 633 247 349 131 133 26 167 78
internal_value=0.573337 0.585725 0.570762 0.590376 0.594166 0.596221 0.587379 0.573134 0.569611 0.598841 0.581435 0.583519 0.57255 0.594337 0.580334 0.585082 0.582405 0.590761 0.571328 0.57244 0.573714 0.60261 0.5869 0.575881 0.578896 0.588058 0.586126 0.577915 0.582067 0.593684
internal_weight=0 5262 25237 2525 1115 988 1410 8244 16993 813 2737 1449 7167 350 746 1060 558 165 4596 2644 4110 461 703 1067 393 502 371 522 193 144
internal_count=30499 5262 25237 2525 1115 988 1410 8244 16993 813 2737 1449 7167 350 746 1060 558 165 4596 2644 4110 461 703 1067 393 502 371 522 193 144
is_linear=0
shrinkage=1


Tree=1
num_leaves=31
num_cat=0
split_feature=6 6 6 1 9 1 6 6 1 9 7 1 0 7 8 0 9 8 9 1 0 9 0 6 9 9 6 0 0 8
split_gain=344.781 36.1772 27.7735 9.90373 9.71757 9.26041 7.33183 6.61963 6.23721 6.11526 5.78957 4.32795 3.52753 3.4163 3.20539 3.07021 3.06067 2.93409 2.93126 3.11938 3.60693 2.943 2.73776 2.81403 3.31862 2.63159 2.5954 2.56428 2.51282 2.47555
threshold=0.53227172118141219 0.44707208211561328 0.61739089903201705 14.500000000000002 17.850000000000005 13.500000000000002 0.50162215986876901 0.64955479807325567 14.500000000000002 17.350000000000005 1.8688348091416842 13.500000000000002 1.5000000000000002 3.0201273556387074 65.500000000000014 1.5000000000000002 18.050000000000004 86.500000000000014 17.150000000000002 16.500000000000004 8.5000000000000018 14.900000000000002 2.5000000000000004 0.57172916210745217 10.300000000000002 17.650000000000002 0.56476872921328458 8.5000000000000018 8.5000000000000018 69.500000000000014
decision_type=2 2 2 2 2 2 2 2 2 2 2 2 2 2 2 2 2 2 2 2 2 2 2 2 2 2 2 2 2 2
left_child=1 3 8 -1 10 -6 11 27 13 15 12 -3 -4 22 -11 26 -5 29 21 -20 -21 -14 23 -2 -25 -13 -10 -7 -16 -9
right_child=2 6 4 16 5 7 -8 17 9 14 -12 25 18 -15 28 -17 -18 -19 19 20 -22 -23 -24 24 -26 -27 -28 -29 -30 -31
leaf_value=-0.005747135149003952 0.0021342713855869999 -0.0017509543832420595 0.0096005980415728234 -0.0026728300805190898 0.0050464829514476174 0.0069797809353150334 0.001886872605847437 0.0072438897206156833 0.0015774875079017842 0.0021453713274131344 0.0059227524321024015 0.00013457046406983864 0.0047387948582294243 0.0010752610278965938 0.0065799028449702868 0.003085513100111912 0.0002107163927873943 0.0092990094564257015 0.0036456144140268546 0.0098317310204489115 0.0056222851366124942 0.0039137616890974397 0.0025289024334842676 0.00048687143575250618 0.0031968704142710915 0.0025810506581883542 0.005125924357912765 0.0041284195013834082 0.0039629169103663157 0.010406321590003244
leaf_weight=13726 106 1885 161 4301 126 117 1685 42 104 66 190 2075 298 438 475 944 1428 77 25 110 59 146 299 24 74 817 134 60 206 341
leaf_count=13726 106 1885 161 4301 126 117 1685 42 104 66 190 2075 298 438 475 944 1428 77 25 110 59 146 299 24 74 817 134 60 206 341
internal_value=0 -0.00235309 0.0124708 -0.00342971 0.0174315 0.021671 0.000888269 0.0241209 0.00944251 0.0110705 0.0141608 -0.000111996 0.0160263 0.00610521 0.0146118 0.00883249 -0.00168354 0.0272826 0.0143574 0.0194845 0.0219231 0.0121171 0.0089165 0.0133824 0.0194898 0.00110304 0.0139076 0.015904 0.0156314 0.0290731
internal_weight=0 25917 4622 19455 1752 763 6462 637 2870 1929 989 4777 799 941 747 1182 5729 460 638 194 169 444 503 204 98 2892 238 177 681 383
internal_count=30539 25917 4622 19455 1752 763 6462 637 2870 1929 989 4777 799 941 747 1182 5729 460 638 194 169 444 503 204 98 2892 238 177 681 383
is_linear=0
shrinkage=0.05


Tree=2
num_leaves=31
num_cat=0
split_feature=6 6 6 3 0 0 1 6 6 0 1 0 4 3 0 4 1 2 2 0 3 0 0 0 7 6 3 0 0 0
split_gain=301.956 35.0232 25.6593 12.3783 8.62138 10.9761 10.2814 7.74029 6.2105 5.9448 5.30846 4.82149 5.43038 4.55625 4.29772 3.94806 3.26311 3.09874 2.95811 2.93028 2.57892 3.75859 2.57859 2.60584 2.56115 2.12033 1.96303 2.26848 1.77218 1.74834
threshold=0.53515806726443904 0.44707208211561328 0.64955479807325567 -0.5 5.5000000000000009 9.5000000000000018 14.500000000000002 0.50162215986876901 0.5757132505517597 2.5000000000000004 14.500000000000002 1.5000000000000002 -0.5 -0.25881904510252113 6.5000000000000009 -0.5 17.500000000000004 0.78656609248549303 -0.78656609248549325 11.500000000000002 -0.70710678118654735 5.5000000000000009 6.5000000000000009 9.5000000000000018 3.8606743063089746 0.42761989604726536 -0.25881904510252113 5.5000000000000009 9.5000000000000018 2.5000000000000004
decision_type=2 2 2 2 2 2 2 2 2 2 2 2 2 2 2 2 2 2 2 2 2 2 2 2 2 2 2 2 2 2
left_child=1 3 8 22 9 6 -6 10 20 24 -3 18 13 14 -13 -12 -8 -14 -10 -7 21 29 -1 -24 -4 -5 27 -9 -29 -2
right_child=2 7 4 25 5 19 16 26 11 -11 15 12 17 -15 -16 -17 -18 -19 -20 -21 -22 -23 23 -25 -26 -27 -28 28 -30 -31
leaf_value=-0.0022289107997698842 0.0023176471179825364 -0.0016944234879571888 0.0089820666776461392 -0.0061554425945300863 0.0029478563778325253 0.0031671596249981046 0.0099462970355655225 0.0010979997949465915 0.00067081446061245675 0.0033763386695887031 0.0029644054446569257 0.0034580935409594458 0.0024410210157255162 0.0043215356716141485 0.0076179340900972975 7.8809498405174388e-05 0.0094149593918290558 0.0037772278227927031 0.0038483118173419659 0.0053935792246004388 0.0022076529387266863 0.0043391541866079795 0.0012884438521225394 -0.0011464798051049033 0.0078721666539339815 -0.0026274546195450056 0.00066146173274040938 0.0041932594520128954 0.0020470286005754017 0.00028079705716762551
leaf_weight=2300 183 2018 163 13665 93 82 234 461 22 157 756 168 630 157 352 2041 325 190 282 99 854 388 845 1146 32 1604 708 331 285 108
leaf_count=2300 183 2018 163 13665 93 82 234 461 22 157 756 168 630 157 352 2041 325 190 282 99 854 388 845 1146 32 1604 708 331 285 108
internal_value=0 -0.00227829 0.0117183 -0.003341 0.018038 0.0208103 0.0238344 0.000871211 0.0094721 0.0114773 -0.000171341 0.0114631 0.0102973 0.0136115 0.0158654 0.00123883 0.0263953 0.00756097 0.0172039 0.00991713 0.00713307 0.00943299 -0.000968307 0.00034907 0.0173077 -0.00400779 0.00368347 0.00502785 0.00701299 0.00513746
internal_weight=0 26160 4519 19560 1185 833 652 6600 3334 352 4815 1801 1497 677 520 2797 559 820 304 181 1533 679 4291 1991 195 15269 1785 1077 616 291
internal_count=30679 26160 4519 19560 1185 833 652 6600 3334 352 4815 1801 1497 677 520 2797 559 820 304 181 1533 679 4291 1991 195 15269 1785 1077 616 291
is_linear=0
shrinkage=0.05


Tree=3
num_leaves=31
num_cat=0
split_feature=6 6 3 6 9 3 6 6 0 3 9 0 5 6 0 2 1 5 0 1 9 9 2 1 6 6 0 9 1 9
split_gain=276.331 32.3051 26.7471 11.6135 9.65309 10.0381 7.87462 5.56698 4.10134 6.64536 3.95125 3.72107 3.68863 2.95536 2.4169 2.69416 2.34048 2.2858 3.30689 2.74306 2.45195 2.35707 2.12156 2.31235 2.03005 1.92333 1.87342 1.76468 2.04363 1.65242
threshold=0.52091241958869483 0.6411539359914199 -0.5 0.42761989604726536 17.950000000000003 -0.25881904510252113 0.58666180475247109 0.39745191019141307 6.5000000000000009 -0.70710678118654735 17.950000000000003 8.5000000000000018 -0.6830127018922193 0.48762830728007228 2.5000000000000004 0.1294095225512602 17.500000000000004 0.68301270189221941 9.5000000000000018 13.500000000000002 12.750000000000002 11.550000000000002 0.1294095225512602 14.500000000000002 0.50162215986876901 0.69238303312125538 4.5000000000000009 18.950000000000003 15.500000000000002 17.050000000000004
decision_type=2 2 2 2 2 2 2 2 2 2 2 2 2 2 2 2 2 2 2 2 2 2 2 2 2 2 2 2 2 2
left_child=2 6 7 -4 22 12 8 -1 14 11 -9 -10 27 -5 15 -2 -14 18 19 -8 -21 -20 23 -3 -12 -25 -22 -6 -29 -28
right_child=1 4 3 13 5 -7 17 10 9 -11 24 -13 16 -15 -16 -17 -18 -19 21 20 26 -23 -24 25 -26 -27 29 28 -30 -31
leaf_value=-0.0019840533111998696 0.0011484928496274124 0.00061431993689728816 -0.0058574189745321083 -0.0018874712061332502 0.0077488607835680401 0.0031326620194673527 0.0026534934287185622 0.0002664380031509659 0.0051741553015306361 0.0023650459332964272 0.0019795747651959838 0.0035426042313759596 0.0094877992442226264 0.0005267305812533652 0.00133946663394967 0.0020089898119974694 0.0090454716972265103 0.0034893886763389206 0.0035378071166438244 0.0020712067941916499 0.005925755720701001 0.0025636994912797695 0.0065267232196539564 0.0040219495191937083 0.0061949727944588199 0.0076878774494464341 0.0049346196424913235 0.0074408653687982624 0.011037360311073784 0.006350458905442849
leaf_weight=2329 311 51 13556 3674 138 92 204 3594 240 712 1001 350 137 1022 639 421 62 223 35 45 99 236 437 108 125 107 65 27 147 429
leaf_count=2329 311 51 13556 3674 138 92 204 3594 240 712 1001 350 137 1022 639 421 62 223 35 45 99 236 437 108 125 107 65 27 147 429
internal_value=0 0.0101458 -0.00239536 -0.00340566 0.0169755 0.0216169 0.00792093 0.000220597 0.00635428 0.00836405 0.00120763 0.0122881 0.0243542 -0.00126278 0.00444566 0.0064071 0.0296734 0.0110554 0.0119811 0.0135273 0.0151411 0.00717712 0.0129943 0.00947368 0.00379218 0.0117442 0.0159949 0.0209615 0.0243103 0.0147368
internal_weight=0 5315 25301 18252 1306 603 4009 7049 2673 1302 4720 590 511 4696 1371 732 199 1336 1113 842 638 271 703 266 1126 215 593 312 174 494
internal_count=30616 5315 25301 18252 1306 603 4009 7049 2673 1302 4720 590 511 4696 1371 732 199 1336 1113 842 638 271 703 266 1126 215 593 312 174 494
is_linear=0
shrinkage=0.05


Tree=4
num_leaves=31
num_cat=0
split_feature=6 6 6 3 6 0 3 0 3 3 5 6 0 8 5 0 5 0 0 8 7 8 0 6 0 0 8 1 0 0
split_gain=232.419 31.7295 17.7268 9.99542 8.37748 6.92627 6.75055 6.61862 5.84377 4.57443 6.30677 4.6607 4.0399 4.90568 2.34256 3.71596 2.17593 2.3958 2.17254 2.06286 1.88199 2.07066 1.87434 2.40514 2.07033 2.7552 1.85214 1.675 1.64722 1.64448
threshold=0.53515806726443904 0.42296649316919038 0.64955479807325567 -0.5 0.49448385607475848 5.5000000000000009 -0.37940952255126059 9.5000000000000018 -0.25881904510252113 -0.70710678118654735 0.68301270189221941 0.58666180475247109 1.5000000000000002 74.500000000000014 -0.6830127018922193 9.5000000000000018 -0.24999999999999997 8.5000000000000018 7.5000000000000009 78.500000000000014 2.8029010331479989 49.500000000000007 8.5000000000000018 0.56092155808958999 7.5000000000000009 4.5000000000000009 82.500000000000014 5.5000000000000009 2.5000000000000004 2.5000000000000004
decision_type=2 2 2 2 2 2 2 2 2 2 2 2 2 2 2 2 2 2 2 2 2 2 2 2 2 2 2 2 2 2
left_child=1 3 9 16 8 12 7 18 14 10 22 28 13 -4 15 19 17 -1 -7 -3 21 -13 23 -2 25 -25 -22 -14 -11 -10
right_child=2 4 5 -5 -6 6 -8 -9 29 11 -12 20 27 -15 -16 -17 -18 -19 -20 -21 26 -23 -24 24 -26 -27 -28 -29 -30 -31
leaf_value=0.002087560103423469 0.003185902747497841 0.0072155802950796578 0.0099554104801520167 -0.0057643564185956512 0.0013295605909760843 0.0083088438167789498 0.0046512532196645168 0.0036396608592503491 0.00010397370347153272 0.0019255585735838726 0.0021302979175692794 0.0046961510415468206 0.0054454248731743635 0.0045100072107758576 3.2492973799370881e-06 -0.00060876861029913196 -0.0024658869082479942 -0.00056218518191454418 0.0078808261780073888 0.0032271137917260773 0.0036310978298238952 0.0035530617294656226 0.0035068991743152501 0.0040241411810339797 0.0093925493742362566 0.0039623037563909572 -0.00016459130438652983 0.0018149574528006349 0.0018459703302086431 -0.0022515830909423328
leaf_weight=378 221 177 59 13234 2274 227 187 136 591 331 273 38 55 68 2766 364 1980 940 279 281 223 424 472 140 140 325 53 177 721 3008
leaf_count=378 221 177 59 13234 2274 227 187 136 591 331 273 38 55 68 2766 364 1980 940 279 281 223 424 472 140 140 325 53 177 721 3008
internal_value=0 -0.00221464 0.0100363 -0.00353617 9.45977e-05 0.0152862 0.0177986 0.0202336 -0.000742314 0.0081806 0.0101496 0.00645251 0.00948468 0.0166535 0.000685618 0.0030292 -0.00107338 0.000500758 0.0228656 0.0060262 0.00949864 0.0114502 0.0116025 0.0130387 0.0146694 0.0130645 0.00623188 0.00556034 0.00431559 -0.00216588
internal_weight=0 25993 4549 16532 9461 1188 829 642 7187 3361 1571 1790 359 127 3588 822 3298 1318 506 458 738 462 1298 826 605 465 276 232 1052 3599
internal_count=30542 25993 4549 16532 9461 1188 829 642 7187 3361 1571 1790 359 127 3588 822 3298 1318 506 458 738 462 1298 826 605 465 276 232 1052 3599
is_linear=0
shrinkage=0.05


Tree=5
num_leaves=31
num_cat=0
split_feature=6 6 3 4 6 5 3 6 9 5 3 7 6 6 7 6 8 7 6 3 4 4 5 5 3 8 6 8 9 3
split_gain=200.682 30.1175 21.7128 7.02939 6.55319 6.39721 6.0974 5.99278 4.92536 4.64819 4.03765 3.15742 3.15722 3.04806 2.52138 2.07421 2.05021 2.04912 2.63413 1.88623 1.88021 1.87279 3.03934 2.80001 2.21899 1.79184 2.0334 1.74382 1.69653 1.6473
threshold=0.50162215986876901 0.61739089903201705 -0.5 -0.5 0.42865156757781969 0.25000000000000006 -0.5 0.67797989664683711 18.850000000000005 -0.6830127018922193 -0.25881904510252113 3.4175922930736511 0.39745191019141307 0.58303487089591199 4.6200466650627661 0.42296649316919038 91.500000000000014 3.6762205501217915 0.54870532138611383 -0.37940952255126059 -0.9330127018922193 0.6830127018922193 -0.24999999999999997 -0.93301270189221919 -0.60355339059327362 76.500000000000014 0.69238303312125538 66.500000000000014 13.450000000000001 -0.9829629131445341
decision_type=2 2 2 2 2 2 2 2 2 2 2 2 2 2 2 2 2 2 2 2 2 2 2 2 2 2 2 2 2 2
left_child=2 6 9 5 -4 7 8 19 13 15 11 -9 -11 27 21 -1 -17 18 -8 29 -13 23 -23 -5 -25 26 -24 -2 -26 -3
right_child=1 3 4 14 -6 -7 17 10 -10 12 -12 20 -14 -15 -16 16 -18 -19 -20 -21 -22 22 25 24 28 -27 -28 -29 -30 -31
leaf_value=0.0003595777737004186 0.0002477827338216477 0.0016749137123139184 -0.0052988747193436049 0.0056509326506823908 -0.0015266425893797888 0.002910630648375637 0.0014316793505330496 0.0085600525177732516 0.0048419985136306087 -0.0026947372308994961 0.0053348397957447185 0.0072574393745545532 0.00010971100261153999 0.0038711557964375316 0.001485600572487454 0.0033834331827822793 -0.0015535088971332009 0.00052046342659004853 0.002150518385261676 0.0036997930969526918 0.0088816097433143913 0.0020460476905018502 0.004747325296904541 0.0019054789356227932 0.0044424004230533944 0.003998670450440933 0.0091426816236083348 0.0021376075664248095 0.002573225829569566 0.0068432592360293922
leaf_weight=756 190 28 13687 148 4087 91 749 231 562 1784 64 32 3206 411 121 642 90 760 582 98 64 64 81 168 59 201 37 1319 48 232
leaf_count=756 190 28 13687 148 4087 91 749 231 562 1784 64 32 3206 411 121 642 90 760 582 98 64 64 81 168 59 201 37 1319 48 232
internal_value=0 0.00745268 -0.00253835 0.0129966 -0.00344155 0.0163095 0.00531052 0.0178304 0.0069863 -6.0205e-05 0.02211 0.0243578 -0.000791584 0.00578125 0.00999461 0.00239247 0.00428962 0.00332138 0.00450413 0.0131564 0.0319792 0.011005 0.0135379 0.00871158 0.00572727 0.0155329 0.0204237 0.00474155 0.0113551 0.0153846
internal_weight=0 6340 24252 1767 17774 840 4573 749 2482 6478 391 327 4990 1920 927 1488 732 2091 1331 358 96 806 383 423 275 319 118 1509 107 260
internal_count=30592 6340 24252 1767 17774 840 4573 749 2482 6478 391 327 4990 1920 927 1488 732 2091 1331 358 96 806 383 423 275 319 118 1509 107 260
is_linear=0
shrinkage=0.05


Tree=6
num_leaves=31
num_cat=0
split_feature=1 9 0 4 0 0 7 9 9 1 7 0 5 0 9 4 0 1 0 7 1 9 1 0 1 1 0 1 0 7
split_gain=71.3911 25.0622 9.26978 6.77738 5.85067 7.38496 5.41318 5.35993 4.99109 3.60172 5.32871 3.17434 2.86124 2.61215 2.2992 2.75701 2.17174 1.91925 1.91863 1.88732 1.76817 1.55728 1.51148 1.61464 1.50061 1.4643 1.38178 1.31844 1.06998 1.26761
threshold=14.500000000000002 17.950000000000003 2.5000000000000004 -0.5 2.5000000000000004 5.5000000000000009 3.1567740231385479 9.7000000000000011 14.300000000000002 22.500000000000004 5.5073599362801708 8.5000000000000018 -0.93301270189221919 11.500000000000002 11.550000000000002 -0.5 6.5000000000000009 22.500000000000004 11.500000000000002 3.4811217321331038 17.500000000000004 18.850000000000005 13.500000000000002 8.5000000000000018 22.500000000000004 22.500000000000004 5.5000000000000009 21.500000000000004 6.5000000000000009 5.4402485097224949
decision_type=2 2 2 2 2 2 2 2 2 2 2 2 2 2 2 2 2 2 2 2 2 2 2 2 2 2 2 2 2 2
left_child=2 4 6 9 8 27 7 -1 -2 10 28 16 21 24 18 -16 19 -18 -4 -7 -10 -5 -17 -24 -13 -23 -12 -6 -3 -30
right_child=1 3 14 12 5 11 -8 -9 20 -11 26 13 -14 -15 15 22 17 -19 -20 -21 -22 25 23 -25 -26 -27 -28 -29 29 -31
leaf_value=-0.00092178651892443897 0.00076018090412003606 0.0039134119549755807 -0.0021511853255231895 0.0017568076676613171 -0.00067539008863859039 0.00085514618048247455 -0.0013458530925452364 0.0018668846254157987 0.0021394924768813636 0.0028420076036162222 -0.0030164449718506382 0.00044565561977214733 0.00064842057792145042 0.0016073604477460639 -0.0024614807330604633 -0.0044303465523733284 0.0046677338004057134 0.0015794341395007209 0.00087617804206113054 0.0048565554104868435 0.0033116436617016153 0.0042883189867291846 -0.0072667493830015258 0.00028010338572908238 -0.0033599236014629414 -0.0011383074664864951 0.0032561133587154494 -0.002594022707861745 0.0060410495655318953 0.0068372347344904444
leaf_weight=361 1084 150 513 231 2044 662 1855 696 404 277 50 1423 645 1101 5970 7340 323 170 428 105 470 513 217 413 486 46 365 984 1096 51
leaf_count=361 1084 150 513 231 2044 662 1855 696 404 277 50 1423 645 1101 5970 7340 323 170 428 105 470 513 217 413 486 46 365 984 1096 51
internal_value=0 0.0023265 -0.00258332 0.00598131 0.000974502 0.000323375 -3.43526e-06 0.00285241 0.00340143 0.00787079 0.00872663 0.00166276 0.00336237 0.00078073 -0.00308817 -0.00324964 0.00376984 0.00635903 -0.000696069 0.00210561 0.00621281 0.00537975 -0.00385822 -0.00150794 -0.000337874 0.0068068 0.00379518 -0.00156539 0.0103045 0.0108239
internal_weight=0 12680 17793 3424 9256 7298 2912 1057 1958 1989 1712 4270 1435 3010 14881 13940 1260 493 941 767 874 790 7970 630 1909 559 415 3028 1297 1147
internal_count=30473 12680 17793 3424 9256 7298 2912 1057 1958 1989 1712 4270 1435 3010 14881 13940 1260 493 941 767 874 790 7970 630 1909 559 415 3028 1297 1147
is_linear=0
shrinkage=0.05


Tree=7
num_leaves=31
num_cat=0
split_feature=6 6 6 6 3 1 7 1 9 3 5 1 9 5 5 5 2 9 3 5 6 6 9 5 3 6 1 7 9 9
split_gain=188.986 32.5799 15.7427 10.3605 5.84729 4.5688 4.87856 4.1167 2.99738 2.63884 3.64805 2.5074 2.09372 1.92152 1.89841 1.82417 2.11482 1.58861 1.99699 1.5366 1.49265 1.48795 3.21842 1.60905 1.6045 1.41204 1.33518 1.23313 1.17108 1.21444
threshold=0.50601333078660693 0.69238303312125538 0.41872241822703199 0.5757132505517597 -0.5 14.500000000000002 4.2835627800822236 8.5000000000000018 16.750000000000004 -0.70710678118654735 0.68301270189221941 5.5000000000000009 18.850000000000005 -0.24999999999999997 -0.5 0.68301270189221941 0.25881904510252057 16.650000000000002 -0.5 -0.24999999999999997 0.47569417425834465 0.6411539359914199 17.950000000000003 -0.6830127018922193 -0.70710678118654735 0.74880291239386587 20.500000000000004 6.0149361578705784 9.1500000000000021 15.550000000000002
decision_type=2 2 2 2 2 2 2 2 2 2 2 2 2 2 2 2 2 2 2 2 2 2 2 2 2 2 2 2 2 2
left_child=2 3 4 9 13 11 8 -4 19 10 12 -3 26 -1 -10 21 -17 -9 20 -7 -19 28 23 -23 -24 -16 -2 -26 -5 -30
right_child=1 5 7 15 -6 6 -8 17 14 -11 -12 -13 -14 -15 25 16 -18 18 -20 -21 -22 22 24 -25 27 -27 -28 -29 29 -31
leaf_value=0.00016609450166527311 0.0020909052472763159 0.0064733185058596342 -0.0017847432052063524 -3.872848597000437e-05 -0.0052047365243630675 -4.0042384693846277e-05 0.0080711911487371304 -0.00060855208869912633 0.0082292203363682447 0.0014513538606864716 0.00068858673628035714 0.0017441343069695759 0.0044019298286458669 -0.0025810673830468163 0.0080894997126963828 0.00082998196297540128 0.0029157603016995081 0.00085976779509287023 -0.00067752901150128751 0.0072130561321526055 0.0028820875047065198 -0.0013322044478016846 0.0064552635173254743 0.0041299061484873101 0.0047971134843446438 0.0096526393430842131 0.0032348485320767813 0.0057733127421325022 0.0033316532734001254 0.0037105528756883333
leaf_weight=1211 628 66 3141 35 12904 22 103 2684 207 1765 309 62 247 1924 51 169 199 1050 1029 161 457 36 149 226 65 54 164 37 390 942
leaf_count=1211 628 66 3141 35 12904 22 103 2684 207 1765 309 62 247 1924 51 169 199 1050 1029 161 457 36 149 226 65 54 164 37 390 942
internal_value=0 0.00730491 -0.00254303 0.00595878 -0.00346 0.0172452 0.0190803 -0.000783998 0.0170202 0.00409091 0.00575668 0.00867187 0.00717517 -0.00152313 0.02 0.00854537 0.00532609 7.66272e-05 0.000973974 0.0119399 0.00213338 0.00917553 0.0114717 0.00759542 0.0155179 0.0254762 0.00592172 0.0106863 0.00831382 0.00855105
internal_weight=0 6087 24400 5361 16039 726 598 8361 495 3113 1348 128 1039 3135 312 2248 368 5220 2536 183 1507 1880 513 262 251 105 792 102 1367 1332
internal_count=30487 6087 24400 5361 16039 726 598 8361 495 3113 1348 128 1039 3135 312 2248 368 5220 2536 183 1507 1880 513 262 251 105 792 102 1367 1332
is_linear=0
shrinkage=0.05


Tree=8
num_leaves=31
num_cat=0
split_feature=1 9 4 0 5 1 1 1 1 9 0 5 0 0 8 0 4 9 9 1 8 9 5 0 8 8 1 8 8 9
split_gain=60.7834 21.5658 6.89623 6.85365 4.86521 3.35262 4.13591 3.11608 2.91242 3.57211 2.65443 2.02507 1.84394 3.80731 2.05251 2.02266 1.74245 2.155 1.47109 1.46642 1.34521 1.33765 1.32583 1.29241 1.26385 1.25347 2.48109 1.23834 1.21672 1.96524
threshold=14.500000000000002 17.950000000000003 -0.5 2.5000000000000004 0.68301270189221941 22.500000000000004 15.500000000000002 22.500000000000004 5.5000000000000009 9.7000000000000011 3.5000000000000004 -0.93301270189221919 9.5000000000000018 6.5000000000000009 86.500000000000014 4.5000000000000009 -0.5 12.100000000000001 13.200000000000001 13.500000000000002 95.000000000000014 14.900000000000002 -0.5 5.5000000000000009 77.500000000000014 85.000000000000014 17.500000000000004 91.500000000000014 64.500000000000014 14.300000000000002
decision_type=2 2 2 2 2 2 2 2 2 2 2 2 2 2 2 2 2 2 2 2 2 2 2 2 2 2 2 2 2 2
left_child=3 4 5 8 7 6 23 12 9 -1 28 27 13 15 -15 18 -5 -18 -2 -19 -11 -14 -9 -3 -8 -17 -27 -4 -6 -30
right_child=1 2 11 16 10 -7 24 22 -10 20 -12 -13 21 14 -16 25 17 19 -20 -21 -22 -23 -24 -25 -26 26 -28 -29 29 -31
leaf_value=-0.00091888452240707639 0.00028262549615166321 -0.002770771097752419 0.002841656721330557 -0.0023347743985298454 -0.0015200271237889992 0.0024088129343003035 0.0039653550545113202 -0.0027441660893796314 -0.0013161548727890406 0.0020953461842968188 -0.0025031474322567992 0.00036501150043091626 0.0019770364575819187 0.0019905392676666184 0.0049848668119907916 3.6676841470442485e-05 -0.0010897795433131693 -0.0042715112386265469 0.0029522847789781974 -0.0015370801358421814 -5.3078805763466172e-07 3.7188097876539092e-05 0.00031229171531597379 0.0030407364357780617 0.0054261423755932493 0.0051370559118934754 0.0010034680607225715 -0.001173449405155095 -0.00062460403346558118 0.0014898038811252006
leaf_weight=365 280 52 720 5915 530 285 426 547 1881 501 929 672 762 268 182 1005 1137 7251 541 649 162 1343 974 300 903 47 295 68 854 568
leaf_count=365 280 52 720 5915 530 285 426 547 1881 501 929 672 762 268 182 1005 1137 7251 541 649 162 1343 974 300 903 47 295 68 854 568
internal_value=0 0.00189188 0.00527437 -0.00264851 0.000621917 0.00720753 0.0080577 0.00140615 -0.000427983 0.00171206 -0.00107775 0.00267123 0.00204002 0.0029259 0.00711111 0.00205719 -0.00308053 -0.00351721 0.0040134 -0.00381013 0.00389894 0.000938241 -0.000562131 0.00323864 0.00933408 0.000864884 0.00347953 0.00439086 -3.07389e-05 0.000731363
internal_weight=0 12551 3426 17861 9125 1966 1681 6244 2909 1028 2881 1460 4723 2618 450 2168 14952 9037 821 7900 663 2105 1521 352 1329 1347 342 788 1952 1422
internal_count=30412 12551 3426 17861 9125 1966 1681 6244 2909 1028 2881 1460 4723 2618 450 2168 14952 9037 821 7900 663 2105 1521 352 1329 1347 342 788 1952 1422
is_linear=0
shrinkage=0.05


Tree=9
num_leaves=31
num_cat=0
split_feature=6 6 6 6 3 4 5 6 3 3 7 6 5 8 7 5 4 8 2 5 7 3 8 3 3 8 6 5 6 4
split_gain=149.644 22.8325 15.3961 8.73493 5.21336 3.51985 3.52969 2.87686 2.71247 2.59344 2.27535 1.75633 1.72229 1.71905 2.23214 1.69397 1.47909 1.27728 2.05792 1.2267 1.7819 1.27388 1.34967 1.50724 1.18081 1.14455 1.09351 1.09301 1.03068 1.00133
threshold=0.50162215986876901 0.69238303312125538 0.38832760695777985 0.57172916210745217 -0.60355339059327362 -0.5 0.25000000000000006 0.45655924939283626 -0.5 -0.37940952255126059 4.9308638091439496 0.54035340289137135 1.0000000180025095e-35 78.500000000000014 4.9522934739897151 -0.24999999999999997 -0.24999999999999994 88.500000000000014 0.78656609248549303 0.68301270189221941 4.5591125415341898 -0.9159756150367534 75.500000000000014 -0.9829629131445341 -0.70710678118654735 80.500000000000014 0.58666180475247109 -0.24999999999999997 0.62295103976927357 -0.68301270189221952
decision_type=2 2 2 2 2 2 2 2 2 2 2 2 2 2 2 2 2 2 2 2 2 2 2 2 2 2 2 2 2 2
left_child=2 3 9 11 -4 6 8 -6 10 15 -3 -2 16 14 -7 -1 -13 25 -19 21 24 22 -5 27 -21 -14 29 -24 -29 -23
right_child=1 5 4 19 7 13 -8 -9 -10 -11 -12 12 17 -15 -16 -17 -18 18 -20 20 -22 26 23 -25 -26 -27 -28 28 -30 -31
leaf_value=-0.00036547656698094315 0.0013395740670154718 0.0072997196281446783 0.00028071575237872775 0.0033805558342854571 -0.0022613939533297624 0.0075619627642607122 0.0048919692343302552 -0.00031174136038797959 0.0064487847889514623 -0.0056734307446894283 0.0072099589552426253 0.0043157145930938614 0.0012854120341205819 0.0051323799649814102 0.0018234623171297503 -0.0038489956825788437 0.0018820609066555014 0.0016435984615764032 0.0031836255125998491 0.0022138315795049868 -0.004474389724757658 0.0010179705461765725 0.0025361688277673379 0.0048422369676659419 0.0016957964031525754 -0.00069956242807601022 0.0038288524480811306 0.013783751797583245 0.0031225021622249757 0.0021356350437024096
leaf_weight=807 2025 214 4002 113 5117 96 40 2235 75 10235 61 230 285 189 30 1756 346 131 49 174 41 101 83 286 185 164 1130 21 23 218
leaf_count=807 2025 214 4002 113 5117 96 40 2235 75 10235 61 230 285 189 30 1756 346 131 49 174 41 101 83 286 185 164 1130 21 23 218
internal_value=0 0.00616482 -0.00248261 0.00509813 -0.00114233 0.0146454 0.0178205 -0.00193281 0.0194286 -0.00367167 0.0217273 0.00340557 0.00491701 0.0107143 0.0152381 -0.00224932 0.00689236 0.00310811 0.00666667 0.0074 0.004875 0.00791139 0.010019 0.0113438 0.00600278 0.00168151 0.00714631 0.00681102 0.0131818 0.00456113
internal_weight=0 6310 24152 5605 11354 705 390 7352 350 12798 275 3230 1205 315 126 2563 576 629 180 2375 400 1975 526 413 359 449 1449 127 44 319
internal_count=30462 6310 24152 5605 11354 705 390 7352 350 12798 275 3230 1205 315 126 2563 576 629 180 2375 400 1975 526 413 359 449 1449 127 44 319
is_linear=0
shrinkage=0.05


Tree=10
num_leaves=31
num_cat=0
split_feature=6 6 6 3 5 6 0 3 7 9 1 9 6 3 9 6 6 6 3 5 0 9 9 0 9 0 7 0 0 3
split_gain=137.271 24.0945 12.17 7.482 5.88238 4.96124 3.13418 3.36784 5.38457 3.10778 2.66033 2.39458 2.21079 1.59347 2.18176 1.57059 1.55429 1.4463 1.51939 1.97575 1.2898 1.99324 1.69007 1.2658 1.22932 1.20403 1.18555 1.16435 1.41592 1.49521
threshold=0.54035340289137135 0.42296649316919038 0.65732975861633447 -0.60355339059327362 0.68301270189221941 0.47454455194601286 8.5000000000000018 -0.5 4.2835627800822236 12.750000000000002 8.5000000000000018 19.900000000000002 0.39745191019141307 -0.25881904510252113 16.050000000000004 0.70695303259335296 0.74880291239386587 0.60266866672888642 -0.78656609248549292 0.68301270189221941 9.5000000000000018 11.550000000000002 11.000000000000002 2.5000000000000004 20.550000000000004 2.5000000000000004 1.2424533248940004 9.5000000000000018 6.5000000000000009 -0.12940952255126048
decision_type=2 2 2 2 2 2 2 2 2 2 2 2 2 2 2 2 2 2 2 2 2 2 2 2 2 2 2 2 2 2
left_child=1 3 17 12 6 10 7 8 16 -8 24 -11 -1 14 -7 -10 26 18 19 -2 22 -22 -19 -14 -3 -5 -4 28 -12 -30
right_child=2 5 4 25 -6 13 9 -9 15 11 27 -13 23 -15 -16 -17 -18 20 -20 -21 21 -23 -24 -25 -26 -27 -28 -29 29 -31
leaf_value=-0.0016092261346079219 0.0036151445986828436 -0.0017784644614116411 0.0051675889318541952 -0.0024635420688077091 0.0029009761654203211 0.00028344103294354654 0.0043877596897333596 0.0050555568023870371 0.0057041649666598367 0.0025095352411611373 -0.00014451814062567766 0.0061902961596248642 0.0050581651169015283 6.0735337151418648e-05 0.0024667613156403203 0.0069873172259540435 0.0085298516344641858 -0.00054649534650411482 0.0016442178211127378 0.00083445713007238335 0.0045175774410037171 0.0018651483448735462 0.0041578142894075068 0.00045378999800280883 0.0038023409421970057 -0.0046913692194359598 0.0013264408629705016 -0.0014680355375262209 0.0033155102648189621 -0.00080165329755370416
leaf_weight=2077 654 2134 197 1764 148 1072 22 203 49 207 1652 35 88 1718 1229 75 157 36 1298 164 28 183 805 734 81 11963 24 1082 502 176
leaf_count=2077 654 2134 197 1764 148 1072 22 203 49 207 1652 35 88 1718 1229 75 157 36 1298 164 28 183 805 734 81 11963 24 1082 502 176
internal_value=0 -0.00208435 0.00756709 -0.0032377 0.0120546 -9.64142e-05 0.0134727 0.0152128 0.0174104 0.00882576 -0.00105474 0.00719008 -0.000929632 0.00124533 0.00210561 0.0264516 0.0144444 0.00598485 0.00523157 0.00691931 0.0075 0.00400474 0.00837693 0.00126521 -0.00240406 -0.00372514 0.0117421 -0.000178782 0.000450643 0.00237463
internal_weight=0 26272 4285 16626 1117 9646 969 705 502 264 5627 242 2899 4019 2301 124 378 3168 2116 818 1052 211 841 822 2215 13727 221 3412 2330 678
internal_count=30557 26272 4285 16626 1117 9646 969 705 502 264 5627 242 2899 4019 2301 124 378 3168 2116 818 1052 211 841 822 2215 13727 221 3412 2330 678
is_linear=0
shrinkage=0.05


Tree=11
num_leaves=31
num_cat=0
split_feature=6 6 6 9 6 1 1 0 7 1 0 5 5 5 6 1 7 7 8 7 0 9 8 8 9 8 0 8 8 1
split_gain=110.098 20.2035 14.4951 5.91867 5.40741 4.82291 4.40647 4.35971 3.06622 2.42732 2.16727 2.05751 1.98232 1.93396 1.87325 1.699 1.68253 2.11328 1.48514 1.46019 1.43468 1.36644 1.34312 1.73628 1.28649 1.40957 2.1184 1.57347 1.21108 1.23454
threshold=0.50601333078660693 0.70695303259335296 0.41872241822703199 16.650000000000002 0.54035340289137135 13.500000000000002 13.500000000000002 9.5000000000000018 4.2835627800822236 13.500000000000002 2.5000000000000004 0.68301270189221941 -0.6830127018922193 -0.5 0.62295103976927357 23.500000000000004 3.0201273556387074 2.602003343538398 91.500000000000014 5.3494828320967684 5.5000000000000009 19.900000000000002 72.500000000000014 74.500000000000014 13.550000000000002 50.500000000000007 9.5000000000000018 64.500000000000014 75.500000000000014 18.500000000000004
decision_type=2 2 2 2 2 2 2 2 2 2 2 2 2 2 2 2 2 2 2 2 2 2 2 2 2 2 2 2 2 2
left_child=2 4 6 10 -2 -5 -1 8 28 13 -3 14 15 -4 19 18 17 -13 22 24 -8 -21 -11 -24 -6 26 -26 -27 -7 -30
right_child=1 3 9 5 11 7 20 -9 -10 12 -12 16 -14 -15 -16 -17 -18 -19 -20 21 -22 -23 23 -25 25 27 -28 -29 29 -31
leaf_value=-0.0044126132182461105 0.0010689035038471616 0.0064138019917388727 -0.0023053392560407611 0.00051018592940432208 0.00099894844927616135 0.005007947070374736 -0.0033452710163700003 0.0032694704787229151 0.0067915294011641827 0.00024657339451397052 0.0014415036250516448 0.001322741222670912 -0.00025042466488219993 -0.00055169270976445273 0.0034254997287623012 -0.0033719997547815277 -0.0019838605840879616 0.0044108804884735358 -0.0020159458016648312 -0.0013829556924242646 -0.0011045178733278815 0.0033915150867571704 0.0093864112595008556 0.0026203063434363408 0.0044791557088177661 -0.00013650638620252967 0.0024124290232531826 0.0030213946328613854 0.010429700403745272 0.0070103728733867101
leaf_weight=11034 1813 83 1245 37 443 29 2223 31 76 204 94 510 3601 2422 885 139 120 20 120 122 2674 198 41 608 25 54 26 1266 62 159
leaf_count=11034 1813 83 1245 37 443 29 2223 31 76 204 94 510 3601 2422 885 139 120 20 120 122 2674 198 41 608 25 54 26 1266 62 159
internal_value=0 0.00522633 -0.00230986 0.0141769 0.00429405 0.0175888 -0.00319534 0.0193697 0.0210736 -0.000626493 0.00658192 0.00539793 0.000124124 -0.00159122 0.00594733 0.00196942 0.00284615 0.0040566 0.00270812 0.00514527 -0.00194711 0.00203125 0.0034408 0.00455316 0.0056946 0.00645149 0.0146078 0.00613636 0.0184 0.0196606
internal_weight=0 6053 24311 571 5482 394 15931 357 326 8380 177 3669 4713 3667 3019 1112 650 530 973 2134 4897 320 853 649 1814 1371 51 1320 250 221
internal_count=30364 6053 24311 571 5482 394 15931 357 326 8380 177 3669 4713 3667 3019 1112 650 530 973 2134 4897 320 853 649 1814 1371 51 1320 250 221
is_linear=0
shrinkage=0.05


Tree=12
num_leaves=31
num_cat=0
split_feature=6 6 6 6 3 3 0 0 0 3 7 4 3 4 6 5 0 3 6 4 6 1 0 6 1 5 0 5 7 1
split_gain=107.767 16.6451 14.5384 6.74261 4.843 3.49035 3.13518 4.29845 3.32418 2.94909 3.88161 2.14393 2.10244 1.70201 1.5845 1.56751 1.54418 1.61147 1.22992 1.17942 1.14698 1.20896 1.13846 1.09513 1.06509 0.994714 1.14729 0.981445 1.10126 1.03165
threshold=0.50162215986876901 0.70695303259335296 0.41872241822703199 0.58666180475247109 -0.37940952255126059 -0.25881904510252113 9.5000000000000018 5.5000000000000009 1.5000000000000002 -0.12940952255126048 4.2835627800822236 -0.5 -0.5 -0.5 0.54035340289137135 -0.5 5.5000000000000009 -0.9829629131445341 0.20053157608997677 -0.24999999999999994 0.8161292551714282 21.500000000000004 2.5000000000000004 0.33651371049293305 17.500000000000004 -0.24999999999999997 9.5000000000000018 0.68301270189221941 5.3821962081647756 21.500000000000004
decision_type=2 2 2 2 2 2 2 2 2 2 2 2 2 2 2 2 2 2 2 2 2 2 2 2 2 2 2 2 2 2
left_child=2 3 4 14 23 11 7 8 24 10 20 -4 13 16 -2 -7 -5 -18 -6 -15 21 -9 -20 -1 -3 26 -21 28 29 -16
right_child=1 6 5 12 18 15 -8 9 -10 -11 -12 -13 -14 19 27 -17 17 -19 22 25 -22 -23 -24 -25 -26 -27 -28 -29 -30 -31
leaf_value=-0.0035042681399318782 0.0011070384305620845 0.0076603884490570907 0.0020049305958898703 0.0019393350167598836 -0.008998754314683775 -0.0024049693418688161 0.0020360137121858452 0.0048919076651232369 0.0030762745239554003 0.0031577981628866606 0.006687708876299295 -0.00011969381281549864 0.0017419991863605506 -0.0034173286607182898 0.0024896608582020458 -0.00082245456948312062 0.0019641816780040901 0.0051637046931779168 -0.0017227604793125962 0.0052256948382325558 0.008955616376855444 0.0073756969279643973 -0.0040009556580491564 -0.0010421516062975628 0.0086232202724684411 0.0026616189840149092 0.0013629505086371525 0.00046428854049888901 0.0006344262230226598 0.00096416424855452494
leaf_weight=913 2040 31 1060 48 2753 1380 65 133 104 47 75 3006 749 23 963 2641 58 467 1327 123 57 53 8058 2967 25 393 135 330 187 194
leaf_count=913 2040 31 1060 48 2753 1380 65 133 104 47 75 3006 749 23 963 2641 58 467 1327 123 57 53 8058 2967 25 393 135 330 187 194
internal_value=0 0.00505555 -0.00228895 0.00422942 -0.00316144 -0.000560778 0.0130508 0.0143333 0.0075 0.0173288 0.0190566 0.000472207 0.00657315 0.00783079 0.00296984 -0.00160532 0.0098342 0.010619 -0.00365299 0.0061276 0.0159877 0.014086 -0.0033804 -0.00162371 0.0173214 0.00652074 0.00410853 0.00410992 0.00470982 0.00528522
internal_weight=0 6300 24105 5710 16018 8087 590 525 160 365 318 4066 1996 1247 3714 4021 573 525 12138 674 243 186 9385 3880 56 651 258 1674 1344 1157
internal_count=30405 6300 24105 5710 16018 8087 590 525 160 365 318 4066 1996 1247 3714 4021 573 525 12138 674 243 186 9385 3880 56 651 258 1674 1344 1157
is_linear=0
shrinkage=0.05


Tree=13
num_leaves=31
num_cat=0
split_feature=6 6 3 9 0 6 6 6 8 3 7 0 9 6 0 8 9 6 8 0 9 9 8 7 6 9 9 9 7 5
split_gain=98.5515 18.6562 11.7517 4.73646 4.12766 4.06228 3.3574 2.96745 2.38902 2.0707 3.86762 1.94778 1.78769 1.68087 1.60499 1.43202 1.37375 1.26642 1.2556 1.18 1.53542 1.21214 1.16621 1.09629 1.03876 1.40681 1.2362 1.40447 1.03621 0.978036
threshold=0.49108221369415739 0.65732975861633447 -0.25881904510252113 18.200000000000006 1.5000000000000002 0.58666180475247109 0.38102838114362336 0.31562303624635041 73.500000000000014 -0.37940952255126059 5.3636340903656388 2.5000000000000004 16.050000000000004 0.8161292551714282 9.5000000000000018 44.500000000000007 17.950000000000003 0.69238303312125538 86.500000000000014 5.5000000000000009 12.750000000000002 16.950000000000003 42.500000000000007 1.0000000180025095e-35 0.53767700048992151 18.050000000000004 11.850000000000001 11.250000000000002 5.3821962081647756 -0.24999999999999997
decision_type=2 2 2 2 2 2 2 2 2 2 2 2 2 2 2 2 2 2 2 2 2 2 2 2 2 2 2 2 2 2
left_child=2 5 6 4 8 24 29 -4 -3 10 13 12 -9 -5 -7 -14 -8 -12 -17 -6 -21 -22 -18 -16 25 26 27 -2 -26 -1
right_child=1 3 7 9 19 14 16 11 -10 -11 17 -13 15 -15 23 18 22 -19 -20 20 21 -23 -24 -25 28 -27 -28 -29 -30 -31
leaf_value=-0.00081949467771287414 0.00087981902341916244 0.0069308370942119338 -0.0065741368411485314 0.0048942929126469794 0.001979903754450341 0.0027262614988717805 -0.00054106836527835782 -0.0015142993689578833 0.0080737162343599879 0.0046507989626626035 0.0047400400853319221 -0.0024698606007916412 -0.0033692613207610246 0.0087674482713006371 0.001643554517745877 0.0028844053213327426 -0.0037734408763078469 0.0060732495324234701 -0.0033304296115027419 0.0038901118518027463 0.0015165618291403512 0.0035489690308528805 0.0010951016669969445 -0.0014330691365141051 0.0018380160746452297 0.002172021316979497 0.00033822605208911369 0.0021071306650921108 0.00032579427613035699 -0.004012742603673668
leaf_weight=798 281 43 5678 285 187 1249 4116 1200 69 94 26 8212 121 42 245 174 102 55 37 22 120 155 1396 66 1548 688 1569 97 235 1671
leaf_count=798 281 43 5678 285 187 1249 4116 1200 69 94 26 8212 121 42 245 174 102 55 37 22 120 155 1396 66 1548 688 1569 97 235 1671
internal_value=0 0.00435557 -0.00237503 0.0103461 0.00733221 0.00325527 -0.000830757 -0.00318441 0.0159821 0.0139243 0.0154657 -0.00265497 -0.00101828 0.0130428 0.00544872 0.00222891 -0.000154971 0.0252469 0.00471564 0.00533058 0.00728956 0.00627273 0.00114152 0.00223473 0.00248076 0.00185009 0.00116333 0.00373016 0.00341279 -0.00236736
internal_weight=0 7076 23505 1098 596 5978 8083 15422 112 502 408 9744 1532 327 1560 332 5614 81 211 484 297 275 1498 311 4418 2635 1947 378 1783 2469
internal_count=30581 7076 23505 1098 596 5978 8083 15422 112 502 408 9744 1532 327 1560 332 5614 81 211 484 297 275 1498 311 4418 2635 1947 378 1783 2469
is_linear=0
shrinkage=0.05


Tree=14
num_leaves=31
num_cat=0
split_feature=3 5 0 0 0 1 0 0 8 0 7 8 5 0 0 7 1 8 3 3 0 8 7 0 8 1 0 8 1 8
split_gain=45.1035 7.73996 5.09609 4.5349 4.89467 3.86718 3.07345 2.1431 2.11585 2.1025 2.00908 1.91599 1.53699 2.26282 1.52841 1.4746 2.16479 1.31919 1.29395 1.13612 1.07111 1.02464 0.98377 0.925155 0.852214 0.834711 0.800665 1.10193 0.967427 0.791058
threshold=-0.5 0.68301270189221941 2.5000000000000004 9.5000000000000018 6.5000000000000009 13.500000000000002 5.5000000000000009 3.5000000000000004 71.500000000000014 8.5000000000000018 3.4811217321331038 52.500000000000007 -0.5 4.5000000000000009 9.5000000000000018 5.3636340903656388 10.500000000000002 37.500000000000007 -0.9829629131445341 -0.78656609248549292 9.5000000000000018 85.000000000000014 6.5854815236201967 11.500000000000002 47.500000000000007 18.500000000000004 2.5000000000000004 83.500000000000014 21.500000000000004 26.500000000000004
decision_type=2 2 2 2 2 2 2 2 2 2 2 2 2 2 2 2 2 2 2 2 2 2 2 2 2 2 2 2 2 2
left_child=1 3 10 4 11 12 -7 8 -3 18 -2 24 20 15 -8 16 -14 -5 -6 -20 -4 -15 -12 -16 -1 -10 27 28 -27 -22
right_child=2 7 5 17 9 6 14 -9 25 -11 22 -13 13 21 23 -17 -18 -19 19 -21 29 -23 -24 -25 -26 26 -28 -29 -30 -31
leaf_value=0.00050429171000401958 0.00036363720278497077 -0.0012262717909196238 -0.0024938270091270026 -0.0035087198223803491 0.0022943099895065635 -0.002881478550708368 0.00075712430621193414 -0.0021318537815309892 0.0017200939445660857 0.0018810412630874008 -0.0011163331734854538 0.0011923344898203466 -0.0016874817634069011 -0.001657870164030052 -0.0022394150473374753 -0.0069282628369416958 0.0083227982030514378 0.0010368624538970787 0.0043620159793319466 0.0036034416624665336 -0.0017329405336437198 -0.00020710327367058688 0.0028174549010828807 0.00042471346678585212 0.0056085620857404444 0.0023546435974528073 -0.0010881351602106031 0.00069054989811700356 0.010359805380893558 -0.0038167713763172743
leaf_weight=71 1488 592 2722 133 204 964 1259 833 497 823 1866 2457 1270 4782 591 1511 22 2468 860 658 193 805 21 336 61 39 294 199 20 2633
leaf_count=71 1488 592 2722 133 204 964 1259 833 497 823 1866 2457 1270 4782 591 1511 22 2468 860 658 193 805 21 336 61 39 294 199 20 2633
internal_value=0 0.00190077 -0.00216806 0.00267938 0.0035411 -0.00251873 -0.000936509 -0.00053355 0.000514929 0.00509823 -0.000392594 0.00201043 -0.00287631 -0.00244935 0.000100639 -0.00360863 -0.00236842 0.000978469 0.00609175 0.0065942 -0.00352199 -0.00186773 -0.00147589 -0.00144013 0.00787879 0.00186368 0.000525361 0.00255814 0.00855932 -0.00420382
internal_weight=0 10209 20463 7735 5134 17088 3150 2474 1641 2545 3375 2589 13938 8390 2186 2803 1292 2601 1722 1518 5548 5587 1887 927 132 1049 552 258 59 2826
internal_count=30672 10209 20463 7735 5134 17088 3150 2474 1641 2545 3375 2589 13938 8390 2186 2803 1292 2601 1722 1518 5548 5587 1887 927 132 1049 552 258 59 2826
is_linear=0
shrinkage=0.05


Tree=15
num_leaves=31
num_cat=0
split_feature=6 6 6 6 9 1 7 6 1 1 0 1 0 9 7 1 4 7 0 1 0 4 9 7 4 1 4 4 4 6
split_gain=75.2763 15.4404 13.0437 3.83954 3.72219 2.93617 2.38403 2.23274 2.14124 1.56515 1.4733 1.40363 1.31893 1.29102 1.21046 1.63567 1.30895 1.17324 1.21589 1.08497 1.5449 1.05907 1.05352 1.01674 1.04206 2.76932 2.59338 1.14599 0.917445 1.40187
threshold=0.52318478452219253 0.38724906167075063 0.70695303259335296 0.4733683115201619 17.650000000000002 14.500000000000002 4.2835627800822236 0.20053157608997677 9.5000000000000018 12.500000000000002 8.5000000000000018 15.500000000000002 9.5000000000000018 21.200000000000006 6.8018388988979668 4.5000000000000009 -0.68301270189221952 6.612712626606327 6.5000000000000009 22.500000000000004 2.5000000000000004 -0.9330127018922193 21.050000000000004 4.5900436644025815 -0.68301270189221952 17.500000000000004 -0.5 0.25000000000000017 0.25000000000000017 0.54574048896314509
decision_type=2 2 2 2 2 2 2 2 2 2 2 2 2 2 2 2 2 2 2 2 2 2 2 2 2 2 2 2 2 2
left_child=1 7 11 8 19 -6 10 -1 12 -9 -7 14 -3 23 15 28 17 18 -17 20 -4 -22 -20 24 25 -13 -26 -28 29 -2
right_child=2 3 4 -5 5 6 -8 9 -10 -11 -12 13 -14 -15 -16 16 -18 -19 22 -21 21 -23 -24 -25 26 -27 27 -29 -30 -31
leaf_value=-0.0075559079963786052 -0.00082426554335401003 -0.0011999234337622883 0.0058363608232536324 0.00056719526592581158 0.0025365723950789682 0.0066345749123662761 0.0057746956805379739 -0.0037657958365862479 -0.00053044812982848042 -0.0022464562670797667 0.0038448583965894319 0.005598360510785964 -0.0020522448820063329 0.0057784349284968521 0.0046025941560129445 0.0015574628428942747 5.3641471868964691e-06 -0.00090218125650061518 0.0060873798543242472 0.0059369073153678568 0.0055666783387034492 0.0013078068965767958 0.0023155109516280357 0.0036089104792864633 0.0064265527266859765 0.0007101588289124709 0.0011590128524078301 0.0019316481150501935 0.0018371982144954468 0.0026348696060246365
leaf_weight=3012 77 2695 74 3399 40 164 68 6063 5686 3614 62 117 1045 27 53 99 688 30 55 28 22 127 54 136 286 582 476 1232 414 188
leaf_count=3012 77 2695 74 3399 40 164 68 6063 5686 3614 62 117 1045 27 53 99 688 30 55 28 22 127 54 136 286 582 476 1232 414 188
internal_value=0 -0.00192718 0.0047274 -0.000703705 0.0117521 0.0152096 0.0169388 -0.00316377 -0.00122321 -0.00279374 0.014469 0.00381701 -0.00215241 0.00448879 0.00265983 0.00241433 0.00104752 0.0042437 0.00557692 0.00715139 0.00598655 0.00305369 0.00922018 0.00438494 0.00417193 0.00251073 0.00475426 0.00401639 0.00427835 0.00198113
internal_weight=0 25514 5099 12825 585 334 294 12689 9426 9677 226 4514 3740 2856 1658 1605 926 238 208 251 223 149 109 2829 2693 699 1994 1708 679 265
internal_count=30613 25514 5099 12825 585 334 294 12689 9426 9677 226 4514 3740 2856 1658 1605 926 238 208 251 223 149 109 2829 2693 699 1994 1708 679 265
is_linear=0
shrinkage=0.05


Tree=16
num_leaves=31
num_cat=0
split_feature=3 5 4 4 7 5 4 9 9 3 5 3 8 5 4 5 4 4 8 9 3 9 8 3 2 7 7 7 9 8
split_gain=33.7265 6.95486 6.35008 4.24972 3.63353 2.71891 3.32562 2.13766 2.11485 1.95607 1.7771 1.65771 1.58684 1.52143 1.38049 2.15259 1.32511 1.2631 1.41202 1.14798 1.06739 1.04419 1.01202 0.993402 0.943187 0.897031 0.838841 0.825858 0.787917 0.700841
threshold=-0.5 0.25000000000000006 -0.24999999999999994 0.25000000000000017 1.4978661367769959 -0.5 0.25000000000000017 13.200000000000001 9.7000000000000011 -0.9829629131445341 0.25000000000000006 -0.25881904510252113 46.500000000000007 -0.5 0.25000000000000017 1.0000000180025095e-35 0.25000000000000017 -0.9330127018922193 80.500000000000014 17.950000000000003 -0.12940952255126048 10.300000000000002 49.500000000000007 -0.78656609248549292 -0.12940952255126034 3.5408542930527878 4.6200466650627661 6.0946971662386806 19.900000000000002 71.500000000000014
decision_type=2 2 2 2 2 2 2 2 2 2 2 2 2 2 2 2 2 2 2 2 2 2 2 2 2 2 2 2 2 2
left_child=1 2 9 -3 5 16 10 -5 -8 19 -7 28 -4 -13 15 -15 20 18 25 -1 -2 -18 -14 -19 -9 -11 29 -25 -6 -17
right_child=4 3 12 7 11 6 8 24 -10 17 -12 13 22 14 -16 26 21 23 -20 -21 -22 -23 -24 27 -26 -27 -28 -29 -30 -31
leaf_value=-0.00096383790486256676 0.0031575832915104285 -0.0010043288675836357 -0.0027797509957144077 -0.00047987185957199235 -0.0013557488108674155 -1.5883397818117166e-05 -0.00083244856551427545 0.0014842517509307228 0.00085353358965146097 -0.0011916056932780199 -0.0022224922241530108 -0.0033474787583842227 0.0046314080306965296 -0.00051918908855472874 -0.001062049872289235 0.00093383746672546153 0.001236235740171128 0.0035425502604509961 0.0019726536340095159 0.0029848841429721304 -0.0011595298011939455 -0.0029638931487521863 0.0010528164641614023 0.0030330502473439325 0.001992191232704635 0.0020566787026518639 -0.0044840334010504048 0.0038666147831200241 0.00039113840165086016 -0.002054471378856323
leaf_weight=124 198 2601 232 528 784 1101 541 532 1560 78 1689 4000 24 1084 2634 96 67 876 487 196 881 1234 3168 630 602 152 3602 21 487 562
leaf_count=124 198 2601 232 528 784 1101 541 532 1560 78 1689 4000 24 1084 2634 96 67 876 487 196 881 1234 3168 630 602 152 3602 21 487 562
internal_value=0 0.00145791 0.00255678 -8.56216e-05 -0.00205409 -0.00115596 -0.000481498 0.00188929 0.00102094 0.00443838 -0.0016129 -0.00254699 0.00114778 -0.00272917 -0.00233016 -0.00279192 -0.00254202 0.00495989 0.00322873 0.000781249 -0.00124653 -0.00361645 0.00143797 0.00577276 0.00311287 -1.19209e-09 -0.00329812 0.00429339 -0.000830056 -0.00165654
internal_weight=0 10251 5988 4263 20520 7271 4891 1662 2101 2564 2790 13249 3424 11978 7978 5344 2380 2244 717 320 1079 1301 3192 1527 1134 230 4260 651 1271 658
internal_count=30771 10251 5988 4263 20520 7271 4891 1662 2101 2564 2790 13249 3424 11978 7978 5344 2380 2244 717 320 1079 1301 3192 1527 1134 230 4260 651 1271 658
is_linear=0
shrinkage=0.05


Tree=17
num_leaves=31
num_cat=0
split_feature=6 6 6 6 3 1 0 0 2 0 4 0 1 4 0 6 4 3 0 6 7 0 0 1 3 0 7 7 7 0
split_gain=69.3114 14.6234 11.5583 5.04724 3.39764 3.17377 2.76694 2.31155 3.38905 3.34784 2.04343 2.18052 1.71258 1.37403 1.21039 1.15202 1.09264 1.01285 1.28205 1.2217 0.956475 0.917486 0.908106 1.29951 0.889553 0.881194 0.862943 1.43449 2.31994 0.835715
threshold=0.48946143145305138 0.70695303259335296 0.39986322025438475 0.5684584539297397 -0.37940952255126059 5.5000000000000009 9.5000000000000018 5.5000000000000009 -0.12940952255126034 1.5000000000000002 -0.5 5.5000000000000009 21.500000000000004 0.6830127018922193 2.5000000000000004 0.58666180475247109 -0.5 -0.60355339059327362 2.5000000000000004 0.4665546868506652 0.89587973461402759 6.5000000000000009 6.5000000000000009 16.500000000000004 -0.9829629131445341 9.5000000000000018 6.696416582362489 6.0509113120781883 5.4701654074033046 2.5000000000000004
decision_type=2 2 2 2 2 2 2 2 2 2 2 2 2 2 2 2 2 2 2 2 2 2 2 2 2 2 2 2 2 2
left_child=2 3 4 22 21 29 7 9 -9 -3 11 20 -10 -12 -6 -13 24 -18 19 -19 -5 -1 -2 25 -7 -24 27 28 -17 -4
right_child=1 6 5 10 14 16 -8 8 12 -11 13 15 -14 -15 -16 26 17 18 -20 -21 -22 -23 23 -25 -26 -27 -28 -29 -30 -31
leaf_value=-0.0023069035010713159 0.00040055675284566812 0.0064928843991271697 0.00018775791900394918 -0.0011936988922992232 -0.0020816736122132324 -0.0022911055590781569 0.0007011220046521388 0.0055907705129677769 0.0045755002226300218 0.0023646848870415987 0.00095373428174770874 0.0026986009136261242 0.0064730061747562077 0.0018026116742542479 -0.004219619566198588 0.0042994143728111315 0.00017888181530399211 -0.00042931521443528853 -0.0017237189138160384 0.0031640972353045057 0.0022729361489807007 -0.00036892246752964205 0.0018711053419232444 0.0022181183208603568 0.00080353945340075989 -6.7285023306864824e-05 0.0057958036001932514 0.0008472186702697626 0.0033482849925871015 -0.0014374556149480114
leaf_weight=1845 2007 63 371 63 1377 166 73 141 139 103 782 172 82 791 9416 585 2299 447 1690 116 70 1293 479 976 1681 507 22 74 59 2611
leaf_count=1845 2007 63 371 63 1377 166 73 141 139 103 782 172 82 791 9416 585 2299 447 1690 116 70 1293 479 976 1681 507 22 74 59 2611
internal_value=0 0.00350723 -0.00210879 0.00282602 -0.0030224 -0.000752053 0.0109734 0.0122348 0.0144751 0.0073494 0.00453017 0.00624402 0.0106109 0.00339161 -0.00344344 0.00711623 -0.000124239 -0.000540423 -0.00129383 0.000772645 0.000263157 -0.00157425 0.00170194 0.00246687 0.000901461 0.00118661 0.00797297 0.00767409 0.00843168 -0.00209926
internal_weight=0 7188 23312 6587 13931 9381 601 528 362 166 2618 1045 221 1573 10793 912 6399 4552 2253 563 133 3138 3969 1962 1847 986 740 718 644 2982
internal_count=30500 7188 23312 6587 13931 9381 601 528 362 166 2618 1045 221 1573 10793 912 6399 4552 2253 563 133 3138 3969 1962 1847 986 740 718 644 2982
is_linear=0
shrinkage=0.05


Tree=18
num_leaves=31
num_cat=0
split_feature=3 9 0 4 4 0 1 5 0 8 8 8 5 9 5 1 9 8 1 0 9 8 9 8 1 3 9 8 8 8
split_gain=29.2505 7.47401 5.27432 3.28996 2.91822 2.57976 2.4997 1.81149 1.88665 1.71079 3.84093 1.43326 1.3327 1.30861 1.29614 1.47636 1.18329 1.17475 1.14173 1.09893 1.05745 0.999427 1.09992 0.958704 1.35136 0.819363 0.79643 0.767429 0.773237 1.05942
threshold=-0.5 17.950000000000003 2.5000000000000004 -0.5 -0.5 11.500000000000002 13.500000000000002 0.68301270189221941 3.5000000000000004 46.500000000000007 57.500000000000007 82.500000000000014 -0.93301270189221919 10.300000000000002 -0.93301270189221919 13.500000000000002 9.7000000000000011 80.500000000000014 5.5000000000000009 5.5000000000000009 14.900000000000002 86.500000000000014 14.300000000000002 86.500000000000014 15.500000000000002 -0.9159756150367534 15.350000000000001 37.500000000000007 52.500000000000007 47.500000000000007
decision_type=2 2 2 2 2 2 2 2 2 2 2 2 2 2 2 2 2 2 2 2 2 2 2 2 2 2 2 2 2 2
left_child=1 7 9 6 23 14 -4 27 25 -2 -11 -7 17 -13 15 -5 -12 -6 21 20 -8 22 -18 24 -3 -9 -10 -1 29 -29
right_child=2 4 3 5 12 11 19 8 26 10 16 13 -14 -15 -16 -17 18 -19 -20 -21 -22 -23 -24 -25 -26 -27 -28 28 -30 -31
leaf_value=-0.0030308019660120265 -0.0023100482835658881 0.0012548882646672421 -0.0016675150934653271 -0.0025350532182865596 0.0030364526923026417 -0.00083119245984704198 0.0022850134032099826 0.001099002519721797 -0.0022712432800536769 0.0021457022742720107 -0.0011945322418975232 0.0020213346027170187 -8.7614134503456419e-05 -0.00034833254851966981 -0.003075053949400163 0.001109109848801409 0.0025990807317973139 0.0009754469776170543 -0.00029876333571345005 0.00085596208620756305 -0.001927663557406888 0.00024357570205579615 0.0045947067348206883 0.0019004322688889023 0.003714079327485722 -0.00039287100197520303 -0.00018537468323610436 0.00052174110769292743 0.00071051201399798588 0.0031909934040953037
leaf_weight=68 407 341 5507 1347 301 1345 36 591 535 360 468 100 577 288 6824 321 180 444 1562 984 295 331 22 223 1148 965 219 133 4536 97
leaf_count=68 407 341 5507 1347 301 1345 36 591 535 360 468 100 577 288 6824 321 180 444 1562 984 295 331 22 223 1148 965 219 133 4536 97
internal_value=0 0.00134211 -0.00194018 -0.00229571 0.00342122 -0.00286308 -0.00144533 0.000459125 -0.000692642 -0.000120121 0.00030277 -0.00110502 0.00165658 0.00157216 -0.00322186 -0.00197242 -0.000376513 0.00305369 0.000131264 0.000513307 -0.00197885 0.00212945 0.00490099 0.00478388 0.00524177 0.000302055 -0.00274536 0.00100951 0.00108477 0.00391304
internal_weight=0 10178 20377 17047 3034 10225 6822 7144 2310 3330 2923 1733 1322 388 8492 1668 2563 745 2095 1315 331 533 202 1712 1489 1556 754 4834 4766 230
internal_count=30555 10178 20377 17047 3034 10225 6822 7144 2310 3330 2923 1733 1322 388 8492 1668 2563 745 2095 1315 331 533 202 1712 1489 1556 754 4834 4766 230
is_linear=0
shrinkage=0.05


Tree=19
num_leaves=31
num_cat=0
split_feature=6 6 6 3 6 0 2 3 1 6 2 6 5 3 0 5 8 1 0 6 8 5 8 1 8 2 6 1 8 2
split_gain=63.401 12.7043 11.5285 3.44436 2.63497 2.44208 2.44579 2.39191 2.27627 2.05692 1.76462 1.64858 1.63293 1.46914 1.15861 1.09722 1.07687 1.04865 0.995756 0.950689 1.06422 0.987586 0.900242 0.857694 0.821469 1.2302 1.04651 0.985903 0.893717 0.812297
threshold=0.4960752376260017 0.70695303259335296 0.37952705457146002 -0.60355339059327362 0.57172916210745217 8.5000000000000018 -0.5 -0.78656609248549292 14.500000000000002 0.44821552560522865 0.37940952255126043 0.17543230929182776 -0.6830127018922193 -0.25881904510252113 9.5000000000000018 0.93301270189221952 42.500000000000007 6.5000000000000009 1.5000000000000002 0.39076434429122758 48.500000000000007 -0.6830127018922193 74.500000000000014 21.500000000000004 47.500000000000007 -0.5 0.36264884394062874 12.500000000000002 59.500000000000007 -0.12940952255126034
decision_type=2 2 2 2 2 2 2 2 2 2 2 2 2 2 2 2 2 2 2 2 2 2 2 2 2 2 2 2 2 2
left_child=2 4 7 16 -2 6 8 12 -3 10 14 -9 -1 -6 -5 23 -4 -13 24 20 -18 -21 -10 29 -19 26 27 28 -26 -8
right_child=1 5 3 9 13 -7 15 11 22 -11 -12 17 -14 -15 -16 -17 19 18 -20 21 -22 -23 -24 -25 25 -27 -28 -29 -30 -31
leaf_value=0.004186411691431963 0.00099043247701100976 0.004611747107993747 -0.002426801096555669 -0.00017446711478778375 0.0023303134616543533 0.0022562181612784207 0.0065784674656755963 -0.0074735085131392379 0.004980371387462091 -0.00012440803785324463 -0.0020113821268836754 -0.0036479516418372205 -0.0010973103862318189 0.0013179170993327203 -0.0016047661390697736 0.0054109593212580374 0.0022105359520108634 -0.004743086310991889 -0.0031908523173540468 0.001828886442133294 -0.0011894428906336746 0.00027326347961288184 0.0057443534814362804 0.0062857126055823236 0.0033788287154386532 -0.0023763637285615065 0.004193323063088973 -0.002682550198667373 0.0026227238528928696 0.0044962504816298534
leaf_weight=82 3622 26 204 1406 1809 127 55 2403 24 2619 3266 2138 503 759 733 22 20 98 6046 833 610 2638 49 83 30 166 43 65 77 198
leaf_count=82 3622 26 204 1406 1809 127 55 2403 24 2619 3266 2138 503 759 733 22 20 98 6046 833 610 2638 49 83 30 166 43 65 77 198
internal_value=0 0.00353262 -0.00194537 -0.000879635 0.00286753 0.0105822 0.0122867 -0.00307313 0.0192424 -0.00149178 -0.00204903 -0.00323785 4.27339e-05 0.00409268 -0.00093268 0.0103631 0.000261323 -0.00291643 -0.00260153 0.000437697 -0.00134921 0.000762027 0.0237671 0.0110714 -0.000407099 0.000643043 0.00313953 0.00139535 0.00434579 0.0096245
internal_weight=0 6774 23980 12329 6190 584 457 11651 99 8024 5405 11066 585 2568 2139 358 4305 8663 6525 4101 630 3471 73 336 479 381 215 172 107 253
internal_count=30754 6774 23980 12329 6190 584 457 11651 99 8024 5405 11066 585 2568 2139 358 4305 8663 6525 4101 630 3471 73 336 479 381 215 172 107 253
is_linear=0
shrinkage=0.05


Tree=20
num_leaves=31
num_cat=0
split_feature=6 6 6 3 6 4 8 6 7 0 4 7 7 7 6 0 5 7 3 4 6 3 6 0 8 6 4 0 6 4
split_gain=60.2056 11.4258 9.15203 4.30668 2.85582 2.10815 1.60892 1.55372 1.37598 1.48879 1.23795 2.09685 1.62466 1.39755 1.66344 1.12827 2.15131 1.13077 2.95476 1.10027 1.06378 1.06282 1.03014 1.02903 1.00835 1.2487 0.980185 0.898939 0.866568 0.834815
threshold=0.49108221369415739 0.70695303259335296 0.42412027049836282 -0.37940952255126059 0.54035340289137135 -0.9330127018922193 85.000000000000014 0.26439375018839367 4.1971736807086968 1.5000000000000002 -0.5 1.700598690831078 0.89587973461402759 5.2337752898422689 0.58666180475247109 1.5000000000000002 -0.24999999999999997 4.5591125415341898 -0.5 -0.24999999999999994 0.32496555584716419 -0.12940952255126048 0.8161292551714282 7.5000000000000009 49.500000000000007 0.35931558437849614 -0.5 7.5000000000000009 0.64955479807325567 -0.68301270189221952
decision_type=2 2 2 2 2 2 2 2 2 2 2 2 2 2 2 2 2 2 2 2 2 2 2 2 2 2 2 2 2 2
left_child=2 4 3 20 -2 -3 15 -5 -9 24 12 19 23 -14 -15 -7 17 22 -19 -12 -1 26 -17 28 -10 -26 -4 -16 -6 -11
right_child=1 5 21 7 10 6 -8 8 9 29 11 -13 13 14 27 16 -18 18 -20 -21 -22 -23 -24 -25 25 -27 -28 -29 -30 -31
leaf_value=-0.00259033689182127 0.00097699333888663534 0.0054734950289219916 0.0010828812844342623 -0.005855760444639771 0.001181343649354465 0.0062922141483702475 0.0016001105821014474 -0.0026334474263071065 -0.0031779770943631577 -0.0014189922581670893 -0.0015219799429781738 5.9917648365092866e-05 0.0045288519785749324 0.0014824465119161251 0.0034524556829594447 0.0032523838409893218 0.002383140375054946 0.0050000704595060154 0.0029738761024635007 0.0015200312433820689 -0.00079465066959655815 -0.00079552005230766392 0.0070582289989011091 0.0040022199989285774 -0.00049721625289276042 0.0024833597122896145 -0.00029902483411611082 0.0019922899169261573 0.002527163119464694 -0.0025602290743741017
leaf_weight=782 2705 67 878 4394 524 49 142 3779 91 994 74 546 197 134 172 145 103 43 24 1702 3393 3359 47 253 126 117 2620 36 94 3059
leaf_count=782 2705 67 878 4394 524 49 142 3779 91 994 74 546 197 134 172 145 103 43 24 1702 3393 3359 47 253 126 117 2620 36 94 3059
internal_value=0 0.00327547 -0.00198839 -0.00261876 0.00265108 0.00975806 0.00874322 -0.00308121 -0.00267328 -0.00207089 0.00354769 0.00283807 0.00471631 0.00687384 0.00494152 0.0103285 0.00936464 0.0117954 0.0173881 0.00367117 -0.00122755 -0.000449906 0.00984375 0.00338117 0.00113772 0.00281893 0.00016009 0.00774038 0.00228155 -0.00233531
internal_weight=0 7057 23592 16735 6437 620 553 12560 8166 4387 3732 2322 1410 539 342 411 362 259 67 1776 4175 6857 192 871 334 243 3498 208 618 4053
internal_count=30649 7057 23592 16735 6437 620 553 12560 8166 4387 3732 2322 1410 539 342 411 362 259 67 1776 4175 6857 192 871 334 243 3498 208 618 4053
is_linear=0
shrinkage=0.05


Tree=21
num_leaves=31
num_cat=0
split_feature=6 6 6 6 4 6 1 9 1 7 6 3 5 9 6 5 9 4 3 3 7 6 4 1 9 5 5 9 1 5
split_gain=51.4157 12.3051 8.41652 5.06433 2.6655 2.2678 2.1289 1.8205 2.00762 1.92479 1.7568 1.58259 1.49452 1.38211 1.10845 0.997745 0.983596 1.34098 0.963471 0.91366 0.874119 0.859761 1.65932 0.815164 0.792966 0.791783 0.931484 0.765235 0.764506 0.760901
threshold=0.4733683115201619 0.70695303259335296 0.37856141181087366 0.54035340289137135 -0.9330127018922193 0.20053157608997677 4.5000000000000009 18.850000000000005 14.500000000000002 5.0005792898547883 0.43907164730228149 0.25881904510252091 0.68301270189221941 8.6000000000000032 0.74880291239386587 0.68301270189221941 18.850000000000005 1.0000000180025095e-35 0.37940952255126054 -0.60355339059327362 6.2869283273353256 0.65732975861633447 0.93301270189221952 21.500000000000004 17.650000000000002 1.0000000180025095e-35 0.93301270189221952 22.500000000000004 6.5000000000000009 0.68301270189221941
decision_type=2 2 2 2 2 2 2 2 2 2 2 2 2 2 2 2 2 2 2 2 2 2 2 2 2 2 2 2 2 2
left_child=2 3 5 18 19 -1 10 14 -9 23 -4 12 -7 -5 -6 21 -8 20 29 -3 -18 27 -23 -10 -17 -12 -27 -15 -13 -2
right_child=1 4 6 13 7 11 16 8 9 -11 25 28 -14 15 -16 24 17 -19 -20 -21 -22 22 -24 -25 -26 26 -28 -29 -30 -31
leaf_value=-0.0064280961298790965 0.0010770729674157537 0.0049849368771603874 -0.0022135026201125598 -0.00047375550669467029 0.0017643372404118421 -0.0011191417158729225 -0.00072659906975979112 2.762189490645463e-05 0.0043201472298018536 0.0044879139421227466 -0.0010747700522733457 -0.0032983451278918666 -0.0043514235441342248 0.0018174070938748702 0.0045480909266111032 0.0010182107631114309 0.0011716250871752804 -0.0015074757837430575 -0.0001435938916850023 0.0069903115621412692 -0.00040057746944145559 0.0025778558574961388 0.0030747361510077174 0.0064715548399242916 -0.00083334748712368938 0.0012548784961426583 -0.0020216273096031914 -0.00054157262589760928 -0.0031174299544793321 -6.3398823740397865e-05
leaf_weight=3023 2355 36 1668 71 127 2649 5980 27 137 39 531 1735 1078 2560 199 577 967 547 1143 29 509 376 45 30 55 349 95 37 2978 742
leaf_count=3023 2355 36 1668 71 127 2649 5980 27 137 39 531 1735 1078 2560 199 577 967 547 1143 29 509 376 45 30 55 349 95 37 2978 742
internal_value=0 0.00250145 -0.00205776 0.00197148 0.00926282 -0.00299791 -0.00104546 0.00814848 0.0115236 0.0132039 -0.00227582 -0.00257702 -0.00180708 0.00331766 0.0057362 0.00345205 -0.000639137 0.000313889 0.000790093 0.0188462 0.00109756 0.00383035 0.00592636 0.0108683 0.00164557 -0.000589745 0.000968467 0.00349056 -0.00318587 0.00124798
internal_weight=0 8585 22109 7961 624 11463 10646 559 233 206 2643 8440 3727 3721 326 3650 8003 2023 4240 65 1476 3018 421 167 632 975 444 2597 4713 3097
internal_count=30694 8585 22109 7961 624 11463 10646 559 233 206 2643 8440 3727 3721 326 3650 8003 2023 4240 65 1476 3018 421 167 632 975 444 2597 4713 3097
is_linear=0
shrinkage=0.05


Tree=22
num_leaves=31
num_cat=0
split_feature=6 6 6 6 1 4 6 6 1 7 4 7 7 4 3 1 9 7 9 9 9 7 4 2 9 6 9 7 2 4
split_gain=47.3535 9.77353 7.52595 3.64663 3.09068 1.75158 1.57705 1.36359 1.7177 1.26498 1.2869 1.26591 1.09149 0.995276 0.957926 1.55737 0.986851 0.787335 1.57837 0.741422 0.718362 1.5063 1.02286 1.29042 0.798096 0.704167 0.642032 0.615056 1.01444 1.03787
threshold=0.4733683115201619 0.69238303312125538 0.30461533054970152 0.54035340289137135 6.5000000000000009 -0.9330127018922193 0.42637312096566132 0.44254632083147871 20.500000000000004 4.0342014792848504 -0.68301270189221952 6.3534997185584592 6.8601392875512452 -0.9330127018922193 -0.37940952255126059 4.5000000000000009 12.750000000000002 3.5408542930527878 19.900000000000002 17.150000000000002 18.850000000000005 4.7492611597348082 0.6830127018922193 -0.12940952255126034 16.750000000000004 0.37467466138814992 13.200000000000001 6.0149361578705784 -0.12940952255126034 -0.68301270189221952
decision_type=2 2 2 2 2 2 2 2 2 2 2 2 2 2 2 2 2 2 2 2 2 2 2 2 2 2 2 2 2 2
left_child=2 3 -1 -2 6 19 -4 8 9 17 -11 -12 14 25 16 -16 -5 -6 -19 -3 21 22 24 -24 -7 -10 -25 28 29 -22
right_child=1 5 4 12 7 20 -8 -9 13 10 11 -13 -14 -15 15 -17 -18 18 -20 -21 27 -23 23 26 -26 -27 -28 -29 -30 -31
leaf_value=-0.0047515794183501129 0.00045659684397381491 0.0059917800376597125 -0.0021304852684554706 -0.00011372157658079807 -9.461008390301838e-05 0.0022503869216865808 -0.00073742102163702793 8.7395635173058531e-05 0.0016748946619586803 0.00018919886953654906 -0.0012118096380010933 -0.0030173109672216362 0.0046046874588347884 -0.0024824098386597507 0.0013141340862701169 0.00027474511141935563 0.0019715628367460362 0.0012242717158617872 0.006344439725582897 0.0044448140391310752 0.0047556918063500851 -0.0016612148467964691 0.0040193705382606734 0.0028333823592425079 0.0036769931662809004 -0.00076085725585278772 0.0041938768803016268 0.0013131725509690014 0.0037732404658341076 0.0047442889206482765
leaf_weight=6043 4245 20 3535 128 2063 105 1876 2133 54 891 2475 715 28 2149 513 751 2138 115 21 48 43 38 41 29 123 90 45 28 116 78
leaf_count=6043 4245 20 3535 128 2063 105 1876 2133 54 891 2475 715 28 2149 513 751 2138 115 21 48 43 38 41 29 123 90 45 28 116 78
internal_value=0 0.00235588 -0.00203069 0.00184352 -0.00146647 0.00795518 -0.0024404 -0.000974221 -0.00125569 -0.000828027 -0.00134894 -0.00181818 0.00302417 -0.00242695 0.00294617 0.00184335 0.00356134 0.000138698 0.00382353 0.0155882 0.0071517 0.00576115 0.00680758 0.0106522 0.00486842 0.00159722 0.0145946 0.00915094 0.0099789 0.0131818
internal_weight=0 8517 22160 7803 16117 714 5411 10706 8573 6280 4081 3190 3558 2293 3530 1264 2266 2199 136 68 646 381 343 115 228 144 74 265 237 121
internal_count=30677 8517 22160 7803 16117 714 5411 10706 8573 6280 4081 3190 3558 2293 3530 1264 2266 2199 136 68 646 381 343 115 228 144 74 265 237 121
is_linear=0
shrinkage=0.05


Tree=23
num_leaves=31
num_cat=0
split_feature=6 6 6 6 2 7 0 4 6 9 0 9 6 6 7 6 8 8 6 0 0 9 0 9 8 8 2 9 9 0
split_gain=44.1528 11.0302 6.08565 3.59384 3.41084 2.13991 1.39466 1.92354 1.39033 1.34681 1.34516 1.2942 1.19904 1.17994 1.11128 1.05848 1.03922 1.0068 0.968403 1.34413 2.47191 0.956584 0.950173 1.75381 1.73473 1.3833 2.6691 0.810232 1.31123 1.90717
threshold=0.45424591214065219 0.70695303259335296 0.3086693169582439 0.50162215986876901 1.0000000180025095e-35 4.0342014792848504 1.5000000000000002 -0.68301270189221952 0.58666180475247109 17.950000000000003 9.5000000000000018 13.050000000000002 0.44821552560522865 0.40550937367776929 6.7759365416542883 0.35741878110912634 53.500000000000007 91.500000000000014 0.39859912463587499 2.5000000000000004 1.5000000000000002 9.7000000000000011 1.5000000000000002 16.650000000000002 74.500000000000014 77.500000000000014 -0.12940952255126034 8.6000000000000032 10.300000000000002 10.500000000000002
decision_type=2 2 2 2 2 2 2 2 2 2 2 2 2 2 2 2 2 2 2 2 2 2 2 2 2 2 2 2 2 2
left_child=2 3 -1 11 5 -4 15 -8 -5 18 17 -2 -11 -9 27 -7 -17 22 -6 20 -20 -22 24 -24 -3 -25 -27 -10 29 -29
right_child=1 10 4 8 9 6 7 13 14 12 -12 -13 -14 -15 -16 16 -18 -19 19 -21 21 -23 23 25 -26 26 -28 28 -30 -31
leaf_value=-0.0042995310500231164 -0.00094727145861021899 0.0052162308657519273 0.00088485007559863473 0.00088902954565880465 -0.0028324681624145292 -0.0013183933910526691 0.00039930147474975309 -0.0021820043828907269 -0.00011974618692409914 -0.0011072381932347869 0.00037539123245374683 0.00048772721354593118 0.0030647700740443883 -0.00017994319625179811 0.0092592011883335778 -0.0017282627260444385 0.002475213933210534 0.00070530667557418551 -0.0014067931477175202 -0.0013516519380910516 -0.0018406913897757251 0.0020900414980136693 0.002107906803582874 0.0023634438337080017 0.0044841629558983907 0.0046007703050725502 0.0047612283668750366 0.0026602172171345342 0.0016052809822247377 0.0037599681611492721
leaf_weight=6191 911 22 1407 3745 3416 105 863 2236 30 1526 62 3177 87 654 20 76 202 29 279 2871 55 223 77 108 30 80 188 25 1934 28
leaf_count=6191 911 22 1407 3745 3416 105 863 2236 30 1526 62 3177 87 654 20 76 202 29 279 2871 55 223 77 108 30 80 188 25 1934 28
internal_value=0 0.00181731 -0.00218439 0.00141844 -0.00160714 -0.000643155 -0.00121615 -0.00150946 0.00222068 -0.00223897 0.00842282 0.000283756 -0.000939245 -0.00212803 0.00327197 0.00165796 0.00327338 0.00923221 -0.0025453 -0.00195158 0.000296229 0.00363309 0.00975247 0.00901766 0.0161538 0.0104255 0.0123507 0.00315568 0.00327881 0.0110377
internal_weight=0 10466 20191 9870 14000 5543 4136 3753 5782 8457 596 4088 1613 2890 2037 383 278 534 6844 3428 557 278 505 453 52 376 268 2017 1987 53
internal_count=30657 10466 20191 9870 14000 5543 4136 3753 5782 8457 596 4088 1613 2890 2037 383 278 534 6844 3428 557 278 505 453 52 376 268 2017 1987 53
is_linear=0
shrinkage=0.05


Tree=24
num_leaves=31
num_cat=0
split_feature=6 6 6 1 6 9 0 8 7 9 0 9 6 0 4 4 0 6 0 6 7 8 6 9 6 8 8 6 1 8
split_gain=40.9389 8.20414 8.05886 3.19601 2.87126 1.7302 2.39203 1.80147 1.46104 1.45121 1.29159 1.26159 1.24982 1.10714 0.972267 1.28546 0.884274 0.883897 0.878376 1.22576 0.859262 1.43861 1.14734 0.915208 1.77534 0.853782 1.03472 0.833881 1.06043 0.822349
threshold=0.4733683115201619 0.70695303259335296 0.35507678936202119 4.5000000000000009 0.59447291825781834 17.650000000000002 1.5000000000000002 74.500000000000014 4.6200466650627661 19.300000000000001 9.5000000000000018 15.350000000000001 0.43907164730228149 5.5000000000000009 -0.5 -0.24999999999999994 2.5000000000000004 0.52318478452219253 2.5000000000000004 0.44077256321851538 5.3958951239350581 74.500000000000014 0.6411539359914199 12.900000000000002 0.65732975861633447 74.500000000000014 89.500000000000014 0.17543230929182776 8.5000000000000018 89.500000000000014
decision_type=2 2 2 2 2 2 2 2 2 2 2 2 2 2 2 2 2 2 2 2 2 2 2 2 2 2 2 2 2 2
left_child=2 4 27 12 14 6 -3 -7 -9 -10 11 16 -4 29 -2 -16 -5 -17 19 -14 23 -22 -23 24 -15 -8 -27 -1 -29 -6
right_child=1 5 3 10 13 7 25 8 9 -11 -12 -13 18 20 15 17 -18 -19 -20 -21 21 22 -24 -25 -26 26 -28 28 -30 -31
leaf_value=-0.0059765011098564308 0.0015773225461161889 0.0044244052719461446 -0.0021700246201341983 -0.00012250902123951969 0.00055201567128414968 0.001971432347220063 -0.00083597235949066362 0.0048958685656347043 0.0039983642714201606 0.0053715714295046596 -0.0012878472128655914 8.6557296615372798e-05 0.011147101849738272 0.0016204682269798235 -0.0012826862939222133 0.0001469758340212391 -0.0016150168821896225 0.00080943392681619001 -0.00067794598804848537 0.00062706058870625435 0.0024994177799492218 0.0049591185103221164 0.0026837739313397128 0.0022446970552928804 0.0034262873144364652 0.0023807641086713892 -0.00088093387118746362 -0.0039686211133436091 -0.0022431640744472836 0.0019413629107924433
leaf_weight=2415 2035 63 2562 1132 444 65 35 204 28 33 3144 4592 21 81 309 2068 1315 1718 872 89 120 21 30 916 21 131 38 2201 3714 203
leaf_count=2415 2035 63 2562 1132 444 65 35 204 28 33 3144 4592 21 81 309 2068 1315 1718 872 89 120 21 30 916 21 131 38 2201 3714 203
internal_value=0 0.00207696 -0.00199642 -0.00125191 0.00165328 0.00773032 0.00473783 0.0101515 0.0119811 0.0187705 -0.000801828 -0.000425488 -0.00254515 0.0033878 0.00113377 0.000689864 -0.00134246 0.000942947 -0.00102851 0.00318182 0.00429352 0.0075731 0.0146078 0.00374263 0.00823529 0.00210784 0.00357988 -0.00322329 -0.00290364 0.00172334
internal_weight=0 8563 22057 13727 7966 597 267 330 265 61 10183 7039 3544 1836 6130 4095 2447 3786 982 110 1189 171 51 1018 102 204 169 8330 5915 647
internal_count=30620 8563 22057 13727 7966 597 267 330 265 61 10183 7039 3544 1836 6130 4095 2447 3786 982 110 1189 171 51 1018 102 204 169 8330 5915 647
is_linear=0
shrinkage=0.05


Tree=25
num_leaves=31
num_cat=0
split_feature=6 6 6 1 6 0 0 0 0 2 5 6 6 1 8 0 1 6 0 7 7 0 8 8 7 7 7 0 8 1
split_gain=33.028 9.70297 5.7042 3.21495 2.55449 2.00429 1.27254 1.20689 1.17322 1.16749 1.10535 1.02612 1.01124 0.996517 0.872848 0.838516 1.13948 0.830752 1.21953 0.826651 0.812194 0.795462 0.782919 1.50716 1.20986 0.904274 0.898068 0.776241 0.657429 1.14976
threshold=0.46160739161955983 0.70695303259335296 0.30065784617835706 5.5000000000000009 0.54870532138611383 9.5000000000000018 2.5000000000000004 4.5000000000000009 5.5000000000000009 1.0000000180025095e-35 0.68301270189221941 0.42412027049836282 0.41022162083123315 17.500000000000004 80.500000000000014 5.5000000000000009 16.500000000000004 0.65732975861633447 9.5000000000000018 3.4811217321331038 6.8161879353346508 2.5000000000000004 53.500000000000007 56.500000000000007 6.4990345950661448 5.3057863027301417 5.7914868896406997 7.5000000000000009 76.500000000000014 11.500000000000002
decision_type=2 2 2 2 2 2 2 2 2 2 2 2 2 2 2 2 2 2 2 2 2 2 2 2 2 2 2 2 2 2
left_child=2 4 -1 11 15 10 9 14 19 13 27 -4 -11 22 -8 21 -17 20 -19 -6 -10 -2 24 25 -5 -24 -27 -3 29 -25
right_child=1 5 3 6 8 -7 7 -9 17 12 -12 -13 -14 -15 -16 16 -18 18 -20 -21 -22 -23 23 28 -26 26 -28 -29 -30 -31
leaf_value=-0.0041671293613482477 0.0003509601945368662 0.0037498167863459506 -0.0021753669332669682 -0.0028355625848974146 0.00080005422309749406 9.0054195313243838e-05 -0.0028778425502970061 -0.00085795144882900654 0.0015510170031763028 -0.0021414429228228263 0.0016401520328596765 -0.0008536059451245715 0.00050135952598032358 0.0050021860854876131 -0.00047416346421400582 0.00015758808444546257 0.0015177861106523657 0.0022191748009934239 0.002651436799155452 -0.00053842618684811223 0.0056894851904001472 -0.00057118512336616135 0.00058642931989694972 -0.0012447227451376764 0.0036279091319098527 0.010855365968060063 0.0016833684419172391 0.0038997127730725813 -3.5239612409808811e-05 0.0022901450176925561
leaf_weight=5914 1194 272 2848 211 1038 66 1245 7238 1675 366 65 1453 266 55 497 1730 1509 247 84 266 24 1315 20 131 20 22 23 185 433 221
leaf_count=5914 1194 272 2848 211 1038 66 1245 7238 1675 366 65 1453 266 55 497 1730 1509 247 84 266 24 1315 20 131 20 22 23 185 433 221
internal_value=0 0.00153051 -0.00200186 -0.00148482 0.0011275 0.0077551 -0.00102252 -0.00126392 0.00222855 0.000203619 0.0087931 -0.00264008 -0.00151899 0.00116197 -0.00244547 0.000488865 0.00102038 0.00298029 0.0052719 0.00105828 0.00253384 -0.000197291 0.000827936 0.00152941 -0.00175325 0.00884615 0.0127778 0.00966083 0.000923566 0.00252841
internal_weight=0 9670 20963 15049 9082 588 10748 8980 3334 1768 522 4301 632 1136 1742 5748 3239 2030 331 1304 1699 2509 1081 850 231 65 45 457 785 352
internal_count=30633 9670 20963 15049 9082 588 10748 8980 3334 1768 522 4301 632 1136 1742 5748 3239 2030 331 1304 1699 2509 1081 850 231 65 45 457 785 352
is_linear=0
shrinkage=0.05


Tree=26
num_leaves=31
num_cat=0
split_feature=6 6 6 3 3 6 4 8 3 9 5 6 4 5 9 6 5 6 4 5 8 7 7 5 8 8 3 4 8 6
split_gain=34.66 8.33668 6.54199 2.47157 2.44101 1.61363 1.39809 2.66768 1.74587 1.75998 1.33932 1.2206 1.20338 1.14315 1.04938 1.40909 1.01413 0.994857 1.18926 0.964752 1.32103 0.943319 1.30439 0.929942 0.892301 0.860871 0.987076 0.797725 0.830188 0.908719
threshold=0.48946143145305138 0.3817702973702467 0.70695303259335296 -0.37940952255126059 -0.12940952255126048 0.59447291825781834 -0.5 74.500000000000014 -0.12940952255126048 17.150000000000002 -0.6830127018922193 0.19538555991024029 0.6830127018922193 -0.5 17.650000000000002 0.38347178593929704 -0.5 0.43820815118078238 0.25000000000000017 0.25000000000000006 77.500000000000014 5.5664324555418956 5.4701654074033046 0.68301270189221941 41.500000000000007 63.500000000000007 0.60355339059327384 -0.9330127018922193 86.500000000000014 0.8161292551714282
decision_type=2 2 2 2 2 2 2 2 2 2 2 2 2 2 2 2 2 2 2 2 2 2 2 2 2 2 2 2 2 2
left_child=1 3 5 10 14 -2 7 -4 9 -9 21 -5 -8 -13 -3 -16 -6 18 -18 -14 -21 22 -1 25 -17 -15 -27 -11 29 -29
right_child=2 4 6 11 16 -7 12 8 -10 27 -12 13 19 23 15 24 17 -19 -20 20 -22 -23 -24 -25 -26 26 -28 28 -30 -31
leaf_value=0.0013027321330108083 0.00076130694246288953 -0.00046970032029910791 0.0002076804879165184 -0.0053121358496498027 -0.0014969577776579254 0.0018360901136560627 0.0017252436971282575 0.0037500619804199755 0.00064330954639599215 0.0044502710191947721 -0.0015097004819808746 -0.0028641581549927607 0.0011867307716036338 -0.00035532789141384932 0.0037977682269264494 -0.0031132575949799281 -0.001703733874656747 -6.5048824323565344e-05 -0.00014044989191740087 0.0057307978795935015 0.003245281323551695 -0.00073301774377278585 0.0050707472438593975 -0.0033644849904381998 0.00077670424854558214 -0.0012072131579172363 -0.0029791698957027588 0.004593776616730094 0.002788352125359746 0.0067847952669002447
leaf_weight=246 4796 3778 61 2781 2178 1778 162 30 34 36 1772 2512 49 889 30 123 1110 1654 728 27 39 184 23 1603 1800 970 1096 110 32 31
leaf_count=246 4796 3778 61 2781 2178 1778 162 30 34 36 1772 2512 49 889 30 123 1110 1654 728 27 39 184 23 1603 1800 970 1096 110 32 31
internal_value=0 -0.00172445 0.00224426 -0.00263995 -0.00075476 0.0017843 0.00719312 0.00937126 0.0114835 0.0129916 -0.00113483 -0.0029799 0.00456679 -0.00263084 -2.70471e-05 0.000913977 -0.0014903 -0.000962201 -0.00176279 0.00847826 0.0124242 0.00129139 0.00317844 -0.00215884 0.000746229 -0.00163283 -0.00219264 0.0146172 0.0132081 0.0148582
internal_weight=0 23477 7185 12076 11401 6574 611 334 273 239 2225 9851 277 7070 5731 1953 5670 3492 1838 115 66 453 269 4558 1923 2955 2066 209 173 141
internal_count=30662 23477 7185 12076 11401 6574 611 334 273 239 2225 9851 277 7070 5731 1953 5670 3492 1838 115 66 453 269 4558 1923 2955 2066 209 173 141
is_linear=0
shrinkage=0.05


Tree=27
num_leaves=31
num_cat=0
split_feature=6 6 6 1 0 0 6 8 8 9 6 9 8 6 9 2 9 6 1 1 6 2 0 8 9 1 9 9 1 6
split_gain=28.6419 6.95425 5.65828 2.92219 1.6608 1.42012 1.40826 1.40422 1.23873 1.2272 1.17234 1.06762 1.55741 0.974068 0.973655 0.947292 0.913625 1.04483 0.9053 0.841684 1.12059 0.844587 0.823398 0.801728 0.780183 0.708042 0.704956 0.681389 0.653241 0.910891
threshold=0.48593628666868816 0.36856949055607341 0.70695303259335296 5.5000000000000009 1.5000000000000002 2.5000000000000004 0.59447291825781834 68.500000000000014 74.500000000000014 16.650000000000002 0.22061305817239948 15.550000000000002 44.500000000000007 0.42296649316919038 18.200000000000006 -0.78656609248549325 20.550000000000004 0.61215424348931957 9.5000000000000018 19.500000000000004 0.3843004654145647 -0.9159756150367534 7.5000000000000009 78.500000000000014 18.850000000000005 18.500000000000004 21.050000000000004 23.050000000000004 23.500000000000004 0.46282645624775925
decision_type=2 2 2 2 2 2 2 2 2 2 2 2 2 2 2 2 2 2 2 2 2 2 2 2 2 2 2 2 2 2
left_child=1 10 6 13 7 11 15 -4 -6 -7 -1 -5 -13 -3 -10 -2 -8 -18 -12 20 21 -14 -16 -24 -17 -25 -19 28 -11 -30
right_child=2 3 4 5 8 9 16 -9 14 27 18 12 19 -15 22 24 17 26 -20 -21 -22 -23 23 25 -26 -27 -28 -29 29 -31
leaf_value=-0.0043744416402091511 -0.00031641551175973031 -0.0018577038360373223 0.0044402539285413696 2.0167512068516338e-05 0.00091288837946170505 -0.0012880381542216778 0.0013026411514680597 0.0043464307526478365 0.0021170363669494444 5.7464972637523247e-05 -0.0026852936943948602 -0.0024909634050126373 0.0051518157838638338 -0.00070606198280134943 0.0038681163549140018 0.00051843647157432022 0.0030955174931513629 0.0051064771385846159 -0.0016474887148555013 0.0057688548644093908 0.0019199154241485502 0.0020119270235650212 0.0050265911316781358 6.0932799901839039e-05 0.0015686859083173946 0.0029979414989050059 0.0016719573629988766 -0.0012273042585052366 -0.0030675006441492061 0.002307629191326118
leaf_weight=3525 465 1852 20 1035 94 3019 1586 46 226 4257 3150 112 26 2079 84 3794 38 51 3392 40 258 54 47 39 855 60 87 160 247 43
leaf_count=3525 465 1852 20 1035 94 3019 1586 46 226 4257 3150 112 26 2079 84 3794 38 51 3392 40 258 54 47 39 855 60 87 160 247 43
internal_value=0 -0.00170093 0.00185398 -0.00094523 0.0064448 -0.000459951 0.0014427 0.0139394 0.00554545 -0.000735181 -0.00269048 0.000934425 0.00285714 -0.00208726 0.00662281 0.00102268 0.00266175 0.00607954 -0.00229441 0.00439153 0.00357988 0.00875 0.00891304 0.00664383 0.0012379 0.00409091 0.00405797 -0.000230509 -0.000117661 -0.00241379
internal_weight=0 23249 7492 13182 616 9251 6876 66 550 7726 10067 1525 490 3931 456 5114 1762 176 6542 378 338 80 230 146 4649 99 138 4707 4547 290
internal_count=30741 23249 7492 13182 616 9251 6876 66 550 7726 10067 1525 490 3931 456 5114 1762 176 6542 378 338 80 230 146 4649 99 138 4707 4547 290
is_linear=0
shrinkage=0.05


Tree=28
num_leaves=31
num_cat=0
split_feature=6 6 3 0 6 6 0 9 9 9 9 2 7 9 5 6 5 3 6 9 0 9 9 3 0 6 0 3 6 9
split_gain=29.0701 7.25161 4.85942 2.90125 2.86064 2.00778 1.92141 1.76425 1.56075 1.54076 1.3181 1.10542 1.0196 0.986816 0.981534 2.04885 0.934679 1.60302 0.920093 1.10498 0.870931 0.964533 0.802759 1.17916 1.2498 0.866635 0.788865 0.766436 0.704345 0.700413
threshold=0.44821552560522865 0.70695303259335296 -0.78656609248549292 2.5000000000000004 0.50162215986876901 0.27569658683437709 1.5000000000000002 16.750000000000004 15.550000000000002 16.650000000000002 17.950000000000003 -0.78656609248549325 3.4811217321331038 22.500000000000004 -0.6830127018922193 0.37300583625051303 -0.5 -0.37940952255126059 0.39859912463587499 11.000000000000002 1.5000000000000002 18.200000000000006 16.050000000000004 -0.25881904510252113 8.5000000000000018 0.48296089258968183 4.5000000000000009 0.37940952255126054 0.36264884394062874 19.300000000000001
decision_type=2 2 2 2 2 2 2 2 2 2 2 2 2 2 2 2 2 2 2 2 2 2 2 2 2 2 2 2 2 2
left_child=2 4 14 18 22 -5 8 -8 -3 -7 12 -9 -6 26 15 28 17 -11 20 -20 29 -22 -2 -24 25 -25 -12 -13 -1 -4
right_child=1 6 3 5 10 9 7 11 -10 16 13 27 -14 -15 -16 -17 -18 -19 19 -21 21 -23 23 24 -26 -27 -28 -29 -30 -31
leaf_value=0.0045161098474602521 -0.00047545625876029121 0.0033320847946973469 0.00023049488443680437 -0.0041662803001639827 0.00074982427056711608 -0.0017966764734756527 0.00021289103338992959 -0.001357006390156441 0.0049304699920692825 0.00010132037972766706 -0.00075657069131729565 0.0032650990967117918 -0.00022077436252198376 -0.00029691322014514137 -0.0003930300948113009 0.00085277709928190159 -0.00075091291077681406 -0.0018824461147009285 -0.0012419214165187698 0.0012003434584102555 -0.0027003905029849336 0.0017922839594941382 0.0012267671011660321 0.0010646050686119837 -0.0021076127516662878 -0.0010082061491467503 0.0020534450420961951 0.00036036384923027458 0.0029445546734118895 -0.0027820002227554146
leaf_weight=39 2334 45 632 4734 3322 3926 149 24 21 657 87 330 576 91 1928 526 2529 2860 205 456 787 114 1315 521 296 200 1650 23 22 125
leaf_count=39 2334 45 632 4734 3322 3926 149 24 21 657 87 330 576 91 1928 526 2529 2860 205 456 787 114 1315 521 296 200 1650 23 22 125
internal_value=0 0.00127276 -0.00194217 -0.00224523 0.000966127 -0.00250442 0.0066554 0.00564639 0.014697 -0.00210189 0.00171498 0.00746684 0.00119548 0.00282276 0.000109343 0.00189949 -0.00160106 -0.00212824 -0.000601554 0.000975793 -0.0012304 -0.0022808 4.71484e-05 0.000703258 -0.000575222 0.000547849 0.00308866 0.0081728 0.0105738 1.98139e-05
internal_weight=0 10984 19540 17025 10392 14706 592 526 66 9972 5726 377 3898 1828 2515 587 6046 3517 2319 661 1658 901 4666 2332 1017 721 1737 353 61 757
internal_count=30524 10984 19540 17025 10392 14706 592 526 66 9972 5726 377 3898 1828 2515 587 6046 3517 2319 661 1658 901 4666 2332 1017 721 1737 353 61 757
is_linear=0
shrinkage=0.05


Tree=29
num_leaves=31
num_cat=0
split_feature=6 6 3 6 0 0 6 4 1 7 3 3 0 4 7 6 7 6 7 7 7 1 0 3 6 4 8 1 0 8
split_gain=27.0108 8.5901 3.82038 3.12593 2.48906 1.36372 1.22441 1.28432 1.1737 1.13959 1.04801 1.13405 1.21007 1.0259 0.952948 0.961344 0.875286 0.839073 1.20208 1.4582 0.811589 0.952886 0.724273 0.85713 1.21416 0.779238 0.69756 0.703783 0.719844 0.693187
threshold=0.44254632083147871 0.70695303259335296 -0.37940952255126059 0.53515806726443904 2.5000000000000004 9.5000000000000018 0.27569658683437709 -0.68301270189221952 5.5000000000000009 6.8601392875512452 0.25881904510252091 -0.70710678118654735 1.5000000000000002 -0.5 4.5900436644025815 0.8161292551714282 6.0602900572549077 0.38258247733834155 4.0859410030639109 4.5271940351011493 4.5271940351011493 17.500000000000004 11.500000000000002 0.91597561503675362 0.37856141181087366 1.0000000180025095e-35 87.500000000000014 4.5000000000000009 6.5000000000000009 89.500000000000014
decision_type=2 2 2 2 2 2 2 2 2 2 2 2 2 2 2 2 2 2 2 2 2 2 2 2 2 2 2 2 2 2
left_child=2 3 20 13 17 10 -6 8 -8 16 11 14 -13 26 15 -3 -5 18 -4 -20 21 -1 23 -9 -25 29 27 -2 -29 -26
right_child=1 5 4 9 6 -7 7 22 -10 -11 -12 12 -14 -15 -16 -17 -18 -19 19 -21 -22 -23 -24 24 25 -27 -28 28 -30 -31
leaf_value=0.00068352070835829017 -0.00038311032316370362 0.0024380957052193039 -0.002522614135807795 0.0011851089285690162 -0.0037792980485885823 0.00047285703885922728 -0.0017085084280925714 -0.0022064357345859559 -4.828167837900089e-05 0.0036055159805114113 0.0021419585432996269 0.0046080006074022467 0.0031105272784091986 -0.00011824954977345193 0.0035025935340131293 0.0052353925232313994 -0.00053429391964664543 0.00061844190865768974 0.0039113752837223242 -0.00085508018682981456 -0.0010211835109792062 -0.00067138445732243721 -0.00048903533593711132 -0.0025180833033920276 0.0013605849711962601 -0.00045136932744071915 0.0017585382979455316 0.00017673169392379767 0.0017098425671349463 -0.0019167491474878938
leaf_weight=921 449 183 296 3644 4284 66 943 3792 1090 30 74 21 125 4871 42 69 249 592 24 909 1653 2377 695 718 192 254 293 705 787 39
leaf_count=921 449 183 296 3644 4284 66 943 3792 1090 30 74 21 125 4871 42 69 249 592 24 909 1653 2377 695 718 192 254 293 705 787 39
internal_value=0 0.00113801 -0.00193008 0.000826078 -0.00235681 0.00706896 -0.00261806 -0.00224201 -0.00116331 0.00195896 0.00793774 0.00886364 0.0124658 0.000200562 0.00707483 0.0059127 0.00188415 -0.000634268 -0.00137917 -0.000498393 -0.000738236 -0.000285022 -0.00262742 -0.00283784 -0.00167498 0.000257731 0.00108773 0.00074446 0.00126675 0.00235931
internal_weight=0 11608 18779 11028 13828 580 12007 7723 2033 3923 514 440 146 7105 294 252 3893 1821 1229 933 4951 3298 5690 4995 1203 485 2234 1941 1492 231
internal_count=30387 11608 18779 11028 13828 580 12007 7723 2033 3923 514 440 146 7105 294 252 3893 1821 1229 933 4951 3298 5690 4995 1203 485 2234 1941 1492 231
is_linear=0
shrinkage=0.05


Tree=30
num_leaves=31
num_cat=0
split_feature=6 6 0 1 6 6 1 0 8 4 9 1 0 4 8 9 4 9 6 8 9 6 8 9 6 9 8 8 6 7
split_gain=23.0468 5.22079 3.42284 2.73768 1.83633 1.47073 1.39573 1.35486 2.62641 1.25926 1.62429 1.31435 1.1644 1.14132 1.17015 1.00378 1.39303 0.962504 0.958759 0.957266 0.938933 1.2171 0.99648 0.920862 0.912034 0.954758 1.14763 2.55146 0.9 0.870827
threshold=0.44254632083147871 0.5684584539297397 2.5000000000000004 12.500000000000002 0.70695303259335296 0.26071149997595161 20.500000000000004 1.5000000000000002 77.500000000000014 -0.68301270189221952 16.650000000000002 14.500000000000002 6.5000000000000009 -0.5 89.500000000000014 18.550000000000004 -0.9330127018922193 8.6000000000000032 0.41498863491672883 83.500000000000014 12.100000000000001 0.20053157608997677 44.500000000000007 9.1500000000000021 0.41316263298806116 17.150000000000002 59.500000000000007 52.500000000000007 0.36264884394062874 0.89587973461402759
decision_type=2 2 2 2 2 2 2 2 2 2 2 2 2 2 2 2 2 2 2 2 2 2 2 2 2 2 2 2 2 2
left_child=2 13 20 5 17 -4 12 8 -6 10 -9 -12 19 14 -2 23 18 -3 -17 -5 -1 -22 -23 -7 25 -24 27 -27 -29 -15
right_child=1 4 3 6 7 15 -8 9 -10 -11 11 -13 -14 29 -16 16 -18 -19 -20 -21 21 22 24 -25 -26 26 -28 28 -30 -31
leaf_value=-0.0013822172974840754 0.00070488965516079529 -0.001170201069987482 -0.0042941616174967008 -0.0019809420960470352 0.0038327627928198219 0.0010752010531857972 -0.0019674275359672557 -0.0043612597130994442 0.0027955062824139305 0.0013883097629659056 -0.00052853414715343396 0.0033720536274910243 -0.00010468304318276604 0.00017512427392752945 0.0016809475392184144 0.00079924451028887122 -0.0015093227627133428 0.0013035569859425672 0.0068189486340224916 0.00054311966794992205 -0.003669171071231634 -0.0018622365900220858 1.2517269406830593e-05 -0.0015718573087322074 0.0022162650689813092 0.00023132175948749483 0.0012473740476469505 0.010671741999401253 0.0028861925744135242 -0.00039924661790529385
leaf_weight=661 2386 47 3408 1803 31 68 2014 23 30 340 21 156 2388 4075 330 155 2204 2639 23 272 237 226 868 4008 257 47 150 20 20 1684
leaf_count=661 2386 47 3408 1803 31 68 2014 23 30 340 21 156 2388 4075 330 155 2204 2639 23 272 237 226 868 4008 257 47 150 20 20 1684
internal_value=0 0.00095987 -0.00186123 -0.00212415 0.00265135 -0.00264849 -0.00132546 0.00514975 0.0122131 0.00435185 0.0075 0.00912429 -0.000832401 0.000303834 0.00114875 -0.00220502 -0.00138959 0.00209233 0.00286517 -0.0016988 -0.000132745 0.000452054 0.00095088 -0.00268155 0.00146109 0.000837103 0.00364979 0.00821839 0.0175 -9.46357e-05
internal_weight=0 11762 18829 16343 3287 9866 6477 601 61 540 200 177 4463 8475 2716 6458 2382 2686 178 2075 2486 1825 1588 4076 1362 1105 237 87 40 5759
internal_count=30591 11762 18829 16343 3287 9866 6477 601 61 540 200 177 4463 8475 2716 6458 2382 2686 178 2075 2486 1825 1588 4076 1362 1105 237 87 40 5759
is_linear=0
shrinkage=0.05


Tree=31
num_leaves=31
num_cat=0
split_feature=6 6 6 6 3 5 6 5 3 7 6 6 3 1 9 7 3 5 9 8 7 6 6 9 9 8 8 8 5 7
split_gain=22.0714 5.87814 5.56496 2.18476 1.98243 1.85771 1.43626 1.39445 0.933424 0.91765 1.18833 0.887904 1.15136 0.88763 1.31494 1.1162 0.887506 0.866525 0.775612 0.760972 0.73526 0.686863 0.909424 0.977386 1.25708 0.6786 1.47535 0.745446 0.889913 1.02739
threshold=0.48762830728007228 0.74880291239386587 0.35364046580853081 0.59447291825781834 -0.37940952255126059 -0.5 0.14955566001161402 -0.6830127018922193 0.60355339059327384 4.4484992763719129 0.43729667802348604 0.37467466138814992 -0.78656609248549292 14.500000000000002 14.900000000000002 4.7492611597348082 0.91597561503675362 0.68301270189221941 18.850000000000005 67.500000000000014 6.6612149451924996 0.43820815118078238 0.45537496740436129 18.200000000000006 19.300000000000001 95.000000000000014 96.500000000000014 58.500000000000007 -0.5 6.2215832190855549
decision_type=2 2 2 2 2 2 2 2 2 2 2 2 2 2 2 2 2 2 2 2 2 2 2 2 2 2 2 2 2 2
left_child=2 3 6 -2 7 16 -1 11 -8 10 -7 12 -4 14 -3 19 -6 -11 -18 -15 -5 -13 23 -23 -25 27 -27 28 -10 -30
right_child=1 13 4 20 5 9 8 -9 25 17 -12 21 -14 15 -16 -17 18 -19 -20 -21 -22 22 -24 24 -26 26 -28 -29 29 -31
leaf_value=-0.0048210827196015519 0.00052425238090291837 0.0046499495356119094 0.0029426513292671709 0.0013251094647827638 -0.0016883356438419023 -0.0012668990182167386 -0.001643583259638731 -0.00047950168624535038 -0.0037960390352355482 0.00060355129714687863 -0.0001113130891417174 -0.00011683227971137904 0.001342034211801418 0.003658174583438352 -0.0005169308765706999 0.0051224393231592245 -0.00084237686540219829 -0.001000812781795555 0.00048969869927850977 0.0030767687629082276 0.0032474359641795993 0.00083187466398944993 0.00069289156592519218 0.0060606447522956221 0.0024161180675174448 0.0030931944808272726 -0.0014958592053443741 -0.0034537654919870905 0.0023457898926630928 -0.0030355232963638051
leaf_weight=1819 4955 20 41 1967 3037 2338 3615 4472 177 1139 1506 833 81 20 35 30 363 549 291 235 33 64 307 50 51 23 49 2168 246 195
leaf_count=1819 4955 20 41 1967 3037 2338 3615 4472 177 1139 1506 833 81 20 35 30 363 549 291 235 33 64 307 50 51 23 49 2168 246 195
internal_value=0 0.00166895 -0.00148074 0.00135514 -0.000909934 -0.00136778 -0.00252171 -0.000194102 -0.00217287 -0.000788143 -0.00121488 0.00116678 0.0052459 0.00808823 0.00227273 0.00921053 -0.00223652 0.000183648 -0.00056575 0.00813725 0.00275 0.000785439 0.00230932 0.00530303 0.00836634 -0.00284815 0.00194444 -0.002972 -0.00144013 -0.000238096
internal_weight=0 7295 23414 6955 15122 9223 8292 5899 6473 5532 3844 1427 122 340 55 285 3691 1688 654 255 2000 1305 472 165 101 2858 72 2786 618 441
internal_count=30709 7295 23414 6955 15122 9223 8292 5899 6473 5532 3844 1427 122 340 55 285 3691 1688 654 255 2000 1305 472 165 101 2858 72 2786 618 441
is_linear=0
shrinkage=0.05


Tree=32
num_leaves=31
num_cat=0
split_feature=6 6 6 3 6 7 4 8 9 6 7 6 9 8 4 3 6 1 4 8 8 8 8 8 9 3 8 8 8 7
split_gain=19.1851 4.25354 4.24974 1.80759 1.55376 1.35903 1.06794 0.955568 0.995592 0.971765 0.954517 0.819144 0.790171 1.07888 0.981852 0.978093 0.766326 1.06665 0.95158 1.13403 0.764627 0.70257 0.858583 0.951726 1.41218 0.699295 0.657863 0.78228 1.57403 0.624134
threshold=0.45655924939283626 0.30461533054970152 0.70695303259335296 -0.60355339059327362 0.54035340289137135 4.1971736807086968 -0.68301270189221952 44.500000000000007 18.850000000000005 0.39859912463587499 6.1147871526576338 0.42296649316919038 18.200000000000006 74.500000000000014 -0.68301270189221952 -0.78656609248549292 0.13688945802196062 9.5000000000000018 -0.5 57.500000000000007 36.500000000000007 59.500000000000007 53.500000000000007 56.500000000000007 17.650000000000002 -0.9159756150367534 70.500000000000014 45.500000000000007 52.500000000000007 6.863802845511132
decision_type=2 2 2 2 2 2 2 2 2 2 2 2 2 2 2 2 2 2 2 2 2 2 2 2 2 2 2 2 2 2
left_child=1 16 4 7 20 11 -7 -3 9 -9 21 -5 25 -14 15 -15 -1 -18 19 -19 -2 22 -8 24 -24 -4 27 -13 -29 -6
right_child=2 3 12 5 29 6 10 8 -10 -11 -12 26 13 14 -16 -17 17 18 -20 -21 -22 -23 23 -25 -26 -27 -28 28 -30 -31
leaf_value=-0.0049395893477482385 -0.0015941090415632756 -0.0028638669492564856 -5.1266110162639665e-05 -0.0015544314683104184 0.00092010361975242031 0.00081040321805473682 -0.0003676374684563092 -0.0011511812093862217 0.000741723281973084 0.00037119118305686658 -0.0018934528697418258 -0.0012701719614102074 0.00066241996748794526 0.0031283779502659578 0.0026774792498269538 0.00098275986334823875 -0.0035464125407884788 0.0029227214641649193 -0.0024176095884473163 -0.0012585920102867521 0.00019890120188280314 -0.00087342037063472806 0.00092352015309007875 0.00035900978711416863 0.0059635198254383293 0.001994283634244635 -0.00077828603337280235 0.007261349096264926 2.6188878920626181e-05 0.0034781895809975639
leaf_weight=1551 176 208 80 4086 3642 933 433 1413 739 1419 1288 91 63 40 137 33 1887 45 1651 893 5689 1621 66 100 35 235 1575 45 242 24
leaf_count=1551 176 208 80 4086 3642 933 433 1413 739 1419 1288 91 63 40 137 33 1887 45 1651 893 5689 1621 66 100 35 235 1575 45 242 24
internal_value=0 -0.00167093 0.000993674 -0.0012012 0.000739166 -0.00153828 -0.000878017 -0.000263298 -7.14098e-05 -0.000497883 -0.00127434 -0.00202765 0.00511905 0.00708791 0.00880952 0.0134931 -0.00278497 -0.00245308 -0.00179413 -0.000522389 0.00023444 -0.000654103 0.000757097 0.00345771 0.00688119 0.0034127 -0.00118536 0.000687829 0.00196864 0.00154664
internal_weight=0 20321 10119 14294 9531 10515 4476 3779 3571 2832 3543 6039 588 273 210 73 6027 4476 2589 938 5865 2255 634 201 101 315 1953 378 287 3666
internal_count=30440 20321 10119 14294 9531 10515 4476 3779 3571 2832 3543 6039 588 273 210 73 6027 4476 2589 938 5865 2255 634 201 101 315 1953 378 287 3666
is_linear=0
shrinkage=0.05


Tree=33
num_leaves=31
num_cat=0
split_feature=6 6 6 7 3 5 3 6 5 4 4 7 5 4 6 8 8 8 7 3 3 5 7 2 4 6 8 6 7 5
split_gain=16.0761 5.42304 2.07968 1.27821 1.13893 1.43689 1.13555 1.08372 1.01232 1.36393 1.05557 1.07306 0.940601 1.44162 1.05543 0.930267 0.903646 0.823179 1.16838 0.822627 1.16975 0.815543 0.797309 0.782845 0.760207 0.79723 0.757307 1.75475 0.677279 1.30794
threshold=0.38724906167075063 0.54035340289137135 0.18084845714703088 6.8747152913649368 0.12940952255126043 0.68301270189221941 -0.60355339059327362 0.70695303259335296 -0.5 0.25000000000000017 0.25000000000000017 5.6149496020273224 -0.5 0.25000000000000017 0.24904984188016543 85.000000000000014 21.500000000000004 60.500000000000007 6.2998675207595936 0.91597561503675362 -0.25881904510252113 0.93301270189221952 5.6330006924953082 -0.9159756150367534 0.6830127018922193 0.41227323301607754 89.500000000000014 0.43994387137867796 6.3534997185584592 0.25000000000000006
decision_type=2 2 2 2 2 2 2 2 2 2 2 2 2 2 2 2 2 2 2 2 2 2 2 2 2 2 2 2 2 2
left_child=2 6 -1 7 5 -4 -2 23 9 19 11 -10 16 -14 17 21 -6 18 -15 20 -8 -9 -19 -3 25 -12 27 -21 29 -13
right_child=1 3 4 -5 12 -7 8 15 10 -11 24 28 13 14 -16 -17 -18 22 -20 26 -22 -23 -24 -25 -26 -27 -28 -29 -30 -31
leaf_value=-0.0041238386732305194 0.00018748501794811395 -0.0012536025214737847 -0.0005080186388525292 0.0034743478323732559 0.0011443679429844454 -0.0025069522711705068 0.0023227813350522124 0.0020206852798317254 -0.00080694891879190133 -0.0010998764941342017 -0.00096771708407677494 0.0040217749116347908 -0.002363534039465905 0.00059623806435568822 -0.00049570952132314946 0.00071626066931380938 -0.0024560631107774246 0.0041412766531006623 0.0047395713795134499 0.0038740780092044128 -0.0012743209964545556 -0.0017477099273159186 -0.002790681053791121 0.00087324657276881409 1.2786875600819258e-05 0.0015194476698718344 -0.00096625613468126991 -0.00035523529964924088 0.00038168216853807732 -0.00017440253107231833
leaf_weight=2513 4908 100 3071 21 76 1256 297 416 2664 1545 100 72 2598 83 1033 165 1992 25 28 95 912 20 66 3624 1718 514 61 97 425 92
leaf_count=2513 4908 100 3071 21 76 1256 297 416 2664 1545 100 72 2598 83 1033 165 1992 25 28 95 912 20 66 3624 1718 514 61 97 425 92
internal_value=0 0.000205647 -0.00211954 0.00174183 -0.0018029 -0.00118674 -0.00028889 0.00168208 -0.000635476 -0.00137513 -0.000237244 -0.000819245 -0.0022547 -0.00179103 -0.000384617 0.00365225 -0.00311412 0.00292079 0.00581081 -0.000280439 -0.000822995 0.00486238 -0.000604397 0.00136412 0.000574613 0.00208469 0.00231225 0.00385417 0.00111205 0.00384146
internal_weight=0 17846 12741 4346 10228 4327 13500 4325 8592 3007 5585 3253 5901 3833 1235 601 2068 202 111 1462 1209 436 91 3724 2332 614 253 192 589 164
internal_count=30587 17846 12741 4346 10228 4327 13500 4325 8592 3007 5585 3253 5901 3833 1235 601 2068 202 111 1462 1209 436 91 3724 2332 614 253 192 589 164
is_linear=0
shrinkage=0.05


Tree=34
num_leaves=31
num_cat=0
split_feature=6 6 6 2 7 6 5 9 8 2 7 5 9 8 5 5 7 2 1 5 6 1 6 9 9 9 8 7 7 5
split_gain=15.3054 4.746 2.67982 2.1009 1.58874 1.40097 1.00563 0.972666 1.30633 0.845335 1.11616 0.867895 1.09534 0.934497 0.830809 1.75505 0.821174 0.715827 1.20841 2.53169 1.08 0.712824 0.712399 0.790307 0.659613 0.609926 0.829362 0.751111 0.717391 0.607204
