tree
version=v3
num_class=1
num_tree_per_iteration=1
label_index=0
max_feature_idx=9
objective=quantile
feature_names=Month Hour hour_x hour_y month_x month_y net_target-23 diffuse_solar_radiation+1 relative_humidity+1 drybulb_temp+1
feature_infos=[1:12] [0:23] [-1:1] [-1:1] [-1:1] [-1:1] [0:1] [0:6.92578125] [10:100] [5.6015625:32.1875]
tree_sizes=2771 2919 2928 2931 2930 2952 2948 2951 2940 2979 2930 2941 2961 2944 2940 2948 2991 2934 2947 2937 2947 2955 2970 2937 2936 2919 2962 2922 2947 2931 2928 2952 2970 2987 2947 2955 2958 2941 2969 2964 2956 2938 2958 2977 2965 2957 2957 2956 2954 2925 2927 2964 2948 2945 2921 2933 2936 2902 2899 2959 2965 2950 2937 2932 2950 2925 2934 2907 2948 2920 2920 2959 2950 2925 2954 2918 2973 2894 2959 2937 2921 2971 2932 2926 2918 2929 2962 2916 2924 2946 2933 2897 2919 2969 2961 2904 2924 2843 2881 2867 2942 2940 2954 2893 2913 2931 2861 2938 2921 2849 2888 2882 2942 2925 2893 2894 2905 2882 2866 2873 2916 2850 2861 2912 2872 2881 2907 2901 2951 2892 2906 2833 2885 2872 2899 2856 2915 2892 2875 2920 2903 2875 2914 2881 2906 2859 2867 2898 2936 2878 2905 2869 2934 2879 2904 2912 2925 2870 2904 2878 2907 2882 2868 2875 2866 2885 2889 2921 2926 2870 2859 2872 2876 2873 2879 2911 2926 2904 2888 2854 2907 2870 2882 2899 2866 2881 2851 2890 2849 2895 2894 2926 2874 2863 2866 2858 2849 2870 2861 2903

Tree=0
num_leaves=31
num_cat=0
split_feature=6 2 6 6 1 1 7 6 6 6 6 6 4 0 0 6 0 6 7 7 7 1 0 0 1 4 1 7 8 6
split_gain=2978.32 173.877 125.961 52.1001 27.3474 26.5697 26.0567 13.0094 12.634 9.63884 9.44049 8.3686 8.18787 14.5906 7.79332 5.15914 4.71842 4.58318 4.44304 4.33924 4.24391 4.22462 5.47473 3.59439 3.54085 3.47766 3.26873 3.2565 2.82143 2.80428
threshold=0.42224121093750006 -0.60351562499999989 0.38024902343750006 0.43615722656250006 16.500000000000004 16.500000000000004 2.9179687500000004 0.27844238281250006 0.41101074218750006 0.39904785156250006 0.51147460937500011 0.42932128906250006 -0.68310546874999989 5.5000000000000009 5.5000000000000009 0.51342773437500011 1.5000000000000002 0.59252929687500011 5.8964843750000009 6.0527343750000009 5.4394531250000009 6.5000000000000009 4.5000000000000009 9.5000000000000018 13.500000000000002 1.0000000180025095e-35 1.0000000180025095e-35 5.4824218750000009 89.500000000000014 0.29968261718750006
decision_type=2 2 2 2 2 2 2 2 2 2 2 2 2 2 2 2 2 2 2 2 2 2 2 2 2 2 2 2 2 2
left_child=2 12 5 11 9 7 10 -1 -6 -4 21 27 13 -2 -7 20 -9 -15 -13 25 -8 -5 -23 -21 26 -14 -18 -3 -27 -16
right_child=1 3 4 6 8 14 15 16 -10 -11 -12 18 19 17 29 -17 24 -19 -20 23 -22 22 -24 -25 -26 28 -28 -29 -30 -31
leaf_value=0.41551574766635896 0.41905517578125001 0.4260101318359375 0.42354736328124998 0.42757568359374998 0.42474365234375 0.42265625000000001 0.42725830078124999 0.42274169921874999 0.42688720747828485 0.42506103515624999 0.43157958984375 0.42652587890624999 0.42307739262469113 0.42788452152162793 0.4215478518977761 0.43131103515625002 0.42297668484970929 0.4322290042415261 0.42318115234374998 0.42420227052643894 0.42698486335575581 0.42827148437500001 0.42817382812499999 0.42292236350476742 0.42171630859374998 0.42644042968750001 0.42255859374999999 0.4246063232421875 0.42378784185275437 0.4244555667042732
leaf_weight=5042 80 615 1384 2843 1351 648 978 411 348 1795 4194 634 54 283 78 1085 179 61 20 283 236 907 1256 94 861 334 3909 35 69 432
leaf_count=5042 80 615 1384 2843 1351 648 978 411 348 1795 4194 634 54 283 78 1085 179 61 20 283 236 907 1256 94 861 334 3909 35 69 432
internal_value=0.425537 0.442476 0.411131 0.444219 0.417869 0.408288 0.445293 0.407488 0.42299 0.415132 0.446483 0.434747 0.424738 0.430396 0.415472 0.440532 0.409203 0.434869 0.43874 0.421862 0.438292 0.445017 0.443351 0.417891 0.408776 0.425138 0.408162 0.430729 0.426734 0.420096
internal_weight=0 14061 16438 12803 4878 11560 11499 10402 1699 3179 9200 1304 1258 424 1158 2299 5360 344 654 834 1214 5006 2163 377 4949 457 4088 650 403 510
internal_count=30499 14061 16438 12803 4878 11560 11499 10402 1699 3179 9200 1304 1258 424 1158 2299 5360 344 654 834 1214 5006 2163 377 4949 457 4088 650 403 510
is_linear=0
shrinkage=1


Tree=1
num_leaves=31
num_cat=0
split_feature=6 7 6 1 6 1 1 6 6 7 1 6 6 6 6 5 0 0 6 7 1 5 5 9 7 1 9 0 7 0
split_gain=2785.75 182.097 136.715 31.0503 30.181 27.6633 26.508 14.0455 13.0786 12.1226 9.80509 9.58897 9.16691 8.92665 8.64607 7.06059 6.99225 6.88761 5.66482 5.1953 5.07567 5.89357 4.63319 3.76766 3.44669 2.89431 2.8799 2.86396 3.31771 2.77692
threshold=0.42346191406250006 4.8789062500000009 0.38024902343750006 16.500000000000004 0.43615722656250006 15.500000000000002 16.500000000000004 0.25378417968750006 0.39904785156250006 3.7958984375000004 8.5000000000000018 0.50903320312500011 0.40905761718750006 0.46203613281250006 0.47033691406250006 -1.0000000180025095e-35 4.5000000000000009 1.5000000000000002 0.42932128906250006 5.3496093750000009 6.5000000000000009 -1.0000000180025095e-35 0.68310546875000011 15.550781250000002 6.8066406250000009 13.500000000000002 12.101562500000002 11.500000000000002 5.9941406250000009 5.5000000000000009
decision_type=2 2 2 2 2 2 2 2 2 2 2 2 2 2 2 2 2 2 2 2 2 2 2 2 2 2 2 2 2 2
left_child=2 4 3 7 18 10 8 -1 -4 11 16 20 -8 27 19 -5 -3 -9 -2 -7 -6 -22 -16 -13 -15 -19 -20 -12 -29 -21
right_child=1 5 6 15 9 14 12 17 -10 -11 13 23 -14 24 22 -17 -18 25 26 29 21 -23 -24 -25 -26 -27 -28 28 -30 -31
leaf_value=-0.010289947539567948 0.00048904418945312507 -0.00064849853515625 -0.001901855617761611 -0.00088464349508285411 0.0019366455078125011 0.0011853029392659671 -0.00078552216291427612 -0.0025946044921874994 -0.00040344238281249948 0.0022821044921875005 -0.0020553526995703924 0.0056268319487571723 0.00069848630577325774 -9.3994140625000558e-05 0.0054214358014985468 -0.0027368164062500006 0.0015274171650409584 -0.0028904493532616012 0.00098327644169330665 -0.0024893798865377906 0.0022729492187500006 0.0025498047471046448 -0.00029968251939863078 0.0058275762200355524 0.0030320434551686041 -0.0042650343848390547 0.00097045902162790358 0.0011663818825036283 -0.0017651062039658431 0.00075695800594985515
leaf_weight=4382 458 45 1371 342 2892 103 1274 456 1898 697 361 2057 465 680 619 844 256 4531 118 40 821 1544 42 2431 120 1057 481 39 25 90
leaf_count=4382 458 45 1371 342 2892 103 1274 456 1898 697 361 2057 465 680 619 844 256 4531 118 40 821 1544 42 2431 120 1057 481 39 25 90
internal_value=0 0.0163713 -0.0139501 -0.0169282 0.0189949 0.00390496 -0.00704473 -0.0178002 -0.00969792 0.0198099 -0.000186762 0.0202655 -0.00205722 -0.00217347 0.0108893 -0.00926223 0.00789867 -0.0162376 0.0109437 0.0026073 0.0188163 0.0170983 0.0138086 0.021963 0.000937501 -0.0167198 0.0141444 -0.00802941 0.00171875 -0.00403846
internal_weight=0 13919 16620 11612 11499 2420 5008 10426 3269 10442 1526 9745 1739 1225 894 1186 301 6044 1057 233 5257 2365 661 4488 800 5588 599 425 64 130
internal_count=30539 13919 16620 11612 11499 2420 5008 10426 3269 10442 1526 9745 1739 1225 894 1186 301 6044 1057 233 5257 2365 661 4488 800 5588 599 425 64 130
is_linear=0
shrinkage=0.05


Tree=2
num_leaves=31
num_cat=0
split_feature=6 2 6 6 1 1 2 7 6 6 6 6 6 6 0 0 6 6 0 4 0 0 1 0 0 0 4 6 1 0
split_gain=2712.02 161.706 117.736 54.0687 41.7954 23.0288 21.2628 17.7305 11.906 11.0057 10.6121 9.08683 8.67873 8.39852 7.81122 10.3094 7.2457 6.8166 5.43677 4.89348 4.37424 4.28004 4.26943 3.58271 3.32793 3.27297 3.26886 3.24573 3.1148 4.06653
threshold=0.42102050781250006 -0.37939453124999994 0.37292480468750006 0.43395996093750006 16.500000000000004 15.500000000000002 -0.60351562499999989 3.7958984375000004 0.39904785156250006 0.25866699218750006 0.46057128906250006 0.46594238281250006 0.48010253906250006 0.41101074218750006 8.5000000000000018 11.500000000000002 0.30383300781250006 0.61157226562500011 1.5000000000000002 -0.68310546874999989 2.5000000000000004 6.5000000000000009 6.5000000000000009 6.5000000000000009 6.5000000000000009 11.500000000000002 0.68310546875000011 0.42712402343750006 1.5000000000000002 11.500000000000002
decision_type=2 2 2 2 2 2 2 2 2 2 2 2 2 2 2 2 2 2 2 2 2 2 2 2 2 2 2 2 2 2
left_child=2 6 5 27 8 9 11 10 20 -1 22 -2 26 24 -12 -16 -7 -9 -11 21 -4 -13 -5 -18 -6 -20 -8 -3 -22 -30
right_child=1 3 4 7 13 16 12 17 -10 18 14 19 -14 -15 15 -17 23 -19 25 -21 28 -23 -24 -25 -26 -27 -28 -29 29 -31
leaf_value=-0.0098367900475859645 -0.0017018062115367488 0.00038714599609374902 -0.0013673139577556684 0.0010219421386718774 -0.0010563049465417862 -0.0065894150063395499 7.6255934778549691e-06 0.0018591613769531239 -0.00046871948242187549 -0.002599151611328124 0.004318691926746397 0.00049350252729374821 0.0031886162078879291 0.0012586547639220958 0.002377332217320146 0.00433689299635671 -0.0025454621207337252 0.0098735885495269526 -0.0029902431573369196 -0.00023373264167457776 -0.0014289550706744177 0.0030775849488563823 0.0018036621063947684 -0.0012725401520729041 -0.00018777437508106233 -0.0028925869073369195 0.0012759567150845968 0.00071294701672161434 -0.0020014736260869194 -0.0011457517966628056
leaf_weight=4269 484 488 330 1521 730 621 251 790 1725 385 5191 121 459 305 1373 991 648 257 4077 504 220 151 860 377 793 390 167 608 1432 161
leaf_count=4269 484 488 330 1521 730 621 251 790 1725 385 5191 121 459 305 1373 991 648 257 4077 504 220 151 860 377 793 390 167 608 1432 161
internal_value=0 0.0157281 -0.0140842 0.0179711 -0.00827072 -0.0171596 0.00304984 0.0190278 -0.0112151 -0.0181419 0.01968 -0.00111111 0.00902794 -0.00204048 0.0205973 0.0182149 -0.0117163 0.0128391 -0.0165128 0.00224227 -0.0137039 0.00764706 0.0167692 -0.00913415 -0.00355712 -0.0170041 0.00381579 0.00738139 -0.0146677 -0.0154379
internal_weight=0 14216 16463 12079 5696 10767 2137 10983 3868 9121 9936 1260 877 1828 7555 2364 1646 1047 4852 776 2143 272 2381 1025 1523 4467 418 1096 1813 1593
internal_count=30679 14216 16463 12079 5696 10767 2137 10983 3868 9121 9936 1260 877 1828 7555 2364 1646 1047 4852 776 2143 272 2381 1025 1523 4467 418 1096 1813 1593
is_linear=0
shrinkage=0.05


Tree=3
num_leaves=31
num_cat=0
split_feature=6 2 6 6 1 1 2 6 6 6 1 6 6 9 0 6 0 1 1 0 5 3 0 0 1 0 0 3 6 2
split_gain=2515.26 162.673 112.848 58.4634 32.6505 28.7073 22.2416 13.0166 11.4152 11.3268 10.9391 9.54241 9.25465 6.83982 6.74228 6.58499 5.93549 5.69 5.39138 4.67762 4.24086 4.23357 4.22572 3.69012 3.56054 3.37486 3.31868 3.19106 3.66234 3.02004
threshold=0.41979980468750006 -0.37939453124999994 0.38024902343750006 0.43176269531250006 15.500000000000002 16.500000000000004 -0.60351562499999989 0.20196533203125003 0.49865722656250006 0.30822753906250006 6.5000000000000009 0.47497558593750006 0.39489746093750006 16.046875000000004 1.5000000000000002 0.48010253906250006 3.5000000000000004 6.5000000000000009 17.500000000000004 2.5000000000000004 0.93310546875000011 -0.60351562499999989 6.5000000000000009 10.500000000000002 1.5000000000000002 2.5000000000000004 11.500000000000002 1.0000000180025095e-35 0.34973144531250006 -0.78662109374999989
decision_type=2 2 2 2 2 2 2 2 2 2 2 2 2 2 2 2 2 2 2 2 2 2 2 2 2 2 2 2 2 2
left_child=2 6 4 17 7 12 11 -1 10 -6 -5 -2 24 -11 -9 23 18 25 -12 -14 -13 -10 -7 -8 -4 -3 -18 28 -16 -21
right_child=1 3 5 8 9 22 15 14 21 13 16 20 19 -15 27 -17 26 -19 -20 29 -22 -23 -24 -25 -26 -27 -28 -29 -30 -31
leaf_value=-0.011223002750054001 -0.0014921155806807774 0.0006931162367097562 -0.00051464206990873011 0.0014773942610845582 -0.0059440302986560264 -0.00074714204296469637 0.00013016017690570448 -0.0026522994995117179 0.0053171700692400924 -0.0023760795392991688 0.0010070779841082806 0.00073454745648301046 -0.00039084035077749683 -0.0011809135772849325 -0.0063649097863584751 0.0030466119763233115 0.0017165368646383295 0.0010192600304866862 0.0021999872446289105 -0.0020877395071089268 -0.0089537361751776175 0.004924787385556806 0.00013461491763706526 0.0012204123972635733 -0.0017879148394140971 6.3766479492188837e-06 0.0024825219698250303 -0.0027552817807200733 -0.0022516349105764911 -0.00042086944580078115
leaf_weight=2855 565 54 133 2896 677 795 317 511 2395 453 149 729 239 759 1501 468 1635 481 653 233 21 3200 843 112 996 448 260 4363 498 1377
leaf_count=2855 565 54 133 2896 677 795 317 511 2395 453 149 729 239 759 1501 468 1635 481 653 233 21 3200 843 112 996 448 260 4363 498 1377
internal_value=0 0.0149505 -0.0137647 0.0172174 -0.0163926 -0.00715121 0.0024774 -0.0175606 0.0182445 -0.0103772 0.0166471 -0.0016635 -0.0100756 -0.0074835 -0.0163819 0.00854794 0.0143558 0.00552645 0.0179613 -0.00789751 0.00203333 0.0198414 -0.00183455 0.00407343 -0.0136426 0.00180279 0.0128298 -0.0168257 -0.0151713 -0.00886646
internal_weight=0 14383 16233 12171 11617 4616 2212 9728 11188 1889 5593 1315 2978 1212 6873 897 2697 983 802 1849 750 5595 1638 429 1129 502 1895 6362 1999 1610
internal_count=30616 14383 16233 12171 11617 4616 2212 9728 11188 1889 5593 1315 2978 1212 6873 897 2697 983 802 1849 750 5595 1638 429 1129 502 1895 6362 1999 1610
is_linear=0
shrinkage=0.05


Tree=4
num_leaves=31
num_cat=0
split_feature=6 7 6 6 1 1 1 6 6 7 6 0 0 7 0 0 6 6 5 3 6 7 6 5 0 8 7 1 5 1
split_gain=2389.58 135.103 120.665 30.683 29.232 27.1131 23.4186 12.3735 10.7885 9.19979 8.7443 8.31713 11.8727 9.18239 7.18698 10.6619 7.07008 6.47565 6.19094 5.85616 4.71979 4.64482 4.2212 4.19806 3.7735 4.18706 3.69741 4.96398 3.57602 3.55371
threshold=0.42346191406250006 4.8789062500000009 0.37683105468750006 0.43811035156250006 16.500000000000004 16.500000000000004 15.500000000000002 0.25866699218750006 0.40368652343750006 3.7958984375000004 0.41101074218750006 5.5000000000000009 7.5000000000000009 6.1191406250000009 8.5000000000000018 11.500000000000002 0.45935058593750006 0.58618164062500011 -1.0000000180025095e-35 1.0000000180025095e-35 0.42712402343750006 6.0527343750000009 0.46203613281250006 0.68310546875000011 1.5000000000000002 77.500000000000014 4.4941406250000009 21.500000000000004 -0.68310546874999989 7.5000000000000009
decision_type=2 2 2 2 2 2 2 2 2 2 2 2 2 2 2 2 2 2 2 2 2 2 2 2 2 2 2 2 2 2
left_child=2 3 4 20 7 8 11 -1 28 14 -7 24 17 -14 22 -16 -8 -13 -6 -9 -2 -10 -5 -18 25 -3 27 -20 -4 -26
right_child=1 6 5 9 18 10 16 19 21 -11 -12 12 13 -15 15 -17 23 -19 26 -21 -22 -23 -24 -25 29 -27 -28 -29 -30 -31
leaf_value=-0.0088401179650047148 0.00055197472915717398 0.0019557789609423561 -0.0017392217932465676 0.0013799543709176517 -0.00083665755468261536 -0.00066910685010337977 0.00038403105489475401 -0.0030274685564200764 -0.00027775566101074237 0.0021499390004402399 0.001065700375977846 0.0018079368489059115 0.00053239088467731956 -0.0020175641011808527 0.0015920213702275863 0.0035415513406324888 0.0044902753728786908 0.0061237662278222039 -0.00090126178418585556 -0.0024710333166840684 0.0005854057617485503 -0.0023074491555616253 0.0039470361947594821 -0.00038090804864503901 0.00087172412030398828 -0.0019309414286404342 -0.0032667356374392223 -0.0023626425913820638 -0.0015426592661570684 -0.0027151204593348632
leaf_weight=4507 284 150 638 1244 308 1428 190 1806 1425 653 376 332 346 226 2047 1203 636 75 230 3791 1020 229 5097 51 31 70 366 204 1276 303
leaf_count=4507 284 150 638 1244 308 1428 190 1806 1425 653 376 332 346 226 2047 1203 636 75 230 3791 1020 229 5097 51 31 70 366 204 1276 303
internal_value=0 0.0147618 -0.0133134 0.017009 -0.0162656 -0.0071519 0.00399378 -0.017111 -0.00967769 0.0179285 -0.00215632 0.000265819 0.00303626 -0.00160839 0.0183195 0.0164077 0.0105103 0.00956388 -0.00855596 -0.0155409 0.00978528 -0.00672007 0.0192994 0.0128712 -0.00462996 0.000454546 -0.010875 -0.00775346 -0.0122335 -0.00797904
internal_weight=0 13958 16584 11548 11212 5372 2410 10104 3568 10244 1804 1533 979 572 9591 3250 877 407 1108 5597 1304 1654 6341 687 554 220 800 434 1914 334
internal_count=30542 13958 16584 11548 11212 5372 2410 10104 3568 10244 1804 1533 979 572 9591 3250 877 407 1108 5597 1304 1654 6341 687 554 220 800 434 1914 334
is_linear=0
shrinkage=0.05


Tree=5
num_leaves=31
num_cat=0
split_feature=6 7 6 6 3 6 7 4 3 6 6 7 6 7 5 5 6 6 6 3 5 5 5 7 3 4 3 5 9 9
split_gain=2225.44 136.789 119.46 39.1322 28.3874 21.8975 19.9479 18.3476 17.3724 15.0936 13.6553 10.4895 8.10447 7.90819 7.69148 7.34657 7.237 7.19962 6.01597 5.50151 5.98367 5.44175 4.4319 3.8581 3.75137 3.52386 3.1704 3.15155 2.96994 2.88414
threshold=0.42224121093750006 4.3378906250000009 0.37292480468750006 0.43273925781250006 -1.0000000180025095e-35 0.29968261718750006 5.5058593750000009 -0.68310546874999989 -0.60351562499999989 0.39904785156250006 0.58618164062500011 5.4394531250000009 0.40905761718750006 3.8603515625000004 1.0000000180025095e-35 1.0000000180025095e-35 0.51147460937500011 0.51782226562500011 0.17620849609375003 -1.0000000180025095e-35 1.0000000180025095e-35 -0.68310546874999989 0.68310546875000011 2.6738281250000004 1.0000000180025095e-35 1.0000000180025095e-35 -0.91601562499999989 0.68310546875000011 18.851562500000004 16.648437500000004
decision_type=2 2 2 2 2 2 2 2 2 2 2 2 2 2 2 2 2 2 2 2 2 2 2 2 2 2 2 2 2 2
left_child=2 3 5 -2 11 18 15 10 13 -6 14 12 27 -7 -8 17 19 -3 -1 20 -5 25 -10 -21 -20 -18 28 -4 -13 -15
right_child=1 6 4 16 9 8 7 -9 22 -11 -12 26 -14 29 -16 -17 21 -19 24 23 -22 -23 -24 -25 -26 -27 -28 -29 -30 -31
leaf_value=-0.01089611579851623 0.00037255643445454093 0.00093322638701009118 -0.00031317041862378991 0.0020183168656048665 -0.0016041847139870364 0.00019732440593433765 0.0017723796593134917 -0.0011309112879395887 -0.0022742394633498641 -0.00033711006546020551 0.0077512840305877032 -0.0029877280192497739 0.0011368625678949763 -0.0028468832164736113 -0.0041788066196313594 0.0004316316075587818 0.0065228333610237825 0.0053454338681013028 -0.0059959617562730001 0.0014140756248761225 0.0019330864799014952 0.004630748703954672 -0.0025427941508498644 0.0011615594933692764 -0.0064991970952897249 0.0015515987205483098 -0.0022922172364578711 -0.001145079523805484 0.0012017223271392737 -0.0022734529322632792
leaf_weight=2419 816 442 1065 1272 1812 216 446 885 2781 1572 181 26 437 192 90 448 807 332 1901 3122 1168 3539 1012 338 1562 228 441 352 63 627
leaf_count=2419 816 442 1065 1272 1812 216 446 885 2781 1572 181 26 437 192 90 448 807 332 1901 3122 1168 3539 1012 338 1562 228 441 352 63 627
internal_value=0 0.0140772 -0.0129752 0.016539 -0.00717406 -0.0160994 0.00423513 0.000564919 -0.013604 -0.0101182 0.00650976 -0.00299497 -0.00122168 -0.00786232 0.0025 0.00904665 0.0173606 0.0119961 -0.0181477 0.0162034 0.0143852 0.0188533 -0.0151707 0.0174855 -0.0168113 0.0156643 -0.00919811 -0.00305752 -0.000589887 -0.0101068
internal_weight=0 14114 16478 11290 5768 10710 2824 1602 4828 3384 717 2384 1854 1035 536 1222 10474 774 5882 5900 2440 4574 3793 3460 3463 1035 530 1417 89 819
internal_count=30592 14114 16478 11290 5768 10710 2824 1602 4828 3384 717 2384 1854 1035 536 1222 10474 774 5882 5900 2440 4574 3793 3460 3463 1035 530 1417 89 819
is_linear=0
shrinkage=0.05


Tree=6
num_leaves=31
num_cat=0
split_feature=2 1 2 7 0 0 4 0 0 0 0 1 0 0 0 0 0 1 0 0 7 0 0 7 1 0 2 1 1 7
split_gain=944.974 68.8591 63.1651 35.0969 24.2318 28.2759 20.4003 16.9553 22.5072 14.6543 14.6269 15.1717 13.6867 12.1179 11.8098 21.0182 9.69735 9.43104 9.39912 8.92804 6.8807 5.71215 5.19651 7.09667 5.50599 4.88184 5.4567 4.72173 4.89586 4.6405
threshold=-0.37939453124999994 17.500000000000004 -0.60351562499999989 3.9609375000000004 11.500000000000002 8.5000000000000018 1.0000000180025095e-35 2.5000000000000004 4.5000000000000009 1.5000000000000002 5.5000000000000009 3.5000000000000004 2.5000000000000004 5.5000000000000009 6.5000000000000009 8.5000000000000018 2.5000000000000004 18.500000000000004 11.500000000000002 11.500000000000002 5.9199218750000009 11.500000000000002 5.5000000000000009 4.6679687500000009 16.500000000000004 9.5000000000000018 -0.78662109374999989 1.0000000180025095e-35 16.500000000000004 5.9628906250000009
decision_type=2 2 2 2 2 2 2 2 2 2 2 2 2 2 2 2 2 2 2 2 2 2 2 2 2 2 2 2 2 2
left_child=2 3 7 4 5 9 13 29 -9 -2 16 -12 -3 -4 17 -16 -11 -14 -17 25 -21 -8 23 -5 -24 -10 -27 -7 -29 -1
right_child=1 12 6 22 -6 27 21 8 19 10 11 -13 14 -15 15 18 -18 -19 -20 20 -22 -23 24 -25 -26 26 -28 28 -30 -31
leaf_value=-0.0018151062336365324 0.0026636547623237724 0.0031806488745808655 -0.0031786824018477816 0.00014683192658408896 0.0021733953517375296 0.00050153209552847636 -0.00027074489089661045 -0.0094318512424425641 -0.0048751007171397229 0.0015955310179206783 0.0014615271841551078 0.00037844542623758363 -4.2780309243254417e-05 -0.0013801851380842401 0.0057272387816698746 0.0013168753115078906 0.00013614726810056422 0.0013260392377082454 0.0028936823227738136 -0.0010963493807398304 -0.0037316688057166835 0.0010693690432382449 -0.00083294987468719446 -0.0021199290543747517 0.001101440206305199 -0.0051478748272803668 -0.0030365381127294248 -0.00015702206358562444 0.0014418599807833126 -0.0036451251598194935
leaf_weight=753 943 1227 637 223 1017 306 832 1473 3689 793 1303 949 416 841 1256 1886 2352 2122 640 392 364 223 420 451 521 1062 425 2116 139 702
leaf_count=753 943 1227 637 223 1017 306 832 1473 3689 793 1303 949 416 841 1256 1886 2352 2122 640 392 364 223 420 451 521 1062 425 2116 139 702
internal_value=0 0.00636268 -0.0118356 0.00393285 0.00504588 0.00421048 -0.00487268 -0.0138262 -0.0147957 0.00600158 0.00499676 0.00807282 0.0100759 -0.00866373 0.00913766 0.0109083 0.00279412 0.00649921 0.00827989 -0.0134221 -0.00834656 0.000438389 -0.00290248 -0.00625371 -0.000502125 -0.0141634 -0.016582 -0.000223545 -0.00101441 -0.00889175
internal_weight=0 19080 11393 11533 9918 8901 2533 8860 7405 6340 5397 2252 7547 1478 6320 3782 3145 2538 2526 5932 756 1055 1615 674 941 5176 1487 2561 2255 1455
internal_count=30473 19080 11393 11533 9918 8901 2533 8860 7405 6340 5397 2252 7547 1478 6320 3782 3145 2538 2526 5932 756 1055 1615 674 941 5176 1487 2561 2255 1455
is_linear=0
shrinkage=0.05


Tree=7
num_leaves=31
num_cat=0
split_feature=6 6 2 6 1 2 1 5 6 6 1 6 6 6 6 5 7 1 1 1 3 5 5 5 6 5 5 6 6 9
split_gain=2014.87 100.416 98.606 60.9861 25.6022 23.8686 22.7718 10.8374 9.17669 7.64297 11.329 7.47146 6.63778 6.56817 5.20234 5.03559 4.97935 4.86965 4.40129 4.11845 3.76638 3.72308 3.71058 3.54905 3.38749 3.17076 4.80309 3.0807 3.04581 3.02305
threshold=0.41979980468750006 0.37170410156250006 -0.60351562499999989 0.43811035156250006 16.500000000000004 -1.0000000180025095e-35 15.500000000000002 -1.0000000180025095e-35 0.18591308593750003 0.51782226562500011 17.500000000000004 0.39489746093750006 0.52856445312500011 0.42810058593750006 0.48156738281250006 -1.0000000180025095e-35 5.8261718750000009 1.0000000180025095e-35 16.500000000000004 6.5000000000000009 1.0000000180025095e-35 0.68310546875000011 -0.68310546874999989 1.0000000180025095e-35 0.30822753906250006 0.68310546875000011 -0.68310546874999989 0.46716308593750006 0.39221191406250006 12.898437500000002
decision_type=2 2 2 2 2 2 2 2 2 2 2 2 2 2 2 2 2 2 2 2 2 2 2 2 2 2 2 2 2 2
left_child=1 6 12 13 11 14 8 -8 -1 10 -7 17 -2 18 -5 -12 -15 -3 23 -19 -10 -14 -16 -4 -9 26 -11 -17 -6 -26
right_child=2 4 3 5 28 9 7 24 20 25 15 -13 21 16 22 27 -18 19 -20 -21 -22 -23 -24 -25 29 -27 -28 -29 -30 -31
leaf_value=-0.0098084827071084329 -0.0006304561490908608 -0.00012812300728934673 0.00010708426301489416 0.00084163822761159149 -0.00097853696534940036 0.0014353514578607418 -0.0011481359148529421 -0.0056355718171792607 -0.0042347912586838737 0.0052795348970872645 0.0018067578170740375 -0.00043689756534106839 0.0023255949024217153 0.00053999500115801524 0.0016795328221194039 0.0015235462781476973 -0.0019538293600417328 -0.0016137878763815183 0.00095706188603924549 -0.0013895826289524915 -0.002604725590322406 -0.0013552655921177238 0.003291196560435953 -0.00020238374647765374 -0.0023202563329749572 0.0031751058061430118 0.0050575974129921965 0.0019488183889477151 -3.2334191333678596e-05 -0.0021547863536062403
leaf_weight=2539 914 94 321 677 893 2935 465 469 2174 1059 824 1806 319 961 264 539 29 978 250 957 4197 54 874 186 71 786 2360 950 915 627
leaf_count=2539 914 94 321 677 893 2935 465 469 2174 1059 824 1806 319 961 264 539 29 978 250 957 4197 54 874 186 71 786 2360 950 915 627
internal_value=0 -0.0127935 0.0129636 0.0142691 -0.00741051 0.0156168 -0.0156749 -0.0102451 -0.0166695 0.0166251 0.0153525 -0.00972295 -0.000238927 0.0055767 0.010365 0.0127356 0.00825758 -0.0118051 0.00207067 -0.012345 -0.0156565 0.00538204 0.0124297 -0.000606508 -0.0128171 0.0182134 0.0188717 0.0144711 -0.00250553 -0.0106089
internal_weight=0 16185 14302 13015 5643 11268 10542 1632 8910 9453 5248 3835 1287 1747 1815 2313 990 2029 757 1935 6371 373 1138 507 1167 4205 3419 1489 1808 698
internal_count=30487 16185 14302 13015 5643 11268 10542 1632 8910 9453 5248 3835 1287 1747 1815 2313 990 2029 757 1935 6371 373 1138 507 1167 4205 3419 1489 1808 698
is_linear=0
shrinkage=0.05


Tree=8
num_leaves=31
num_cat=0
split_feature=2 2 1 0 0 1 0 0 4 4 8 0 0 0 0 0 1 0 0 0 1 9 0 8 9 1 5 0 9 2
split_gain=821.466 59.4458 58.4061 20.9818 26.0602 24.7575 17.0109 21.3983 14.9675 12.0629 13.2391 10.8959 10.5575 9.08579 7.07366 19.4378 9.55432 7.8338 6.69056 6.57493 5.31343 4.97104 8.81389 5.22731 4.83121 4.57156 4.20834 3.67857 3.45668 3.35781
threshold=-0.37939453124999994 -0.60351562499999989 17.500000000000004 11.500000000000002 2.5000000000000004 1.0000000180025095e-35 2.5000000000000004 4.5000000000000009 0.68310546875000011 -0.68310546874999989 83.500000000000014 2.5000000000000004 6.5000000000000009 11.500000000000002 6.5000000000000009 8.5000000000000018 18.500000000000004 11.500000000000002 5.5000000000000009 2.5000000000000004 3.5000000000000004 20.648437500000004 7.5000000000000009 27.500000000000004 16.046875000000004 15.500000000000002 -1.0000000180025095e-35 5.5000000000000009 23.601562500000004 -0.78662109374999989
decision_type=2 2 2 2 2 2 2 2 2 2 2 2 2 2 2 2 2 2 2 2 2 2 2 2 2 2 2 2 2 2
left_child=1 6 3 4 -2 24 28 -8 18 10 12 -4 -7 21 16 -16 -13 -17 19 -3 27 23 -23 -9 -6 26 -10 -12 -1 -25
right_child=2 8 11 -5 5 9 7 13 25 -11 20 14 -14 -15 15 17 -18 -19 -20 -21 -22 22 -24 29 -26 -27 -28 -29 -30 -31
leaf_value=-0.002097546692329897 0.001752871488597833 -0.0009634989866029207 0.0024600217859374047 0.001809564745196515 0.00045872851486374939 -0.00022449822260790518 -0.0087227872177777482 0.00098775834147681323 -0.0019948666762422454 -9.5246080740860059e-05 -4.8948674036985997e-06 -0.00020105755160790994 0.0018587910836228962 -0.0019648863311833385 0.0053852387421945251 0.0010673944217232095 0.001161595388544286 0.0025208420030106682 -0.0012316833968594898 -0.0027398498737915907 0.00047612507601797749 -0.0036807641794485897 -0.0038468527318055099 -0.0059570512359852059 0.0017383220960661154 0.00075840776847385942 0.00025504369241379491 0.0014697847972686107 -0.0046073672799952434 -0.0042371111463957627
leaf_weight=1401 1817 191 1229 982 361 1111 1511 40 107 5110 51 422 327 753 1273 1849 2064 637 1065 646 580 988 1704 1625 595 340 237 487 56 853
leaf_count=1401 1817 191 1229 982 361 1111 1511 40 107 5110 51 422 327 753 1273 1849 2064 637 1065 646 580 988 1704 1625 595 340 237 487 56 853
internal_value=0 -0.0115423 0.00539892 0.00315012 0.00249282 0.00134598 -0.0134753 -0.0144387 -0.00486659 0.000399818 0.00320423 0.0088353 3.12941e-05 -0.013092 0.00798839 0.00935688 0.00591915 0.00678399 -0.00714774 -0.0104928 0.00728533 -0.013834 -0.0123403 -0.0154309 0.00893305 0.00147661 -0.00258721 0.0108643 -0.00853294 -0.0157203
internal_weight=0 11517 18895 11421 10439 8622 8931 7474 2586 7666 2556 7474 1438 5963 6245 3759 2486 2486 1902 837 1118 5210 2692 2518 956 684 344 538 1457 2478
internal_count=30412 11517 18895 11421 10439 8622 8931 7474 2586 7666 2556 7474 1438 5963 6245 3759 2486 2486 1902 837 1118 5210 2692 2518 956 684 344 538 1457 2478
is_linear=0
shrinkage=0.05


Tree=9
num_leaves=31
num_cat=0
split_feature=6 6 2 6 3 2 3 7 6 6 3 6 7 6 3 5 5 6 4 6 6 4 6 4 7 7 2 4 5 4
split_gain=1792.24 96.0439 80.2045 56.9306 18.2206 17.1319 17.1154 10.5292 10.4417 9.462 8.56185 7.6322 7.13957 5.53135 8.59301 5.91419 5.30508 4.90654 4.84551 4.44501 4.39577 4.33589 3.82837 3.78696 3.26667 3.13206 3.06927 3.06 3.00699 3.48658
threshold=0.42102050781250006 0.37292480468750006 -0.60351562499999989 0.44104003906250006 -0.78662109374999989 -1.0000000180025095e-35 1.0000000180025095e-35 3.8603515625000004 0.38610839843750006 0.18591308593750003 1.0000000180025095e-35 0.43176269531250006 5.4394531250000009 0.46813964843750006 1.0000000180025095e-35 -0.68310546874999989 -1.0000000180025095e-35 0.50512695312500011 1.0000000180025095e-35 0.52856445312500011 0.40368652343750006 -0.68310546874999989 0.34509277343750006 1.0000000180025095e-35 3.1132812500000004 4.1191406250000009 -1.0000000180025095e-35 -0.68310546874999989 1.0000000180025095e-35 1.0000000180025095e-35
decision_type=2 2 2 2 2 2 2 2 2 2 2 2 2 2 2 2 2 2 2 2 2 2 2 2 2 2 2 2 2 2
left_child=1 4 19 11 7 17 12 -1 -8 -6 22 -4 20 14 -7 23 -9 -5 -16 28 -3 -14 -11 -15 -19 -13 -10 -26 -2 -30
right_child=2 6 3 5 9 13 8 16 26 10 -12 25 21 15 18 -17 -18 24 -20 -21 -22 -23 -24 -25 27 -27 -28 -29 29 -31
leaf_value=0.00060681781727812978 1.226547057670835e-05 -0.00077654911586430087 0.00023280152492598453 0.00098106981397134562 -0.0089925220730400664 0.0013244496253722086 -0.0015161218960022844 -0.0018703394353689279 -0.00062684580865246151 -0.0046948645744469891 -0.0024531197566908833 0.00048186394558992018 -0.00049209795207869056 0.0043895425695708893 0.001068593246088262 0.0031388154725843277 -0.0033359794703605402 0.004101537681181106 0.00066537654674043165 0.0015556115407859541 6.1931387211581606e-05 -0.0016194887763391779 -0.0018825454702589063 0.0014246704508007553 0.0059984874069543836 0.00013619084514014708 -0.00035903846420381748 0.0027584566139432429 -0.0052183149660708725 -0.00081093680904732518
leaf_weight=142 581 1395 989 852 2500 1058 1035 357 674 1771 4300 923 177 1169 741 5350 825 140 395 358 671 523 771 403 225 129 1184 510 76 238
leaf_count=142 581 1395 989 852 2500 1058 1035 357 674 1771 4300 923 177 1169 741 5350 825 140 395 358 671 523 771 403 225 129 1184 510 76 238
internal_value=0 -0.012356 0.0119628 0.0131372 -0.0151495 0.0145792 -0.00709092 -0.00966012 -0.00977964 -0.0159275 -0.0149657 0.00547648 -0.00427874 0.0154443 0.0132566 0.0161377 -0.0112056 0.010013 0.0162764 -0.000113726 -0.0028001 -0.00864286 -0.0126652 0.0134415 0.0126429 0.00844107 -0.00753767 0.0113095 -0.00199721 -0.00593949
internal_weight=0 16325 14137 12884 10666 10843 5659 1324 2893 9342 6842 2041 2766 9116 2194 6922 1182 1727 1136 1253 2066 700 2542 1572 875 1052 1858 735 895 314
internal_count=30462 16325 14137 12884 10666 10843 5659 1324 2893 9342 6842 2041 2766 9116 2194 6922 1182 1727 1136 1253 2066 700 2542 1572 875 1052 1858 735 895 314
is_linear=0
shrinkage=0.05


Tree=10
num_leaves=31
num_cat=0
split_feature=6 6 7 6 1 1 6 6 0 6 0 0 5 7 0 0 6 6 5 3 6 3 6 5 0 0 6 0 7 9
split_gain=1703.95 100.46 75.0237 42.638 23.0683 22.0188 16.6917 9.96054 8.83732 8.43648 8.40881 10.7162 7.5816 7.07239 6.85874 6.31594 5.27511 5.10338 4.71637 4.69838 4.36636 4.05409 3.75548 3.80781 3.7037 6.31605 3.48064 3.44241 3.22187 3.84973
threshold=0.42346191406250006 0.37292480468750006 4.5273437500000009 0.44104003906250006 15.500000000000002 15.500000000000002 0.52856445312500011 0.40368652343750006 5.5000000000000009 0.19097900390625003 8.5000000000000018 11.500000000000002 -1.0000000180025095e-35 5.7402343750000009 7.5000000000000009 1.5000000000000002 0.41101074218750006 0.47131347656250006 -0.68310546874999989 1.0000000180025095e-35 0.43176269531250006 0.37939453125000006 0.55737304687500011 0.93310546875000011 8.5000000000000018 5.5000000000000009 0.59594726562500011 6.5000000000000009 5.6699218750000009 12.898437500000002
decision_type=2 2 2 2 2 2 2 2 2 2 2 2 2 2 2 2 2 2 2 2 2 2 2 2 2 2 2 2 2 2
left_child=1 5 3 20 7 9 13 18 -8 -1 22 -12 -7 27 26 -11 -6 -13 -3 -17 -2 -20 -5 -24 25 -15 -10 -4 29 -14
right_child=2 4 6 10 16 12 8 -9 14 15 11 17 28 24 -16 19 -18 -19 21 -21 -22 -23 23 -25 -26 -27 -28 -29 -30 -31
leaf_value=-0.0085106448489475888 0.00030674626561466394 -0.0012960529341825616 0.00029346113056014106 0.0017111270832530893 -0.00063541840443248837 -0.0013862863477047346 0.00070990917132713086 -0.00026289763583914691 0.0039018382518050156 -0.0019614112336203797 0.0011834433430803393 0.0014878335930958804 -0.0021820861891329898 -0.0016889017847110908 0.002604344833211245 -0.0037794690847844526 0.00060573094551811721 0.0032366033973913913 -0.00088365192934050066 -0.0023189084925241839 0.00039416584627899949 -0.0012628720963335117 0.0052324740439470205 0.001705719912593063 -0.0011630743110619822 0.00099003736290035759 0.0084995884639140189 0.0011907298001916618 -0.004695102587617358 -0.0017619741416208914
leaf_weight=2612 673 778 401 4402 1665 471 277 1573 164 453 1975 254 89 236 301 1984 411 941 518 4072 961 980 1855 158 212 432 207 433 437 632
leaf_count=2612 673 778 401 4402 1665 471 277 1573 164 453 1975 254 89 236 301 1984 411 941 518 4072 961 980 1855 158 212 432 207 433 437 632
internal_value=0 -0.0117444 0.0119691 0.0137599 -0.00651688 -0.0146256 0.00442452 -0.00880813 0.00974447 -0.0155819 0.0150326 0.0129259 -0.00927102 0.001479 0.0128423 -0.0146186 -0.00226879 0.0166632 -0.0109227 -0.0150446 0.00629437 -0.00928238 0.0160737 0.0178626 -0.00164773 0.000179641 0.0173922 0.00477818 -0.0114465 -0.0093932
internal_weight=0 16675 13882 11219 5925 10750 2663 3849 949 9121 9585 3170 1629 1714 672 6509 2076 1195 2276 6056 1634 1498 6415 2013 880 668 371 834 1158 721
internal_count=30557 16675 13882 11219 5925 10750 2663 3849 949 9121 9585 3170 1629 1714 672 6509 2076 1195 2276 6056 1634 1498 6415 2013 880 668 371 834 1158 721
is_linear=0
shrinkage=0.05


Tree=11
num_leaves=31
num_cat=0
split_feature=6 6 7 6 1 6 6 5 0 7 0 0 1 1 6 6 0 1 0 0 1 6 0 7 1 6 7 9 0 9
split_gain=1529.02 81.8374 70.1018 53.7456 28.0133 13.1572 13.0931 11.1505 10.5557 9.3152 8.72365 12.2333 8.27577 6.76671 6.21477 5.40469 4.88456 4.68592 4.5779 4.54609 4.80726 4.27826 4.20017 4.12298 4.07606 4.06116 3.93401 4.58701 3.78095 3.58369
threshold=0.41979980468750006 0.38854980468750006 4.3378906250000009 0.44299316406250006 15.500000000000002 0.52856445312500011 0.34729003906250006 -1.0000000180025095e-35 5.5000000000000009 5.7402343750000009 8.5000000000000018 11.500000000000002 16.500000000000004 6.5000000000000009 0.66479492187500011 0.43176269531250006 11.500000000000002 1.0000000180025095e-35 2.5000000000000004 4.5000000000000009 11.500000000000002 0.57934570312500011 11.500000000000002 3.1132812500000004 9.5000000000000018 0.54370117187500011 5.7558593750000009 14.300781250000002 2.5000000000000004 11.000000000000002
decision_type=2 2 2 2 2 2 2 2 2 2 2 2 2 2 2 2 2 2 2 2 2 2 2 2 2 2 2 2 2 2
left_child=1 4 3 15 6 9 18 -6 25 29 21 -12 -3 17 -10 16 23 -8 -1 -20 -21 -5 28 -2 -11 -7 27 -9 -15 -4
right_child=2 12 5 10 7 8 13 26 14 24 11 -13 -14 22 -16 -17 -18 -19 19 20 -22 -23 -24 -25 -26 -27 -28 -29 -30 -31
leaf_value=-0.003915273071566837 1.0206570033013952e-05 -0.00038897681545166932 -0.0021787065126998039 0.0017852144340651467 -0.0011194748674071304 0.0038471445364538122 -0.0014082279084437505 -0.0018975583067668391 0.0032372626265591061 0.00097767098680443063 0.001244047863133831 0.0026995775823739801 -0.00022370646051247026 -0.00074959062503864005 0.0089031322834897918 0.00037469174469627103 0.0017294855578656677 -0.0015263999860553894 -0.0071469047425656825 -0.0046857895387637316 -0.0056152961717098136 0.0051709564848749171 -0.00047330001006660517 0.00088656380793190751 -0.00094046628612390814 -0.00072210480833116079 -0.0044446023274274859 -0.0014561886733013376 -0.0012532183491566499 0.00078184233745002803
leaf_weight=782 760 2190 24 4659 730 45 212 288 557 121 1944 1169 1169 297 150 1174 67 1945 1440 2222 2279 1546 149 105 812 239 423 815 1130 921
leaf_count=782 760 2190 24 4659 730 45 212 288 557 121 1944 1169 1169 297 150 1174 67 1945 1440 2222 2279 1546 149 105 812 239 423 815 1130 921
internal_value=0 -0.0116233 0.0108555 0.0126103 -0.0134574 0.00386807 -0.0145476 -0.00840425 0.00852926 0.00140841 0.0142407 0.0120808 -0.0046822 -0.0121732 0.0117999 0.00539649 0.00255365 -0.0139928 -0.0158661 -0.0163394 -0.0155571 0.0153243 -0.00968274 0.00154624 -0.00213558 0.000387325 -0.0108355 -0.00926337 -0.0105168 0.00490741
internal_weight=0 16071 14293 11424 12712 2869 10456 2256 991 1878 9318 3113 3359 3733 707 2106 932 2157 6723 5941 4501 6205 1576 865 933 284 1526 1103 1427 945
internal_count=30364 16071 14293 11424 12712 2869 10456 2256 991 1878 9318 3113 3359 3733 707 2106 932 2157 6723 5941 4501 6205 1576 865 933 284 1526 1103 1427 945
is_linear=0
shrinkage=0.05


Tree=12
num_leaves=31
num_cat=0
split_feature=6 6 7 6 1 1 6 7 6 0 1 6 4 6 6 0 1 4 0 6 0 1 6 0 6 0 5 0 3 5
split_gain=1451.08 73.4692 68.2031 50.3302 17.5747 17.1522 14.1421 9.24482 9.18934 9.02841 8.57344 7.96803 6.36777 5.56417 5.16638 4.93496 4.62187 4.76358 4.54809 4.52165 4.42952 4.43508 4.12465 4.01102 3.96807 3.69918 3.68816 3.68459 3.98908 3.60402
threshold=0.41979980468750006 0.36901855468750006 4.8789062500000009 0.44104003906250006 14.500000000000002 14.500000000000002 0.51538085937500011 5.7558593750000009 0.39782714843750006 5.5000000000000009 16.500000000000004 0.54125976562500011 0.68310546875000011 0.32507324218750006 0.30383300781250006 5.5000000000000009 6.5000000000000009 -0.68310546874999989 9.5000000000000018 0.43176269531250006 2.5000000000000004 1.0000000180025095e-35 0.23052978515625003 2.5000000000000004 0.46716308593750006 6.5000000000000009 -1.0000000180025095e-35 6.5000000000000009 1.0000000180025095e-35 -1.0000000180025095e-35
decision_type=2 2 2 2 2 2 2 2 2 2 2 2 2 2 2 2 2 2 2 2 2 2 2 2 2 2 2 2 2 2
left_child=1 5 3 19 8 13 7 -4 20 22 29 16 18 23 -11 -12 17 -5 -13 -2 -3 -22 -7 -1 -18 -6 -14 -25 -29 -8
right_child=2 4 6 11 25 9 10 -9 -10 14 15 12 26 -15 -16 -17 24 -19 -20 -21 21 -23 -24 27 -26 -27 -28 28 -30 -31
leaf_value=-0.0041804739149205322 0.00020122704111211079 -0.0009047581043010374 0.00054267726270553764 0.0016396813948857504 -0.00097389672710469159 -0.0070964874351172854 0.0028908543679874929 -0.00079730063749667646 -0.00031190159738645682 -0.0041504955361791607 0.00061824685987718793 0.0039547670823411891 0.0027161223693044664 -0.0016661352979363997 -0.00089707876515566229 0.0067750492194488046 0.0011153754994493018 0.0010950368764844226 0.0014709925266675682 0.00035642553892389905 -0.00044811089131606766 -0.0012744191611887348 -0.0021872646184730011 -0.0063507517017609653 0.0017015655719965933 -0.00031610125523187107 0.0047331197116355847 -0.0055305446869539131 -0.0049470136816008895 0.00035408162916616341
leaf_weight=559 994 343 645 860 995 412 296 841 1513 600 51 2190 130 2471 580 263 1005 2222 164 982 105 1910 839 2278 2255 1184 974 1179 1187 378
leaf_count=559 994 343 645 860 995 412 296 841 1513 600 51 2190 130 2471 580 263 1005 2222 164 982 105 1910 839 2278 2255 1184 974 1179 1187 378
internal_value=0 -0.0115189 0.0103702 0.0119557 -0.00716116 -0.0141279 0.00282336 -0.000259084 -0.00918303 -0.0104679 0.00745951 0.0134235 0.0153543 -0.0152873 -0.00733051 0.0142834 0.0123707 0.0137589 0.0138849 0.00467611 -0.0111344 -0.0120285 -0.0134273 -0.0162152 0.0110583 -0.0035693 0.0184873 -0.0166968 -0.0153149 0.00428042
internal_weight=0 16155 14250 11776 6050 10105 2474 1486 3871 2431 988 9800 3458 7674 1180 314 6342 3082 2354 1976 2358 2015 1251 5203 3260 2179 1104 4644 2366 674
internal_count=30405 16155 14250 11776 6050 10105 2474 1486 3871 2431 988 9800 3458 7674 1180 314 6342 3082 2354 1976 2358 2015 1251 5203 3260 2179 1104 4644 2366 674
is_linear=0
shrinkage=0.05


Tree=13
num_leaves=31
num_cat=0
split_feature=6 6 6 7 6 3 7 0 6 0 0 5 3 7 6 7 0 6 6 3 6 6 5 0 0 6 5 7 0 8
split_gain=1326.62 85.1191 65.081 41.7242 19.6755 20.3688 13.7327 10.0702 8.92097 7.29305 8.64037 7.17498 6.80395 7.63127 7.0061 6.32663 5.80373 5.55201 4.85582 6.68106 4.39623 4.36113 5.2441 4.29018 4.22237 4.20117 4.07936 3.37525 4.68348 3.32881
threshold=0.41979980468750006 0.38024902343750006 0.44299316406250006 3.8603515625000004 0.30383300781250006 -0.37939453124999994 5.8027343750000009 5.5000000000000009 0.65795898437500011 7.5000000000000009 11.500000000000002 0.68310546875000011 1.0000000180025095e-35 6.0761718750000009 0.38732910156250006 5.3203125000000009 6.5000000000000009 0.58325195312500011 0.13739013671875003 1.0000000180025095e-35 0.43518066406250006 0.45568847656250006 0.68310546875000011 11.500000000000002 7.5000000000000009 0.47741699218750006 0.68310546875000011 5.5058593750000009 9.5000000000000018 74.500000000000014
decision_type=2 2 2 2 2 2 2 2 2 2 2 2 2 2 2 2 2 2 2 2 2 2 2 2 2 2 2 2 2 2
left_child=1 4 6 9 18 11 16 15 27 21 17 -6 13 -3 -14 29 -2 -11 -1 -20 23 -4 -23 -18 -15 -12 -7 -9 -29 -5
right_child=2 12 3 7 5 26 -8 8 -10 10 25 -13 14 24 -16 -17 20 -19 19 -21 -22 22 -24 -25 -26 -27 -28 28 -30 -31
leaf_value=-0.0091063394163646439 0.00010427660788351133 -0.0003571324687844039 0.00092619055362345559 0.001737318061526141 -0.00081629045937405345 -0.0014917661331508695 -0.001439082276573253 0.0016582420302971301 0.0079723645793796441 0.00099145845401015648 0.001250159614001134 -0.0017715397379761842 -0.001158242958602982 -0.0013760725300615106 -0.00031887442051996078 -0.00080805526359139514 0.00022221838943909403 0.0046686754719947798 -0.0048037112459410327 -0.0049320242442279696 0.00039729682437997585 0.0029170617036795104 0.0013926653726378385 0.0015016869403695161 -0.0015132543961822811 0.003054257142854028 -0.0016692567308211469 0.0018236784495112603 -0.00071968564845667634 0.00032971023258877223
leaf_weight=1588 1129 1997 543 186 1085 3056 269 650 203 1873 261 451 522 148 1726 445 693 694 2530 1881 518 2983 1895 101 191 855 1058 694 143 213
leaf_count=1588 1129 1997 543 186 1085 3056 269 650 203 1873 261 451 522 148 1726 445 693 694 2530 1881 518 2983 1895 101 191 855 1058 694 143 213
internal_value=0 -0.0109833 0.00988431 0.0115093 -0.0132546 -0.0111372 0.0029059 0.00583465 0.00806213 0.0130888 0.0113718 -0.00622396 -0.0052116 -0.00332192 -0.00717527 0.00137441 0.00408746 0.00977503 -0.0152488 -0.0143953 0.00634909 0.0142552 0.0147284 0.00401134 -0.0102581 0.0150448 -0.0129716 0.00671991 0.00462067 0.00594612
internal_weight=0 16233 14348 11638 11649 5650 2710 2534 1690 9104 3683 1536 4584 2336 2248 844 2441 2567 5999 4411 1312 5421 4878 794 339 1116 4114 1487 837 399
internal_count=30581 16233 14348 11638 11649 5650 2710 2534 1690 9104 3683 1536 4584 2336 2248 844 2441 2567 5999 4411 1312 5421 4878 794 339 1116 4114 1487 837 399
is_linear=0
shrinkage=0.05


Tree=14
num_leaves=31
num_cat=0
split_feature=2 1 7 5 0 0 1 0 1 0 0 7 0 1 0 1 0 7 0 7 1 0 0 8 0 0 8 8 0 0
split_gain=531.79 64.5394 33.9502 23.3531 22.055 20.7391 18.1674 15.4463 13.3481 10.2588 9.3223 12.6389 9.83246 8.60365 7.4273 6.85651 6.76275 11.6659 6.64331 5.31137 4.74503 4.70994 4.7056 4.66308 4.50057 4.25314 4.22802 4.13342 4.30004 3.89769
threshold=-0.37939453124999994 17.500000000000004 5.4980468750000009 0.68310546875000011 11.500000000000002 1.5000000000000002 1.0000000180025095e-35 2.5000000000000004 14.500000000000002 1.5000000000000002 5.5000000000000009 4.0859375000000009 8.5000000000000018 15.500000000000002 6.5000000000000009 18.500000000000004 8.5000000000000018 2.6738281250000004 3.5000000000000004 4.5273437500000009 16.500000000000004 9.5000000000000018 5.5000000000000009 59.500000000000007 7.5000000000000009 6.5000000000000009 71.500000000000014 89.500000000000014 11.500000000000002 6.5000000000000009
decision_type=2 2 2 2 2 2 2 2 2 2 2 2 2 2 2 2 2 2 2 2 2 2 2 2 2 2 2 2 2 2
left_child=2 4 13 8 5 -2 21 23 -4 -3 11 18 14 19 -12 -14 17 22 -11 -1 -18 25 -8 -5 29 -7 -20 28 -17 -24
right_child=1 9 3 7 -6 6 16 -9 -10 10 12 -13 15 -15 -16 27 20 -19 26 -21 -22 -23 24 -25 -26 -27 -28 -29 -30 -31
leaf_value=-9.1680274405653991e-05 0.0016628119148560773 0.0028991939580943569 -0.0029246883742931346 -0.00092392369373864064 0.0013544584440342584 0.00078388087319502414 1.7590717991004717e-05 -0.0064522266852089219 -0.001570323815190805 0.0010193571881553657 0.001897996857616165 -0.0011613227420821999 0.0019328234791674366 0.00040240030104990584 0.0041988462773376182 0.00057829528319143541 -0.00021507748021603121 -0.00052987907869943935 0.0012417901346172323 -0.0013947991824575479 0.00074261557300217974 -1.9011330207564225e-05 0.00021656697316282307 -0.0025947606557028542 1.6556000668450774e-05 0.0027931574327956948 0.00023797832097460664 0.0016622922391504526 0.0019773169024342322 0.00083512850366239389
leaf_weight=415 966 629 5473 217 974 533 2497 1652 1490 1192 633 236 420 432 1282 1208 2224 1714 143 1441 315 223 574 413 611 332 938 498 433 564
leaf_count=415 966 629 5473 217 974 533 2497 1652 1490 1192 633 236 420 432 1282 1208 2224 1714 143 1441 315 223 574 413 611 332 938 498 433 564
internal_value=0 0.0038206 -0.00977131 -0.0111209 0.00146114 0.000796693 9.30954e-05 -0.0155105 -0.00968225 0.00739359 0.00684269 0.00440315 0.00821077 -0.00431818 0.0109204 0.00618308 -0.000685668 0.0002349 0.00554663 -0.00579741 -0.00284659 0.00617647 0.00164037 -0.00884921 0.00362922 0.00784682 0.00270814 0.00503623 0.00382541 0.0054877
internal_weight=0 19139 11533 9245 11527 10553 9587 2282 6963 7612 6983 2509 4474 2288 1915 2559 8499 5960 2273 1856 2539 1088 4246 630 1749 865 1081 2139 1641 1138
internal_count=30672 19139 11533 9245 11527 10553 9587 2282 6963 7612 6983 2509 4474 2288 1915 2559 8499 5960 2273 1856 2539 1088 4246 630 1749 865 1081 2139 1641 1138
is_linear=0
shrinkage=0.05


Tree=15
num_leaves=31
num_cat=0
split_feature=6 6 2 6 1 1 2 6 0 2 6 6 6 4 6 1 9 0 0 9 4 4 0 4 1 6 4 7 9 7
split_gain=1185.82 71.7277 47.894 38.2251 18.1123 15.2061 9.88964 8.70384 8.32033 7.86672 6.92647 6.81527 5.9435 6.85587 5.57232 6.04774 5.50088 5.35074 5.29059 6.18383 4.32998 4.26514 4.03343 3.90796 3.81484 3.73322 3.63627 3.56276 4.6529 3.53325
threshold=0.42102050781250006 0.36901855468750006 -0.60351562499999989 0.45568847656250006 6.5000000000000009 14.500000000000002 -1.0000000180025095e-35 0.38732910156250006 6.5000000000000009 -0.60351562499999989 0.40368652343750006 0.43713378906250006 0.55444335937500011 0.68310546875000011 0.13739013671875003 11.500000000000002 17.953125000000004 2.5000000000000004 7.5000000000000009 12.750000000000002 1.0000000180025095e-35 -1.0000000180025095e-35 11.500000000000002 0.68310546875000011 5.5000000000000009 0.29968261718750006 -0.93310546874999989 5.6230468750000009 20.953125000000004 6.0605468750000009
decision_type=2 2 2 2 2 2 2 2 2 2 2 2 2 2 2 2 2 2 2 2 2 2 2 2 2 2 2 2 2 2
left_child=1 5 -2 11 7 14 23 -3 -7 -6 -11 22 18 16 -1 -16 17 -14 24 -20 27 -18 29 -5 -8 -10 -13 -17 -29 -4
right_child=2 4 3 6 9 8 12 -9 25 10 -12 26 13 -15 15 20 21 -19 19 -21 -22 -23 -24 -25 -26 -27 -28 28 -30 -31
leaf_value=-0.0086741789754148473 6.5491958012886116e-05 -0.0011912202376898801 0.00021421311734007368 0.0012714880918264294 -0.00081251534977871639 -0.0025524686287692454 0.0014358526916752894 -0.00028867844939075606 -0.0031641968717973784 -0.00071267521267869428 0.00023938865854707936 1.2907543780055208e-06 0.0040736908046516574 0.0043072377848059305 -0.0020624676100651144 0.0043908323578575352 0.0055880539016713304 0.0022758139864373409 0.0018214868810958362 0.0011984290825245902 -0.0031171342182936849 0.0034507055477538996 0.001356966255953567 0.0020011781766329732 0.0012632507737931943 -0.00063177071928235745 0.00049897418380601968 -0.0065211024651981031 -0.0035342697013075078 -0.0026027856713631246
leaf_weight=1326 1281 1048 1422 904 1182 1537 1375 1283 452 1854 812 148 269 819 4485 20 675 898 316 1569 888 275 87 538 1789 496 1865 435 544 21
leaf_count=1326 1281 1048 1422 904 1182 1537 1375 1283 452 1854 812 148 269 819 4485 20 675 898 316 1569 888 275 87 538 1789 496 1865 435 544 21
internal_value=0 -0.0104446 0.00928374 0.0101947 -0.00619477 -0.0130234 0.0118588 -0.00967289 -0.00962274 -0.00408784 -0.00258252 0.00576701 0.012547 0.0143358 -0.0141212 -0.0135075 0.012833 0.0105334 0.0115067 0.00940981 -0.0111327 0.0156579 0.00325163 0.00804785 0.012756 -0.00593882 0.00767884 -0.0133909 -0.0138177 0.00262128
internal_weight=0 16362 14251 12970 6179 10183 9427 2331 2485 3848 2666 3543 7985 2936 7698 6372 2117 1167 5049 1885 1887 950 1530 1442 3164 948 2013 999 979 1443
internal_count=30613 16362 14251 12970 6179 10183 9427 2331 2485 3848 2666 3543 7985 2936 7698 6372 2117 1167 5049 1885 1887 950 1530 1442 3164 948 2013 999 979 1443
is_linear=0
shrinkage=0.05


Tree=16
num_leaves=31
num_cat=0
split_feature=2 3 2 7 5 4 4 5 4 3 5 7 5 7 9 5 2 4 9 9 4 9 7 2 4 5 8 5 4 9
split_gain=440.72 42.532 31.4212 24.6051 19.189 19.059 14.3819 11.5317 12.33 7.57798 7.32903 7.23417 7.19304 6.91592 6.84911 6.84585 5.77138 4.41606 6.48914 4.09759 9.18151 3.75357 3.71288 4.12793 6.36464 8.45102 5.95905 5.02218 5.42804 5.51036
threshold=-0.37939453124999994 1.0000000180025095e-35 -0.78662109374999989 4.0859375000000009 1.0000000180025095e-35 0.93310546875000011 0.68310546875000011 0.68310546875000011 1.0000000180025095e-35 -0.78662109374999989 1.0000000180025095e-35 5.5292968750000009 -0.68310546874999989 4.9296875000000009 14.898437500000002 -1.0000000180025095e-35 -1.0000000180025095e-35 1.0000000180025095e-35 16.046875000000004 17.851562500000004 -1.0000000180025095e-35 11.000000000000002 1.4980468750000002 1.0000000180025095e-35 -0.68310546874999989 -1.0000000180025095e-35 82.500000000000014 1.0000000180025095e-35 1.0000000180025095e-35 12.101562500000002
decision_type=2 2 2 2 2 2 2 2 2 2 2 2 2 2 2 2 2 2 2 2 2 2 2 2 2 2 2 2 2 2
left_child=2 3 7 19 16 12 10 14 11 -8 -4 -9 -3 -12 21 -11 -5 -6 -19 -2 -21 -1 23 -14 25 -25 -27 -26 -29 -30
right_child=1 5 6 4 17 -7 9 8 -10 15 13 -13 22 -15 -16 -17 -18 18 -20 20 -22 -23 -24 24 27 26 -28 28 29 -31
leaf_value=-0.0038649370595586203 0.0010045191761068595 -0.00012407723451301087 -0.0013903086077657807 0.00038831928181881772 -0.0015549936774631227 0.0013285634718335135 0.00067429610978874538 0.0028126874025023816 -0.0020046110160291388 -0.0021058000485377165 -0.00029719503690966818 -0.0073161024682236496 0.0010166289123007548 -0.0024836934386237687 -0.0028923048711866177 -0.00014674715116250471 0.0034973340319259085 -0.00054691003066544702 0.0019628985586121433 0.0033265221574872725 0.0011910952473388806 0.00082959198992311469 -0.00017300574967749809 0.00084172033655690161 -0.00027839570953729911 -0.00024611455094383664 0.00038693718676996317 -0.00011763926025287488 2.0560299467841482e-05 0.0021379795833990365
leaf_weight=28 6516 2234 2100 523 543 777 325 39 501 342 223 1051 549 1480 4666 658 380 48 70 1142 1029 146 1164 568 535 486 607 1038 586 417
leaf_count=28 6516 2234 2100 523 543 777 325 39 501 342 223 1051 549 1480 4666 658 380 48 70 1142 1029 146 1164 568 535 486 607 1038 586 417
internal_value=0 0.00335624 -0.0089997 0.0055558 -0.000217391 0.00084003 -0.00608034 -0.0113276 -0.0150204 -0.00159434 -0.00764331 -0.0180046 0.000129522 -0.0100807 -0.0101136 -0.00375 0.00452104 -0.00669062 0.00207627 0.0065952 0.00847651 -0.000373563 0.00103782 0.00165378 0.00112521 0.00353853 0.000967521 -0.0004309 0.000699413 0.00332253
internal_weight=0 19212 11559 10251 1564 8961 5128 6431 1591 1325 3803 1090 8184 1703 4840 1000 903 661 118 8687 2171 174 5950 4786 4237 1661 1093 2576 2041 1003
internal_count=30771 19212 11559 10251 1564 8961 5128 6431 1591 1325 3803 1090 8184 1703 4840 1000 903 661 118 8687 2171 174 5950 4786 4237 1661 1093 2576 2041 1003
is_linear=0
shrinkage=0.05


Tree=17
num_leaves=31
num_cat=0
split_feature=6 6 2 6 1 1 6 0 6 2 6 6 1 0 6 1 0 0 6 0 6 0 6 1 6 6 3 6 0 7
split_gain=1067.76 69.971 39.2412 34.5494 20.0689 17.0002 9.07771 7.9199 7.54672 6.98741 6.75667 6.42165 7.04085 6.18637 5.93839 5.68245 5.56667 7.45982 5.03634 4.68924 4.40016 5.54955 3.70877 4.47235 3.58013 3.55366 5.98795 3.53799 3.35398 2.93995
threshold=0.42224121093750006 0.36901855468750006 -0.37939453124999994 0.46716308593750006 6.5000000000000009 14.500000000000002 0.38903808593750006 1.5000000000000002 0.41101074218750006 -0.78662109374999989 0.52416992187500011 0.17620849609375003 11.500000000000002 4.5000000000000009 0.43176269531250006 1.0000000180025095e-35 11.500000000000002 8.5000000000000018 0.52856445312500011 5.5000000000000009 0.49865722656250006 2.5000000000000004 0.32824707031250006 6.5000000000000009 0.28649902343750006 0.58959960937500011 0.37939453125000006 0.55444335937500011 11.500000000000002 6.2792968750000009
decision_type=2 2 2 2 2 2 2 2 2 2 2 2 2 2 2 2 2 2 2 2 2 2 2 2 2 2 2 2 2 2
left_child=1 5 9 14 6 11 15 10 -6 18 -5 -1 22 29 -4 -3 17 19 -2 20 -9 27 28 -24 -15 -21 -27 -22 -13 -7
right_child=2 4 3 7 8 13 -8 16 -10 -11 -12 12 -14 24 -16 -17 -18 -19 -20 25 21 -23 23 -25 -26 26 -28 -29 -30 -31
leaf_value=-0.007091845168088748 -0.0007833912434641252 4.084485198364614e-05 0.00028660062230097478 0.0012770253233259383 -0.00060198046530498227 -0.0018251369748538424 -0.00025760338654535119 0.0010044330612159135 0.00029641438508035969 0.00092998700218196182 0.0041175606575095591 -0.0037217845261064081 -0.0031429344756869421 -0.0038771385829585378 0.00051886247518273217 -0.0011706793314577631 0.00254211246703606 0.0014920708831149523 0.0011528701770434295 0.0021051216939947603 0.0024323307827473165 0.00080491701151638772 -0.0014048572488911115 -0.0012039471275816021 -0.00093516570878287718 0.005871267185868289 0.0014002720498092693 0.0033750711095222423 -0.0023421814411834978 -0.0059237975533582097
leaf_weight=1972 530 88 791 341 3157 734 1324 837 700 1320 634 1934 1506 734 3334 1047 932 1433 248 1385 241 861 1188 904 783 782 114 317 149 180
leaf_count=1972 530 88 791 341 3157 734 1324 837 700 1320 634 1934 1506 734 3334 1047 932 1433 248 1385 241 861 1188 904 783 782 114 317 149 180
internal_value=0 -0.00985976 0.00890426 0.0100071 -0.00573306 -0.0124445 -0.00926291 0.0119484 -0.00348263 0.00259533 0.0161667 -0.0136015 -0.0127482 -0.00880193 0.0063 -0.0125441 0.0113525 0.0107915 -0.00116324 0.0117848 0.0101684 0.00847252 -0.0138054 -0.0123184 -0.0068441 0.0133834 0.0158371 0.0123566 -0.0152988 -0.0120514
internal_weight=0 16400 14100 12002 6316 10084 2459 7877 3857 2098 975 7653 5681 2431 4125 1135 6902 5970 778 4537 2256 1419 4175 2092 1517 2281 896 558 2083 914
internal_count=30500 16400 14100 12002 6316 10084 2459 7877 3857 2098 975 7653 5681 2431 4125 1135 6902 5970 778 4537 2256 1419 4175 2092 1517 2281 896 558 2083 914
is_linear=0
shrinkage=0.05


Tree=18
num_leaves=31
num_cat=0
split_feature=1 1 1 4 9 5 0 0 4 0 1 0 0 0 9 0 1 9 0 0 0 9 8 1 9 0 8 9 0 9
split_gain=228.608 173.997 42.9951 18.1846 16.691 18.5583 12.5967 13.0713 13.5016 11.757 10.5618 10.4291 8.08293 7.82486 6.60987 7.22212 6.03177 5.68492 5.04213 4.96937 4.84755 7.20371 5.94728 4.70962 4.41721 4.24634 5.25511 4.11925 4.83533 4.0695
threshold=17.500000000000004 7.5000000000000009 15.500000000000002 0.68310546875000011 14.300781250000002 0.68310546875000011 2.5000000000000004 11.500000000000002 -0.68310546874999989 5.5000000000000009 5.5000000000000009 2.5000000000000004 5.5000000000000009 1.5000000000000002 17.953125000000004 8.5000000000000018 1.5000000000000002 20.546875000000004 11.500000000000002 2.5000000000000004 4.5000000000000009 18.546875000000004 45.500000000000007 9.5000000000000018 10.300781250000002 11.500000000000002 85.000000000000014 10.300781250000002 9.5000000000000018 13.199218750000002
decision_type=2 2 2 2 2 2 2 2 2 2 2 2 2 2 2 2 2 2 2 2 2 2 2 2 2 2 2 2 2 2
left_child=1 6 4 9 -3 18 29 8 10 19 12 -7 -8 -2 25 17 -10 -16 20 -4 22 -22 -6 -13 -9 26 -15 -18 -29 -1
right_child=13 2 3 -5 5 11 7 24 16 -11 -12 23 -14 14 15 -17 27 -19 -20 -21 21 -23 -24 -25 -26 -27 -28 28 -30 -31
leaf_value=0.0007981843087859049 0.0020535847707131016 -0.00053491938199508998 -0.0001745824202671352 0.0008795695540239957 -0.002620623756942329 -0.0019260709037021003 -1.6265502074161025e-05 0.0014873918378397076 0.00011631019684473104 -0.00023520618303905848 -0.0003704998958387267 -0.0014927391827969125 0.00061830219120230772 0.0004512816441425288 0.0034627264081687984 0.0013745827641325962 0.00047067335344512214 0.0012699340956436678 -0.001206173609128092 -0.0028380466592903813 -0.0030217526289684398 -0.0023491484334317919 -0.00061261557755884423 -0.0064564911909343109 0.00061443073652672146 0.0018015789043316758 0.00127855745569287 -0.00011508571416020017 -0.00028151031500050496 0.0022780443963879597
leaf_weight=1179 660 988 205 641 151 562 646 253 1281 1077 673 301 1317 2880 1068 866 241 245 708 641 1089 4721 425 1225 595 630 1273 2346 1210 458
leaf_count=1179 660 988 205 641 151 562 646 253 1281 1077 673 301 1317 2880 1068 866 241 245 708 641 1089 4721 425 1225 595 630 1273 2346 1210 458
internal_value=0 -0.00383476 -0.00773245 -0.00194618 -0.00919125 -0.0098557 0.00103172 0.000263374 -0.000384365 -0.00437727 0.00251897 -0.013999 0.00437214 0.00616046 0.00566719 0.00794975 -0.00189149 0.0102875 -0.00863617 -0.00878842 -0.00908002 -0.00951377 -0.00470486 -0.0161435 0.00615566 0.00462733 0.00404708 -0.00289241 -0.00332115 0.0050504
internal_weight=0 22933 12734 2564 10170 9182 10199 8562 7714 1923 2636 2088 1963 7622 6962 2179 5078 1313 7094 846 6386 5810 576 1526 848 4783 4153 3797 3556 1637
internal_count=30555 22933 12734 2564 10170 9182 10199 8562 7714 1923 2636 2088 1963 7622 6962 2179 5078 1313 7094 846 6386 5810 576 1526 848 4783 4153 3797 3556 1637
is_linear=0
shrinkage=0.05


Tree=19
num_leaves=31
num_cat=0
split_feature=6 6 6 1 2 6 1 6 5 6 1 6 6 1 5 0 1 6 8 0 3 1 0 2 8 0 0 2 0 8
split_gain=963.196 66.6768 42.5965 24.9962 22.4201 13.888 15.67 12.0833 8.65064 8.6222 6.47287 6.31569 5.88537 6.30746 5.28816 5.29955 5.24867 4.6789 4.95121 4.54629 3.63235 3.34164 3.21489 2.96249 2.85007 2.80467 4.54151 3.60154 2.94892 2.70189
threshold=0.42102050781250006 0.36730957031250006 0.46716308593750006 6.5000000000000009 -0.60351562499999989 0.26257324218750006 8.5000000000000018 0.38732910156250006 -0.68310546874999989 0.44299316406250006 1.5000000000000002 0.60327148437500011 0.55444335937500011 3.5000000000000004 0.68310546875000011 2.5000000000000004 6.5000000000000009 0.13739013671875003 59.500000000000007 9.5000000000000018 -0.37939453124999994 10.500000000000002 2.5000000000000004 -0.78662109374999989 40.500000000000007 5.5000000000000009 7.5000000000000009 -0.78662109374999989 2.5000000000000004 65.500000000000014
decision_type=2 2 2 2 2 2 2 2 2 2 2 2 2 2 2 2 2 2 2 2 2 2 2 2 2 2 2 2 2 2
left_child=1 5 9 7 25 17 -7 10 11 23 -3 -6 13 -10 -14 -16 19 -1 22 -11 -8 -20 24 -2 -19 28 -27 -28 -4 -23
right_child=2 3 4 -5 8 6 20 -9 12 16 -12 -13 14 -15 15 -17 -18 18 21 -21 -22 29 -24 -25 -26 26 27 -29 -30 -31
leaf_value=-0.0075045540156029643 -0.00090944613937361937 -0.00084555156593865222 0.00067082470450622776 -0.00043298820908423347 0.001232699867223352 -0.0015309583457568041 -0.0013533824917489944 -0.00023061691555941485 0.0017690635963839981 0.00065722628913755972 -0.001117474306190247 0.0043993934032687801 0.0038359612313441233 0.0012467334488192741 0.002948983762674386 0.00088578018777735591 0.00066539711846152344 -0.0034752750230162667 -0.0044824436326706971 0.00023828563979132325 -0.0019402697072194804 -0.0047364066666324145 -0.0035406797640648727 0.00016892233832375969 0.0018859425027306046 0.0027028645874014692 -0.0011895588053563867 0.0011798225809935801 -0.0041281404149590114 -0.0038585782261181148
leaf_weight=1578 153 244 279 3949 1313 1831 1623 1311 931 879 957 617 1973 3064 321 224 1350 60 716 326 1758 444 749 2329 53 239 101 105 80 1197
leaf_count=1578 153 244 279 3949 1313 1831 1623 1311 931 879 957 617 1973 3064 321 224 1350 60 716 326 1758 444 749 2329 53 239 101 105 80 1197
internal_value=0 -0.00940346 0.0083387 -0.00544382 0.0103539 -0.0119595 -0.0101727 -0.00934315 0.0111136 0.00463917 -0.0129663 0.00817358 0.0119849 0.0107916 0.0138781 0.00951835 0.00667808 -0.0139009 -0.0128075 0.00907676 -0.00815513 -0.0139934 -0.00956496 0.00254029 -0.00170354 0.00237562 0.00502809 -0.000412621 -0.000912256 -0.0127498
internal_weight=0 16470 14284 6461 9247 10009 5212 2512 8443 5037 1201 1930 6513 3995 2518 545 2555 4797 3219 1205 3381 2357 862 2482 113 804 445 206 359 1641
internal_count=30754 16470 14284 6461 9247 10009 5212 2512 8443 5037 1201 1930 6513 3995 2518 545 2555 4797 3219 1205 3381 2357 862 2482 113 804 445 206 359 1641
is_linear=0
shrinkage=0.05


Tree=20
num_leaves=31
num_cat=0
split_feature=6 6 6 7 3 6 7 3 4 6 0 4 7 0 5 6 0 5 8 0 4 6 6 7 8 8 7 3 8 0
split_gain=891.177 58.3478 44.64 23.9043 13.4736 13.0838 11.5542 13.8053 10.9541 10.8255 9.20448 8.99943 8.61243 7.30633 6.84823 6.72761 5.68784 5.59897 6.67417 5.59333 5.10332 4.84997 4.8475 4.68275 4.47048 4.20287 4.1518 3.9913 3.79837 3.7952
threshold=0.41882324218750006 0.36242675781250006 0.44812011718750006 3.9218750000000004 -0.60351562499999989 0.38854980468750006 3.3496093750000004 1.0000000180025095e-35 -0.68310546874999989 0.52416992187500011 6.5000000000000009 0.68310546875000011 6.0527343750000009 9.5000000000000018 -0.68310546874999989 0.59252929687500011 5.5000000000000009 0.68310546875000011 21.500000000000004 6.5000000000000009 1.0000000180025095e-35 0.24676513671875003 0.42932128906250006 5.5058593750000009 86.500000000000014 74.500000000000014 6.5878906250000009 1.0000000180025095e-35 56.500000000000007 7.5000000000000009
decision_type=2 2 2 2 2 2 2 2 2 2 2 2 2 2 2 2 2 2 2 2 2 2 2 2 2 2 2 2 2 2
left_child=1 4 12 9 10 6 7 -3 15 14 -1 13 22 19 -4 -5 -17 18 -6 24 -16 -20 -2 25 -11 -10 28 -23 -19 -21
right_child=2 5 3 8 17 -7 -8 -9 23 11 -12 -13 -14 -15 20 16 -18 26 21 29 -22 27 -24 -25 -26 -27 -28 -29 -30 -31
leaf_value=-0.0027879283997058867 4.5437018185476161e-05 -0.00084618982145193394 0.00061568275111565512 0.0013656029487907296 0.00035406938723782491 -0.00026811098472250829 -0.00045710948109112807 -0.0010364255914361675 0.0013818067144999852 0.0015112162173246914 -0.0010963050340022156 0.003184916383908529 -0.00089089821477223666 0.00029341247154697551 0.00092096194828357252 0.0011985795951970997 0.0069987765041367046 -0.0017911351813541705 -0.0049374140511236828 0.0041379166108106002 0.00098985350079742562 -0.001936070749898551 0.00029783049078351974 -0.00025425961832504146 0.0028470816951806062 0.00049143139447219869 -0.0069761776178610402 -0.0018570133587406475 -0.0021967190340690529 0.0039488132529403672
leaf_weight=1321 1046 711 890 628 108 3244 1480 1439 386 777 774 1312 253 191 2014 50 222 314 2292 497 1772 848 2185 643 480 437 548 1937 1115 735
leaf_count=1321 1046 711 890 628 108 3244 1480 1439 386 777 774 1312 253 191 2014 50 222 314 2292 497 1772 848 2185 643 480 437 548 1937 1115 735
internal_value=0 -0.0093545 0.00772111 0.00927905 -0.0119458 -0.00586485 -0.007927 -0.0102674 0.0048246 0.0104949 -0.00841885 0.0124073 0.00278703 0.0107463 0.00886228 0.00916667 0.0157353 -0.0129775 -0.0121143 0.0114695 0.00979002 -0.0123759 0.00348267 0.00215894 0.00912291 0.00465674 -0.0152415 -0.010974 -0.0138226 0.0138636
internal_weight=0 16131 14518 11034 9257 6874 3630 2150 2366 8668 2095 3992 3484 2680 4676 900 272 7162 5185 2489 3786 5077 3231 1466 1257 823 1977 2785 1429 1232
internal_count=30649 16131 14518 11034 9257 6874 3630 2150 2366 8668 2095 3992 3484 2680 4676 900 272 7162 5185 2489 3786 5077 3231 1466 1257 823 1977 2785 1429 1232
is_linear=0
shrinkage=0.05


Tree=21
num_leaves=31
num_cat=0
split_feature=6 6 6 1 7 3 6 6 5 7 6 5 3 6 1 9 4 4 6 4 5 5 9 4 6 7 6 4 5 1
split_gain=782.022 76.1146 26.9002 22.7858 20.4803 15.393 14.009 11.0841 9.17793 8.87332 7.04557 6.68669 7.0792 6.286 5.8472 5.63625 5.02934 4.47437 4.239 4.94452 7.21819 5.93179 4.16951 4.09764 4.08802 4.50139 3.49219 3.39074 3.08002 3.06383
threshold=0.42712402343750006 0.36437988281250006 0.44934082031250006 6.5000000000000009 3.9218750000000004 -0.60351562499999989 0.38854980468750006 0.29089355468750006 1.0000000180025095e-35 6.0292968750000009 0.61987304687500011 -0.68310546874999989 0.37939453125000006 0.16656494140625003 8.5000000000000018 13.199218750000002 -1.0000000180025095e-35 1.0000000180025095e-35 0.56030273437500011 1.0000000180025095e-35 -1.0000000180025095e-35 -1.0000000180025095e-35 12.750000000000002 0.68310546875000011 0.40979003906250006 5.5175781250000009 0.32214355468750006 -0.68310546874999989 0.68310546875000011 5.5000000000000009
decision_type=2 2 2 2 2 2 2 2 2 2 2 2 2 2 2 2 2 2 2 2 2 2 2 2 2 2 2 2 2 2
left_child=1 5 9 6 11 7 -3 -1 10 -2 -6 12 16 15 26 -7 -4 -12 -13 20 -20 22 -21 -16 -5 -26 -15 -28 -9 -29
right_child=2 3 4 24 8 13 -8 28 -10 -11 17 18 -14 14 23 -17 -18 -19 19 21 -22 -23 -24 -25 25 -27 27 29 -30 -31
leaf_value=-0.0038911489721059262 0.00024066467749142215 -0.00096530468636539057 0.0037456084523395197 -0.00040363724150212178 0.0011742505188070233 0.002329797951003638 -0.00018781669391594759 -0.00027398084920443816 0.0001347675747565962 -0.0013431918957357016 0.0060746114623486738 0.0011020030245363127 0.0002283971750968117 -0.0032190143188395473 -0.0027546488263224395 -0.0063315566190087248 0.0013455231020402332 -0.0012559212597157414 0.0037338247494935286 0.0054692782457973965 0.0014562131748518115 0.0035710948882897581 3.6429582650536271e-05 -0.0020986487482832416 0.00044100907757984995 -0.00071917033555117256 -0.0012472789361220016 -0.0013899098873500421 -0.0015472719393318716 -0.0013881969890481391
leaf_weight=1180 2555 1483 546 3471 1254 21 1502 622 794 194 277 4773 434 505 2806 1840 880 25 349 20 480 1004 98 962 759 300 381 568 296 315
leaf_count=1180 2555 1483 546 3471 1254 21 1502 622 794 194 277 4773 434 505 2806 1840 880 25 349 20 480 1004 98 962 759 300 381 568 296 315
internal_value=0 -0.00836209 0.0076944 -0.00460246 0.00880602 -0.0113374 -0.00799414 -0.0075572 0.00467021 0.00327301 0.00690231 0.00993826 0.00728495 -0.0124094 -0.0115645 -0.0149234 0.00898668 0.0137583 0.0106722 0.0126358 0.00970748 0.0147995 0.00419492 -0.0104512 -0.00236755 0.000351748 -0.0139358 -0.0125316 -0.00343682 -0.0142327
internal_weight=0 17011 13683 7515 10934 9496 2985 2098 2350 2749 1556 8584 1860 7398 5537 1861 1426 302 6724 1951 829 1122 118 3768 4530 1059 1769 1264 918 883
internal_count=30694 17011 13683 7515 10934 9496 2985 2098 2350 2749 1556 8584 1860 7398 5537 1861 1426 302 6724 1951 829 1122 118 3768 4530 1059 1769 1264 918 883
is_linear=0
shrinkage=0.05


Tree=22
num_leaves=31
num_cat=0
split_feature=6 6 6 1 2 6 6 1 6 6 7 4 9 6 7 1 4 3 4 9 2 4 9 1 3 4 9 7 9 3
split_gain=735.45 49.2896 47.4455 37.1988 20.3861 11.3369 8.01418 11.9409 7.91999 6.37861 5.81081 5.62993 8.01066 4.7701 4.17235 4.13735 3.9418 3.88393 5.02514 3.8106 3.80961 4.07656 4.04603 3.69414 3.58827 3.52879 3.19887 3.12051 4.68971 3.09281
threshold=0.41687011718750006 0.45568847656250006 0.32824707031250006 6.5000000000000009 -1.0000000180025095e-35 0.38854980468750006 0.13739013671875003 11.500000000000002 0.53344726562500011 0.43054199218750006 3.3496093750000004 0.68310546875000011 17.046875000000004 0.36145019531250006 6.0292968750000009 1.0000000180025095e-35 -0.68310546874999989 -0.60351562499999989 -0.68310546874999989 16.046875000000004 -0.78662109374999989 -0.68310546874999989 19.898437500000004 8.5000000000000018 -0.60351562499999989 -1.0000000180025095e-35 12.101562500000002 6.3496093750000009 17.648437500000004 0.60351562500000011
decision_type=2 2 2 2 2 2 2 2 2 2 2 2 2 2 2 2 2 2 2 2 2 2 2 2 2 2 2 2 2 2
left_child=2 9 6 5 10 15 -1 23 17 -2 -3 12 -10 24 -11 16 -4 -6 -19 -13 21 -12 -22 -8 -5 29 -20 -9 -29 -14
right_child=1 4 3 13 8 -7 7 27 11 14 20 19 25 -15 -16 -17 -18 18 26 -21 22 -23 -24 -25 -26 -27 -28 28 -30 -31
leaf_value=-0.0065582652718352771 -1.5035907896115974e-05 0.0018929067455165712 0.00041988432524355776 -0.00061471798881647171 0.00072227038387322336 -0.00025548622509856053 -0.0029416542268712732 -0.0022085198644773529 0.0017783994115131289 0.00028023633170002932 0.0018500399048921692 0.0032292389598436279 0.0042109295007603919 -0.00040933638376350258 -0.00067767109778200637 -0.0010278145538207652 -0.0012170039059603564 0.0013336518234129914 0.00095708568246337703 0.0016901985115794613 0.00058870916598348887 -0.00099146422761990237 0.0022431066834088754 -0.0032350921207683239 -0.0012050031325533173 0.0025657027641148651 0.00072921043223828303 -0.0062202634171388419 -0.0030841744521403623 0.0015468976794414157
leaf_weight=1607 1539 278 53 521 1391 985 564 1546 974 2759 221 940 1033 4113 194 2097 173 839 613 105 1058 333 486 1803 1058 423 1459 158 1248 106
leaf_count=1607 1539 278 53 521 1391 985 564 1546 974 2759 221 940 1033 4113 194 2097 173 839 613 105 1058 333 486 1803 1058 423 1459 158 1248 106
internal_value=0 0.00666751 -0.00882739 -0.00643333 0.00858003 -0.0106499 -0.0119383 -0.0110035 0.00980369 0.00229964 0.0045202 0.0115408 0.0102681 -0.00398278 0.00365984 -0.012556 -0.00612832 0.00835774 0.00939626 0.0146292 0.00362011 6.31775e-05 0.00489637 -0.0136491 -0.00631887 0.0124872 0.00807432 -0.00888211 -0.0105868 0.0139355
internal_weight=0 14751 15926 9000 10259 3308 6926 5319 7883 4492 2376 3581 2536 5692 2953 2323 226 4302 2911 1045 2098 554 1544 2367 1579 1562 2072 2952 1406 1139
internal_count=30677 14751 15926 9000 10259 3308 6926 5319 7883 4492 2376 3581 2536 5692 2953 2323 226 4302 2911 1045 2098 554 1544 2367 1579 1562 2072 2952 1406 1139
is_linear=0
shrinkage=0.05


Tree=23
num_leaves=31
num_cat=0
split_feature=6 6 6 6 7 2 7 0 6 4 4 0 0 9 9 9 0 7 4 6 6 0 7 0 0 0 9 2 8 0
split_gain=709.231 47.36 35.163 14.9485 19.1851 12.5483 11.5553 11.1513 9.32309 8.82194 5.66942 6.03317 6.58832 6.28386 5.57937 5.04824 4.94283 4.73643 4.67388 4.37024 4.20206 3.59314 3.97127 3.34627 3.28985 3.37094 3.25383 3.07532 2.6572 2.6404
threshold=0.41784667968750006 0.32507324218750006 0.50268554687500011 0.38854980468750006 3.0205078125000004 -0.60351562499999989 5.7402343750000009 1.5000000000000002 0.44812011718750006 1.0000000180025095e-35 -0.68310546874999989 11.500000000000002 9.5000000000000018 12.101562500000002 14.300781250000002 18.195312500000004 6.5000000000000009 2.8037109375000004 1.0000000180025095e-35 0.35168457031250006 0.14373779296875003 6.5000000000000009 6.5136718750000009 1.5000000000000002 5.5000000000000009 8.5000000000000018 11.000000000000002 0.37939453125000006 80.500000000000014 8.5000000000000018
decision_type=2 2 2 2 2 2 2 2 2 2 2 2 2 2 2 2 2 2 2 2 2 2 2 2 2 2 2 2 2 2
left_child=1 9 6 4 14 -4 8 -7 -2 21 16 12 -12 -14 23 17 27 18 29 -6 -11 22 -1 -3 -8 -26 -19 -9 -29 -10
right_child=2 3 5 -5 19 7 24 10 15 20 11 -13 13 -15 -16 -17 -18 26 -20 -21 -22 -23 -24 -25 25 -27 -28 28 -30 -31
leaf_value=-0.0033154279086461571 0.00019798619269217213 -0.0011390814895452016 0.00064247409446693783 -0.00024416919509760905 -0.0012811787739959982 0.0030713738294901871 -0.001183820503010527 0.0031709682939742422 0.00076969261972087205 -0.00599587135662098 0.0021958463650781947 0.0023894770187019533 0.0045535792003486824 0.00010315361620350254 -0.00086575080532964735 0.00050460752095399784 0.0033550249777827891 -0.00096354057498601164 0.00069738296721485744 -0.00039010277466269844 -0.0023659946229237349 -0.0031761007894102532 -0.0049334915342147921 -0.0010911835775860481 0.00088987864352804496 -0.00052625828573324982 0.00056124473345513205 0.00028904541118701714 0.0016851610705136385 0.0002151015715259074
leaf_weight=1722 3196 173 521 3144 975 788 210 327 1386 380 2185 689 43 502 1924 776 770 48 1469 1953 1768 1535 1408 1032 369 216 589 149 343 67
leaf_count=1722 3196 173 521 3144 975 788 210 327 1386 380 2185 689 43 502 1924 776 770 48 1469 1953 1768 1535 1408 1032 369 216 589 149 343 67
internal_value=0 -0.00853722 0.00668801 -0.00619742 -0.00764941 0.00950095 0.00455381 0.0101691 0.00515901 -0.0116971 0.00929912 0.00815224 0.00709707 0.0021789 -0.0103715 0.00666955 0.0117668 0.00746628 0.00831793 -0.00474044 -0.00904562 -0.012918 -0.0138898 -0.0130394 -0.00117924 0.000747864 0.00355966 0.00906288 0.00656504 0.0103286
internal_weight=0 16014 14643 9201 6057 6317 8326 5796 7531 6813 5008 3419 2730 545 3129 4335 1589 3559 2922 2928 2148 4665 3130 1205 795 585 637 819 492 1453
internal_count=30657 16014 14643 9201 6057 6317 8326 5796 7531 6813 5008 3419 2730 545 3129 4335 1589 3559 2922 2928 2148 4665 3130 1205 795 585 637 819 492 1453
is_linear=0
shrinkage=0.05


Tree=24
num_leaves=31
num_cat=0
split_feature=6 6 6 1 7 7 6 6 1 4 6 6 0 0 1 6 1 4 0 0 8 8 9 8 1 9 9 6 9 6
split_gain=653.491 44.0305 32.8967 30.7675 14.545 8.91228 8.88346 8.05051 7.01083 8.74485 6.38625 6.28534 6.171 6.05742 5.55898 4.43576 5.79915 4.38312 4.17809 4.15062 5.57727 4.09043 3.97763 3.94497 3.4097 3.38815 3.38721 2.99574 2.85532 2.77692
threshold=0.41687011718750006 0.32507324218750006 0.44812011718750006 6.5000000000000009 3.9218750000000004 6.0292968750000009 0.38854980468750006 0.56713867187500011 14.500000000000002 1.0000000180025095e-35 0.35632324218750006 0.61987304687500011 1.5000000000000002 5.5000000000000009 1.0000000180025095e-35 0.42810058593750006 5.5000000000000009 -0.68310546874999989 7.5000000000000009 6.5000000000000009 91.500000000000014 21.500000000000004 13.652343750000002 86.500000000000014 11.500000000000002 16.046875000000004 20.546875000000004 0.73461914062500011 21.046875000000004 0.29089355468750006
decision_type=2 2 2 2 2 2 2 2 2 2 2 2 2 2 2 2 2 2 2 2 2 2 2 2 2 2 2 2 2 2
left_child=1 8 5 6 7 15 14 18 9 26 24 -6 -9 27 17 16 -2 -3 -4 20 -14 -11 -20 -21 -5 -26 -1 -13 -7 -10
right_child=2 3 4 10 11 28 -8 12 29 21 -12 13 19 -15 -16 -17 -18 -19 22 23 -22 -23 -24 -25 25 -27 -28 -29 -30 -31
leaf_value=-0.0038480500183676286 -0.00011347155820249551 0.00088710112919129054 0.00089877006489517952 -0.0013923672353171809 0.00068876899440205959 -0.0016641271282604815 -0.00023395291000089799 0.0035474822710780335 -0.0032354553008723586 0.0011308511051325331 -0.00040209036257253902 0.0012237951039355357 0.0012656591146869324 0.0051163375517328559 -0.00092270168066436997 0.00026861558175866852 0.00036182429990421091 -0.0010560275134362058 0.0012527174713731746 0.0033974015016594232 0.0028323734111588739 -0.0030555376878654253 0.00059606811597301651 0.00232562865664286 -0.00087742238446897227 -0.00064217610894195967 -0.0035937333578034375 -0.0036200400836527407 -0.00019958987616013337 -0.0010978747690827139
leaf_weight=1927 512 56 3749 650 1956 140 979 409 1202 87 4451 97 593 302 2098 2253 651 175 589 976 131 1707 1743 461 179 523 1522 26 150 326
leaf_count=1927 512 56 3749 650 1956 140 979 409 1202 87 4451 97 593 302 2098 2253 651 175 589 976 131 1707 1743 461 179 523 1522 26 150 326
internal_value=0 -0.00842117 0.00619792 -0.00615163 0.00756708 0.00212223 -0.01 0.00851954 -0.011475 -0.0123436 -0.00395787 0.00410647 0.0108658 0.00961765 -0.0116799 0.00283665 0.000328891 -0.00431818 0.00752796 0.00979986 0.00671271 -0.00951226 0.00586621 0.0113553 -0.00696746 -0.00455128 -0.0138163 0.000264228 -0.0062931 -0.00849476
internal_weight=0 15882 14738 9111 11032 3706 3308 8651 6771 5243 5803 2381 2570 425 2329 3416 1163 231 6081 2161 724 1794 2332 1437 1352 702 3449 123 290 1528
internal_count=30620 15882 14738 9111 11032 3706 3308 8651 6771 5243 5803 2381 2570 425 2329 3416 1163 231 6081 2161 724 1794 2332 1437 1352 702 3449 123 290 1528
is_linear=0
shrinkage=0.05


Tree=25
num_leaves=31
num_cat=0
split_feature=6 6 6 1 2 6 6 6 6 6 1 7 1 0 8 7 0 8 1 5 0 0 1 0 0 2 1 6 0 1
split_gain=583.31 38.8868 37.6882 24.6001 16.357 10.9587 9.20323 7.80668 7.08378 6.95773 6.85322 4.88796 4.22342 3.6541 3.76373 3.54935 5.82918 3.3709 3.29988 4.3434 2.89018 3.53264 5.11834 3.95123 3.09809 3.42938 2.60259 4.95334 2.82716 2.58122
threshold=0.41394042968750006 0.28649902343750006 0.46716308593750006 7.5000000000000009 -0.60351562499999989 0.38610839843750006 0.34729003906250006 0.43054199218750006 0.58959960937500011 0.13739013671875003 9.5000000000000018 5.7402343750000009 1.0000000180025095e-35 11.500000000000002 72.500000000000014 6.4160156250000009 6.5000000000000009 95.000000000000014 10.500000000000002 0.68310546875000011 1.5000000000000002 5.5000000000000009 7.5000000000000009 2.5000000000000004 7.5000000000000009 0.37939453125000006 5.5000000000000009 0.34729003906250006 3.5000000000000004 10.500000000000002
decision_type=2 2 2 2 2 2 2 2 2 2 2 2 2 2 2 2 2 2 2 2 2 2 2 2 2 2 2 2 2 2
left_child=1 9 7 5 17 12 18 13 -6 -1 -11 -9 -3 -2 -15 -12 -17 -4 -5 -20 -10 22 23 -22 25 -23 -14 -28 -29 -13
right_child=2 3 4 6 8 -7 -8 11 20 10 15 29 26 14 -16 16 -18 -19 19 -21 21 24 -24 -25 -26 -27 27 28 -30 -31
leaf_value=-0.0057849293123626248 -5.6965063883739045e-05 -0.00096565565604954688 0.00041801539801146118 -0.0015015607172588498 0.0010764372429634911 -0.00031142006068470826 -0.00042301077245638236 0.00030093298611826583 0.0036889826443230358 -0.0032058202380841195 -0.0024798338624763931 0.0011702873491092481 -0.00089119285605246661 0.00015415572920085468 0.0022152430425050693 -0.0033943435735142428 -0.002528090444926473 -0.0030667512507371033 -0.00095762451477989961 -0.0021131982182635779 0.0041407536161715578 0.0053474371903453896 0.00041815992823984461 0.00086203218543207951 0.0028798060494276351 0.003443098375866903 -0.00187825469066997 0.00016200657207591555 -0.00063822096554833182 -0.001157913360002015
leaf_weight=1575 1757 238 757 703 6016 1016 4399 3660 324 656 1744 86 1798 81 64 850 689 23 892 326 106 251 247 88 994 318 231 63 386 295
leaf_count=1575 1757 238 757 703 6016 1016 4399 3660 324 656 1744 86 1798 81 64 850 689 23 892 326 106 251 247 88 994 318 231 63 386 295
internal_value=0 -0.00818996 0.0056111 -0.00633904 0.00762933 -0.00955788 -0.00443829 0.00251262 0.00827661 -0.0115642 -0.0104411 0.00375588 -0.011215 -0.000128811 0.0075 -0.00950883 -0.0112589 0.000705129 -0.00732561 -0.00575123 0.0106186 0.00991018 0.00595805 0.0120361 0.0110253 0.0139675 -0.0118261 -0.00919118 -0.00613029 -0.00163386
internal_weight=0 15566 15067 10052 9124 3732 6320 5943 8344 5514 3939 4041 2716 1902 145 3283 1539 780 1921 1218 2328 2004 441 194 1563 569 2478 680 449 381
internal_count=30633 15566 15067 10052 9124 3732 6320 5943 8344 5514 3939 4041 2716 1902 145 3283 1539 780 1921 1218 2328 2004 441 194 1563 569 2478 680 449 381
is_linear=0
shrinkage=0.05


Tree=26
num_leaves=31
num_cat=0
split_feature=6 6 6 3 7 3 7 5 4 6 6 6 6 4 6 3 7 9 9 4 5 5 5 9 5 3 7 7 5 5
split_gain=546.002 39.1742 33.8109 17.1802 12.9601 11.8009 12.2919 7.11948 7.28885 6.89363 6.77972 5.76263 5.59364 7.24243 5.54437 5.30238 4.44129 4.24371 3.92262 3.769 3.70489 3.64666 3.40217 4.93006 3.18097 3.36291 3.02428 3.1484 2.92687 2.90424
threshold=0.41394042968750006 0.45446777343750006 0.36242675781250006 -0.60351562499999989 3.3496093750000004 1.0000000180025095e-35 3.6240234375000004 1.0000000180025095e-35 -0.68310546874999989 0.39636230468750006 0.13739013671875003 0.22174072265625003 0.54370117187500011 0.68310546875000011 0.69360351562500011 1.0000000180025095e-35 6.0292968750000009 20.546875000000004 14.300781250000002 0.93310546875000011 0.68310546875000011 0.68310546875000011 -1.0000000180025095e-35 12.101562500000002 1.0000000180025095e-35 0.37939453125000006 6.8808593750000009 5.3632812500000009 -0.68310546874999989 0.68310546875000011
decision_type=2 2 2 2 2 2 2 2 2 2 2 2 2 2 2 2 2 2 2 2 2 2 2 2 2 2 2 2 2 2
left_child=2 16 3 11 12 29 9 8 14 -7 18 -1 28 -14 -6 21 19 -9 -5 -2 -13 26 23 -15 25 -18 27 -12 -3 -4
right_child=1 4 5 10 7 6 -8 17 -10 -11 15 20 13 22 -16 -17 24 -19 -20 -21 -22 -23 -24 -25 -26 -27 -28 -29 -30 -31
leaf_value=-0.0039830788801495784 0.00011101824717414943 0.00062323744168460914 -0.00028780807761013215 0.0030359732288688618 0.0017529467693242083 -0.00076918876248606048 -0.00024370028473320665 0.00032761486368418108 0.00062088658672336029 -0.00021544410530690701 -0.0013827857522235433 -0.00059450768010646299 0.0021265444653255682 0.0036256384692175993 0.0072503870067863758 -0.0015982349401184176 -0.00041937013716809748 -0.002610298093554328 -0.0056401290492774613 0.00077989024497193368 -0.0013037378659881539 -0.002426136407250686 0.0028692466965725126 -0.00025440139613143366 -0.0031906792794963198 0.00094500934487935003 -0.0029614747218367739 -0.0017817666063978674 0.00071387312079692299 -0.00081260313833223798
leaf_weight=685 4030 891 2192 28 650 1649 1135 834 974 573 188 956 2121 27 85 3700 241 51 1358 329 463 452 865 87 77 52 140 1325 3854 650
leaf_count=685 4030 891 2192 28 650 1649 1135 834 974 573 188 956 2121 27 85 3700 241 51 1358 329 463 452 865 87 77 52 140 1325 3854 650
internal_value=0 0.00531843 -0.00802665 -0.0099341 0.00702869 -0.00516656 -0.00717382 0.00396492 0.00584991 -0.00933618 -0.0110969 -0.00596008 0.00804175 0.00969355 0.00960884 -0.0103467 0.00154314 0.000324859 -0.0142388 0.00198956 -0.004142 -0.00834323 0.0132508 0.00513158 -0.00371622 -0.00133959 -0.00725499 -0.00660443 0.00696259 -0.00279557
internal_weight=0 15168 15494 9295 10439 6199 3357 2594 1709 2222 7191 2104 7845 3100 735 5805 4729 885 1386 4359 1419 2105 979 114 370 293 1653 1513 4745 2842
internal_count=30662 15168 15494 9295 10439 6199 3357 2594 1709 2222 7191 2104 7845 3100 735 5805 4729 885 1386 4359 1419 2105 979 114 370 293 1653 1513 4745 2842
is_linear=0
shrinkage=0.05


Tree=27
num_leaves=31
num_cat=0
split_feature=6 6 6 1 6 2 0 6 1 6 0 8 8 9 5 5 8 6 5 9 8 0 5 0 1 5 0 2 6 1
split_gain=487.611 33.8559 32.4781 27.7016 15.0209 14.0483 6.58712 11.0997 6.26997 4.34474 4.80508 6.52988 4.1902 4.18208 3.75902 3.23794 3.201 2.85026 2.8253 2.62329 2.60978 2.57117 2.55555 2.82523 2.53537 2.50726 5.69208 2.49177 2.55941 2.48969
threshold=0.41784667968750006 0.32507324218750006 0.46057128906250006 7.5000000000000009 0.38732910156250006 -0.60351562499999989 1.5000000000000002 0.50073242187500011 14.500000000000002 0.60717773437500011 5.5000000000000009 82.500000000000014 59.500000000000007 23.046875000000004 -0.68310546874999989 0.93310546875000011 85.000000000000014 0.29089355468750006 0.68310546875000011 11.550781250000002 79.500000000000014 9.5000000000000018 0.68310546875000011 7.5000000000000009 15.500000000000002 -0.68310546874999989 9.5000000000000018 -0.60351562499999989 0.44494628906250006 16.500000000000004
decision_type=2 2 2 2 2 2 2 2 2 2 2 2 2 2 2 2 2 2 2 2 2 2 2 2 2 2 2 2 2 2
left_child=1 8 27 4 -3 19 7 -7 12 14 11 -11 13 -1 21 -14 -17 -10 -15 -4 -6 -8 23 -21 -9 26 -12 -2 -29 -26
right_child=2 3 5 -5 20 6 9 24 17 10 25 -13 15 18 -16 16 -18 -19 -20 22 -22 -23 -24 -25 29 -27 -28 28 -30 -31
leaf_value=-0.0023907677182847375 -0.0002475666103386093 -0.00080637444170603709 -0.0024530605433739257 -0.00040954180407680322 -5.3383554128763491e-05 0.00021114569479895943 0.0012324285845405748 0.0029493200166665181 -0.0027282584059047151 -0.0008219077655300188 0.0041356809648300848 0.0019234050374059572 -0.0029131242588731378 -0.0038319183685677697 0.00087742314556104586 -0.0043851856277273829 0.00014089981968638189 -0.00072804168141108122 -0.0053744250546796006 0.0015472218872271471 -0.00022413808990653233 0.0001618310545222742 -0.0014213104455737585 -0.00031652757520692597 -0.00053165784462772892 0.0035977055742567698 -0.00067509032147562492 9.9694210628403117e-05 0.00032940426936549778 0.0023050409200043673
leaf_weight=1273 497 2551 23 5421 461 265 991 410 1178 181 487 195 3407 207 4864 250 24 312 98 447 830 436 121 244 32 728 93 2849 1490 376
leaf_count=1273 497 2551 23 5421 461 265 991 410 1178 181 487 195 3407 207 4864 250 24 312 98 447 830 436 121 244 32 728 93 2849 1490 376
internal_value=0 -0.0073676 0.0052378 -0.00540511 -0.00865304 0.00687936 0.00745142 0.0111103 -0.0100611 0.00695455 0.00921021 0.00422872 -0.0108723 -0.00871673 0.00635074 -0.0117964 -0.0170255 -0.00719799 -0.0139754 0.000673653 -0.00425833 0.00409425 0.00114532 0.0023191 0.0139914 0.0106422 0.00818966 0.00187965 0.00226377 0.011201
internal_weight=0 16012 14729 9263 3842 9893 9058 1083 6749 7975 1684 376 5259 1578 6291 3681 274 1490 305 835 1291 1427 812 691 818 1308 580 4836 4339 408
internal_count=30741 16012 14729 9263 3842 9893 9058 1083 6749 7975 1684 376 5259 1578 6291 3681 274 1490 305 835 1291 1427 812 691 818 1308 580 4836 4339 408
is_linear=0
shrinkage=0.05


Tree=28
num_leaves=31
num_cat=0
split_feature=6 6 6 6 3 2 3 2 6 7 0 0 6 9 5 9 3 6 5 6 5 0 0 7 3 7 3 0 0 9
split_gain=477.17 40.9597 26.1995 15.4336 15.5505 11.8095 10.443 17.4879 13.4532 6.60172 6.4818 10.404 6.49968 5.4441 4.76727 5.38111 4.64786 4.39287 4.33327 4.33113 4.56753 4.18999 3.86032 3.76406 3.67111 3.41017 3.38307 3.36546 3.4184 3.32933
threshold=0.42102050781250006 0.36145019531250006 0.48449707031250006 0.15594482421875003 -0.37939453124999994 -0.78662109374999989 1.0000000180025095e-35 -1.0000000180025095e-35 0.40368652343750006 5.4238281250000009 2.5000000000000004 5.5000000000000009 0.65209960937500011 13.199218750000002 -0.68310546874999989 17.953125000000004 0.60351562500000011 0.51782226562500011 0.68310546875000011 0.44812011718750006 -1.0000000180025095e-35 1.5000000000000002 7.5000000000000009 6.2910156250000009 1.0000000180025095e-35 6.1074218750000009 0.60351562500000011 9.5000000000000018 11.500000000000002 12.101562500000002
decision_type=2 2 2 2 2 2 2 2 2 2 2 2 2 2 2 2 2 2 2 2 2 2 2 2 2 2 2 2 2 2
left_child=1 3 9 13 18 22 29 -8 -9 19 16 17 14 -1 15 26 -7 -12 25 -2 -21 -6 -4 -20 27 -5 -13 -14 -29 -3
right_child=2 6 5 4 21 10 7 8 -10 -11 11 12 24 -15 -16 -17 -18 -19 23 20 -22 -23 -24 -25 -26 -27 -28 28 -30 -31
leaf_value=0.0046736478222185107 0.00014942453180654682 -0.0011214939721868032 0.00055698134284545007 -0.00051078585831546171 -0.0012065251636477722 0.0018858770173246038 -0.00012693545036481378 -0.0007108622377253813 -0.00010070261710572875 -0.00022953785524186949 0.00084932458894314093 0.00055616486654039364 0.0055765349798597447 -0.0050053300595883886 0.0014905568042279465 0.0015495529779830336 0.0026414661881023539 2.0208473844395328e-05 -0.0012652982459901395 0.0002599123902031763 0.00049062172161367854 -0.0015084257702820279 -0.0023811423310345116 -0.0037093277373486974 0.0020044596183285079 -0.0015812598050910277 -0.0006425432210560569 0.00014801657884785675 0.0026539176972860215 -0.00032674929108710292
leaf_weight=20 2790 73 315 878 317 1067 1326 1789 830 790 431 295 507 1914 2266 914 555 692 567 1087 2009 4459 84 162 152 808 93 78 63 3193
leaf_count=20 2790 73 315 878 317 1067 1326 1789 830 790 431 295 507 1914 2266 914 555 692 567 1087 2009 4459 84 162 152 808 93 78 63 3193
internal_value=0 -0.00726065 0.00527347 -0.0094863 -0.0084199 0.00729899 -0.00444425 -0.00617554 -0.00854429 0.00299431 0.00776852 0.00694819 0.00805174 -0.0134514 0.00713845 0.00472734 0.0105456 0.00265583 -0.0051501 0.00357034 0.00485788 -0.0100733 -0.00107143 -0.00837106 0.012125 -0.00375741 -0.000206185 0.0137654 0.00693262 -0.00235303
internal_weight=0 16336 14188 9125 7191 7512 7211 3945 2619 6676 7113 5491 4368 1934 3568 1302 1622 1123 2415 5886 3096 4776 399 729 800 1686 388 648 141 3266
internal_count=30524 16336 14188 9125 7191 7512 7211 3945 2619 6676 7113 5491 4368 1934 3568 1302 1622 1123 2415 5886 3096 4776 399 729 800 1686 388 648 141 3266
is_linear=0
shrinkage=0.05


Tree=29
num_leaves=31
num_cat=0
split_feature=6 6 6 1 7 1 4 6 6 0 0 0 0 8 6 8 0 8 7 8 4 6 4 3 1 7 0 0 3 7
split_gain=427.034 34.3633 25.8119 28.5236 9.55872 8.96455 7.61498 6.91422 5.86963 7.33321 7.87149 5.57409 6.54942 4.7751 4.52665 4.1851 4.136 3.94125 3.85137 3.77776 4.28798 3.65346 3.56929 5.24108 4.2344 3.55452 5.30629 3.40301 2.98845 2.90844
threshold=0.41198730468750006 0.46057128906250006 0.32214355468750006 7.5000000000000009 2.9179687500000004 14.500000000000002 -0.68310546874999989 0.39343261718750006 0.53100585937500011 2.5000000000000004 6.5000000000000009 2.5000000000000004 6.5000000000000009 86.500000000000014 0.43811035156250006 21.500000000000004 5.5000000000000009 85.000000000000014 6.4316406250000009 69.500000000000014 -0.68310546874999989 0.70434570312500011 -0.68310546874999989 0.98291015625000011 1.0000000180025095e-35 6.4589843750000009 11.500000000000002 6.5000000000000009 0.60351562500000011 6.0410156250000009
decision_type=2 2 2 2 2 2 2 2 2 2 2 2 2 2 2 2 2 2 2 2 2 2 2 2 2 2 2 2 2 2
left_child=2 14 5 7 8 11 16 22 19 28 17 -1 -13 -12 29 -14 -6 -11 -8 -3 -21 -18 24 -24 -4 26 -17 -7 -10 -2
right_child=1 4 3 -5 6 27 18 -9 9 10 13 12 15 -15 -16 25 21 -19 -20 20 -22 -23 23 -25 -26 -27 -28 -29 -30 -31
leaf_value=-0.0017288417451778188 2.6913603711364867e-05 0.00064898445079219179 0.00038125322503971193 -0.0004229665076771515 0.000223198362325611 -0.0024667468318940555 0.00049984168943798316 -0.00026746239244579119 0.0023280322745480851 5.7458454750682785e-06 0.0025474909297451167 -0.0032022413615941411 0.0013770302704678135 0.001589151564604733 0.00026613338701987995 -0.0029499386840557387 0.0019346682227888033 0.0016392907282316506 -0.0014429256708706484 0.0010074386443594712 0.0004276906518762794 0.006745167349227592 -0.00075335073915003639 -0.00023648325245776011 -0.00075901362874589986 -0.0022552273056240381 -0.0014348718528898947 -0.0011192792835530141 0.0028066915581630575 -0.00075890043262330791
leaf_weight=564 2689 778 56 5108 179 965 1643 664 602 442 1210 2241 80 624 2556 1033 651 227 78 813 2030 72 1856 170 690 951 331 531 298 255
leaf_count=564 2689 778 56 5108 179 965 1643 664 602 442 1210 2241 80 624 2556 1033 651 227 78 813 2030 72 1856 170 690 951 331 531 298 255
internal_value=0 0.00454496 -0.00730971 -0.00548806 0.00634316 -0.00963411 0.00376763 -0.00901048 0.00730496 0.00879592 0.00740412 -0.0106154 -0.0111864 0.0090976 0.00139091 -0.00936848 0.00748891 0.00276159 0.00181726 0.00590376 0.00505892 0.00917358 -0.0101082 -0.0111969 -0.00715147 -0.00975702 -0.011393 -0.00622326 0.0126667 5.43484e-05
internal_weight=0 15147 15240 8544 9647 6696 2623 3436 7024 3403 2503 5200 4636 1834 5500 2395 902 669 1721 3621 2843 723 2772 2026 746 2315 1364 1496 900 2944
internal_count=30387 15147 15240 8544 9647 6696 2623 3436 7024 3403 2503 5200 4636 1834 5500 2395 902 669 1721 3621 2843 723 2772 2026 746 2315 1364 1496 900 2944
is_linear=0
shrinkage=0.05


Tree=30
num_leaves=31
num_cat=0
split_feature=6 6 6 1 6 7 9 6 6 1 7 8 4 0 4 1 4 1 0 0 9 1 1 4 6 0 0 8 6 1
split_gain=400.177 31.9127 30.2833 17.3534 18.3554 8.50089 8.10403 7.27204 6.75678 5.82821 5.27253 4.79093 4.40948 4.18083 4.31282 4.45929 4.17838 4.05454 4.05382 6.07125 5.94162 3.529 3.37753 3.37947 3.04764 3.0034 3.00061 2.97013 2.95593 2.87784
threshold=0.41296386718750006 0.22174072265625003 0.49084472656250006 5.5000000000000009 0.34729003906250006 6.0410156250000009 12.750000000000002 0.44812011718750006 0.38854980468750006 11.500000000000002 5.6699218750000009 79.500000000000014 -0.68310546874999989 1.5000000000000002 -0.68310546874999989 17.500000000000004 -0.68310546874999989 3.5000000000000004 11.500000000000002 9.5000000000000018 12.750000000000002 1.0000000180025095e-35 5.5000000000000009 -0.68310546874999989 0.52416992187500011 5.5000000000000009 7.5000000000000009 80.500000000000014 0.53881835937500011 10.500000000000002
decision_type=2 2 2 2 2 2 2 2 2 2 2 2 2 2 2 2 2 2 2 2 2 2 2 2 2 2 2 2 2 2
left_child=1 6 5 8 9 7 -1 22 12 -5 13 -10 21 24 15 -15 -12 26 19 -16 -21 -3 23 -2 -4 -17 -9 -19 -27 -7
right_child=2 3 10 4 -6 29 -8 17 11 -11 16 -13 -14 14 18 25 -18 27 -20 20 -22 -23 -24 -25 -26 28 -28 -29 -30 -31
leaf_value=0.0026188628444890841 -0.00014046489926901939 0.00044507319881479995 0.0010406405533952342 -0.0015413494193587457 -0.00034600690603462243 0.0005138499113390263 -0.0038339877847979372 0.00063875322535034238 0.0001301189862598945 -0.0012527241642741301 0.0021644567275104745 -0.00032285793353130159 -0.00069024047975859738 0.0010734879505613192 0.0015295392663627902 0.0011296888382412058 -0.00045983839109408188 0.00044951296155430677 0.0015376434317442345 0.002845167521761957 -0.00013280288550155761 -0.00072758856469341555 0.0003547976222113944 2.8689600562490407e-05 0.0024343252072095253 0.0017230956530260974 0.00024395747686765842 0.00021582590625608209 0.0032138403211985443 -0.00098930285027494275
leaf_weight=38 347 49 222 1991 4990 99 3488 592 175 2120 379 365 1559 685 2363 211 356 1393 822 57 599 460 2189 1456 706 168 341 1353 530 488
leaf_count=38 347 49 222 1991 4990 99 3488 592 175 2120 379 365 1559 685 2363 211 356 1393 822 57 599 460 2189 1456 706 168 341 1353 530 488
internal_value=0 -0.00708484 0.0043527 -0.00582906 -0.00479865 0.00229414 -0.011255 0.00273791 -0.00942485 -0.00727256 0.00674768 -0.00444444 -0.0107253 0.00721083 0.00668123 0.00886763 0.0027381 0.00434153 0.00577389 0.0049263 0.000670732 -0.00668468 0.00126002 -0.000342484 0.0103125 0.0111634 0.00718918 0.003374 0.0127436 -0.00350511
internal_weight=0 15235 15356 11709 9101 8258 3526 7671 2608 4111 7098 540 2068 6363 5435 1594 735 3679 3841 3019 656 509 3992 1803 928 909 933 2746 698 587
internal_count=30591 15235 15356 11709 9101 8258 3526 7671 2608 4111 7098 540 2068 6363 5435 1594 735 3679 3841 3019 656 509 3992 1803 928 909 933 2746 698 587
is_linear=0
shrinkage=0.05


Tree=31
num_leaves=31
num_cat=0
split_feature=6 6 6 1 6 7 6 6 9 5 1 5 1 9 5 6 1 8 7 3 5 6 5 8 6 7 8 8 3 9
split_gain=362.731 30.4633 24.8405 18.4847 12.392 7.50993 7.16427 6.77585 6.33725 5.95018 7.10927 5.24021 4.88484 4.63109 4.5836 4.37587 4.89886 4.15367 4.11456 3.68493 3.30493 3.26733 2.96621 2.90586 2.68672 4.32234 2.64344 2.62617 2.62247 2.52641
threshold=0.41296386718750006 0.24676513671875003 0.52026367187500011 7.5000000000000009 0.34509277343750006 5.5175781250000009 0.38610839843750006 0.43395996093750006 12.750000000000002 0.68310546875000011 7.5000000000000009 -0.68310546874999989 6.5000000000000009 16.953125000000004 1.0000000180025095e-35 0.16656494140625003 11.500000000000002 79.500000000000014 5.0898437500000009 -0.37939453124999994 -0.68310546874999989 0.56030273437500011 0.68310546875000011 35.500000000000007 0.59252929687500011 5.2167968750000009 58.500000000000007 77.500000000000014 0.98291015625000011 11.000000000000002
decision_type=2 2 2 2 2 2 2 2 2 2 2 2 2 2 2 2 2 2 2 2 2 2 2 2 2 2 2 2 2 2
left_child=1 8 5 6 19 7 28 12 -1 11 21 13 -2 -4 -7 20 -17 -8 -12 22 -10 29 -5 -18 25 -13 -21 -9 -3 -11
right_child=2 3 9 4 -6 14 17 27 15 10 18 24 -14 -15 -16 16 23 -19 -20 26 -22 -23 -24 -25 -26 -27 -28 -29 -30 -31
leaf_value=0.0016195462347889133 -5.4810242274749164e-05 -0.00067437436168394098 -0.0010349161752319595 -0.00061574800532191451 -0.00029078612947373102 0.00018627482602708283 3.5808690080999315e-05 0.00045945061307193271 -0.0034215442774533453 0.0030688522833775705 0.00030291881000194237 0.0015081647836945778 0.000557466649058336 0.0017938239849799667 -0.0011898580310163989 -0.0027138570430087329 0.00082343110784554316 -0.00037563029949853611 -0.0025230939064020126 -0.00081692346960996203 -0.0042442666588907146 0.0025344559371939554 -0.0014398366839225157 -0.0023967278861283482 0.0027981229329473237 0.00095163701487292827 -0.0015329880271684518 0.00029457936787724711 -0.00032198144856256388 8.5796265098185553e-05
leaf_weight=43 1101 2458 79 881 4388 814 327 2396 466 36 472 1461 963 1154 328 865 80 640 75 467 1712 231 355 1136 1352 295 1386 4355 258 135
leaf_count=43 1101 2458 79 881 4388 814 327 2396 466 36 472 1461 963 1154 328 865 80 640 75 467 1712 231 355 1136 1352 295 1386 4355 258 135
internal_value=0 -0.00662883 0.00423969 -0.0052509 -0.00382272 0.00276866 -0.00815028 0.0032629 -0.0102034 0.00700851 0.00342202 0.00779256 0.000755815 0.00503447 -0.00104641 -0.0103962 -0.00875661 -0.0044545 -0.000287934 -0.00624879 -0.0119628 0.00847015 -0.0041343 -0.00671053 0.00888674 0.00759681 -0.0076592 0.0040294 -0.00946613 0.00323099
internal_weight=0 15462 15247 11160 7477 9957 3683 8815 4302 5290 949 4341 2064 1233 1142 4259 2081 967 547 3089 2178 402 1236 1216 3108 1756 1853 6751 2716 171
internal_count=30709 15462 15247 11160 7477 9957 3683 8815 4302 5290 949 4341 2064 1233 1142 4259 2081 967 547 3089 2178 402 1236 1216 3108 1756 1853 6751 2716 171
is_linear=0
shrinkage=0.05


Tree=32
num_leaves=31
num_cat=0
split_feature=6 6 6 1 6 9 6 7 7 3 6 1 1 1 1 6 4 6 4 3 1 8 6 4 9 3 4 3 9 4
split_gain=327.736 34.408 24.6126 22.2445 8.9234 8.23525 8.00498 6.91147 5.11257 4.61121 4.11808 4.84427 3.53889 3.4655 4.0294 3.63185 3.33709 3.64557 3.14849 4.23259 3.1479 3.04737 3.66261 3.26778 3.0285 2.97626 2.89338 2.89246 7.72259 3.70661
threshold=0.40368652343750006 0.44812011718750006 0.24298095703125003 7.5000000000000009 0.33166503906250006 13.199218750000002 0.60327148437500011 5.5058593750000009 5.7402343750000009 -0.37939453124999994 0.14996337890625003 11.500000000000002 9.5000000000000018 1.0000000180025095e-35 4.5000000000000009 0.33972167968750006 -0.68310546874999989 0.48767089843750006 0.68310546875000011 -0.60351562499999989 10.500000000000002 79.500000000000014 0.46057128906250006 1.0000000180025095e-35 19.898437500000004 1.0000000180025095e-35 0.93310546875000011 1.0000000180025095e-35 15.550781250000002 -1.0000000180025095e-35
decision_type=2 2 2 2 2 2 2 2 2 2 2 2 2 2 2 2 2 2 2 2 2 2 2 2 2 2 2 2 2 2
left_child=2 8 5 13 9 12 7 16 26 -5 -7 -12 -1 -4 -15 -16 -3 21 -19 -20 -9 22 -18 25 -6 -24 -2 29 -29 -8
right_child=1 6 3 4 24 10 27 20 -10 -11 11 -13 -14 14 15 -17 17 18 19 -21 -22 -23 23 -25 -26 -27 -28 28 -30 -31
leaf_value=-0.0026778744075394408 2.0704911733647872e-05 0.00084257897712263364 -0.00047921010964498031 -0.00097417768554182481 -0.00045631751462186441 -0.0043199541449809083 0.0033093323724606607 0.0014756461216939136 -0.00066627332673468585 -0.0015064455628690835 -0.0027259601491437186 -0.0023106672774156197 0.0028969647439156311 -0.00066861885100228118 -0.0015120997388218184 -0.00046249975449383227 9.1545784769986319e-05 0.00079511373668719732 0.00072903558070522029 0.0014485248452438988 -0.00035049654480809902 0.00016745605620948305 0.00036008342140467215 0.00038458546439920497 -5.2794405284527228e-05 0.00050059294842095864 0.00067018508195529271 0.0023434268527114579 -0.00015376611847950434 0.0019595570802294292
leaf_weight=20 4249 1827 283 1047 3122 1787 740 213 591 1684 890 1357 45 1641 225 1015 360 1869 576 974 782 1397 202 533 1195 127 332 281 293 783
leaf_count=20 4249 1827 283 1047 3122 1787 740 213 591 1684 890 1357 45 1641 225 1015 360 1869 576 974 782 1397 202 533 1195 127 332 281 293 783
internal_value=0 0.00351215 -0.00688264 -0.00556894 -0.00400539 -0.0101555 0.0050988 0.00444131 0.000150813 -0.00624222 -0.01044 -0.00901535 0.0075 -0.00905183 -0.00957046 -0.00741935 0.00493802 0.00437148 0.00544677 0.0071129 0.000515076 0.00296774 0.00479133 0.00656033 -0.00259034 0.0104787 0.000715456 0.00787673 0.00485192 0.00901674
internal_weight=0 16129 14311 10212 7048 4099 10957 8860 5172 2731 4034 2247 65 3164 2881 1240 7865 6038 3419 1550 995 2619 1222 862 4317 329 4581 2097 574 1523
internal_count=30440 16129 14311 10212 7048 4099 10957 8860 5172 2731 4034 2247 65 3164 2881 1240 7865 6038 3419 1550 995 2619 1222 862 4317 329 4581 2097 574 1523
is_linear=0
shrinkage=0.05


Tree=33
num_leaves=31
num_cat=0
split_feature=6 6 6 3 2 6 2 6 4 6 4 5 3 7 5 4 4 3 6 8 5 3 4 6 3 5 8 2 6 7
split_gain=314.35 24.3476 22.063 14.2119 11.1793 15.0503 8.53971 7.8122 7.07433 5.1739 4.95211 6.18345 5.45992 4.95059 4.22151 7.26157 6.86192 4.3939 4.39932 3.90718 3.74266 3.81732 3.67682 3.5314 6.22777 3.24977 3.15444 3.09411 2.8995 2.86637
threshold=0.40637207031250006 0.44934082031250006 0.23052978515625003 -0.37939453124999994 1.0000000180025095e-35 0.35339355468750006 -0.60351562499999989 0.52416992187500011 -0.68310546874999989 0.38024902343750006 0.68310546875000011 -1.0000000180025095e-35 0.60351562500000011 5.8144531250000009 1.0000000180025095e-35 1.0000000180025095e-35 -1.0000000180025095e-35 0.37939453125000006 0.62475585937500011 19.500000000000004 0.68310546875000011 -0.91601562499999989 -0.93310546874999989 0.38415527343750006 1.0000000180025095e-35 -0.68310546874999989 57.500000000000007 -0.37939453124999994 0.42712402343750006 2.9179687500000004
decision_type=2 2 2 2 2 2 2 2 2 2 2 2 2 2 2 2 2 2 2 2 2 2 2 2 2 2 2 2 2 2
left_child=2 13 -1 20 5 22 -3 29 9 -6 14 12 -12 28 16 -16 17 18 -9 -7 21 26 -5 25 -25 -10 -4 -21 -2 -8
right_child=1 6 3 4 8 19 7 10 23 -11 11 -13 -14 -15 15 -17 -18 -19 -20 27 -22 -23 -24 24 -26 -27 -28 -29 -30 -31
