tree
version=v3
num_class=1
num_tree_per_iteration=1
label_index=0
max_feature_idx=10
objective=quantile
feature_names=Month Hour hour_x hour_y month_x month_y net_target-23 net_target diffuse_solar_radiation+1 relative_humidity+1 drybulb_temp+1
feature_infos=[1:12] [1:24] [-1:1] [-1:1] [-1:1] [-1:1] [0:1] [0:1] [0:6.9255951971104679] [10:100] [5.5999999999999996:32.200000000000003]
tree_sizes=2759 2881 2950 2898 2906 2930 2890 2882 2915 2918 2897 2900 2896 2947 2936 2930 2895 2893 2932 2927 2932 2917 2879 2901 2942 2925 2921 2938 2935 2916 2952 2914 2906 2926 2961 2919 2953 2910 2953 2965 2925 2929 2942 2953 2904 2921 2924 2942 2932 2943 2927 2931 2899 2958 2952 2956 2918 2964 2926 2935 2900 2911 2913 2916 2958 2944 2955 2913 2937 2896 2936 2915 2937 2882 2935 2935 2941 2918 2926 2956 2946 2938 2913 2953 2935 2921 2942 2949 2934 2932 2922 2948 2916 2946 2947 2957 2946 2945 2920 2923 2931 2963 2933 2950 2913 2970 2927 2932 2943 2932 2941 2928 2926 2937 2934 2935 2951 2957 2935 2949 2944 2933 2927 2943 2946 2907 2960 2955 2939 2961 2957 2950 2937 2927 2921 2934 2929 2955 2950 2935 2922 2943 2944 2968 2930 2959 2939 2901 2936 2952 2925 2938 2943 2938 2944 2937 2935 2944 2946 2986 2953 2910 2952 2971 2951 2946 2946 2953 2922 2929 2940 2910 2932 2956 2930 2962 2961 2937 2941 2957 2926 2923 2945 2946 2942 2936 2944 2952 2967 2951 2964 2905 2921 2960 2948 2943 2958 2956 2943 2980

Tree=0
num_leaves=31
num_cat=0
split_feature=7 6 4 7 6 3 6 6 0 8 0 9 9 4 7 3 6 4 0 3 7 1 1 6 8 8 6 6 1 1
split_gain=0.575089 0.313033 0.429997 0.112249 0.190273 0.0780888 0.121319 0.264927 0.185707 0.268089 0.140307 0.040991 0.0358889 0.0346154 0.00748286 0.0187766 0.0140515 0.0312256 0.00265053 0.00526839 0.0138703 0.03 0.00860806 0.0274725 0.0042644 0.036882 0.000967077 0.0119324 0.0368421 0.000557505
threshold=0.81632706295631363 0.56476872921328458 -0.24999999999999994 0.62282598481535556 0.8161292551714282 -0.78656609248549292 0.51208025712602712 0.61739089903201705 1.5000000000000002 0.89587973461402759 11.500000000000002 89.500000000000014 43.500000000000007 1.0000000180025095e-35 0.60261570248812701 -0.9829629131445341 0.6411539359914199 -0.68301270189221952 11.500000000000002 -0.78656609248549292 0.56090091506992046 20.500000000000004 18.500000000000004 0.45537496740436129 6.1257762875041957 6.1366459725839873 0.6411539359914199 0.64955479807325567 20.500000000000004 14.500000000000002
decision_type=2 2 2 2 2 2 2 2 2 2 2 2 2 2 2 2 2 2 2 2 2 2 2 2 2 2 2 2 2 2
left_child=3 13 -3 14 5 6 -5 8 -8 10 11 -10 -7 -2 18 -16 -17 -18 26 20 22 -22 23 -20 -21 -26 29 28 -28 -1
right_child=1 2 -4 4 -6 12 7 -9 9 -11 -12 -13 -14 -15 15 16 17 -19 19 24 21 -23 -24 -25 25 -27 27 -29 -30 -31
leaf_value=0.87381963407193552 0.87766273319721222 0.88518698215484615 0.88128720819950102 0.87858524322509768 0.88239156007766728 0.87955216169357298 0.88141978085041051 0.8791192412376404 0.87686761319637296 0.88518698215484615 0.88211393952369688 0.88015987873077395 0.87784835696220398 0.87959870100021365 0.87919707894325261 0.87898321151733394 0.88184580504894261 0.87744557261466982 0.88215452730655675 0.87654028577638032 0.87264710366725917 0.88518698215484615 0.87771934270858765 0.87101135551929476 0.88083557188510897 0.86583060324192052 0.87549973726272579 0.87883201837539671 0.88044404983520508 0.87729214755803464
leaf_weight=15311 45 38 34 277 38 27 21 175 91 32 20 20 844 20 40 366 21 40 26 1713 30 20 329 65 24 185 56 740 20 9831
leaf_count=15311 45 38 34 277 38 27 21 175 91 32 20 20 844 20 40 366 21 40 26 1713 30 20 329 65 24 185 56 740 20 9831
internal_value=0.879144 0.882379 0.88465 0.879132 0.879547 0.879459 0.87988 0.880487 0.881812 0.881241 0.880239 0.879545 0.879152 0.879863 0.87911 0.879308 0.879211 0.879914 0.879107 0.879157 0.879307 0.880094 0.879213 0.879644 0.87912 0.879333 0.879102 0.879155 0.879752 0.8791
internal_weight=0 137 72 30362 1545 1507 636 359 184 163 131 111 871 65 28817 467 427 61 28350 2392 470 50 420 91 1922 209 25958 816 76 25142
internal_count=30499 137 72 30362 1545 1507 636 359 184 163 131 111 871 65 28817 467 427 61 28350 2392 470 50 420 91 1922 209 25958 816 76 25142
is_linear=0
shrinkage=1


Tree=1
num_leaves=31
num_cat=0
split_feature=7 6 6 3 7 3 6 6 10 7 7 3 3 4 6 6 7 5 10 6 6 5 4 3 7 6 10 7 6 8
split_gain=0.400137 0.195641 0.307397 0.102439 0.0835648 0.132018 0.103119 0.120607 0.308551 0.111919 0.0667568 0.0882162 0.0800801 0.0428094 0.0375045 0.0327586 0.0307201 0.0264878 0.0255508 0.00526959 0.0406959 0.0747005 0.00322796 0.00579559 0.0155617 0.0277778 0.00511499 0.0173077 0.025 0.00442628
threshold=0.81632706295631363 0.56476872921328458 0.65732975861633447 -0.9159756150367534 0.60261570248812701 -0.78656609248549292 0.51208025712602712 0.55123992275056999 16.650000000000002 0.61208505147651604 0.70672976718006286 -0.9159756150367534 -0.9829629131445341 -0.5 0.6666334859654004 0.43820815118078238 0.64950052705559536 0.93301270189221952 14.300000000000002 0.60721358760383082 0.61215424348931957 0.25000000000000006 0.93301270189221952 -0.78656609248549292 0.56090091506992046 0.52747440532745726 14.300000000000002 0.48458388991077089 0.49267404185748792 6.1257762875041957
decision_type=2 2 2 2 2 2 2 2 2 2 2 2 2 2 2 2 2 2 2 2 2 2 2 2 2 2 2 2 2 2
left_child=4 15 -3 -4 19 6 17 8 16 13 18 12 -12 -9 -14 -2 -8 -6 -11 22 21 -21 -1 24 26 -26 27 -24 -29 -25
right_child=1 2 3 -5 5 -7 7 9 -10 10 11 -13 14 -15 -16 -17 -18 -19 -20 20 -22 -23 23 29 25 -27 -28 28 -30 -31
leaf_value=-0.0033317129453997105 0.0012017093598842622 0.0021191143989563012 0.005740650892257693 -0.0011134620010852803 -0.00053100109100341912 -0.00044175571423181741 0.0028212603926658641 0.002566532641649244 -0.00099828898906707537 0.00074970409274101042 -0.0023582619428634656 -2.3702979087830702e-05 0.0038885736465454125 0.0061277213692665089 0.00046056866645812768 -0.0019595868885517119 0.0061566193401813522 0.00053183019161224252 -2.0766258239768301e-06 -0.0040668032940203601 0.00075342753608332322 0.0037556175747960221 -0.01643897294998169 -0.0081542098061594022 -0.0061722336709499337 0.005740650892257693 -0.002633607387542725 0.002859818786382673 -0.0089280724525451667 0.0016068111360073079
leaf_weight=24785 20 20 20 21 308 1161 21 20 42 34 20 51 31 26 23 38 20 34 225 53 1278 33 90 1621 25 20 258 20 20 201
leaf_count=24785 20 20 20 21 308 1161 21 20 42 34 20 51 31 26 23 38 20 34 225 53 1278 33 90 1621 25 20 258 20 20 201
internal_value=0 0.00289118 0.00486803 0.00238903 -1.38389e-05 0.000297223 0.000768714 0.00121706 0.00296205 0.000880233 0.000601042 0.00155 0.0026527 0.00321087 0.0036537 0.00081207 0.00604756 9.61995e-05 0.000143051 -3.59168e-05 5.99713e-05 0.00111279 -4.07538e-05 1.65195e-05 0.000180948 0.00106111 7.88666e-05 0.000334616 0.0012 -2.2557e-05
internal_weight=0 119 61 41 30420 2016 855 513 83 430 384 125 74 46 54 58 41 342 259 28404 1364 86 27040 2255 433 45 388 130 40 1822
internal_count=30539 119 61 41 30420 2016 855 513 83 430 384 125 74 46 54 58 41 342 259 28404 1364 86 27040 2255 433 45 388 130 40 1822
is_linear=0
shrinkage=0.05


Tree=2
num_leaves=31
num_cat=0
split_feature=7 3 4 1 8 1 9 7 3 0 8 7 7 3 0 3 0 0 3 7 7 1 7 8 9 1 8 0 9 9
split_gain=0.155466 0.125723 0.205566 0.316709 0.649922 0.0941296 0.173077 0.0217561 0.0298922 0.0516053 0.0277778 0.0060816 0.026565 0.0536232 0.0730435 0.00838886 0.0406542 0.00250866 0.00500588 0.0108625 0.0309524 0.00821685 0.0157895 0.00406671 0.0454338 0.000918338 0.00487061 0.0444751 0.0010549 0.00344956
threshold=0.72723847499553085 -0.70710678118654735 -0.24999999999999994 19.500000000000004 2.8029010331479989 21.500000000000004 82.500000000000014 0.67787685427820832 -0.78656609248549292 5.5000000000000009 2.1383330595080285 0.60699495501663581 0.61208505147651604 -0.78656609248549292 7.5000000000000009 -0.9829629131445341 3.5000000000000004 11.500000000000002 -0.78656609248549292 0.56090091506992046 0.57565143639564564 18.500000000000004 0.48458388991077089 6.1257762875041957 66.500000000000014 14.500000000000002 6.6509254610885753 5.5000000000000009 86.500000000000014 87.500000000000014
decision_type=2 2 2 2 2 2 2 2 2 2 2 2 2 2 2 2 2 2 2 2 2 2 2 2 2 2 2 2 2 2
left_child=7 2 3 4 -2 -5 -7 11 9 -9 -11 17 13 14 -13 16 -14 25 19 21 -21 22 -19 -20 -25 -1 28 -28 -27 -30
right_child=1 -3 -4 5 -6 6 -8 8 -10 10 -12 12 15 -15 -16 -17 -18 18 23 20 -22 -23 -24 24 -26 26 27 -29 29 -31
leaf_value=-0.004439697974106079 0.0054536183476448065 -0.00057533403922050981 -0.00013569676876067915 -0.0017683650255203244 -0.002571027666330339 0.0058487883731722871 -2.2517830133439445e-05 0.0054328199252486279 -0.0017979147105309347 -0.00050445103645324618 0.00043754023313521961 0.0058213353008031822 0.00071221888810396041 -0.0038859539299103576 -0.0092378571033477751 -1.9727945327785436e-06 -0.0033115732073783878 -0.0077638657883203569 -0.0048222607104903897 0.0054536183476448065 -0.0067949841618537904 -0.0055170041322708148 0.0027168278470635411 -0.012728249631822114 0.00152647057920694 -0.0015935508769278463 0.0024122089536486482 -0.0088196962682904386 0.001197193811794467 -0.0015350548627894671
leaf_weight=15698 26 211 115 62 23 26 26 41 208 98 28 25 20 74 21 938 87 57 1783 21 39 338 38 199 20 8062 20 161 761 1453
leaf_count=15698 26 211 115 62 23 26 26 41 208 98 28 25 20 74 21 938 87 57 1783 21 39 338 38 199 20 8062 20 161 761 1453
internal_value=0 0.000870246 0.00156871 0.00271074 0.00607245 0.00126579 0.00283462 -2.8469e-05 0.000350001 0.000848204 0.000346826 -3.32293e-05 7.8756e-05 0.000783334 0.00212391 -2.15247e-06 0.00041729 -3.7783e-05 1.01209e-05 0.00015284 0.000783334 6.54741e-05 0.000476316 -2.50243e-05 0.000178311 -4.23526e-05 -3.08734e-05 0.000226244 -3.54022e-05 -4.83224e-06
internal_weight=0 489 278 163 49 114 52 30190 375 167 126 29815 1165 120 46 1045 107 28650 2495 493 60 433 95 2002 219 26155 10457 181 10276 2214
internal_count=30679 489 278 163 49 114 52 30190 375 167 126 29815 1165 120 46 1045 107 28650 2495 493 60 433 95 2002 219 26155 10457 181 10276 2214
is_linear=0
shrinkage=0.05


Tree=3
num_leaves=31
num_cat=0
split_feature=6 3 10 6 6 10 4 6 10 9 0 1 6 9 0 0 10 0 10 6 6 6 1 6 0 0 3 6 6 6
split_gain=0.0575844 0.0616938 0.0482365 0.0691388 0.0718294 0.0223445 0.0389951 0.0939394 0.0238896 0.0317139 0.0417127 0.0355981 0.069712 0.0303204 0.0253968 0.0216049 0.0161373 0.0213147 0.0333333 0.0343434 0.0189013 0.0411976 0.0659341 0.0165923 0.0272727 0.00543106 0.0161844 0.0295187 0.0110491 0.041514
threshold=0.54574048896314509 -0.70710678118654735 19.900000000000002 0.74880291239386587 0.57172916210745217 16.050000000000004 -0.5 0.58303487089591199 18.850000000000005 80.500000000000014 8.5000000000000018 20.500000000000004 0.60266866672888642 83.500000000000014 7.5000000000000009 8.5000000000000018 13.200000000000001 1.5000000000000002 14.300000000000002 0.67797989664683711 0.61215424348931957 0.59058765741906061 20.500000000000004 0.55450817107537909 10.500000000000002 11.500000000000002 -0.78656609248549292 0.53227172118141219 0.45187438408991148 0.47569417425834465
decision_type=2 2 2 2 2 2 2 2 2 2 2 2 2 2 2 2 2 2 2 2 2 2 2 2 2 2 2 2 2 2
left_child=25 2 5 4 -4 6 7 -2 -7 -10 11 12 -11 -13 -14 -6 -8 18 -18 -20 21 23 -23 24 -19 -1 27 28 -27 -30
right_child=1 -3 3 -5 15 8 16 -9 9 10 -12 13 14 -15 -16 -17 17 20 19 -21 -22 22 -24 -25 -26 26 -28 -29 29 -31
leaf_value=-0.0021255767599978369 0.0055563489545136738 -4.2360476159695543e-05 0.0017207192603498735 0.0051809374302625669 -0.0012113649835611751 -0.00031202336920502786 -0.00010265324993699587 -0.0038204530602495902 -0.0012173344969749478 0.003421464046835904 -0.001834977793693543 0.0021471392445266192 -0.0031037651702761682 -0.0015606640904042126 0.002683577319979669 0.0032371191173791894 0.0019366947531700152 -0.0087883354423796637 -0.00075038404688239086 0.0055302685357630221 -0.00012891193032264493 0.0036475142399026109 -0.010829842209652614 -0.00013918303251266308 0.0051809374302625669 -0.0033595374256372434 -0.00081388011721502816 0.002680296012759209 0.0025809864547103657 -0.0067182017266750327
leaf_weight=24336 24 2065 36 30 126 682 163 31 188 22 85 23 24 53 21 36 45 24 68 22 177 28 24 119 20 184 1754 24 63 119
leaf_count=24336 24 2065 36 30 126 682 163 31 188 22 85 23 24 53 21 36 45 24 68 22 177 28 24 119 20 184 1754 24 63 119
internal_value=0 0.000167602 0.00036043 0.00104649 0.000707576 0.000275557 0.000486913 0.00176818 0.00013215 0.00043077 0.000827194 0.0013486 0.00218881 0.000607895 0.00106111 0.000258643 0.000384783 0.000519261 0.00106111 0.000505556 0.000332654 0.000647675 0.00187308 0.000256749 0.00108636 -3.30054e-05 4.32842e-05 0.000334616 0.000223225 0.000499451
internal_weight=0 4136 2071 228 198 1843 745 55 1098 416 228 143 67 76 45 162 690 527 135 90 392 215 52 163 44 26480 2144 390 366 182
internal_count=30616 4136 2071 228 198 1843 745 55 1098 416 228 143 67 76 45 162 690 527 135 90 392 215 52 163 44 26480 2144 390 366 182
is_linear=0
shrinkage=0.05


Tree=4
num_leaves=31
num_cat=0
split_feature=3 10 9 9 10 0 9 1 9 1 0 9 1 10 9 0 9 4 1 8 4 8 0 9 10 10 4 10 1 9
split_gain=0.0305068 0.011055 0.0120967 0.0343007 0.0227845 0.0445455 0.0984849 0.0368116 0.0092595 0.0119917 0.0222964 0.0404228 0.076536 0.024537 0.021409 0.00939051 0.0281179 0.0147525 0.0177523 0.0714804 0.0433876 0.0210369 0.040906 0.0272727 0.0103059 0.0166331 0.00336072 0.0557883 0.103175 0.00417605
threshold=-0.70710678118654735 19.900000000000002 70.500000000000014 72.500000000000014 20.550000000000004 8.5000000000000018 77.500000000000014 22.500000000000004 76.500000000000014 20.500000000000004 11.500000000000002 86.500000000000014 19.500000000000004 14.300000000000002 77.500000000000014 1.5000000000000002 82.500000000000014 -0.5 19.500000000000004 2.6735537653587347 -0.9330127018922193 1.0000000180025095e-35 7.5000000000000009 80.500000000000014 14.900000000000002 15.550000000000002 0.25000000000000017 18.200000000000006 21.500000000000004 78.500000000000014
decision_type=2 2 2 2 2 2 2 2 2 2 2 2 2 2 2 2 2 2 2 2 2 2 2 2 2 2 2 2 2 2
left_child=1 8 -3 -4 5 7 -7 -5 -1 10 14 12 13 -12 -10 16 -16 18 19 20 -17 22 -22 -23 -18 -26 29 -28 -29 -11
right_child=-2 2 3 4 -6 6 -8 -9 9 26 11 -13 -14 -15 15 17 24 -19 -20 -21 21 23 -24 -25 25 -27 27 28 -30 -31
leaf_value=-0.00027084368149325202 -0.0018806740973483051 -0.0023159125676655845 0.00082478964809448718 -0.0011507967343831139 -0.00026092102631927185 0.0030752631615102279 -0.0080827644967213959 0.0016346832973323788 0.0052674577669860889 0.00062217863662168975 0.0024519371319748464 -0.0056990137627720878 0.0018682444013180699 -0.0050731770543754112 0.0012593349396988474 -0.0057402648956502824 -0.0039480171226337511 -0.00013223846754869989 -0.00016947944933412562 -0.0013202524881064936 0.0003790512992805251 0.001070023256322933 0.0026551117022335482 -0.002399503631442779 0.00085333395037800466 -0.0098512777855912729 0.0018398600155115131 0.0011529352896649913 -0.01247769409195716 -0.00045659677227428931
leaf_weight=2238 22882 192 20 127 199 22 26 23 36 209 27 99 27 53 24 39 124 1026 279 240 34 20 24 24 31 33 967 24 39 1434
leaf_count=2238 22882 192 20 127 199 22 26 23 36 209 27 99 27 53 24 39 124 1026 279 240 34 20 24 24 31 33 967 24 39 1434
internal_value=0 7.40215e-05 0.000278408 0.000429617 0.000327834 0.000707576 0.00203333 0.000283334 5.63685e-05 9.54401e-05 0.000183646 0.000678156 0.00135187 0.000575001 0.000130973 0.000108062 0.000421699 6.86246e-05 0.000253031 0.000474935 0.00136844 0.00191078 0.00253621 0.00108636 0.000215958 0.000731251 2.48229e-05 9.56317e-05 0.0015373 -1.95672e-05
internal_weight=0 7660 609 417 397 198 48 150 7051 4813 2140 206 107 80 1934 1898 212 1686 660 381 141 102 58 44 188 64 2673 1030 63 1643
internal_count=30542 7660 609 417 397 198 48 150 7051 4813 2140 206 107 80 1934 1898 212 1686 660 381 141 102 58 44 188 64 2673 1030 63 1643
is_linear=0
shrinkage=0.05


Tree=5
num_leaves=31
num_cat=0
split_feature=7 5 2 7 3 5 4 7 7 9 1 7 7 1 8 7 3 1 7 3 4 7 7 1 7 7 8 8 4 9
split_gain=0.392296 0.256369 0.14881 0.0502459 0.0535827 0.103144 0.056862 0.158654 0.141608 0.0366826 0.0324675 0.0207557 0.0197889 0.0493369 0.09699 0.00466219 0.0180742 0.0504054 0.0592593 0.00203362 0.00381306 0.00883268 0.0324675 0.00325203 0.00982783 0.0352941 0.00100749 0.0270073 0.00505212 0.01569
threshold=0.81632706295631363 -0.6830127018922193 0.60355339059327384 0.62938392134602106 -0.70710678118654735 0.25000000000000006 1.0000000180025095e-35 0.67787685427820832 0.64109502017133557 91.500000000000014 21.500000000000004 0.63501579673867603 0.72723847499553085 19.500000000000004 1.4978661367769959 0.59820176476359233 -0.9159756150367534 19.500000000000004 0.61208505147651604 -0.60355339059327362 0.93301270189221952 0.56090091506992046 0.57170743808498903 18.500000000000004 0.48458388991077089 0.49989898910449809 2.9174053685313028 3.0201273556387074 0.6830127018922193 64.500000000000014
decision_type=2 2 2 2 2 2 2 2 2 2 2 2 2 2 2 2 2 2 2 2 2 2 2 2 2 2 2 2 2 2
left_child=3 2 -2 15 5 11 7 -7 -8 -10 -3 -5 -13 14 -14 19 17 18 -17 20 26 23 -23 24 -22 -26 -1 -28 -29 -30
right_child=1 10 -4 4 -6 6 8 -9 9 -11 -12 12 13 -15 -16 16 -18 -19 -20 -21 21 22 -24 -25 25 -27 27 28 29 -31
leaf_value=-0.0012335964323497688 0.0049794303954685927 -0.00022421688166260334 0.0015529491324657585 0.00018267509905858792 -0.00029354931279387819 -0.0054096940334571967 0.00081066725285910415 0.0053013613454017065 -0.00011585441042907818 0.0018683631629856313 0.00059106970479060332 -0.00035940746255603287 0.0025223561171218711 -0.0015790837311103812 -0.00096608466336876593 0.0052110884114559726 -0.0011037580702636107 -0.00016100547686742075 -0.0032799615819045615 -0.0033806788764473971 -0.001417903722271785 0.0049354327428240974 -0.0070501157103553432 -0.0010954399712877593 0.0023293402753761018 -0.0084546296792551885 0.0034717504512849166 -0.0020838578677235937 0.0025742116460294564 -0.0034727987757234738
leaf_weight=5082 32 45 24 34 679 22 20 26 92 22 21 368 23 93 29 30 546 115 24 20667 137 22 55 410 20 48 35 1692 47 132
leaf_count=5082 32 45 24 34 679 22 20 26 92 22 21 368 23 93 29 30 546 115 24 20667 137 22 55 410 20 48 35 1692 47 132
internal_value=0 0.00281885 0.00530714 -2.21031e-05 0.000269603 0.000567285 0.00159835 0.003075 0.0010694 0.000388597 0.000707576 0.000224224 0.000144932 0.000639656 0.00187308 -3.62357e-05 8.98608e-05 0.000541717 0.00180185 -3.94162e-05 -1.74473e-05 9.45093e-05 0.000599351 3.13015e-05 0.000193903 0.000685295 -2.8534e-05 2.46654e-06 -2.32757e-05 0.00022933
internal_weight=0 122 56 30470 1408 729 182 48 134 114 66 547 513 145 52 29062 715 169 54 28347 7680 692 77 615 205 68 6988 1906 1871 179
internal_count=30592 122 56 30470 1408 729 182 48 134 114 66 547 513 145 52 29062 715 169 54 28347 7680 692 77 615 205 68 6988 1906 1871 179
is_linear=0
shrinkage=0.05


Tree=6
num_leaves=31
num_cat=0
split_feature=6 1 8 8 1 6 0 10 10 4 6 4 1 6 6 6 6 10 1 6 6 6 1 8 10 6 0 5 6 0
split_gain=0.0544864 0.0474195 0.0555453 0.143092 0.018142 0.106253 0.063736 0.0532193 0.0231109 0.0520796 0.116667 0.0178084 0.0264706 0.0791075 0.0293427 0.0111862 0.0151261 0.00972278 0.034585 0.00744567 0.0229885 0.00479347 0.00949426 0.0535158 0.110421 0.0200075 0.0267442 0.00863064 0.0216198 0.00515029
threshold=0.54574048896314509 18.500000000000004 2.1383330595080285 3.0201273556387074 19.500000000000004 0.65732975861633447 8.5000000000000018 18.200000000000006 16.050000000000004 -0.5 0.57886109647133155 0.6830127018922193 20.500000000000004 0.59447291825781834 0.55450817107537909 0.77680055425040184 0.8161292551714282 19.900000000000002 22.500000000000004 0.63515658283920862 0.65732975861633447 0.4797671172945554 18.500000000000004 0.89587973461402759 16.650000000000002 0.4813766687898362 4.5000000000000009 -0.93301270189221919 0.49448385607475848 11.500000000000002
decision_type=2 2 2 2 2 2 2 2 2 2 2 2 2 2 2 2 2 2 2 2 2 2 2 2 2 2 2 2 2 2
left_child=21 -2 4 -4 5 -3 7 -7 9 10 -6 -11 13 -13 -14 17 -17 -10 -19 -16 -21 -1 -23 25 -25 26 -24 28 -27 -29
right_child=1 2 3 -5 8 6 -8 -9 15 11 -12 12 14 -15 19 16 -18 18 -20 20 -22 22 23 24 -26 27 -28 29 -30 -31
leaf_value=-0.0026560500983213013 0.00036095950024451264 -0.0012905432394523519 0.0033647077020678763 -0.0017184862227863419 0.0050362932781316209 0.0049505339908831715 -0.0037239090449664395 0.0023962383112657751 -0.00015295520302405219 -0.00011006168990762566 -0.0035449207470059085 0.0017928025543799686 0.0046886611056828897 -0.0054060128007901165 -0.0002130060375794718 9.5993255002713173e-05 -0.0014605069175675557 -0.001861322172552632 0.0014753016758424721 0.001718313529496407 -0.0010406679727233692 -0.0015294338775141596 0.00036849908290425561 0.0047390168113666982 -0.0033191743325803992 0.0012972218715500252 -0.003593106219850495 -0.0011223756328732138 -0.0017847964931882567 0.0026150112997090913
leaf_weight=22569 2118 190 38 58 20 35 28 36 780 207 28 29 25 39 160 34 36 70 22 29 58 2298 20 23 40 31 23 1196 63 170
leaf_count=22569 2118 190 38 58 20 35 28 36 780 207 28 29 25 39 160 34 36 70 22 29 58 2298 20 23 40 31 23 1196 63 170
internal_value=0 0.000160397 0.000340219 0.0015125 0.000278588 0.000642042 0.0019702 0.0027669 0.000210248 0.000454202 0.00203333 0.000315631 0.000538236 0.00142059 0.000317648 5.61578e-05 0.000664286 7.34009e-06 0.000493479 0.00015243 0.000524713 -3.67583e-05 1.47004e-05 0.000109643 0.0015373 4.9801e-05 0.00111279 1.84938e-05 0.000481916 -1.33961e-05
internal_weight=0 4040 1922 96 1826 289 99 71 1537 595 48 547 340 68 272 942 70 872 92 247 87 26433 3864 1566 63 1503 43 1460 94 1366
internal_count=30473 4040 1922 96 1826 289 99 71 1537 595 48 547 340 68 272 942 70 872 92 247 87 26433 3864 1566 63 1503 43 1460 94 1366
is_linear=0
shrinkage=0.05


Tree=7
num_leaves=31
num_cat=0
split_feature=7 1 7 3 6 10 6 7 7 9 1 9 9 6 1 10 9 3 6 6 7 2 4 3 6 6 1 10 7 6
split_gain=0.545224 0.310073 0.126343 0.140698 0.11924 0.144646 0.459746 0.254032 0.126677 0.201331 0.160714 0.0687837 0.0388372 0.0280112 0.025 0.0224943 0.0190005 0.0267442 0.0110404 0.0182643 0.0375507 0.105128 0.036124 0.00754924 0.0109082 0.0202826 0.036799 0.12268 0.0303958 0.00816758
threshold=0.81632706295631363 22.500000000000004 0.62282598481535556 -0.78656609248549292 0.47454455194601286 15.100000000000001 0.58303487089591199 0.65661827547335505 0.72723847499553085 80.500000000000014 19.500000000000004 83.500000000000014 43.500000000000007 0.58303487089591199 19.500000000000004 16.650000000000002 74.500000000000014 -0.9159756150367534 0.54574048896314509 0.55450817107537909 0.56090091506992046 0.25881904510252057 -0.9330127018922193 -0.78656609248549292 0.60721358760383082 0.6666334859654004 18.500000000000004 16.050000000000004 0.60699495501663581 0.6411539359914199
decision_type=2 2 2 2 2 2 2 2 2 2 2 2 2 2 2 2 2 2 2 2 2 2 2 2 2 2 2 2 2 2
left_child=2 11 18 4 -4 6 7 -6 15 -10 -11 13 -5 -2 -13 -7 17 -17 -1 20 22 -22 -20 24 -21 26 27 -26 29 -28
right_child=1 -3 3 12 5 8 -8 -9 9 10 -12 14 -14 -15 -16 16 -18 -19 19 23 21 -23 -24 -25 25 -27 28 -29 -30 -31
leaf_value=-0.0028567098725348714 -0.00020235573570049904 0.001632397853021589 -0.00020863458451216845 0.00010477528082166177 0.0024842607347236368 0.0010500559546113119 -0.0026385664441143878 0.004502065970798364 -0.0020439858473915995 0.003196472316964483 9.1193592252575289e-05 0.0020478594335322899 -0.00028367150990432079 0.0027254815103676666 0.00031094622445984599 -0.0030598447211656723 -0.00014741182008577437 0.0029214224015502947 0.00089706842986636006 -0.0001453074428728496 0.0044542280503987453 -0.0069855199778207705 -0.0021227492558817951 -0.0014798592161345055 0.0032801149537084462 -0.00037350685965460429 -0.00012233068210285581 -0.0032357198567783576 0.0021254477845783883 0.0011646161069504336
leaf_weight=25571 30 23 203 25 25 30 62 31 46 28 28 20 835 21 20 23 192 20 25 561 24 41 233 1701 21 307 193 38 25 85
leaf_count=25571 30 23 203 25 25 30 62 31 46 28 28 20 835 21 20 23 192 20 25 561 24 41 233 1701 21 307 193 38 25 85
internal_value=0 0.00345877 -5.55199e-06 0.000434497 0.000967443 0.0013933 0.0029161 0.0062 0.000903679 0.00240098 0.00441429 0.0021478 8.14018e-06 0.000930393 0.0037 0.000327359 0.000162767 0.00111279 -2.91841e-05 5.75606e-05 0.000414397 0.00148846 0.000143799 1.82367e-05 0.000112602 0.000248954 0.000502487 0.00164492 0.000280034 0.000129857
internal_weight=0 114 30373 1548 688 485 118 56 367 102 56 91 860 51 40 265 235 43 28825 3254 323 65 258 2931 1230 669 362 59 303 278
internal_count=30487 114 30373 1548 688 485 118 56 367 102 56 91 860 51 40 265 235 43 28825 3254 323 65 258 2931 1230 669 362 59 303 278
is_linear=0
shrinkage=0.05


Tree=8
num_leaves=31
num_cat=0
split_feature=7 5 3 0 3 7 3 0 6 6 3 6 0 6 7 0 6 6 6 6 6 7 4 3 7 7 7 7 4 0
split_gain=0.335668 0.125644 0.19033 0.0738636 0.10688 0.0729252 0.115445 0.116133 0.236138 0.366024 0.0991285 0.0425177 0.0379999 0.0375 0.0344521 0.0762195 0.0335345 0.0281479 0.0272727 0.00534789 0.00945262 0.037013 0.0048962 0.012785 0.0297996 0.149367 0.00198568 0.00682592 0.0207161 0.00471432
threshold=0.77702391452946318 -0.6830127018922193 -0.78656609248549292 5.5000000000000009 -0.60355339059327362 0.59820176476359233 -0.78656609248549292 5.5000000000000009 0.51208025712602712 0.55123992275056999 -0.9829629131445341 0.64955479807325567 11.500000000000002 0.59447291825781834 0.61208505147651604 7.5000000000000009 0.62295103976927357 0.77680055425040184 0.55123992275056999 0.60721358760383082 0.61215424348931957 0.41602583824637868 0.25000000000000017 -0.78656609248549292 0.50607477570066572 0.52754220282802688 0.54330505135980756 0.54576448439364811 -0.68301270189221952 11.500000000000002
decision_type=2 2 2 2 2 2 2 2 2 2 2 2 2 2 2 2 2 2 2 2 2 2 2 2 2 2 2 2 2 2
left_child=5 2 11 4 -3 19 7 8 -7 -10 -11 -2 14 -14 15 -9 -12 -16 -4 26 21 -21 -22 24 -24 -26 -1 28 -28 -29
right_child=1 3 18 -5 -6 6 -8 12 9 10 16 -13 13 -15 17 -17 -18 -19 -20 20 22 -23 23 -25 25 -27 27 29 -30 -31
leaf_value=-0.0045020982967982938 0.00029539891323685511 0.0015507779603705085 -0.0015672554642179983 -0.00019223794891547465 -0.00089632435113967126 -0.00095725271754866232 -0.00035418680169397931 0.0020191753953494708 0.0048866779065946222 0.00052278753507381537 -0.00089242965882042067 0.0044743728846134926 0.0018350907488666913 -0.005601485073753615 -4.5654602951106239e-05 -0.00013804207072920516 0.0047216826343217449 0.0021166027798542597 0.0003470784165683805 0.0031161092060230213 -0.00035483151667187185 -0.0033203475723217746 -0.0032608470992348485 -0.00095521591978980913 0.0011063853016029135 -0.0010468653794347194 0.00057346311383778552 -0.00048834687472615595 -0.004399339037348726 0.0042315166478788082
leaf_weight=25291 23 37 24 78 29 107 1140 32 32 22 50 20 40 24 431 50 21 33 20 20 772 57 113 305 20 59 34 1262 81 185
leaf_count=25291 23 37 24 78 29 107 1140 32 32 22 50 20 40 24 431 50 21 33 20 20 772 57 113 305 20 59 34 1262 81 185
internal_value=0 0.00189805 0.00339828 0.000991667 0.00222273 -1.52093e-05 0.000277952 0.000721972 0.00167414 0.00315 0.0015629 0.00576395 0.000359837 0.0015125 0.000224726 0.00116951 0.000654226 5.77593e-05 0.00108636 -3.58145e-05 6.1442e-05 0.000599351 2.88029e-05 0.000151208 0.000470834 0.00121582 -4.06894e-05 1.40211e-05 0.000384783 -1.54451e-05
internal_weight=0 231 87 144 66 30181 1982 842 232 125 93 43 610 64 546 82 71 464 44 28199 1346 77 1269 497 192 79 26853 1562 115 1447
internal_count=30412 231 87 144 66 30181 1982 842 232 125 93 43 610 64 546 82 71 464 44 28199 1346 77 1269 497 192 79 26853 1562 115 1447
is_linear=0
shrinkage=0.05


Tree=9
num_leaves=31
num_cat=0
split_feature=7 1 3 3 7 3 5 6 6 6 3 0 7 7 9 0 6 1 6 0 5 5 7 9 1 7 7 8 9 0
split_gain=0.282899 0.146254 0.0836871 0.183529 0.0555791 0.0671282 0.11403 0.108305 0.15477 0.255779 0.189995 0.0643678 0.0414581 0.0309395 0.0191783 0.03 0.00586131 0.010164 0.0323801 0.0345455 0.093913 0.00745735 0.030525 0.00743593 0.0126962 0.0288968 0.083877 0.00297347 0.0289358 0.00149338
threshold=0.81632706295631363 22.500000000000004 -0.9159756150367534 -0.9829629131445341 0.59820176476359233 -0.78656609248549292 -0.24999999999999997 0.47454455194601286 0.54870532138611383 0.52318478452219253 -0.9829629131445341 4.5000000000000009 0.60261570248812701 0.61208505147651604 43.500000000000007 10.500000000000002 0.54574048896314509 20.500000000000004 0.55450817107537909 5.5000000000000009 -0.24999999999999997 0.93301270189221952 0.36777420662095411 86.500000000000014 22.500000000000004 0.50607477570066572 0.54871617320634813 6.8747152913649368 54.500000000000007 10.500000000000002
decision_type=2 2 2 2 2 2 2 2 2 2 2 2 2 2 2 2 2 2 2 2 2 2 2 2 2 2 2 2 2 2
left_child=4 2 3 -2 16 6 12 -8 9 11 -10 -9 -6 -12 15 -7 27 21 19 -19 -21 -18 -23 -20 25 -25 -27 29 -29 -1
right_child=1 -3 -4 -5 5 14 7 8 10 -11 13 -13 -14 -15 -16 -17 17 18 23 20 -22 22 -24 24 -26 26 -28 28 -30 -31
leaf_value=-0.00276953905499809 -0.0016267475271428411 0.0014732390623519833 -0.00012661462512490452 0.0025116685368307581 0.00026385273480216689 2.1997618762054086e-05 -0.0031085683004545839 -0.00090939008167122972 0.0017433362114233576 0.0046423440112648932 0.0044855985026056588 0.0040326287769287148 -0.0001311399671927449 -0.0024620166389676458 -0.00050037775757293069 -0.0003118523243829774 -0.00088507613714214209 -0.011246011595872791 -0.00089455651609615661 -0.0056357422034401866 0.0040199408154848685 0.0029603037457218706 -0.0065414207913286563 -0.0033438165997168759 -0.0016424950218644652 0.0010510660365227688 -0.0031156312430927814 5.3851156955908587e-05 -0.0092458520076764417 -0.00072329526691852579
leaf_weight=20635 26 26 46 25 23 20 124 28 34 26 27 30 472 137 1167 30 1961 38 475 27 23 26 100 85 162 29 45 31 270 4314
leaf_count=20635 26 26 46 25 23 20 124 28 34 26 27 30 472 137 1167 30 1961 38 475 27 23 26 100 85 162 29 45 31 270 4314
internal_value=0 0.00238903 0.00149639 0.00289118 -1.37424e-05 0.000233287 0.000560433 0.00118153 0.00172305 0.00352143 0.000960102 0.00167414 5.10107e-05 0.000254879 -8.91472e-06 0.000950001 -3.22821e-05 3.41474e-05 0.000176245 0.00108636 0.00195 -2.60415e-05 0.000346826 7.56288e-05 0.000261527 0.000578931 0.00130135 -4.00984e-05 0.000116114 -4.1983e-05
internal_weight=0 123 97 51 30339 2118 901 406 282 84 198 58 495 164 1217 50 28221 2971 884 88 50 2087 126 796 321 159 74 25250 301 24949
internal_count=30462 123 97 51 30339 2118 901 406 282 84 198 58 495 164 1217 50 28221 2971 884 88 50 2087 126 796 321 159 74 25250 301 24949
is_linear=0
shrinkage=0.05


Tree=10
num_leaves=31
num_cat=0
split_feature=7 6 7 6 6 4 6 6 10 4 10 10 7 0 6 7 6 8 8 6 6 4 0 7 5 7 8 9 0 10
split_gain=0.132651 0.102975 0.0741953 0.0370258 0.0528053 0.10537 0.030622 0.117749 0.0275915 0.101791 0.0806689 0.123031 0.0480744 0.106346 0.0213315 0.0156796 0.0282609 0.0136276 0.102164 0.00312838 0.00973785 0.0301765 0.0185322 0.0277778 0.00547365 0.0351307 0.00274482 0.0313182 0.00140665 0.00896378
threshold=0.81632706295631363 0.43907164730228149 0.60699495501663581 0.47454455194601286 0.4813766687898362 -0.5 0.6411539359914199 0.5684584539297397 15.950000000000001 -0.5 13.800000000000002 14.300000000000002 0.63501579673867603 1.5000000000000002 0.8161292551714282 0.61208505147651604 0.61739089903201705 2.6735537653587347 3.795426061844291 0.54574048896314509 0.55450817107537909 -0.9330127018922193 11.500000000000002 0.51431769583044085 0.93301270189221952 0.36777420662095411 6.8747152913649368 54.500000000000007 9.5000000000000018 18.200000000000006
decision_type=2 2 2 2 2 2 2 2 2 2 2 2 2 2 2 2 2 2 2 2 2 2 2 2 2 2 2 2 2 2
left_child=2 -2 19 -4 5 -5 7 -3 9 -6 -11 -12 13 -13 15 16 -10 -17 -19 26 21 -21 -23 -24 28 -26 -1 -28 -22 -30
right_child=1 6 3 4 8 -7 -8 -9 14 10 11 12 -14 -15 -16 17 -18 18 -20 20 24 22 23 -25 25 -27 27 -29 29 -31
leaf_value=-0.0024624496880893154 0.0013489391124533734 -0.0010198320530677262 -0.00018936312677936829 -0.0016334040844736943 0.0044102268107016505 0.00021830297018011758 -0.0015560992548700693 0.0013995771092343845 -0.0064265949089959591 -0.0023389158070192652 0.0020361759599808794 0.0042613185774753757 -8.5936470531378101e-05 -0.0099131971538609365 0.0020173296392211825 -0.00013052773323109503 0.0019247736239416337 0.0030454884296234499 -0.00083181504723853217 0.00087632288243871261 -0.00016590272500303542 -0.0053539550932681758 -0.0070601774136952568 0.0038189437747106259 0.0028122885584357772 -0.006026255374244522 5.1158599108114268e-05 -0.0087835594072926178 -0.00094979428465817313 0.00099851273469663275
leaf_weight=25142 20 34 568 26 27 21 40 21 26 274 39 22 93 31 34 528 20 33 177 25 2057 226 25 20 24 129 29 287 466 93
leaf_count=25142 20 34 568 26 27 21 40 21 26 274 39 22 93 31 34 528 20 33 177 25 2057 226 25 20 24 129 29 287 466 93
internal_value=0 0.00168913 -1.22226e-05 0.000288719 0.000431126 0.00207766 0.00100263 0.00176818 0.00037178 0.000670165 0.000494663 0.00130135 0.000634932 0.00183679 0.000194499 0.000141327 0.00103696 8.5502e-05 0.000426191 -3.24696e-05 1.52535e-05 0.000287838 0.000134502 0.00106111 -1.38852e-05 0.000276798 -3.82152e-05 0.000108228 -3.08862e-05 3.94461e-05
internal_weight=0 115 30442 1919 1351 47 95 55 1304 486 459 185 146 53 818 784 46 738 210 28523 3065 296 271 45 2769 153 25458 316 2616 559
internal_count=30557 115 30442 1919 1351 47 95 55 1304 486 459 185 146 53 818 784 46 738 210 28523 3065 296 271 45 2769 153 25458 316 2616 559
is_linear=0
shrinkage=0.05


Tree=11
num_leaves=31
num_cat=0
split_feature=6 3 6 10 6 6 10 1 6 6 3 4 10 8 10 6 1 6 8 6 5 5 2 1 3 10 10 6 3 8
split_gain=0.0567169 0.0758176 0.0214482 0.0611111 0.0245529 0.127457 0.0406306 0.0437527 0.135005 0.039011 0.0380405 0.0593284 0.0656716 0.0363504 0.0251282 0.0199561 0.0452329 0.0516484 0.075974 0.0193676 0.0169866 0.00554696 0.0103473 0.0203297 0.0073656 0.0406542 0.00504202 0.00898618 0.0172043 0.00260568
threshold=0.53227172118141219 -0.78656609248549292 0.8161292551714282 18.850000000000005 0.64955479807325567 0.6411539359914199 16.050000000000004 21.500000000000004 0.54870532138611383 0.60266866672888642 -0.9829629131445341 0.6830127018922193 13.800000000000002 2.6735537653587347 18.200000000000006 0.59058765741906061 19.500000000000004 0.61739089903201705 4.0859410030639109 0.57886109647133155 -0.6830127018922193 -0.6830127018922193 0.96592582628906831 2.5000000000000004 -0.70710678118654735 19.900000000000002 19.300000000000001 0.70695303259335296 -0.9159756150367534 6.8747152913649368
decision_type=2 2 2 2 2 2 2 2 2 2 2 2 2 2 2 2 2 2 2 2 2 2 2 2 2 2 2 2 2 2
left_child=29 2 4 -4 5 6 7 10 -9 -10 11 -2 -13 -12 -7 -8 17 18 20 -14 -17 22 24 -24 25 -3 -6 -28 -29 -1
right_child=1 21 3 -5 26 14 15 8 9 -11 13 12 19 -15 -16 16 -18 -19 -20 -21 -22 -23 23 -25 -26 -27 27 28 -30 -31
leaf_value=-0.0017740748830620389 -0.0094323576853484088 -0.0013335271934857896 -0.0002845409977310143 0.0042028757762847873 -3.0288487782359486e-05 0.0024638900727327277 -0.00011628783258295639 0.0041897154701665664 -0.0031019885456295415 5.5450650423949373e-06 -0.0012851540298834509 -0.013040935729556636 1.1714090986308934e-05 0.0026716741305139904 0.0018285349427445531 0.0026319165884988007 -0.001535615725781514 -0.0022184932650821001 -0.00092288032030278804 0.0015543606028531499 0.0028932140081422753 -0.00090677994187531366 -0.00019026274933038324 0.00026607637153448495 -0.00084153355404119616 0.0011589219699915333 -0.0011307223780809062 0.0016739693535269718 -0.0033815409149836606 4.8600669152709665e-05
leaf_weight=25434 53 87 44 36 336 26 483 36 71 20 249 22 22 25 24 23 167 47 26 23 21 2150 37 28 398 20 78 30 32 316
leaf_count=25434 53 87 44 36 336 26 483 36 71 20 249 22 22 25 24 23 167 47 26 23 21 2150 37 28 398 20 78 30 32 316
internal_value=0 0.000155896 0.000398786 0.0012 0.000363452 0.00047317 0.000377019 0.000717755 0.0015248 0.000499451 0.000457615 0.0012 0.00218881 0.000132482 0.00295 0.000145568 0.00047817 0.00123205 0.00209286 0.00328333 0.00335909 -1.32347e-05 0.000125439 0.000719231 4.90105e-05 0.00041729 5.50427e-05 0.000307144 0.000756452 -3.44654e-05
internal_weight=0 4614 1894 80 1814 1338 1288 521 127 91 394 120 67 274 50 767 284 117 70 45 44 2720 570 65 505 107 476 140 62 25750
internal_count=30364 4614 1894 80 1814 1338 1288 521 127 91 394 120 67 274 50 767 284 117 70 45 44 2720 570 65 505 107 476 140 62 25750
is_linear=0
shrinkage=0.05


Tree=12
num_leaves=31
num_cat=0
split_feature=7 2 2 2 7 0 10 8 2 0 5 9 2 9 7 10 5 2 7 7 9 5 0 8 10 2 0 0 10 7
split_gain=0.286552 0.0980837 0.0915751 0.104895 0.0718447 0.0460663 0.0516695 0.0879728 0.128172 0.0670061 0.03 0.02654 0.0219009 0.0421282 0.0679045 0.0361248 0.0159304 0.0307692 0.00773437 0.0111723 0.027827 0.036044 0.08 0.00350001 0.029149 0.0093267 0.0357143 0.00369088 0.00920359 0.0275478
threshold=0.81632706295631363 0.78656609248549303 0.1294095225512602 -0.12940952255126034 0.62938392134602106 5.5000000000000009 13.200000000000001 1.4978661367769959 0.1294095225512602 3.5000000000000004 0.68301270189221941 91.500000000000014 1.0000000180025095e-35 83.500000000000014 0.74913528103878513 17.150000000000002 -0.93301270189221919 -0.5 0.48310515909166246 0.48612669369306866 83.500000000000014 -0.24999999999999997 5.5000000000000009 1.0000000180025095e-35 21.050000000000004 -0.37940952255126009 10.500000000000002 5.5000000000000009 14.900000000000002 0.60699495501663581
decision_type=2 2 2 2 2 2 2 2 2 2 2 2 2 2 2 2 2 2 2 2 2 2 2 2 2 2 2 2 2 2
left_child=4 2 3 -2 18 6 -6 8 10 11 -8 -10 13 16 15 -15 17 -7 -1 20 -20 -22 -23 24 25 26 -21 28 -27 -30
right_child=1 -3 -4 -5 5 12 7 -9 9 -11 -12 -13 -14 14 -16 -17 -18 -19 19 23 21 22 -24 -25 -26 27 -28 -29 29 -31
leaf_value=-0.0030304338163545455 0.0023406955690960908 -0.00018074961186386186 0.0013749372508664315 -0.0014533781381556423 -0.0012051427576306951 0.0025003207590738596 0.0036991897417002987 -0.00072831734521197069 -0.004206541103023642 0.003980229696658239 0.00038997823726261149 0.00091910508234348547 -0.00012248692218042034 0.0014766425727104904 0.0027485533077351632 -0.0017513104250552192 -9.1191226287296045e-05 -0.0005503246404898577 -0.00062122138557542676 0.0010747383940499788 -0.0064268475450596496 -0.014587346635438099 0.002961607166893504 -0.0010131699362111192 0.00052417224435462046 -0.00012271624232365732 -0.0011214922861408018 -0.00033079717401943658 0.00089509313945336792 0.004049767072990729
leaf_weight=22840 22 30 39 30 131 20 30 101 81 33 20 28 568 21 30 66 251 32 157 21 41 25 25 1691 31 1174 63 2301 476 27
leaf_count=22840 22 30 39 30 131 20 30 101 81 33 20 28 568 21 30 66 251 32 157 21 41 25 25 1691 31 1174 63 2301 476 27
internal_value=0 0.00242934 0.0032467 0.00187308 -8.72343e-06 0.000339519 0.000775472 0.00114454 0.00177292 0.00100634 0.00395 0.000408716 0.00015243 0.000426191 0.00123205 0.000524713 0.000115017 0.000911539 -2.57544e-05 2.46028e-05 0.000353226 0.0010489 0.00195 1.05124e-05 3.55125e-05 2.38559e-05 0.000545239 1.28463e-05 6.92612e-05 0.000248211
internal_weight=0 121 91 52 30284 1412 424 293 192 142 50 109 988 420 117 87 303 52 28872 6032 248 91 50 5784 4093 4062 84 3978 1677 503
internal_count=30405 121 91 52 30284 1412 424 293 192 142 50 109 988 420 117 87 303 52 28872 6032 248 91 50 5784 4093 4062 84 3978 1677 503
is_linear=0
shrinkage=0.05


Tree=13
num_leaves=31
num_cat=0
split_feature=7 1 1 6 7 3 6 6 7 0 8 0 7 0 6 3 6 1 0 0 1 7 7 8 7 6 6 0 7 5
split_gain=0.39627 0.326403 0.105263 0.209091 0.0347955 0.0645526 0.0861084 0.145779 0.164233 0.104435 0.0943189 0.0285406 0.0262781 0.028672 0.00492847 0.00907351 0.0180861 0.0311301 0.0455617 0.0217019 0.0680509 0.00793787 0.0318504 0.00301316 0.0249872 0.0012361 0.0161654 0.0323232 0.0294323 0.00239628
threshold=0.81632706295631363 22.500000000000004 19.500000000000004 0.58666180475247109 0.59820176476359233 -0.78656609248549292 0.52318478452219253 0.61739089903201705 0.72723847499553085 10.500000000000002 2.3502401828962087 1.5000000000000002 0.60699495501663581 1.5000000000000002 0.54574048896314509 -0.70710678118654735 0.55450817107537909 20.500000000000004 5.5000000000000009 3.5000000000000004 18.500000000000004 0.54330505135980756 0.55123468349471738 6.8747152913649368 0.42074776087879368 0.45187438408991148 0.45424591214065219 1.5000000000000002 0.51871079579277957 -0.93301270189221919
decision_type=2 2 2 2 2 2 2 2 2 2 2 2 2 2 2 2 2 2 2 2 2 2 2 2 2 2 2 2 2 2
left_child=4 2 3 -2 14 6 -6 8 9 10 12 -9 -8 -14 23 16 17 -16 -19 20 -18 -22 -23 25 -25 -1 27 -27 -29 -28
right_child=1 -3 -4 -5 5 -7 7 11 -10 -11 -12 -13 13 -15 15 -17 19 18 -20 -21 21 22 -24 24 -26 26 29 28 -30 -31
leaf_value=-0.0033838223219646705 -0.00094888356880455942 0.0013792333815769997 -0.00038267749482210348 0.0038756972090157439 -2.8907007045764213e-05 -0.00012568770489474485 0.00049796363213688855 0.0038472787193411908 0.0037812182118253271 0.0017414212471744796 0.002375304721120164 -0.00011636257607139933 4.4995032522243686e-05 -0.0017335806200137916 -0.0077031998816318673 -0.00082240245277798033 0.0026896121148060228 -0.010415428921294646 0.0037087941461702413 -0.00025377408914349365 -0.003212730942827452 1.1403623906458549e-05 -7.5286255447593048e-05 -0.014346354739055734 0.00019769232651280501 0.0034480688492359024 0.0021021260585643796 -0.0098471926874650131 8.9709525307740684e-05 -0.0018920235034785623
leaf_weight=19157 23 25 50 22 395 1262 23 31 27 21 26 238 28 114 73 1553 43 29 38 979 185 23 63 244 35 22 343 169 29 5311
leaf_count=19157 23 25 50 22 395 1262 23 31 27 21 26 238 28 114 73 1553 43 29 38 979 185 23 63 244 35 22 343 169 29 5311
internal_value=0 0.00286667 0.00152895 0.00328333 -1.22462e-05 0.000180948 0.00050371 0.000934253 0.00183285 0.00136509 0.000997121 0.000135874 0.000556061 0.000302113 -2.70279e-05 3.37247e-05 0.00012446 0.000664286 0.00144254 6.60099e-05 0.000427708 0.000134502 0.000531396 -3.41953e-05 0.000129212 -3.60167e-05 -1.5951e-05 0.000404546 0.000202526 -3.23128e-05
internal_weight=0 120 95 45 30461 2165 903 508 239 212 191 269 165 142 28296 2986 1433 140 67 1293 314 271 86 25310 279 25031 5874 220 198 5654
internal_count=30581 120 95 45 30461 2165 903 508 239 212 191 269 165 142 28296 2986 1433 140 67 1293 314 271 86 25310 279 25031 5874 220 198 5654
is_linear=0
shrinkage=0.05


Tree=14
num_leaves=31
num_cat=0
split_feature=7 2 1 9 7 3 10 1 9 9 3 8 8 7 7 3 9 8 7 2 4 7 3 10 4 7 7 4 1 8
split_gain=0.288188 0.170263 0.0872165 0.0449589 0.0428557 0.068031 0.109233 0.210232 0.04 0.101489 0.0455477 0.0319471 0.141002 0.00429111 0.0128391 0.0339662 0.0604782 0.00300765 0.0466102 0.00210225 0.00700519 0.022807 0.00222813 0.0181826 0.0291667 0.00736763 0.0529077 0.0803571 0.00118515 0.00521861
threshold=0.81632706295631363 -0.12940952255126034 20.500000000000004 79.500000000000014 0.62282598481535556 -0.78656609248549292 16.650000000000002 21.500000000000004 83.500000000000014 77.500000000000014 -0.9829629131445341 2.6735537653587347 3.9219243190762363 0.48310515909166246 0.48612669369306866 -0.70710678118654735 83.500000000000014 6.8747152913649368 0.42074776087879368 0.98296291314453432 -0.68301270189221952 0.54330505135980756 -0.78656609248549292 21.050000000000004 -0.68301270189221952 0.50998638647765271 0.50607477570066572 0.25000000000000017 14.500000000000002 6.6509254610885753
decision_type=2 2 2 2 2 2 2 2 2 2 2 2 2 2 2 2 2 2 2 2 2 2 2 2 2 2 2 2 2 2
left_child=4 -2 -3 -4 13 6 7 8 9 -6 -11 -8 -13 17 15 16 -15 28 -19 22 21 -21 23 25 -25 26 -16 -28 -1 -30
right_child=1 2 3 -5 5 -7 11 -9 -10 10 -12 12 -14 14 19 -17 -18 18 -20 20 -22 -23 -24 24 -26 -27 27 -29 29 -31
leaf_value=-0.0062530892897656627 0.0036819123485649589 -0.00036549699172145348 0.00096326733986978332 0.00012668934146169432 -0.002848963073273131 -9.4040766120129238e-05 -1.8396373275308966e-05 0.0035921573012340615 -0.00017608085227412975 0.00018141841480821542 0.00053398282300702322 0.0024220647317571399 -0.00064048770717388132 -0.0046955099649387162 -0.0030520943956860781 -0.00042096920019842336 0.0033058864429220793 -0.014048020450591704 0.0001878077101871656 -0.006255288615097743 -0.00055500970031908123 0.00094493965765463095 -0.00095327161429402917 0.00047306545053004139 -0.0040876135477770142 -9.1725634829540424e-05 -0.0087338864386220637 0.0008865208686071824 -0.0019639993737269284 0.003832703894262041
leaf_weight=14243 24 47 21 29 53 875 353 42 80 20 27 22 76 43 353 161 36 275 20 65 189 30 3628 20 28 1381 36 28 8301 166
leaf_count=14243 24 47 21 29 53 875 353 42 80 20 27 22 76 43 353 161 36 275 20 65 189 30 3628 20 28 1381 36 28 8301 166
internal_value=0 0.00242934 0.00149639 0.00295 -1.56306e-05 0.000240698 0.000618648 0.00152658 0.000783334 0.00145 0.00314149 0.00017173 0.000970409 -2.93118e-05 8.35343e-06 0.000366667 0.00121582 -3.91322e-05 0.000119492 -6.5815e-06 0.000126057 0.000476316 -1.3463e-05 3.12574e-05 0.000991667 5.618e-06 0.000189809 0.0015125 -4.11927e-05 -2.63782e-05
internal_weight=0 121 97 50 30551 1548 673 222 180 100 47 451 98 29003 5998 240 79 23005 295 5758 284 95 5474 1846 48 1798 417 64 22710 8467
internal_count=30672 121 97 50 30551 1548 673 222 180 100 47 451 98 29003 5998 240 79 23005 295 5758 284 95 5474 1846 48 1798 417 64 22710 8467
is_linear=0
shrinkage=0.05


Tree=15
num_leaves=31
num_cat=0
split_feature=7 5 6 7 3 5 1 8 6 6 6 6 6 6 3 6 1 7 6 6 6 7 6 6 4 7 7 4 1 6
split_gain=0.30489 0.181109 0.114433 0.078567 0.107005 0.145667 0.199353 0.120204 0.0473304 0.25098 0.034632 0.033871 0.0220355 0.0129809 0.0149966 0.0139201 0.0357143 0.0129183 0.0389625 0.046595 0.0162588 0.0272109 0.0082203 0.0885419 0.0107304 0.0199608 0.163303 0.00626647 0.0370512 0.00363799
threshold=0.81632706295631363 -0.6830127018922193 0.59835491189898893 0.64950052705559536 -0.78656609248549292 0.25000000000000006 21.500000000000004 1.0000000180025095e-35 0.59058765741906061 0.61739089903201705 0.5757132505517597 0.60721358760383082 0.77680055425040184 0.50986139366248551 -0.70710678118654735 0.51208025712602712 3.5000000000000004 0.59820176476359233 0.55450817107537909 0.53227172118141219 0.67797989664683711 0.61208505147651604 0.60721358760383082 0.61215424348931957 0.25000000000000017 0.50607477570066572 0.52326229654038559 -0.9330127018922193 22.500000000000004 0.52318478452219253
decision_type=2 2 2 2 2 2 2 2 2 2 2 2 2 2 2 2 2 2 2 2 2 2 2 2 2 2 2 2 2 2
left_child=3 2 -2 13 5 8 7 10 -5 -10 -7 -3 -11 -1 17 16 -16 22 19 -19 -20 -22 27 -24 -25 -26 -27 28 -15 -29
right_child=1 11 -4 4 -6 6 -8 -9 9 12 -12 -13 -14 14 15 -17 -18 18 20 -21 21 -23 23 24 25 26 -28 29 -30 -31
leaf_value=-0.0019561799842124994 0.0012621083455046644 -1.2660487011217914e-05 0.0034978167311367106 -0.0020380186464419581 -8.9338727814125554e-05 -0.00083088468460476572 0.0034125494361723577 0.0036581237586312265 0.0023009614951692847 -0.0015602398024084198 0.00017234749406780381 0.0018457803127622519 0.0017176168772275848 -0.0048544777626152447 0.00089769267477189944 -0.00087418148818600716 -0.0072804969722702175 -0.0027838775980685185 -0.00011424548211820818 0.0014747423197540523 0.0036595010651156059 -0.00060846332181518914 0.0026533314777520689 -0.0012229884108855506 -0.0028994896759017732 0.00084219482517682302 -0.00086697530113652443 8.6831433149603407e-05 0.00037903134761125282 -0.000440987993099965
leaf_weight=24304 29 42 23 205 590 56 22 20 27 118 21 20 35 97 20 2665 50 26 192 36 21 28 38 427 130 20 89 225 22 1015
leaf_count=24304 29 42 23 205 590 56 22 20 27 118 21 20 35 97 20 2665 50 26 192 36 21 28 38 427 130 20 89 225 22 1015
internal_value=0 0.00258158 0.00475769 -9.01441e-06 0.000407039 0.000942064 0.00247101 0.00149639 0.000469481 0.00106111 0.000599351 0.000756452 0.000276798 -2.44935e-05 4.80206e-05 -3.17178e-05 0.000664286 0.000140195 0.00044505 0.0015629 0.00015747 0.000970409 9.54199e-05 0.000234092 0.000100151 0.000368411 0.000867432 2.35842e-05 0.000370169 -9.67678e-06
internal_weight=0 114 52 30499 1094 504 119 97 385 180 77 62 153 29405 5101 2735 70 2366 303 62 241 49 2063 704 666 239 109 1359 119 1240
internal_count=30613 114 52 30499 1094 504 119 97 385 180 77 62 153 29405 5101 2735 70 2366 303 62 241 49 2063 704 666 239 109 1359 119 1240
is_linear=0
shrinkage=0.05


Tree=16
num_leaves=31
num_cat=0
split_feature=7 6 6 1 7 3 10 6 4 3 0 0 7 7 10 7 4 6 6 6 6 6 10 10 0 3 6 6 7 10
split_gain=0.274112 0.151588 0.107375 0.0908722 0.0863056 0.145794 0.0755485 0.151952 0.200867 0.211476 0.0883275 0.052799 0.0329339 0.0529825 0.0492944 0.0394077 0.0934744 0.0346057 0.0278327 0.025 0.00636292 0.0340735 0.0429212 0.0678622 0.035119 0.00467607 0.00464816 0.0179032 0.0277778 0.00629767
threshold=0.81632706295631363 0.63515658283920862 0.74880291239386587 20.500000000000004 0.59820176476359233 -0.78656609248549292 16.650000000000002 0.47454455194601286 -0.5 -0.9829629131445341 2.5000000000000004 1.5000000000000002 0.6920293762652362 0.74913528103878513 18.200000000000006 0.61208505147651604 -0.68301270189221952 0.61215424348931957 0.67797989664683711 0.46773561460820662 0.45187438408991148 0.45424591214065219 16.050000000000004 14.900000000000002 10.500000000000002 -0.70710678118654735 0.49267404185748792 0.49448385607475848 0.47847566075442682 17.350000000000005
decision_type=2 2 2 2 2 2 2 2 2 2 2 2 2 2 2 2 2 2 2 2 2 2 2 2 2 2 2 2 2 2
left_child=4 3 -3 -2 20 6 7 -6 -9 10 -10 -11 15 14 -14 16 -8 19 -19 -16 -1 22 23 24 -22 26 -23 28 -28 -29
right_child=1 2 -4 -5 5 -7 12 8 9 11 -12 -13 13 -15 17 -17 -18 18 -20 -21 21 25 -24 -25 -26 -27 27 29 -30 -31
leaf_value=-0.0034896590691386011 -0.00052211297869221302 0.001753491297124138 0.0033229258945798759 0.0008519985556010635 -0.0056978976672335648 -0.00010163967242788088 0.0017697647389592508 0.0034752175706996625 3.9386634261634471e-05 0.0034765260118598262 0.0012094953495714877 -0.00078934045037452611 -0.0018635534298946156 -0.00019550547246544592 1.7634436365215891e-05 -0.0005780401557244297 -0.00010853320801229582 0.0020203881737178354 0.0016317360333662047 -0.0022888554947115224 -0.010749350332694274 -0.00065360840506013883 -0.0056806308563688958 0.0034716743746710799 0.0032384011199866006 -0.0012532267191853646 0.0021930287235331302 0.0030425526353942776 -0.007360124818819736 -0.00041541047241895336
leaf_weight=19583 56 20 21 29 111 1245 28 22 20 48 21 83 31 74 20 320 53 22 24 20 59 1120 118 29 21 5135 20 1493 25 900
leaf_count=19583 56 20 21 29 111 1245 28 22 20 48 21 83 31 74 20 320 53 22 24 20 59 1120 118 29 21 5135 20 1493 25 900
internal_value=0 0.00233095 0.00482805 0.00112647 -5.94649e-06 0.000300141 0.000786121 0.00142541 0.00226959 0.00169419 0.00482805 0.000713359 0.000456757 0.000997121 0.0016594 0.000199377 0.00118457 0.00227558 0.00321087 0.0012 -2.89489e-05 6.05446e-06 0.000610794 0.00132615 0.000575001 -9.73708e-06 3.43177e-05 7.30523e-05 0.00106111 5.4472e-05
internal_weight=0 126 41 85 30645 2142 897 305 194 172 41 131 592 191 117 401 81 86 46 40 28503 8920 227 109 80 8693 3558 2438 45 2393
internal_count=30771 126 41 85 30645 2142 897 305 194 172 41 131 592 191 117 401 81 86 46 40 28503 8920 227 109 80 8693 3558 2438 45 2393
is_linear=0
shrinkage=0.05


Tree=17
num_leaves=31
num_cat=0
split_feature=7 5 0 3 7 3 0 7 0 0 7 1 0 1 8 8 8 8 5 0 3 1 7 7 0 5 7 7 1 5
split_gain=0.406706 0.107652 0.0698413 0.0576253 0.0437097 0.0770948 0.0321326 0.0193923 0.0515548 0.0926354 0.0345935 0.037619 0.10537 0.0300752 0.0297265 0.130775 0.01318 0.0298295 0.0091736 0.01999 0.00685159 0.00655123 0.00841434 0.028773 0.0261089 0.118326 0.00537881 0.0666402 0.067895 0.0599182
threshold=0.81632706295631363 -0.6830127018922193 5.5000000000000009 -0.60355339059327362 0.59820176476359233 -0.78656609248549292 11.500000000000002 0.61208505147651604 7.5000000000000009 6.5000000000000009 0.67787685427820832 21.500000000000004 7.5000000000000009 19.500000000000004 2.6735537653587347 4.5591125415341898 2.3502401828962087 3.7256208424938384 -0.6830127018922193 8.5000000000000018 -0.9159756150367534 16.500000000000004 0.48310515909166246 0.48612669369306866 5.5000000000000009 -0.24999999999999997 0.50998638647765271 0.50607477570066572 21.500000000000004 -0.24999999999999997
decision_type=2 2 2 2 2 2 2 2 2 2 2 2 2 2 2 2 2 2 2 2 2 2 2 2 2 2 2 2 2 2
left_child=4 3 -3 -2 21 6 7 8 9 13 16 14 -13 -6 18 -16 -9 -18 19 -12 -8 -1 -23 24 -24 -26 27 -25 29 -29
right_child=1 2 -4 -5 5 -7 20 10 -10 -11 11 12 -14 -15 15 -17 17 -19 -20 -21 -22 22 23 26 25 -27 -28 28 -30 -31
leaf_value=-0.0028479906778330149 0.0031567795998508844 0.001665816732267933 -0.0024841473889573255 4.9300254345618913e-05 0.0033026997112668324 -0.00019296299805811494 0.0011490205820929133 -0.00024298325736120676 -0.00010310654761168104 0.0016812765020112865 1.6752714546952598e-05 0.003068161085828758 -0.00018573019884217113 -0.011806226122569291 0.0021956886940340983 -0.0011501289777018032 0.00015061661539012561 -0.00054913814793821074 -4.0483973177019017e-05 -0.00068353810652772027 0.0014404722262850722 -0.00032080066843586703 -0.0073071202466910186 -0.0013679798677754262 -0.0050940633806730584 0.0030764810639872689 0.00047459454408551281 0.00082072365291446792 -0.0057387690102545857 0.00064795745214826783
leaf_weight=19488 34 30 33 20 21 1251 37 345 63 21 29 21 26 36 21 46 22 42 119 40 20 6069 44 579 41 22 1867 22 52 39
leaf_count=19488 34 30 33 20 21 1251 37 345 63 21 29 21 26 36 21 46 22 42 119 40 20 6069 44 579 41 22 1867 22 52 39
internal_value=0 0.00294145 0.0015373 0.00457963 -1.21492e-05 0.00020463 0.000555061 0.00047817 0.00101383 0.00187308 0.000371942 0.000777815 0.00207766 0.000827194 0.000538236 0.00144254 7.225e-05 0.000731251 0.000215958 0.000674638 0.00170439 -2.87401e-05 7.24163e-06 8.12835e-05 0.00088458 0.0015373 4.76951e-05 0.000166764 0.00127743 0.00240902
internal_weight=0 117 63 54 30383 2160 909 852 141 78 711 302 47 57 255 67 409 64 188 69 57 28223 8735 2666 107 63 2559 692 113 61
internal_count=30500 117 63 54 30383 2160 909 852 141 78 711 302 47 57 255 67 409 64 188 69 57 28223 8735 2666 107 63 2559 692 113 61
is_linear=0
shrinkage=0.05


Tree=18
num_leaves=31
num_cat=0
split_feature=7 1 8 8 6 9 8 5 6 4 0 9 9 9 1 7 1 9 0 6 9 1 6 6 6 7 0 1 6 4
split_gain=0.124833 0.0827172 0.110186 0.328862 0.0972067 0.0693828 0.034632 0.025671 0.0115963 0.035119 0.0108993 0.0283883 0.00966699 0.0257624 0.0334615 0.00762527 0.0135369 0.0476907 0.114022 0.0255411 0.00255769 0.0183027 0.0282609 0.00221753 0.0125062 0.0350746 0.00706619 0.00930487 0.0227586 0.00101504
threshold=0.64950052705559536 17.500000000000004 0.89587973461402759 3.1132683346437333 0.8161292551714282 91.500000000000014 4.2835627800822236 0.93301270189221952 0.8161292551714282 -0.68301270189221952 11.500000000000002 83.500000000000014 80.500000000000014 78.500000000000014 23.500000000000004 0.58298247825943939 21.500000000000004 75.500000000000014 7.5000000000000009 0.6411539359914199 71.500000000000014 18.500000000000004 0.54035340289137135 0.60721358760383082 0.61215424348931957 0.42534848649487017 1.5000000000000002 17.500000000000004 0.65732975861633447 0.6830127018922193
decision_type=2 2 2 2 2 2 2 2 2 2 2 2 2 2 2 2 2 2 2 2 2 2 2 2 2 2 2 2 2 2
left_child=8 -2 4 -4 5 7 -5 10 15 -10 12 -12 13 14 -3 23 20 18 -18 -19 21 -17 -23 29 25 -25 27 -26 -29 -1
right_child=1 2 3 6 -6 -7 -8 -9 9 -11 11 -13 -14 -15 -16 16 17 19 -20 -21 -22 22 -24 24 26 -27 -28 28 -30 -31
leaf_value=-0.0025472403707318594 -0.0003167985338068946 -7.0141657899114315e-05 0.0033034808908235292 0.0018095843303302384 0.0029989406198583425 0.00096763983506346083 -0.00096045440945913274 4.3687602684649999e-05 0.00023649269876429015 -0.00052168124054129963 -0.0064477749868336711 0.0010915695529882697 -3.8459774518168072e-05 0.0029147530315373205 0.001153937987732101 -0.0033970057179339985 -0.0044372122343554476 -0.0021014969155955633 0.0013684486149708186 0.0015972126769107199 -5.6649374806483355e-05 -0.006900608653246482 0.00020312299996730343 0.0023845773055165445 -0.0039675483978215912 -0.00029310420840898411 -0.0006142551453097154 -0.0028382438304876303 0.00061555957954085314 -0.00056273792027936845
leaf_weight=19900 438 174 29 21 29 40 56 27 21 59 31 21 272 26 26 245 37 295 22 35 847 26 20 20 68 47 1023 33 25 6642
leaf_count=19900 438 174 29 21 29 40 56 27 21 59 31 21 272 26 26 245 37 295 22 35 847 26 20 20 68 47 1023 33 25 6642
internal_value=0 0.000496219 0.000814362 0.00230849 0.000569196 0.000436224 0.000599351 0.000296621 -2.61615e-05 0.000575001 0.000222728 0.000911539 0.000150804 0.000392479 0.000200001 -2.78037e-05 8.09764e-05 0.000335605 0.00164492 0.000101516 -6.06263e-06 0.000121822 0.00103696 -3.37878e-05 3.22375e-05 0.000696269 -6.48326e-06 0.000346826 0.00081207 -3.68127e-05
internal_weight=0 1190 752 106 646 617 77 577 29365 80 550 52 498 226 200 29285 1527 389 59 330 1138 291 46 27758 1216 67 1149 126 58 26542
internal_count=30555 1190 752 106 646 617 77 577 29365 80 550 52 498 226 200 29285 1527 389 59 330 1138 291 46 27758 1216 67 1149 126 58 26542
is_linear=0
shrinkage=0.05


Tree=19
num_leaves=31
num_cat=0
split_feature=7 10 5 1 7 5 6 3 10 10 7 4 7 7 6 1 3 10 9 9 6 7 9 7 4 9 1 1 5 10
split_gain=0.193391 0.0762419 0.100121 0.0482143 0.0426117 0.0736281 0.102439 0.0562896 0.0679973 0.0392085 0.0696864 0.093985 0.0110249 0.027427 0.0482993 0.0783673 0.0112131 0.0267644 0.0380885 0.115004 0.0280452 0.0779755 0.0177273 0.0272727 0.0160339 0.0452272 0.136508 0.00173104 0.00367898 0.0332548
threshold=0.81632706295631363 14.300000000000002 -0.6830127018922193 19.500000000000004 0.65661827547335505 0.93301270189221952 0.47211335852116537 -0.9159756150367534 14.300000000000002 18.850000000000005 0.70672976718006286 -0.24999999999999994 0.48458388991077089 0.48612669369306866 0.46011570200873031 11.500000000000002 -0.78656609248549292 20.550000000000004 74.500000000000014 69.500000000000014 0.6411539359914199 0.50998638647765271 89.500000000000014 0.58298247825943939 0.93301270189221952 77.500000000000014 20.500000000000004 5.5000000000000009 0.25000000000000006 15.550000000000002
decision_type=2 2 2 2 2 2 2 2 2 2 2 2 2 2 2 2 2 2 2 2 2 2 2 2 2 2 2 2 2 2
left_child=4 -2 3 -3 12 7 -7 8 -6 -10 -11 -12 -1 14 15 -14 17 20 19 -19 24 -22 -23 -24 -15 26 -26 28 -18 -30
right_child=1 2 -4 -5 5 6 -8 -9 9 10 11 -13 13 16 -16 -17 27 18 -20 -21 21 22 23 -25 25 -27 -28 -29 29 -31
leaf_value=-0.0022056832783818535 0.00091925784331028937 0.0028489935888654228 -0.0015649376080944244 0.0010962410883454954 0.0031383068462823519 -0.0010988621995930649 0.00010309517041045547 -0.00013666349438975489 -3.6536785792257168e-05 -0.0037853754729565872 0.0019207302147912165 -0.00081453524574250926 -0.0059594300805227325 -0.00014027835915102752 -0.0040933985962274154 0.0029507939068018742 -0.0010800992770838402 -0.00082697880403744819 -0.00049559717851423439 0.00025595803663793772 0.00081040022753422483 -0.00096877113778820467 -0.0040876024512471907 0.0031403971944438114 -0.0023784295974014881 -0.0042985866149223726 0.0034022696572981849 -0.0009375649462353558 -0.00051393572421781775 0.0011852309294208164
leaf_weight=23159 21 20 55 28 34 21 20 616 142 60 38 25 24 1574 71 25 868 32 54 21 36 156 24 20 43 156 20 2761 529 101
leaf_count=23159 21 20 55 28 34 21 20 616 142 60 38 25 24 1574 71 25 868 32 54 21 36 156 24 20 43 156 20 2761 529 101
internal_value=0 0.00196613 0.00140631 0.003075 -1.24545e-05 0.000316109 0.00238903 0.000223225 0.000786121 0.000516038 0.00116951 0.00233095 -2.30397e-05 3.44212e-05 0.000783334 0.00199082 2.03681e-05 0.000113858 0.00088458 0.00183679 7.3214e-05 0.000585594 0.000200001 0.00108636 5.77309e-06 0.000406622 0.0015373 -2.65197e-05 1.67563e-05 0.000108731
internal_weight=0 124 103 48 30630 956 41 915 299 265 123 63 29674 6515 120 49 6395 2136 107 53 2029 236 200 44 1793 219 63 4259 1498 630
internal_count=30754 124 103 48 30630 956 41 915 299 265 123 63 29674 6515 120 49 6395 2136 107 53 2029 236 200 44 1793 219 63 4259 1498 630
is_linear=0
shrinkage=0.05


Tree=20
num_leaves=31
num_cat=0
split_feature=6 3 9 6 3 10 8 6 10 6 1 6 1 10 9 9 6 10 6 1 5 6 6 6 6 3 2 5 6 10
split_gain=0.0628937 0.104895 0.160256 0.0263325 0.0442145 0.0196233 0.0568771 0.0929293 0.0268342 0.0315748 0.229264 0.0271133 0.0492117 0.0472737 0.0684894 0.0990381 0.0106378 0.0469804 0.0848806 0.0158638 0.0283883 0.00514826 0.119773 0.0042512 0.0064884 0.0316667 0.00514778 0.0218289 0.0205295 0.0272727
threshold=0.8161292551714282 -0.9159756150367534 83.500000000000014 0.53227172118141219 -0.70710678118654735 16.650000000000002 2.9174053685313028 0.60721358760383082 13.800000000000002 0.54870532138611383 21.500000000000004 0.59058765741906061 20.500000000000004 15.550000000000002 77.500000000000014 86.500000000000014 0.57172916210745217 19.900000000000002 0.55123992275056999 22.500000000000004 1.0000000180025095e-35 0.6411539359914199 0.64955479807325567 0.42865156757781969 0.42974013463971433 -0.78656609248549292 0.98296291314453432 0.93301270189221952 0.50986139366248551 16.050000000000004
decision_type=2 2 2 2 2 2 2 2 2 2 2 2 2 2 2 2 2 2 2 2 2 2 2 2 2 2 2 2 2 2
left_child=3 2 -2 23 5 6 8 -8 -5 10 -10 -11 13 14 -13 -16 17 19 -19 -7 -21 -18 -23 -1 25 -25 -26 28 -28 -30
right_child=1 -3 -4 4 -6 16 7 -9 9 11 -12 12 -14 -15 15 -17 21 18 -20 20 -22 22 -24 24 26 -27 27 -29 29 -31
leaf_value=-0.0025252019423804054 0.0027065439094221544 -0.00047081731958852351 -0.0012434372846983955 -1.1211763959534383e-05 -0.00034100860860351449 -8.810483353322574e-05 -0.0062984452139408127 0.0023756326041598111 -0.0040791582156233025 -0.00022098770779527822 0.0027758485546799439 -0.001860174407903087 -0.0014866907276897046 -0.0074174642309400799 0.00088007573302473783 0.0029833773347216208 -0.00028399373950813714 -0.0061612544846700867 0.00060025467630615012 -0.0089034691199194327 0.00029177427771729384 0.0015657905999545974 -3.4709946502642365e-05 0.00024316013480604195 -6.181720449498439e-05 -0.0011584867377764207 -0.00072358723693035645 4.0491076003557061e-05 -0.010093659588650418 0.0011259693829497764
leaf_weight=17221 27 80 25 284 2316 245 23 22 82 216 29 31 119 44 30 41 541 32 26 31 21 31 401 25 8120 95 411 36 24 20
leaf_count=17221 27 80 25 284 2316 245 23 22 82 216 29 31 119 44 30 41 541 32 26 31 21 31 401 25 8120 95 411 36 24 20
internal_value=0 0.00108636 0.00283462 -7.40015e-06 0.000103341 0.00026125 0.0004386 0.00217222 0.000349544 0.000541217 0.00130135 0.000365801 0.000704718 0.00131986 0.00191078 0.0027669 0.000138254 0.000372536 0.00167414 0.000118351 0.000911539 5.27756e-05 0.000181482 -2.68798e-05 1.54113e-06 0.000366667 -3.54714e-06 0.000153667 5.98908e-05 0.00108636
internal_weight=0 132 52 30517 4565 2249 921 45 876 592 111 481 265 146 102 71 1328 355 58 297 52 973 432 25952 8731 120 8611 491 455 44
internal_count=30649 132 52 30517 4565 2249 921 45 876 592 111 481 265 146 102 71 1328 355 58 297 52 973 432 25952 8731 120 8611 491 455 44
is_linear=0
shrinkage=0.05


Tree=21
num_leaves=31
num_cat=0
split_feature=6 2 8 6 8 6 8 8 2 6 5 2 10 6 6 6 6 9 10 10 9 9 4 9 6 6 6 6 10 6
split_gain=0.068903 0.109293 0.266327 0.0178099 0.0117301 0.0352941 0.0111563 0.042243 0.0794118 0.0637823 0.0277778 0.0180742 0.0273535 0.0293499 0.022703 0.0163295 0.0144781 0.0267442 0.01401 0.0577562 0.0705065 0.140086 0.143188 0.0267442 0.016041 0.0263425 0.0117937 0.225 0.00763048 0.0197767
threshold=0.8161292551714282 -0.12940952255126034 2.0126758453675748 0.40279609678358225 6.8747152913649368 0.45655924939283626 3.9219243190762363 3.7256208424938384 -0.37940952255126009 0.45655924939283626 -0.24999999999999997 0.60355339059327384 19.900000000000002 0.42058112492677108 0.5684584539297397 0.51208025712602712 0.51422126203167628 80.500000000000014 13.800000000000002 14.900000000000002 83.500000000000014 74.500000000000014 0.6830127018922193 77.500000000000014 0.54322138601739123 0.53515806726443904 0.6411539359914199 0.64955479807325567 20.550000000000004 0.43096856918894494
decision_type=2 2 2 2 2 2 2 2 2 2 2 2 2 2 2 2 2 2 2 2 2 2 2 2 2 2 2 2 2 2
left_child=3 2 -2 -1 6 -6 7 11 9 -9 -11 15 -13 -14 -15 28 17 -17 -18 20 21 -20 23 -23 25 -22 -21 -28 -5 -30
right_child=1 -3 -4 4 5 -7 -8 8 -10 10 -12 12 13 14 -16 16 18 -19 19 26 24 22 -24 -25 -26 -27 27 -29 29 -31
leaf_value=-0.0044374449798497504 0.002571216713951047 -0.0017626526219946372 -0.00044727645360909677 0.00010594407683989362 0.00095701509081171923 -0.0072387408373292446 -0.0014090174799200174 0.0034556426095171291 -0.006135254826393044 0.001740137975508621 -0.0019036551267517467 -0.00048602517111818571 0.00010705076153564864 -0.002857555592216521 0.00057024194249084002 0.002984482364192981 -1.0651175761555721e-05 -0.0073052232031268873 -0.0010084912450022243 0.0022955083234604888 -0.01029133565482645 -0.0047640960264784486 0.0032432055598230428 5.3936625238698577e-05 -0.0049097870375169111 0.00017882710047532614 0.0014875010699568648 -0.00016595202812952903 0.00023100212806573817 -0.0038547700928643737
leaf_weight=14317 20 72 29 3467 20 48 3629 23 102 20 25 6325 20 85 32 20 492 23 65 1134 26 23 37 20 144 21 36 324 33 62
leaf_count=14317 20 72 29 3467 20 48 3629 23 102 20 25 6325 20 85 32 20 492 23 65 1134 26 23 37 20 144 21 36 324 33 62
internal_value=0 0.00118967 0.00301123 -5.84275e-06 2.99711e-05 0.000685295 2.72183e-05 4.95309e-05 0.000832354 0.00215588 0.00106111 3.87891e-05 -1.90492e-05 0.000679928 0.000377351 0.000101848 0.0002037 0.00111279 0.000186865 0.000250547 0.000842858 0.00167414 0.003075 0.00111279 0.000211781 0.00101383 0.000117337 0.000366667 3.4223e-05 0.000476316
internal_weight=0 121 49 30573 16256 68 16188 12559 170 68 45 12389 6462 137 117 5927 2365 43 2322 1830 336 145 80 43 191 47 1494 360 3562 95
internal_count=30694 121 49 30573 16256 68 16188 12559 170 68 45 12389 6462 137 117 5927 2365 43 2322 1830 336 145 80 43 191 47 1494 360 3562 95
is_linear=0
shrinkage=0.05


Tree=22
num_leaves=31
num_cat=0
split_feature=7 6 6 6 7 3 5 7 6 7 5 10 5 9 6 5 6 3 1 8 8 7 6 10 7 6 10 5 10 7
split_gain=0.121551 0.0803104 0.0428094 0.0373418 0.0273472 0.0540745 0.0617347 0.0952381 0.0422827 0.0582189 0.06 0.0590505 0.113043 0.0533333 0.0320036 0.0220674 0.025 0.00481403 0.00663666 0.0270324 0.0608554 0.0766667 0.0381391 0.114035 0.0118557 0.034127 0.00688821 0.0210084 0.00477808 0.0246212
threshold=0.81632706295631363 0.63515658283920862 0.72747909639937347 0.43638186271785651 0.59820176476359233 -0.78656609248549292 0.93301270189221952 0.64109502017133557 0.53227172118141219 0.61208505147651604 -0.5 14.300000000000002 0.25000000000000006 82.500000000000014 0.8161292551714282 -0.93301270189221919 0.6411539359914199 -0.60355339059327362 18.500000000000004 3.9219243190762363 3.795426061844291 0.41326039499595685 0.60721358760383082 14.900000000000002 0.34161777684922245 0.44821552560522865 14.300000000000002 0.25000000000000006 20.550000000000004 0.52997902742696146
decision_type=2 2 2 2 2 2 2 2 2 2 2 2 2 2 2 2 2 2 2 2 2 2 2 2 2 2 2 2 2 2
left_child=4 3 -3 -2 17 6 8 -8 -6 10 -10 12 -11 -12 15 16 -13 18 19 20 22 -22 24 -24 25 -1 27 -26 -20 -30
right_child=1 2 -4 -5 5 -7 7 -9 9 11 13 14 -14 -15 -16 -17 -18 -19 28 -21 21 -23 23 -25 26 -27 -28 -29 29 -31
leaf_value=-0.0067550691849161404 0.0010688211527088765 0.0013024420478122412 0.002442655878253497 -1.0118616973475714e-05 -7.8820692642250786e-05 -4.7154611957790522e-05 -0.0069930303317079778 5.123979397676504e-05 -0.00019847500802958607 0.0010815612982493451 0.001413126016459021 0.0016531310767331888 -0.0021128724995969463 0.0028425060693920146 0.0010394400230694101 -2.4676847771032407e-05 -0.002774359791656628 -0.0029053504038346507 -0.00019472860754640584 -0.0010647631117995599 0.0032828604790412722 -0.0066075189645906753 0.002254154142689885 -0.0030424596615063362 0.0028010478678445307 2.4424776731646337e-06 -0.00072922341758194231 -0.0060519554207662477 -0.0027146778126056928 0.00021945202166245294
leaf_weight=43 20 20 26 59 353 1263 21 21 25 20 20 20 26 30 25 301 20 20697 5207 1480 25 23 24 52 34 20 541 85 143 33
leaf_count=43 20 20 26 59 353 1263 21 21 25 20 20 20 26 30 25 301 20 20697 5207 1480 25 23 24 52 34 20 541 85 143 33
internal_value=0 0.00155 0.00321087 0.000582912 -1.23586e-05 0.000159791 0.000460205 0.00233095 0.000366667 0.000668686 0.00195 0.000435438 0.00212391 0.00295 0.000223225 9.66282e-05 0.0012 -2.53575e-05 8.3664e-06 7.8922e-05 0.000304192 0.00203333 0.000200314 0.00126579 8.83132e-05 0.000743651 2.57582e-05 0.000370169 -2.21339e-05 0.000234092
internal_weight=0 125 46 79 30552 2145 882 42 840 487 75 412 46 50 366 341 40 28407 7710 2327 847 48 799 76 723 63 660 119 5383 176
internal_count=30677 125 46 79 30552 2145 882 42 840 487 75 412 46 50 366 341 40 28407 7710 2327 847 48 799 76 723 63 660 119 5383 176
is_linear=0
shrinkage=0.05


Tree=23
num_leaves=31
num_cat=0
split_feature=1 10 8 8 4 1 8 4 10 9 1 10 10 5 5 1 8 9 9 9 10 9 9 1 10 5 10 3 3 8
split_gain=0.0249582 0.00980583 0.0202571 0.0343313 0.0390447 0.0407497 0.0429136 0.17991 0.0348162 0.0237048 0.0750939 0.0122892 0.0111419 0.00794888 0.0294425 0.0205233 0.0206959 0.0387695 0.0290184 0.0709244 0.0272727 0.0134443 0.0160361 0.0434783 0.0222529 0.0107943 0.017793 0.0171088 0.0217206 0.040747
threshold=16.500000000000004 18.850000000000005 3.795426061844291 3.7256208424938384 -0.5 19.500000000000004 1.2424533248940004 -0.68301270189221952 19.300000000000001 75.500000000000014 21.500000000000004 15.850000000000003 13.200000000000001 0.68301270189221941 0.25000000000000006 19.500000000000004 1.2424533248940004 69.500000000000014 76.500000000000014 83.500000000000014 14.900000000000002 79.500000000000014 83.500000000000014 22.500000000000004 13.800000000000002 0.93301270189221952 14.300000000000002 -0.78656609248549292 -0.9159756150367534 3.0201273556387074
decision_type=2 2 2 2 2 2 2 2 2 2 2 2 2 2 2 2 2 2 2 2 2 2 2 2 2 2 2 2 2 2
left_child=-1 11 3 4 5 6 7 -3 -8 10 -7 12 -2 14 -14 16 18 -18 -16 -20 -21 -17 23 -23 -24 -15 -27 28 -28 -30
right_child=1 2 -4 -5 -6 9 8 -9 -10 -11 -12 -13 13 25 15 21 17 -19 19 20 -22 22 24 -25 -26 26 27 -29 29 -31
leaf_value=-0.001181487584851695 -0.00038920045998954236 -3.5275502674242397e-05 -0.00047688463208211409 0.0015704745228965313 -3.0051550906123882e-05 -7.4879658010140745e-05 0.001725351817242593 0.00232052308434082 -0.0041180103909569223 0.0013424697156360688 0.0010153800950734315 -7.9898854313022167e-05 0.0010105624010403622 -0.0012341282276155663 -0.008009839597501801 -2.030768896008617e-05 0.0031187174550892094 -0.001171608132241414 0.0028391992806154399 -0.0042554207654086906 0.0027003807659224167 0.0025235145531614768 0.00083303469550805032 -0.0057533046855226316 -0.0031734863119739888 -0.00054849076522890954 4.8677804277924569e-05 -0.0014531770351399243 0.0021414464355553886 -0.010767238765256216
leaf_weight=20471 1084 40 809 22 657 60 22 29 72 503 34 3614 1067 958 27 188 21 92 24 33 22 46 36 46 145 275 112 86 38 24
leaf_count=20471 1084 40 809 22 657 60 22 29 72 503 34 3614 1067 958 27 188 21 92 24 33 22 46 36 46 145 275 112 86 38 24
internal_value=0 5.7992e-05 0.000150179 0.000262718 0.000232287 0.000476316 0.00117699 0.00212391 0.000481916 0.000285009 0.00101383 3.18852e-05 8.87611e-05 0.000135186 0.000207585 0.000464707 0.000863243 0.000392479 0.00136509 0.00184873 0.000859092 0.00027538 0.000499451 0.00103696 0.000226244 5.04695e-05 0.000230374 0.000526924 0.00081207 0.0015629
internal_weight=0 10186 2248 1439 1417 760 163 69 94 597 94 7938 4324 3240 1747 680 219 113 106 79 55 461 273 92 181 1493 535 260 174 62
internal_count=30657 10186 2248 1439 1417 760 163 69 94 597 94 7938 4324 3240 1747 680 219 113 106 79 55 461 273 92 181 1493 535 260 174 62
is_linear=0
shrinkage=0.05


Tree=24
num_leaves=31
num_cat=0
split_feature=7 6 1 7 3 0 6 6 7 6 10 7 10 6 6 0 7 7 1 0 6 5 10 1 3 6 4 3 1 7
split_gain=0.310145 0.142857 0.279527 0.0471474 0.0848906 0.0895637 0.112164 0.0561002 0.0662856 0.0809798 0.287946 0.0332026 0.068696 0.0928473 0.0321429 0.0188537 0.00561859 0.0301616 0.0362855 0.0535898 0.0754658 0.0295918 0.0042456 0.0305418 0.00926609 0.0388889 0.00274442 0.00806962 0.0541862 0.0749263
threshold=0.81632706295631363 0.58666180475247109 19.500000000000004 0.60699495501663581 -0.78656609248549292 11.500000000000002 0.59447291825781834 0.51208025712602712 0.61208505147651604 0.54870532138611383 16.050000000000004 0.6920293762652362 18.850000000000005 0.63515658283920862 0.44254632083147871 7.5000000000000009 0.48310515909166246 0.48612669369306866 11.500000000000002 5.5000000000000009 0.45299495141646756 -0.24999999999999997 19.900000000000002 22.500000000000004 -0.9159756150367534 0.44612411824339276 0.6830127018922193 -0.60355339059327362 17.500000000000004 0.41038182688869324
decision_type=2 2 2 2 2 2 2 2 2 2 2 2 2 2 2 2 2 2 2 2 2 2 2 2 2 2 2 2 2 2
left_child=3 14 -3 16 5 7 -7 -5 -9 10 -10 -11 -13 -14 -2 -15 26 18 -18 -20 -21 -22 -19 24 25 -24 -1 28 29 -28
right_child=1 2 -4 4 -6 6 -8 8 9 11 -12 12 13 15 -16 -17 17 22 19 20 21 -23 23 -25 -26 -27 27 -29 -30 -31
leaf_value=-0.00368298352081242 0.00096461109031976142 0.0022044969301237781 0.00079138296073264511 -7.1135675109634811e-05 -3.6209696846362465e-05 0.00097695511328486093 -0.0049834481783055558 0.0025653617276262977 0.0026972393165846653 -0.00011223014316512625 -0.00011882292056352718 -0.00015242564161884744 0.0016390842263804607 -0.00080833406895289284 -1.929230451208075e-05 0.00087144186769889671 -0.0051089843309507724 -0.00014392457130334453 -0.0065565764667428307 0.0026104673544002869 -0.0038649641945914638 0.00031521819548031019 9.2453266362291236e-05 0.00019619673889693102 -0.00059453283494521067 -0.0053467849850010246 0.0029627815823347506 -0.0023251609784319047 -0.0018193757309238651 -0.0022130799353511201
leaf_weight=17536 20 23 33 309 1143 34 25 33 21 207 43 84 20 25 36 26 121 4818 52 22 29 20 20 28 452 70 113 4088 1042 127
leaf_count=17536 20 23 33 309 1143 34 25 33 21 207 43 84 20 25 36 26 121 4818 52 22 29 20 20 28 452 70 113 4088 1042 127
internal_value=0 0.00262857 0.00441429 -7.38758e-06 0.000229188 0.000615055 0.00249237 0.000470834 0.00082146 0.000654226 0.00229375 0.000364365 0.000917743 0.00206268 0.000842858 0.000930393 -2.37186e-05 2.10234e-05 0.000564755 0.00116951 0.00206268 0.000970409 -3.59995e-06 0.000125439 4.22516e-05 0.000505556 -3.47195e-05 -3.44442e-06 0.000106007 0.000783334
internal_weight=0 112 56 30508 1970 827 59 768 459 426 64 362 155 71 56 51 28538 5632 244 123 71 49 5388 570 542 90 22906 5370 1282 240
internal_count=30620 112 56 30508 1970 827 59 768 459 426 64 362 155 71 56 51 28538 5632 244 123 71 49 5388 570 542 90 22906 5370 1282 240
is_linear=0
shrinkage=0.05


Tree=25
num_leaves=31
num_cat=0
split_feature=7 6 6 7 3 6 6 6 6 6 4 2 2 0 7 10 2 10 7 0 7 7 6 0 10 10 7 0 6 0
split_gain=0.1395 0.116841 0.182149 0.0223254 0.0332587 0.0448858 0.284981 0.0883275 0.00745553 0.0349836 0.0616521 0.0440927 0.0599182 0.01508 0.0311321 0.00559466 0.0474877 0.105205 0.0217391 0.0272727 0.00242028 0.0111894 0.0361111 0.00862822 0.0338629 0.00186314 0.0219182 0.177757 0.0192549 0.0277778
threshold=0.81632706295631363 0.5684584539297397 0.72747909639937347 0.6920293762652362 -0.78656609248549292 0.54574048896314509 0.61739089903201705 0.5757132505517597 0.54574048896314509 0.55450817107537909 -0.68301270189221952 0.78656609248549303 0.25881904510252057 11.500000000000002 0.54330505135980756 14.900000000000002 -0.5 14.300000000000002 0.65661827547335505 11.500000000000002 0.58298247825943939 0.58664932045138041 0.42175057317421843 11.500000000000002 14.900000000000002 21.500000000000004 0.42074776087879368 5.5000000000000009 0.22480825941678542 8.5000000000000018
decision_type=2 2 2 2 2 2 2 2 2 2 2 2 2 2 2 2 2 2 2 2 2 2 2 2 2 2 2 2 2 2
left_child=3 -2 -3 8 5 -5 7 -7 20 10 11 12 -10 -12 -15 16 17 -11 -18 -20 25 22 -22 -23 -25 -1 -27 -28 29 -29
right_child=1 2 -4 4 -6 6 -8 -9 9 15 13 -13 -14 14 -16 -17 18 -19 19 -21 21 23 -24 24 -26 26 27 28 -30 -31
leaf_value=-0.0022870230963301253 -1.8327689286479212e-05 0.0011310900416310887 -0.0020543382075082495 -6.7578891354153067e-05 -2.6738488518501802e-05 0.0022624768596741676 -1.1826780585882935e-05 0.0015571300150614366 0.00023382752170952317 -0.0044732655679589339 -0.00015919407343302773 -0.0098740806354862543 0.00029945728570629493 -0.0064041811389979114 0.0030474498207223588 -8.8837165876452903e-05 -0.00010661863600687217 0.0022185232898182419 -0.0064589825286035969 0.00092810735762061678 0.00018638690195208474 -7.1935407308482144e-05 -0.0051656301801587708 -0.0046947284514265164 6.347123997855198e-05 -0.0082958895380715273 0.005030029790150276 -0.0076413436058377976 -0.0005648061931979476 0.00041654394739301106
leaf_weight=22430 49 36 25 113 325 20 111 21 39 48 211 26 22 33 20 2248 968 25 24 20 20 909 52 81 23 2377 20 25 292 20
leaf_count=22430 49 36 25 113 325 20 111 21 39 48 211 26 22 33 20 2248 968 25 24 20 20 909 52 81 23 2377 20 25 292 20
internal_value=0 0.00176818 0.00322869 -1.55991e-05 0.000288984 0.000704718 0.00126579 0.00482805 -2.16026e-05 4.50061e-05 0.000519801 0.00167414 0.00240902 0.000139395 0.000893397 -4.99486e-06 8.82495e-05 0.00131986 -5.92242e-07 0.00108636 -3.0951e-05 4.21665e-05 0.000644445 -6.41015e-07 0.00043077 -3.41036e-05 4.86531e-06 0.000370169 9.83686e-05 0.00106111
internal_weight=0 110 61 30523 590 265 152 41 29933 3684 351 87 61 264 53 3333 1085 73 1012 44 26249 1085 72 1013 104 25164 2734 357 337 45
internal_count=30633 110 61 30523 590 265 152 41 29933 3684 351 87 61 264 53 3333 1085 73 1012 44 26249 1085 72 1013 104 25164 2734 357 337 45
is_linear=0
shrinkage=0.05


Tree=26
num_leaves=31
num_cat=0
split_feature=7 6 1 6 7 3 6 10 6 0 7 4 6 7 10 1 1 0 6 6 3 3 7 6 1 6 1 1 6 0
split_gain=0.192408 0.191535 0.0781385 0.0378049 0.0337152 0.0647687 0.0439139 0.0749896 0.229079 0.336922 0.0407656 0.134426 0.0425953 0.03739 0.0134835 0.03149 0.0081922 0.00794681 0.00804024 0.0834541 0.233333 0.0085547 0.00830037 0.0264237 0.0497836 0.104762 0.0101944 0.0179365 0.038038 0.107744
threshold=0.81632706295631363 0.63515658283920862 20.500000000000004 0.44254632083147871 0.59820176476359233 -0.78656609248549292 0.47454455194601286 16.050000000000004 0.54870532138611383 3.5000000000000004 0.61208505147651604 -0.68301270189221952 0.8161292551714282 0.61208505147651604 19.900000000000002 18.500000000000004 16.500000000000004 7.5000000000000009 0.40814536341718055 0.41316263298806116 -0.70710678118654735 -0.78656609248549292 0.48458388991077089 0.45299495141646756 19.500000000000004 0.42761989604726536 20.500000000000004 21.500000000000004 0.55123992275056999 9.5000000000000018
decision_type=2 2 2 2 2 2 2 2 2 2 2 2 2 2 2 2 2 2 2 2 2 2 2 2 2 2 2 2 2 2
left_child=4 3 -3 -2 16 6 -6 8 9 -8 11 -9 14 -10 -12 -16 -1 -18 -19 20 -20 22 -21 24 25 -24 -25 28 -28 -30
right_child=1 2 -4 -5 5 -7 7 10 13 -11 12 -13 -14 -15 15 -17 17 18 19 21 -22 -23 23 26 -26 -27 27 -29 29 -31
leaf_value=-0.0023939961822668186 0.00091729692026809584 0.002196988993992999 0.00069525931061446009 -1.7411304822156916e-05 -6.4199946786447365e-05 -9.9382072384083568e-05 0.00030293849056629575 0.0011515200017667704 0.0024415354995388052 0.0025659741211208511 -0.00010928500416992892 -0.00024403665655092224 0.00082846111334324295 -2.3991304608100839e-05 0.0013321400846796117 -0.0018946811802866615 -4.2693271768587052e-05 -0.0011186366793955961 -0.0040721555755016516 0.0026445964983964568 0.0010575277641813429 -0.00033164938779056685 -0.0075898418862254402 -0.00035920000875379056 -0.0062985507001675437 0.0025942951414967778 -0.004886528993904838 -0.0039352891290289184 -0.0029704818051044194 0.0028950773296862412
leaf_weight=19617 20 22 20 62 253 1239 38 20 22 22 316 41 20 102 21 41 5203 940 63 995 27 964 22 285 46 20 57 110 32 22
leaf_count=19617 20 22 20 62 253 1239 38 20 22 22 316 41 20 102 21 41 5203 940 63 995 27 964 22 285 46 20 57 110 32 22
internal_value=0 0.00196613 0.00471191 0.000559757 -7.42944e-06 0.000184193 0.000508036 0.000727606 0.00158044 0.00411667 0.00038573 0.00158934 0.000201257 0.000353226 8.22758e-05 0.000756452 -2.18333e-05 1.82911e-05 7.55937e-05 0.000120262 0.00161667 6.75095e-05 0.000138799 0.000286701 0.00108636 0.00233095 0.000147629 0.000402489 0.000850902 0.00180185
internal_weight=0 124 42 82 30538 2135 896 643 184 60 459 61 398 124 378 62 28403 8786 3583 2643 90 2553 1589 594 88 42 506 221 111 54
internal_count=30662 124 42 82 30538 2135 896 643 184 60 459 61 398 124 378 62 28403 8786 3583 2643 90 2553 1589 594 88 42 506 221 111 54
is_linear=0
shrinkage=0.05


Tree=27
num_leaves=31
num_cat=0
split_feature=7 6 3 6 7 3 6 6 2 9 7 7 7 6 6 6 6 10 6 2 2 10 7 2 0 0 6 6 10 3
split_gain=0.134387 0.120702 0.127949 0.107375 0.0410668 0.0783282 0.0901058 0.115153 0.187626 0.0940941 0.0235242 0.111413 0.0262708 0.0579132 0.137143 0.0337107 0.00729152 0.0440052 0.0227943 0.0245139 0.0677024 0.0186822 0.00485067 0.0172117 0.0308924 0.0554765 0.00509519 0.0434211 0.00392867 0.045122
threshold=0.81632706295631363 0.5684584539297397 -0.60355339059327362 0.6666334859654004 0.59820176476359233 -0.78656609248549292 0.51208025712602712 0.55450817107537909 0.37940952255126043 77.500000000000014 0.61208505147651604 0.60699495501663581 0.65661827547335505 0.61739089903201705 0.59058765741906061 0.8161292551714282 0.54574048896314509 23.050000000000004 0.55450817107537909 0.1294095225512602 0.37940952255126043 17.150000000000002 0.4911726601594828 0.98296291314453432 5.5000000000000009 2.5000000000000004 0.33119987565061165 0.32192357067153182 20.550000000000004 -0.9159756150367534
decision_type=2 2 2 2 2 2 2 2 2 2 2 2 2 2 2 2 2 2 2 2 2 2 2 2 2 2 2 2 2 2
left_child=4 -2 3 -3 16 6 -6 8 9 -8 11 -9 -12 14 -14 -15 22 18 19 -18 -21 -22 -1 26 25 -25 27 -24 -28 -30
right_child=1 2 -4 -5 5 -7 7 10 -10 -11 12 -13 13 15 -16 -17 17 -19 -20 20 21 -23 23 24 -26 -27 28 -29 29 -31
leaf_value=-0.0034283900799729214 -1.6540739581050181e-05 0.00096468608984988662 -0.00014475129539387455 8.6680601230404442e-05 -6.0989949447126661e-05 -3.4816156752652965e-05 0.0024376754150648109 -0.005521551449182655 0.0020210543106344184 -0.0033949032157763515 -0.00010008813897612323 0.0023194587245618627 -0.001603026525768686 -0.00013874877030011225 0.0014847377645168637 0.00078703805767608168 -0.0069876134537846975 9.4605176075457386e-06 0.00012875509752777281 0.0027503234632019315 -0.0067972925752542495 0.00028661908500940972 -0.0044331202062871276 -0.0056355320708862513 -0.00052002460089789482 0.0015395612642875257 -0.00036526554804889981 0.00011191859793036052 7.2467000785841901e-05 -0.00041686607442470994
leaf_weight=22021 52 20 20 21 365 1285 27 41 23 47 146 23 40 134 35 25 137 21 2671 35 93 38 132 39 108 37 2880 20 20 185
leaf_count=22021 52 20 20 21 365 1285 27 41 23 47 146 23 40 134 35 25 137 21 2671 35 93 38 132 39 108 37 2880 20 20 185
internal_value=0 0.00171991 0.00322869 0.00482805 -7.55453e-06 0.000201028 0.000557065 0.000966637 0.00252732 0.00130135 0.000625676 0.0015125 0.000476316 0.000804701 0.00195 0.000264466 -2.36253e-05 5.01676e-05 3.40625e-05 0.00044505 0.000853615 0.00033168 -3.23121e-05 2.30787e-05 0.000493479 0.00126579 -3.66015e-06 0.000278948 -1.75844e-05 0.000193903
internal_weight=0 113 61 41 30628 2191 906 541 97 74 444 64 380 234 75 159 28437 2995 2974 303 166 131 25442 3421 184 76 3237 152 3085 205
internal_count=30741 113 61 41 30628 2191 906 541 97 74 444 64 380 234 75 159 28437 2995 2974 303 166 131 25442 3421 184 76 3237 152 3085 205
is_linear=0
shrinkage=0.05


Tree=28
num_leaves=31
num_cat=0
split_feature=7 2 1 6 10 7 10 1 6 6 7 7 6 6 9 4 10 7 7 9 9 7 7 6 7 7 7 7 1 1
split_gain=0.122585 0.176782 0.45 0.477513 0.0334428 0.0105015 0.0341055 0.00911624 0.00940928 0.0633765 0.127273 0.0103322 0.0581179 0.0862647 0.1 0.0333333 0.00514386 0.0462911 0.0678788 0.00513653 0.0174056 0.0199294 0.118692 0.0284222 0.00520059 0.0443182 0.00228966 0.0124522 0.0363014 0.00227609
threshold=0.72723847499553085 -0.12940952255126034 18.500000000000004 0.6411539359914199 19.900000000000002 0.74913528103878513 16.050000000000004 16.500000000000004 0.49267404185748792 0.49448385607475848 0.4678073755225956 0.59820176476359233 0.55450817107537909 0.52318478452219253 78.500000000000014 0.6830127018922193 19.900000000000002 0.52997902742696146 0.58664932045138041 86.500000000000014 87.500000000000014 0.50793303038982252 0.48310515909166246 0.52318478452219253 0.36777420662095411 0.36097423205696361 0.42652821359801102 0.42771369744222637 8.5000000000000018 18.500000000000004
decision_type=2 2 2 2 2 2 2 2 2 2 2 2 2 2 2 2 2 2 2 2 2 2 2 2 2 2 2 2 2 2
left_child=7 2 -2 -4 5 6 -3 26 16 10 -10 19 13 -13 -15 -16 29 -18 -19 24 21 22 23 -21 25 -11 -1 28 -28 -9
right_child=1 4 3 -5 -6 -7 -8 8 9 11 -12 12 -14 14 15 -17 17 18 -20 20 -22 -23 -24 -25 -26 -27 27 -29 -30 -31
leaf_value=-0.0056033443458275564 -0.0012453172648092649 0.0019200015951026995 0.0014105008762910209 0.0020828055142318282 0.00037215866432582236 -1.5713702601999337e-05 -0.00059181718596237334 0.0018025638414750494 0.0026837861774752837 -0.0033625293224184508 -0.0066008277543233634 -0.00016753199324332502 -6.9163702777658159e-05 0.00068089105598705959 -0.0014814394865397596 0.00018673885050626284 -0.0035671051685788216 0.00014245444604786274 -0.0021901514046219262 0.00023137976066348598 -0.00023292141059057527 -0.0037481986502134915 0.00049139347125320423 -0.00074801999946270134 -0.0003283675710560876 0.0021032940340393715 -0.014539064719313793 -0.00058363079887557357 0.0050696476137547467 -8.6750161588387129e-05
leaf_weight=13108 72 21 27 21 24 258 53 1334 20 156 35 103 519 36 40 20 493 33 42 29 569 138 25 136 1902 20 53 7014 20 4203
leaf_count=13108 72 21 27 21 24 258 53 1334 20 156 35 103 519 36 40 20 493 33 42 29 569 138 25 136 1902 20 53 7014 20 4203
internal_value=0 0.000790337 0.00245 0.0062 0.0002309 0.000100603 0.000625676 -1.83833e-05 2.1045e-05 8.34051e-05 0.00176818 5.83137e-05 0.000228552 0.000955026 0.00203333 0.000783334 -1.72393e-05 0.000126057 0.00128333 1.72275e-05 0.000117225 0.000407318 0.000739474 0.000253031 -2.59378e-05 0.000234092 -3.76201e-05 -1.47235e-05 0.000634932 -3.1939e-05
internal_weight=0 476 120 48 356 332 74 30048 9853 3748 55 3693 718 199 96 60 6105 568 75 2975 897 328 190 165 2078 176 20195 7087 73 5537
internal_count=30524 476 120 48 356 332 74 30048 9853 3748 55 3693 718 199 96 60 6105 568 75 2975 897 328 190 165 2078 176 20195 7087 73 5537
is_linear=0
shrinkage=0.05


Tree=29
num_leaves=31
num_cat=0
split_feature=7 6 6 7 3 6 6 9 4 1 8 8 6 7 10 7 6 9 4 7 9 3 1 7 9 4 10 10 6 6
split_gain=0.138421 0.116841 0.139732 0.0343211 0.0662799 0.0733169 0.0867739 0.196161 0.155755 0.0329336 0.0570568 0.0899655 0.0661673 0.0196078 0.0261905 0.00887645 0.0165055 0.0518519 0.116402 0.0127094 0.0310254 0.0694543 0.00417942 0.0132983 0.0314815 0.00413497 0.013865 0.03 0.00341962 0.0104692
threshold=0.81632706295631363 0.5684584539297397 0.65732975861633447 0.59820176476359233 -0.78656609248549292 0.51208025712602712 0.56476872921328458 82.500000000000014 -0.5 19.500000000000004 3.8606743063089746 2.6735537653587347 0.67797989664683711 0.61208505147651604 17.650000000000002 0.48310515909166246 0.33119987565061165 58.500000000000007 0.25000000000000017 0.48612669369306866 83.500000000000014 -0.70710678118654735 2.5000000000000004 0.49290076673878852 80.500000000000014 -0.68301270189221952 16.650000000000002 16.050000000000004 0.45299495141646756 0.45424591214065219
decision_type=2 2 2 2 2 2 2 2 2 2 2 2 2 2 2 2 2 2 2 2 2 2 2 2 2 2 2 2 2 2
left_child=3 -2 -3 15 5 -5 7 8 -7 10 11 12 -8 14 -11 28 17 18 -17 20 -18 -22 23 24 -21 26 27 -25 -1 -30
right_child=1 2 -4 4 -6 6 9 -9 -10 13 -12 -13 -14 -15 -16 16 19 -19 -20 22 21 -23 -24 25 -26 -27 -28 -29 29 -31
leaf_value=-0.0037520380136320999 -0.0011621941146804705 0.00081231150964580225 0.0019786652385202388 -5.3602943895347814e-05 -2.9663890049685243e-05 0.0023241682439737398 -0.00010297402854467786 -0.0023158138973591149 0.00064684650318770913 -0.0015614282917382318 -0.00076472972895447189 0.0013399758324764699 0.0022069439734726526 -0.00019302870735867785 0.00098142925058922192 0.00013550420797762142 -0.0033887499101498799 -0.0068887390661744319 -0.0039642767835355256 0.00046056034941801551 0.0025458716963468356 -0.0044188831065309631 -1.0421618236904071e-05 -0.0091753722205805462 -0.0090261543649716672 -8.8463668546800991e-05 -0.0010187582507137083 0.0014917647410169267 0.0030124196335478415 -0.00043573551010766447
leaf_weight=17790 49 24 37 347 1246 30 53 56 31 22 71 21 36 196 20 21 150 126 33 20 34 49 4329 30 34 337 113 20 82 4980
leaf_count=17790 49 24 37 347 1246 30 53 56 31 22 71 21 36 196 20 21 150 126 33 20 34 49 4329 30 34 337 113 20 82 4980
internal_value=0 0.00176818 0.00322869 -8.71389e-06 0.000184853 0.000516252 0.000882836 0.00208675 0.00404836 0.000546659 0.00105497 0.00176818 0.0010736 0.000160085 0.00114048 -2.33545e-05 3.49704e-05 0.000505556 0.00180185 1.84135e-05 0.000379185 0.00115482 1.19868e-06 0.000130506 0.000875927 5.00006e-05 0.000256749 0.000950001 -3.68714e-05 -6.11762e-07
internal_weight=0 110 61 30277 2129 883 536 117 61 419 181 110 89 238 42 28148 5296 180 54 5116 233 83 4883 554 54 500 163 50 22852 5062
internal_count=30387 110 61 30277 2129 883 536 117 61 419 181 110 89 238 42 28148 5296 180 54 5116 233 83 4883 554 54 500 163 50 22852 5062
is_linear=0
shrinkage=0.05


Tree=30
num_leaves=31
num_cat=0
split_feature=7 1 6 7 3 6 6 10 7 8 6 7 6 6 7 7 6 10 6 8 2 4 10 6 8 6 7 3 8 7
split_gain=0.116802 0.18607 0.039899 0.0297784 0.0569416 0.0632195 0.213397 0.468614 0.110448 0.0359014 0.154023 0.00875086 0.0265139 0.0520485 0.10537 0.00597999 0.0349313 0.00681334 0.0440993 0.145205 0.00406963 0.00971673 0.0248485 0.00363708 0.046372 0.0179808 0.0307692 0.00143618 0.00487161 0.0441176
threshold=0.81632706295631363 22.500000000000004 0.72747909639937347 0.60699495501663581 -0.78656609248549292 0.51208025712602712 0.55123992275056999 16.050000000000004 0.61208505147651604 2.6735537653587347 0.61739089903201705 0.50607477570066572 0.33119987565061165 0.27569658683437709 0.53521094339497044 0.50793303038982252 0.5757132505517597 19.900000000000002 0.42974013463971433 5.2176457913436556 0.98296291314453432 -0.68301270189221952 16.650000000000002 0.60721358760383082 6.5532206455302013 0.61215424348931957 0.39323068007857248 1.0000000180025095e-35 6.6509254610885753 0.42074776087879368
decision_type=2 2 2 2 2 2 2 2 2 2 2 2 2 2 2 2 2 2 2 2 2 2 2 2 2 2 2 2 2 2
left_child=3 2 -2 11 5 -5 7 -7 -8 -10 -11 23 13 -13 -15 16 -14 20 19 -19 -17 22 -22 27 25 26 -25 28 -1 -30
right_child=1 -3 -4 4 -6 6 8 -9 9 10 -12 12 15 14 -16 17 -18 18 -20 -21 21 -23 -24 24 -26 -27 -28 -29 29 -31
leaf_value=-0.00096457440849657429 -0.00012072696646871495 0.00093115450209786405 0.001879731976594229 -5.7933875329868602e-05 -2.1966834031926258e-05 0.0022079598317750527 0.0020965967747990201 -8.4328558170648776e-05 -9.7825327117445632e-05 0.0012729770408526466 -0.00072649324250674834 -0.0037660629443587502 -0.0050544979029046259 0.00012872899757874202 -0.0082151844491486718 -9.8122263228867048e-06 0.00046734487860239371 0.00013585280465731598 -0.00010757659021556898 -0.0044164329770227774 0.0014171765039660779 -0.0053201507439708199 -0.0039185945539835345 0.0020199161078427843 0.00031094148452393 -0.00068883222398418158 -0.001578921664519023 -0.0042373672378283236 -0.011255629037129551 0.0050037671337486156
leaf_weight=10305 79 30 20 320 1116 31 29 43 310 20 67 74 94 21 26 3316 23 20 301 53 25 118 41 20 20 748 32 13119 150 20
leaf_count=10305 79 30 20 320 1116 31 29 43 310 20 67 74 94 21 26 3316 23 20 301 53 25 118 41 20 20 748 32 13119 150 20
internal_value=0 0.00150039 0.000455051 -7.32324e-06 0.000182439 0.000498781 0.000850001 0.00332838 0.000419484 0.00020189 0.00109943 -2.0202e-05 4.72769e-05 0.000776447 0.00207766 2.51698e-05 0.000377351 1.45334e-05 0.00021738 0.00131986 -7.14221e-06 0.00022174 0.000707576 -3.15673e-05 7.19519e-05 1.25006e-05 0.000911539 -3.51651e-05 -2.13597e-05 0.000244118
internal_weight=0 129 99 30462 1936 820 500 74 426 397 87 28526 4112 121 47 3991 117 3874 374 73 3500 184 66 24414 820 800 52 23594 10475 170
internal_count=30591 129 99 30462 1936 820 500 74 426 397 87 28526 4112 121 47 3991 117 3874 374 73 3500 184 66 24414 820 800 52 23594 10475 170
is_linear=0
shrinkage=0.05


Tree=31
num_leaves=31
num_cat=0
split_feature=7 0 3 3 9 7 3 9 9 0 7 7 8 3 9 10 0 8 8 9 7 7 3 0 3 10 5 8 8 7
split_gain=0.122876 0.0383398 0.0538012 0.0977778 0.0468831 0.0201275 0.0333392 0.0453838 0.0922039 0.034824 0.00784949 0.0271908 0.0315943 0.0277764 0.0631643 0.00581442 0.0124242 0.0314815 0.0165206 0.0754615 0.0069792 0.0289865 0.051153 0.0251062 0.0485543 0.0659341 0.0027907 0.0382653 0.00253536 0.0466102
threshold=0.81632706295631363 8.5000000000000018 -0.5 -0.9829629131445341 82.500000000000014 0.72723847499553085 -0.78656609248549292 79.500000000000014 85.000000000000014 7.5000000000000009 0.48310515909166246 0.48612669369306866 6.0390628155997765 -0.70710678118654735 83.500000000000014 19.900000000000002 5.5000000000000009 6.4606863153656269 1.700598690831078 74.500000000000014 0.60699495501663581 0.61208505147651604 -0.78656609248549292 11.500000000000002 -0.78656609248549292 14.300000000000002 0.93301270189221952 4.791641144189394 6.8747152913649368 0.39988087092237184
decision_type=2 2 2 2 2 2 2 2 2 2 2 2 2 2 2 2 2 2 2 2 2 2 2 2 2 2 2 2 2 2
left_child=5 2 3 -2 -5 10 7 -7 9 -9 28 12 13 14 -12 20 17 -17 19 -18 26 22 -22 -23 25 -25 -13 -28 -1 -30
right_child=1 -3 -4 4 -6 6 -8 8 -10 -11 11 15 -14 -15 -16 16 18 -19 -20 -21 21 23 -24 24 -26 -27 27 -29 29 -31
leaf_value=-0.0016847575452806293 -0.002257938952519628 -0.00019688797431292038 -0.00071661485675615373 0.0017857453777645194 0.00052587442513415961 -0.00017848600563487028 -1.5324431301561026e-05 0.0015973951115601237 -0.00011648294493120105 0.00053808994676292636 -0.0031710836942175527 -5.4949927805767082e-05 0.0012723229182792619 -0.0039860705893130016 0.0024668068319543268 -0.0057990419441707247 0.00012906016442444936 9.7576040744523643e-05 -0.00036094132033707152 -0.0015048743126175601 0.0019917669360590695 -5.0752965136559476e-05 -0.0023054834861955032 0.00082666555360683689 -0.0044215190412504992 -5.503718156337767e-05 -0.00037377170228750648 0.00012229254769980381 -0.010713308127873312 0.0020169107152149426
leaf_weight=22765 22 28 23 28 22 68 209 21 41 25 52 4512 20 144 37 34 41 20 536 140 45 1085 61 28 89 24 270 24 275 20
leaf_count=22765 22 28 23 28 22 68 209 21 41 25 52 4512 20 144 37 34 41 20 536 140 45 1085 61 28 89 24 270 24 275 20
internal_value=0 0.00157602 0.00205526 0.00272778 0.00395 -7.49625e-06 0.000362089 0.000917743 0.00167414 0.00321087 -1.19476e-05 3.37761e-05 0.000542886 0.000379185 0.0010736 1.51331e-05 0.000144553 0.000875927 8.94707e-05 0.000502487 -1.1235e-06 0.000100151 0.000893397 3.15667e-05 0.000659221 0.00187308 -2.9192e-05 0.000120069 -2.61485e-05 0.000119492
internal_weight=0 123 95 72 50 30586 364 155 87 46 30222 7162 253 233 89 6909 771 54 717 181 6138 1332 106 1226 141 52 4806 294 23060 295
internal_count=30709 123 95 72 50 30586 364 155 87 46 30222 7162 253 233 89 6909 771 54 717 181 6138 1332 106 1226 141 52 4806 294 23060 295
is_linear=0
shrinkage=0.05


Tree=32
num_leaves=31
num_cat=0
split_feature=7 9 4 7 3 10 5 0 7 9 8 0 7 5 10 7 10 10 7 8 9 3 4 7 10 10 7 7 8 7
split_gain=0.0701066 0.069531 0.111982 0.0165684 0.0312517 0.0844781 0.0694444 0.075 0.0263736 0.0217949 0.0116959 0.0361111 0.00678102 0.00644359 0.0313606 0.015673 0.0287511 0.00731553 0.0260356 0.0230525 0.0786963 0.0047214 0.00843771 0.0160889 0.025 0.0209997 0.00630987 0.039072 0.00261207 0.0465278
threshold=0.81632706295631363 82.500000000000014 -0.5 0.62938392134602106 -0.78656609248549292 16.050000000000004 0.68301270189221941 5.5000000000000009 0.65661827547335505 83.500000000000014 3.7256208424938384 7.5000000000000009 0.48458388991077089 0.93301270189221952 16.650000000000002 0.49290076673878852 12.100000000000001 19.900000000000002 0.48779756218296871 1.4978661367769959 74.500000000000014 -0.9159756150367534 0.25000000000000017 0.60699495501663581 15.550000000000002 18.200000000000006 0.56090091506992046 0.5684336463212879 6.8747152913649368 0.39612797331898758
decision_type=2 2 2 2 2 2 2 2 2 2 2 2 2 2 2 2 2 2 2 2 2 2 2 2 2 2 2 2 2 2
left_child=3 2 -2 12 5 6 7 8 -5 -9 -7 -12 28 17 15 16 -15 21 -19 20 -20 22 -14 25 -25 26 -24 -28 -1 -30
right_child=1 -3 -4 4 -6 10 -8 9 -10 -11 11 -13 13 14 -16 -17 -18 18 19 -21 -22 -23 23 24 -26 -27 27 -29 29 -31
leaf_value=-0.0017109832234705109 0.0016964581088762922 -0.0001354765298151317 -0.00090405520016830225 0.00018533225951698485 -0.00015403620912025074 -4.5488454677261596e-05 -6.7984066701509691e-05 -0.0029582542146404491 0.0021000994884431304 0.00078533227592649251 -0.00077003833595941655 0.001082153799709068 -1.1225613816456815e-05 0.00050444963748632059 0.0001161779203148139 -0.0038133623113725257 -0.011539626685775073 0.001208706772365298 0.00012260715620322494 -0.00034289425432021962 -0.002267637150188928 -0.00010204621316454326 -0.00099786810011315286 0.0018921785892561161 -0.0024395311569285929 0.00044672513106256421 0.0026329848572129223 -0.001944789502304145 -0.010035441661187156 0.0019160651794541961
leaf_weight=22648 35 57 27 21 784 384 60 34 39 26 52 20 506 21 25 260 32 30 37 493 99 3938 330 20 20 37 21 96 268 20
leaf_count=22648 35 57 27 21 784 384 60 34 39 26 52 20 506 21 25 260 32 30 37 493 99 3938 330 20 20 37 21 96 268 20
internal_value=0 0.0012105 0.00236936 -5.47576e-06 0.000161268 0.000421699 0.00133889 0.00203333 0.00328333 0.000783334 5.96498e-05 0.000644445 -1.36684e-05 3.38229e-05 0.000245859 0.000109745 0.000893397 2.10865e-05 0.000177618 0.000108983 0.000685295 3.22705e-07 9.56317e-05 0.00023626 0.0012 0.000156612 6.18575e-05 0.000377351 -2.60196e-05 0.000123612
internal_weight=0 119 62 30321 1420 636 180 120 60 60 456 72 28901 5965 338 313 53 5627 659 629 136 4968 1030 524 40 484 447 117 22936 288
internal_count=30440 119 62 30321 1420 636 180 120 60 60 456 72 28901 5965 338 313 53 5627 659 629 136 4968 1030 524 40 484 447 117 22936 288
is_linear=0
shrinkage=0.05


Tree=33
num_leaves=31
num_cat=0
split_feature=7 1 1 1 7 7 1 1 4 3 7 10 0 1 10 1 4 0 5 7 3 10 7 7 7 7 7 4 8 7
split_gain=0.203482 0.164103 0.0444444 0.111111 0.0243749 0.0249088 0.0337717 0.0507937 0.0365079 0.0179305 0.0377765 0.0778173 0.083425 0.0342857 0.0169866 0.0164041 0.11007 0.0203902 0.0139304 0.0383882 0.0353535 0.00929734 0.0182548 0.00837878 0.0153317 0.00704953 0.0550599 0.0688172 0.00276008 0.0464539
threshold=0.81632706295631363 22.500000000000004 19.500000000000004 14.500000000000002 0.48310515909166246 0.48612669369306866 11.500000000000002 18.500000000000004 -0.68301270189221952 -0.78656609248549292 0.60699495501663581 14.300000000000002 4.5000000000000009 21.500000000000004 13.800000000000002 21.500000000000004 -0.68301270189221952 1.5000000000000002 0.93301270189221952 0.50998638647765271 -0.12940952255126048 20.550000000000004 0.53239229724155124 0.72723847499553085 0.74913528103878513 0.50998638647765271 0.50607477570066572 0.25000000000000017 6.8747152913649368 0.41416083270239518
decision_type=2 2 2 2 2 2 2 2 2 2 2 2 2 2 2 2 2 2 2 2 2 2 2 2 2 2 2 2 2 2
left_child=4 2 3 -2 28 6 -6 -8 -9 10 21 12 13 -12 -14 17 -17 -13 -11 20 -20 25 -23 -19 -25 26 -7 -28 -1 -30
right_child=1 -3 -4 -5 5 9 7 8 -10 18 11 15 14 -15 -16 16 -18 23 19 -21 -22 22 -24 24 -26 -27 27 -29 29 -31
leaf_value=-0.0014991470508986925 -0.00067401028742759004 0.0007104866026609258 -0.00018026974910651528 0.0016116352034324767 -0.0063906313584878366 -0.0012821326819848545 0.0023485688010148388 0.00013086241237958429 -0.0030729648481249375 -3.2997666426568717e-05 -0.0039480604836019118 9.0371522927179534e-06 0.0019950945140209731 0.00017606564654113477 0.00074606566213016869 0.001412520381559962 -6.4584863366434772e-05 -4.3214031943400456e-05 -0.007059518177937452 -0.00058249477807564842 0.00047922715561200536 4.2866003091746042e-05 -0.0001147811267361798 0.00051345987215863922 -0.00073153641916144381 -2.3579932136168673e-05 -3.7934762193375661e-05 0.00042438887450943485 -0.0096758706384202867 0.0018202619204814863
leaf_weight=22605 25 27 45 20 113 361 36 21 69 4568 54 39 21 21 23 28 94 421 28 161 44 33 50 39 58 1239 32 30 262 20
leaf_count=22605 25 27 45 20 113 361 36 21 69 4568 54 39 21 21 23 28 94 421 28 161 44 33 50 39 58 1239 32 30 262 20
