tree
version=v3
num_class=1
num_tree_per_iteration=1
label_index=0
max_feature_idx=10
objective=quantile
feature_names=Month Hour hour_x hour_y month_x month_y net_target-23 net_target diffuse_solar_radiation+1 relative_humidity+1 drybulb_temp+1
feature_infos=[1:12] [1:24] [-1:1] [-1:1] [-1:1] [-1:1] [0:1] [0:1] [0:6.9255951971104679] [10:100] [5.5999999999999996:32.200000000000003]
tree_sizes=2770 2920 2863 2868 2896 2887 2871 2913 2884 2902 2881 2876 2837 2917 2911 2952 2938 2884 2914 2926 2889 2920 2929 2885 2930 2925 2891 2897 2919 2953 2915 2928 2927 2917 2942 2920 2938 2954 2963 2954 2920 2940 2951 2881 2936 2927 2916 2943 2949 2926 2965 2931 2925 2934 2946 2948 2926 2927 2932 2949 2949 2988 2930 2950 2951 2921 2908 2987 2925 2916 2907 2946 2927 2939 2968 2976 2884 2947 2949 2920 2948 2908 2920 2905 2914 2905 2898 2975 2930 2924 2936 2944 2926 2918 2932 2915 2915 2952 2928 2906 2930 2908 2937 2890 2875 2938 2919 2901 2910 2927 2929 2912 2883 2928 2887 2930 2863 2840 2902 2901 2889 2934 2872 2911 2888 2846 2887 2936 2877 2923 2922 2917 2897 2894 2884 2946 2881 2903 2900 2887 2871 2900 2923 2869 2895 2914 2914 2905 2913 2932 2897 2930 2872 2816 2950 2918 2840 2860 2856 2893 2877 2887 2906 2925 2883 2918 2868 2908 2866 2870 2954 2944 2837 2836 2880 2870 2961 2889 2893 2865 2873 2919 2856 2899 2868 2984 2889 2903 2898 2921 2947 2872 2905 2861 2901 2888 2882 2912 2889 2881

Tree=0
num_leaves=31
num_cat=0
split_feature=7 6 6 7 7 6 7 7 6 3 6 4 3 3 8 7 1 7 6 7 3 3 7 3 1 1 8 7 8 8
split_gain=1991.55 188.93 167.105 41.7559 40.5891 26.7573 26.549 23.8499 20.2421 14.1233 9.13489 8.84093 7.89711 7.43629 8.02945 6.68305 7.02766 6.05194 5.66665 5.46725 5.20446 5.0237 4.84808 4.58927 4.51946 4.35988 4.19348 4.14584 5.8677 3.94601
threshold=0.47847566075442682 0.48762830728007228 0.4733683115201619 0.43739151988254438 0.52096676477506865 0.4158967846191442 0.51216084504995163 0.38883872155538518 0.52091241958869483 -0.37940952255126059 0.44167064525601057 -0.68301270189221952 -0.60355339059327362 -0.60355339059327362 3.7256208424938384 0.64950052705559536 22.500000000000004 0.49989898910449809 0.55123992275056999 0.46445100721944804 -0.25881904510252113 0.78656609248549325 0.24157957740895988 0.98296291314453432 17.500000000000004 17.500000000000004 6.4369510090529154 0.28367597792942711 3.6762205501217915 0.89587973461402759
decision_type=2 2 2 2 2 2 2 2 2 2 2 2 2 2 2 2 2 2 2 2 2 2 2 2 2 2 2 2 2 2
left_child=2 4 3 9 10 15 18 20 12 22 -2 -10 24 14 -5 16 23 -12 -3 -13 27 -7 -1 -6 -9 -24 -8 -4 -29 -23
right_child=1 6 7 13 5 21 26 8 11 -11 17 19 -14 -15 -16 -17 -18 -19 -20 -21 -22 29 25 -25 -26 -27 -28 28 -30 -31
leaf_value=0.47556741274893283 0.48410903811454775 0.48557894080877306 0.47963691763579847 0.483180533349514 0.48661182224750521 0.48877555653452875 0.49048641473054888 0.48524233251810073 0.48844268620014192 0.47836901843547819 0.48411299288272858 0.48507126048207283 0.48293742090463637 0.48241316042840482 0.48742517977952959 0.49056682735681534 0.48064803406596185 0.48519511520862579 0.4890458881855011 0.48568164855241774 0.47868306599557398 0.48870225325226785 0.48161815293133259 0.48241374492645261 0.483745364099741 0.48046502657234669 0.48877653032541274 0.48213460221886634 0.48501803874969485 0.48591680824756622
leaf_weight=729 880 496 139 668 514 1055 3416 193 335 11959 476 743 711 2111 61 160 66 303 390 205 413 27 1667 40 349 1651 78 291 231 142
leaf_count=729 880 496 139 668 514 1055 3416 193 335 11959 476 743 711 2111 61 160 66 303 390 205 413 27 1667 40 349 1651 78 291 231 142
internal_value=0.483343 0.504748 0.475753 0.473865 0.496369 0.501157 0.511756 0.485608 0.488252 0.472874 0.490584 0.492667 0.483732 0.479452 0.483806 0.49392 0.491569 0.494527 0.504026 0.4902 0.479363 0.50577 0.475427 0.493406 0.488279 0.476238 0.513717 0.482114 0.484157 0.497766
internal_weight=0 8043 22456 18846 3663 2004 4380 3610 2536 16006 1659 1283 1253 2840 729 780 620 779 886 948 1074 1224 4047 554 542 3318 3494 661 522 169
internal_count=30499 8043 22456 18846 3663 2004 4380 3610 2536 16006 1659 1283 1253 2840 729 780 620 779 886 948 1074 1224 4047 554 542 3318 3494 661 522 169
is_linear=0
shrinkage=1


Tree=1
num_leaves=31
num_cat=0
split_feature=7 6 6 7 7 7 7 6 3 6 3 7 3 6 3 5 7 10 7 3 8 7 3 8 4 6 7 5 7 8
split_gain=1856.76 183.811 160.92 42.9025 29.1683 27.2387 26.5187 21.4421 16.7039 15.7842 7.7719 7.61759 7.49281 6.83253 6.77525 5.69793 5.67113 5.47862 5.39025 4.94885 6.32122 4.57119 4.25424 4.23726 3.98097 3.98812 4.73973 3.84038 3.76349 3.64301
threshold=0.47990354410909702 0.48296089258968183 0.4733683115201619 0.44340784617414186 0.53521094339497044 0.38958890141023261 0.50793303038982252 0.42865156757781969 -0.37940952255126059 0.52525604972545614 -0.37940952255126059 0.4655891700591811 -0.60355339059327362 0.54322138601739123 0.91597561503675362 -0.24999999999999997 0.40430940860364778 18.850000000000005 0.64950052705559536 -0.37940952255126059 3.7256208424938384 0.26845097336723128 -0.37940952255126059 2.0126758453675748 -0.9330127018922193 0.40426863928743112 0.53783909341244673 0.25000000000000006 0.37853062429524442 5.5965666693001079
decision_type=2 2 2 2 2 2 2 2 2 2 2 2 2 2 2 2 2 2 2 2 2 2 2 2 2 2 2 2 2 2
left_child=2 6 3 8 13 21 12 18 16 10 -7 17 -2 -3 -9 -14 -1 -11 24 20 -5 -4 23 -19 -8 -26 -27 -23 -10 -6
right_child=1 4 5 19 29 9 7 14 28 11 -12 -13 15 -15 -16 -17 -18 22 -20 -21 -22 27 -24 -25 25 26 -28 -29 -30 -31
leaf_value=-0.0035856249742209911 0.0017820991575717927 0.0021117749996483318 -0.0058018987439572818 -0.00023903071880340687 0.0070909626036882393 0.0010247112438082685 -0.00039048742502927893 0.0044841495528817167 -0.005908850878477096 0.0014893201086670161 -0.00037304140627384135 0.0036282343603670597 -0.00037779085338115749 0.0052395238727331152 0.001769939810037613 0.00072584673762321472 -0.00088192048482596888 0.0044235635362565515 0.0073983252327889208 -0.00073450891301035941 0.0027746046800166363 6.6657005809248057e-05 0.0014735150896012781 0.0061844216287136079 0.0023382852971553791 0.0013005733676254739 0.0053050148487091059 -0.0021412804583087557 -0.0025403912365436544 0.0080668880790472023
leaf_weight=3247 374 833 204 704 2749 642 91 1083 8300 663 650 255 298 728 118 452 991 110 185 1518 86 537 86 84 580 106 141 387 4161 176
leaf_count=3247 374 833 204 704 2749 642 91 1083 8300 663 650 255 298 728 118 452 991 110 185 1518 86 537 86 84 580 106 141 387 4161 176
internal_value=0 0.0206627 -0.00747459 -0.00931433 0.0273239 0.00219044 0.0119457 0.0150174 -0.0101975 0.00511044 0.00127709 0.00924457 0.00564947 0.0218049 0.0196399 0.00276667 -0.00748584 0.00717126 0.00998413 -0.00292461 0.00028481 -0.00425532 0.0130357 0.0171392 0.00841503 0.00950726 0.0148279 -0.00275974 -0.0111197 0.0302692
internal_weight=0 7914 22625 19007 4486 3618 3428 2304 16699 2490 1292 1198 1124 1561 1201 750 4238 943 1103 2308 790 1128 280 194 918 827 247 924 12461 2925
internal_count=30539 7914 22625 19007 4486 3618 3428 2304 16699 2490 1292 1198 1124 1561 1201 750 4238 943 1103 2308 790 1128 280 194 918 827 247 924 12461 2925
is_linear=0
shrinkage=0.05


Tree=2
num_leaves=31
num_cat=0
split_feature=7 7 7 3 3 8 7 7 0 3 3 7 0 1 5 3 4 4 3 0 7 1 8 4 7 8 8 7 0 7
split_gain=1737.86 111.221 101.168 44.7266 31.68 19.299 17.6952 17.1492 13.2242 13.5856 11.9161 9.49232 8.78325 8.11038 6.81949 6.76925 7.09478 5.62482 11.7185 7.33772 5.49312 6.4896 5.20536 5.19857 4.8597 4.70531 4.51317 4.4146 4.29647 4.04225
threshold=0.47990354410909702 0.42993750483365162 0.50998638647765271 -0.37940952255126059 -0.37940952255126059 3.7256208424938384 0.55123468349471738 0.38958890141023261 2.5000000000000004 -0.37940952255126059 -0.60355339059327362 0.46021526379199201 11.500000000000002 17.500000000000004 -0.5 0.91597561503675362 0.6830127018922193 -0.5 -0.9829629131445341 7.5000000000000009 0.24564445999844492 17.500000000000004 1.0000000180025095e-35 -0.5 0.47226119726395172 3.6762205501217915 6.696416582362489 0.77702391452946318 4.5000000000000009 0.34161777684922245
decision_type=2 2 2 2 2 2 2 2 2 2 2 2 2 2 2 2 2 2 2 2 2 2 2 2 2 2 2 2 2 2
left_child=1 3 10 7 5 23 15 20 25 17 -2 -6 27 -9 -12 16 26 18 19 -10 -1 28 -14 -3 -25 -8 -4 -11 -22 -5
right_child=2 4 6 29 11 -7 8 13 9 12 14 -13 22 -15 -16 -17 -18 -19 -20 -21 21 -23 -24 24 -26 -27 -28 -29 -30 -31
leaf_value=-0.0071776893781498076 0.0022360926733817912 0.0020501497238874455 0.0032267428669147179 -0.0096960150673985473 -0.001285577652044595 0.0046207591036800293 0.0063322540037333954 0.0014123878629179667 0.0046394671909511078 0.0042948519825004028 0.00014601941243745295 -2.6575710624454631e-05 0.0067269529812037931 -0.0014081887202337384 0.0012572794142179185 0.0025398816205561142 0.003039869222790001 0.006296838912181555 0.0098005648367106915 0.0088087511552730566 -0.0026065538870170715 -0.003909201105125249 0.0028025318626314385 -0.00014796228706836503 0.00082581908535212249 0.0059035128578543653 0.0014655096307396864 0.014160738488659261 -0.00081855795532465025 -0.0033321638628840441
leaf_weight=842 799 368 1135 5784 2246 246 774 593 142 783 313 1040 126 1001 922 224 596 841 845 55 619 984 46 1248 259 174 48 52 997 6577
leaf_count=842 799 368 1135 5784 2246 246 774 593 142 783 313 1040 126 1001 922 224 596 841 845 55 619 984 46 1248 259 174 48 52 997 6577
internal_value=0 -0.00742633 0.0198175 -0.00937302 -0.00116284 0.0036009 0.0231617 -0.00540111 0.0251498 0.0234689 0.0102139 -0.00423767 0.018781 -0.00111355 0.00713563 0.0193522 0.0203836 0.0259758 0.0284309 0.0174492 -0.00738669 -0.00625 0.0290698 0.00187333 0.000572329 0.0302743 0.0181424 0.0166617 -0.00430074 -0.0109912
internal_weight=0 22804 7875 17397 5407 2121 5841 5036 3838 2890 2034 3286 1007 1594 1235 2003 1779 1883 1042 197 3442 2600 172 1875 1507 948 1183 835 1616 12361
internal_count=30679 22804 7875 17397 5407 2121 5841 5036 3838 2890 2034 3286 1007 1594 1235 2003 1779 1883 1042 197 3442 2600 172 1875 1507 948 1183 835 1616 12361
is_linear=0
shrinkage=0.05


Tree=3
num_leaves=31
num_cat=0
split_feature=6 6 6 3 3 2 1 0 4 0 0 6 1 6 10 6 6 4 6 2 1 2 0 0 1 6 0 9 4 2
split_gain=1139.4 169.15 53.8216 49.0649 24.1982 19.3797 10.7759 10.4279 11.3664 12.8017 9.5373 8.03456 7.96953 7.01158 6.97143 6.47113 5.78504 5.46612 4.85569 4.84318 4.82559 4.79322 4.54565 4.62721 4.11182 3.94947 3.64545 3.61802 3.41955 3.61582
threshold=0.48593628666868816 0.42296649316919038 0.52525604972545614 -0.5 -0.5 -0.60355339059327384 13.500000000000002 1.5000000000000002 -0.5 11.500000000000002 2.5000000000000004 0.46011570200873031 15.500000000000002 0.50162215986876901 17.150000000000002 0.39859912463587499 0.32192357067153182 -0.24999999999999994 0.43820815118078238 -0.78656609248549325 16.500000000000004 0.25881904510252057 6.5000000000000009 10.500000000000002 21.500000000000004 0.6411539359914199 5.5000000000000009 47.500000000000007 -0.68301270189221952 0.60355339059327384
decision_type=2 2 2 2 2 2 2 2 2 2 2 2 2 2 2 2 2 2 2 2 2 2 2 2 2 2 2 2 2 2
left_child=1 3 13 15 18 6 -4 -7 12 10 21 -6 -9 20 -14 22 -5 -12 -3 -15 -2 -10 -1 -24 -17 -19 -16 -20 29 -13
right_child=2 4 5 16 11 7 -8 8 9 -11 17 28 14 19 26 24 -18 25 27 -21 -22 -23 23 -25 -26 -27 -28 -29 -30 -31
leaf_value=-0.0026561692626579309 0.00081825207732035834 0.00014216300919652204 0.0016989171262132008 -0.0079888244660571203 -0.00072923780244891633 0.0052737505708821113 0.0054125160742289138 0.0040566667972132568 0.0030349083857610817 0.005026165570877492 0.0010052155057375764 -8.6604847837590268e-05 0.0038962837222963568 0.00081442592099774673 0.0019865754249505682 0.0007796151747403203 -0.002982561959698796 0.0036112851034151407 -0.00023838186252396338 0.0026465212188049904 0.001998347066738643 0.0049277374844707081 0.00050754184906836729 -0.0022296713204181281 -0.0017768446339759963 0.0064538655793759947 0.0080564013747032731 0.0014114587711577761 1.3959048659307333e-05 0.0017609891718486316
leaf_weight=1405 572 584 268 6349 2651 643 443 336 148 488 131 147 286 108 20 781 6904 688 170 1173 539 283 626 356 145 254 1086 1927 891 214
leaf_count=1405 572 584 268 6349 2651 643 443 336 148 488 131 147 286 108 20 781 6904 688 170 1173 539 283 626 356 145 254 1086 1927 891 214
internal_value=0 -0.00589093 0.0165718 -0.00858536 0.000888518 0.0194866 0.0118319 0.020734 0.0197177 0.0171436 0.0148604 -0.00162375 0.0226852 0.0103888 0.0243534 -0.00314292 -0.00994586 0.0123369 0.00454588 0.0129098 0.007482 0.0211427 -0.00451927 -0.00190937 0.000404968 0.0136677 0.0261528 0.00566881 0.00167732 0.00578255
internal_weight=0 23150 7466 16566 6584 5074 711 4363 3720 1992 1504 3903 1728 2392 1392 3313 13253 1073 2681 1281 1111 431 2387 982 926 942 1106 2097 1252 361
internal_count=30616 23150 7466 16566 6584 5074 711 4363 3720 1992 1504 3903 1728 2392 1392 3313 13253 1073 2681 1281 1111 431 2387 982 926 942 1106 2097 1252 361
is_linear=0
shrinkage=0.05


Tree=4
num_leaves=31
num_cat=0
split_feature=3 8 0 0 4 0 0 0 4 1 0 8 10 0 9 9 4 0 8 0 8 10 10 1 0 0 8 8 9 0
split_gain=369.823 102.815 54.6297 40.7653 30.8874 66.0118 34.9709 17.7457 17.1635 12.7195 10.3253 9.98808 9.68868 8.21303 7.97596 7.17329 6.85554 7.50172 6.62212 5.93765 5.86379 5.39385 5.30181 4.90359 4.87486 4.17392 3.94476 3.78403 3.75985 3.58407
threshold=-0.5 2.0126758453675748 2.5000000000000004 11.500000000000002 -0.5 6.5000000000000009 1.5000000000000002 11.500000000000002 -0.5 13.500000000000002 2.5000000000000004 5.5274410133216048 17.350000000000005 5.5000000000000009 64.500000000000014 42.500000000000007 -0.68301270189221952 2.5000000000000004 5.5073599362801708 5.5000000000000009 4.0859410030639109 10.300000000000002 11.550000000000002 22.500000000000004 6.5000000000000009 2.5000000000000004 5.6987685299480466 3.5408542930527878 75.500000000000014 9.5000000000000018
decision_type=2 2 2 2 2 2 2 2 2 2 2 2 2 2 2 2 2 2 2 2 2 2 2 2 2 2 2 2 2 2
left_child=4 2 22 8 5 19 -6 10 23 11 14 25 20 -11 -8 -14 24 -18 -7 -1 -12 -10 -2 -4 -13 27 -17 -3 -25 -23
right_child=1 9 3 -5 6 18 7 -9 21 13 12 16 15 -15 -16 26 17 -19 -20 -21 -22 29 -24 28 -26 -27 -28 -29 -30 -31
leaf_value=0.00034129511615959841 0.0012777840140601627 0.0025036352384631786 -0.00038603503575468379 0.0015586329642535549 0.0038149615455744788 0.0060171011351959867 -0.00010520922689698509 0.0024794886142609908 0.00047992254919161859 -0.0037502885545231375 0.00014577313245361519 -0.0058878299883659922 -0.00088009861876893339 0.0003089497379865525 0.0028560995508664189 0.0023144922049162424 -0.003513399007010011 -0.0049306389343552279 0.0040645391206300691 0.0025690534765692415 -0.0030396087346846964 -0.0010394721820889408 0.0034021656049476601 -0.001097962844453286 -0.0018567170884172099 -0.0018349715619752516 -0.0048856999904876991 -0.0012304181647114444 0.0010728320206084732 -0.0017796447083796359
leaf_weight=856 693 89 1301 785 877 1463 208 873 191 532 2389 1564 123 728 585 1447 1050 4835 201 862 275 1584 724 98 817 2827 29 564 753 1219
leaf_count=856 693 89 1301 785 877 1463 208 873 191 532 2389 1564 123 728 585 1447 1050 4835 201 862 275 1584 724 98 817 2827 29 564 753 1219
internal_value=0 -0.00452368 0.000204137 -0.00190314 0.00714566 0.0110512 0.00520497 0.00382653 -0.00352215 -0.00719476 0.00268987 -0.00770688 0.00171534 -0.00242063 0.00792875 0.00479206 -0.00865292 -0.00956882 0.018149 0.00417637 -0.000131381 -0.00597027 0.00902435 -0.000116171 -0.00638912 -0.00545977 0.00575881 -0.00185681 0.0028349 -0.00652426
internal_weight=0 20354 7348 5931 10188 3382 6806 5929 5146 13006 5056 11746 4263 1260 793 1599 8266 5885 1664 1718 2664 2994 1417 2152 2381 3480 1476 653 851 2803
internal_count=30542 20354 7348 5931 10188 3382 6806 5929 5146 13006 5056 11746 4263 1260 793 1599 8266 5885 1664 1718 2664 2994 1417 2152 2381 3480 1476 653 851 2803
is_linear=0
shrinkage=0.05


Tree=5
num_leaves=31
num_cat=0
split_feature=7 7 7 3 3 4 3 8 7 7 7 3 7 1 7 4 3 4 7 1 7 4 7 1 5 4 5 2 5 2
split_gain=1540.93 113.949 100.105 36.3139 24.5688 13.3882 14.1584 11.0988 10.7413 8.32912 8.29534 8.88268 8.15522 6.24366 5.92095 5.72797 15.3266 7.82189 5.57658 5.43632 5.05405 5.04412 5.3562 4.94762 3.96937 3.80876 5.06403 5.7056 3.33547 3.14194
threshold=0.4814974724235912 0.43219678734492123 0.52096676477506865 -0.37940952255126059 -0.37940952255126059 0.6830127018922193 -0.60355339059327362 3.7256208424938384 0.39461923727085829 0.57885425200106189 0.50607477570066572 -0.60355339059327362 0.44723351146754903 17.500000000000004 0.77702391452946318 -0.5 -0.9829629131445341 -0.68301270189221952 0.24157957740895988 4.5000000000000009 0.30486825714971627 -0.5 0.46664252841437909 17.500000000000004 -0.24999999999999997 0.25000000000000017 0.68301270189221941 0.25881904510252057 1.0000000180025095e-35 -0.70710678118654757
decision_type=2 2 2 2 2 2 2 2 2 2 2 2 2 2 2 2 2 2 2 2 2 2 2 2 2 2 2 2 2 2
left_child=1 3 10 8 7 6 15 21 18 19 11 -2 -6 -10 25 16 17 -4 -1 -7 -5 28 -23 -20 -21 -8 -27 -28 -3 -13
right_child=2 4 5 20 12 9 14 -9 13 -11 -12 29 -14 -15 -16 -17 -18 -19 23 24 -22 22 -24 -25 -26 26 27 -29 -30 -31
leaf_value=-0.0070031318453423865 0.0021014136336879956 0.0037823033547472297 0.0031742284568470058 -0.0098883122629993582 -0.0014694805015844888 0.0036160655223527183 0.0036391044353635913 0.0038132894958393701 0.0007932189840269805 0.0062469861901465751 0.0023086282515779391 0.0026215267693944378 -0.00024896253736205327 -0.0015701140325894232 0.014095286473799068 0.0048617115873987289 0.0084169506403129653 0.0074367950899678851 -0.0015237751269089391 0.0021716456946134131 -0.0030426108212453537 -0.00027318561396793699 0.00070648934208309908 -0.0035338036050812623 0.0029621157199820752 0.001666169102901434 0.0043958013879779566 0.0050169305153994316 0.00086322829469766347 0.00068531675538049952
leaf_weight=812 659 156 176 4742 1300 142 1325 229 544 792 849 110 1895 886 85 798 837 52 1737 93 7652 998 511 1113 569 59 99 225 219 928
leaf_count=812 659 156 176 4742 1300 142 1325 229 544 792 849 110 1895 886 85 798 837 52 1737 93 7652 998 511 1113 569 59 99 225 219 928
internal_value=0 -0.00729249 0.0184567 -0.00924025 -0.000876036 0.022401 0.020733 0.00330691 -0.00568539 0.0262218 0.0103201 0.00830141 -0.00364241 -0.00201049 0.0175613 0.0237856 0.0261854 0.014693 -0.00712043 0.0226368 -0.0107007 0.00204352 0.00075381 -0.00607895 0.0207326 0.0169204 0.021312 0.0237654 0.00723333 0.00541908
internal_weight=0 22794 7798 17486 5308 5252 3656 2113 5092 1596 2546 1697 3195 1430 1793 1863 1065 228 3662 804 12394 1884 1509 2850 662 1708 383 324 375 1038
internal_count=30592 22794 7798 17486 5308 5252 3656 2113 5092 1596 2546 1697 3195 1430 1793 1863 1065 228 3662 804 12394 1884 1509 2850 662 1708 383 324 375 1038
is_linear=0
shrinkage=0.05


Tree=6
num_leaves=31
num_cat=0
split_feature=6 6 6 1 8 0 0 0 6 6 1 0 5 0 10 8 0 2 1 0 1 1 6 8 0 5 8 6 6 5
split_gain=952.876 102.847 90.3956 29.7911 16.0407 17.2448 15.8773 16.2478 11.589 11.3807 10.0374 9.50942 9.40349 12.7154 8.42061 6.76679 5.80778 6.10483 5.65953 5.64272 5.02697 4.83858 4.68646 4.54168 4.18846 3.97746 3.80211 3.6949 3.58466 3.1783
threshold=0.46773561460820662 0.52525604972545614 0.42296649316919038 13.500000000000002 4.8789996228937618 5.5000000000000009 2.5000000000000004 4.5000000000000009 0.62295103976927357 0.49108221369415739 21.500000000000004 6.5000000000000009 -0.5 9.5000000000000018 12.750000000000002 5.5965666693001079 6.5000000000000009 -0.12940952255126034 14.500000000000002 2.5000000000000004 22.500000000000004 13.500000000000002 0.55743943049904099 4.0342014792848504 8.5000000000000018 0.93301270189221952 3.2384861814448418 0.3695425261396707 0.63515658283920862 -0.5
decision_type=2 2 2 2 2 2 2 2 2 2 2 2 2 2 2 2 2 2 2 2 2 2 2 2 2 2 2 2 2 2
left_child=2 9 3 19 6 -6 22 -8 -7 21 11 23 13 -9 -15 -11 17 -14 29 27 -20 -2 -3 -5 -10 -23 -24 -1 -18 -4
right_child=1 4 18 10 5 8 7 12 24 15 -12 -13 16 14 -16 -17 28 -19 20 -21 -22 25 26 -25 -26 -27 -28 -29 -30 -31
leaf_value=-0.004447710693035122 0.00013055963403500807 0.0031318570102595424 -0.0010514561853027259 -0.0013947024405154302 0.00044241403432151858 0.003176220679897486 0.001655627710294383 0.0066075160507068301 0.0094332711222711758 0.0019283957579100425 -0.0025595792676217522 -0.00038411948622027182 0.0065443719225605108 0.006079814115768134 0.0016488669413759372 0.00067653507737077128 0.0039766510865645961 0.0031561443350772004 0.00055825947022221519 -0.0039655471206077129 -0.00058085995617324917 0.0015328686208510107 0.0052353398807597545 -0.0039009496638919973 0.0058494897685815095 -0.00020257103054786287 0.0045145613341368964 -0.0013194081593217611 0.0077569169374008375 -0.00019863527615370804
leaf_weight=973 747 322 925 992 262 401 353 776 195 1801 1494 1621 90 36 351 236 791 387 1843 9880 592 1103 684 1039 45 174 66 487 256 1551
leaf_count=973 747 322 925 992 262 401 353 776 195 1801 1494 1621 90 36 351 236 791 387 1843 9880 592 1103 684 1039 45 174 66 487 256 1551
internal_value=0 0.0127204 -0.00661366 -0.00838742 0.01751 0.0114756 0.0188351 0.0169901 0.0158931 0.00680559 -0.00523222 -0.00381982 0.018315 0.0149291 0.00752584 0.00944404 0.020899 0.016326 -0.000659234 -0.00981922 0.00105236 0.0041502 0.0240672 -0.00609921 0.0245833 0.00601997 0.0262333 -0.00691781 0.0229823 -0.00234249
internal_weight=0 9076 21397 16486 5015 903 4112 3040 641 4061 5146 3652 2687 1163 387 2037 1524 477 4911 11340 2435 2024 1072 2031 240 1277 750 1460 1047 2476
internal_count=30473 9076 21397 16486 5015 903 4112 3040 641 4061 5146 3652 2687 1163 387 2037 1524 477 4911 11340 2435 2024 1072 2031 240 1277 750 1460 1047 2476
is_linear=0
shrinkage=0.05


Tree=7
num_leaves=31
num_cat=0
split_feature=7 6 6 7 7 7 6 6 7 2 3 7 7 10 1 2 7 7 10 7 4 3 4 7 2 3 7 6 7 7
split_gain=1399.97 129.76 125.725 36.8986 26.1981 25.4058 21.0359 14.6908 14.4656 10.5069 10.1051 7.25053 7.17825 6.73381 6.42518 5.42507 4.79523 4.78844 4.56556 4.46429 4.44051 6.11233 4.21862 4.1466 4.05899 3.98801 3.98131 3.94361 5.32851 3.65605
threshold=0.4814974724235912 0.50162215986876901 0.43820815118078238 0.54871617320634813 0.50793303038982252 0.42877002622639032 0.5186281314763872 0.41872241822703199 0.39461923727085829 -0.5 -0.37940952255126059 0.45194459611219523 0.50607477570066572 19.900000000000002 8.5000000000000018 -0.70710678118654757 0.52997902742696146 0.4678073755225956 21.500000000000004 0.26845097336723128 0.6830127018922193 -0.12940952255126048 -0.68301270189221952 0.40430940860364778 -0.12940952255126034 -0.37940952255126059 0.4081934353256656 0.38033275956779744 0.64950052705559536 0.60699495501663581
decision_type=2 2 2 2 2 2 2 2 2 2 2 2 2 2 2 2 2 2 2 2 2 2 2 2 2 2 2 2 2 2
left_child=2 4 5 12 15 10 11 9 19 18 23 25 -3 22 -7 -2 -9 -16 -6 -8 21 29 -10 -1 -13 -4 -15 28 -11 -5
right_child=1 3 6 20 7 14 8 16 13 27 -12 24 -14 26 17 -17 -18 -19 -20 -21 -22 -23 -24 -25 -26 -27 -28 -29 -30 -31
leaf_value=-0.0034431830447020275 0.0020006738181463659 0.0026034003790624816 -0.00056684765925646148 0.0046574823745978546 0.0046748161195351093 -0.001403157819475212 -0.0056557154221128173 0.0011548753149091763 0.0029949645446345238 -0.0006121201504030616 -0.0040274341409368003 0.0012197711881115946 0.0033054171897749507 -0.00057412646693186242 -0.0007587263588479734 0.00045258181550860354 0.0040711282609600732 0.00082728233601103848 0.0014176192324261462 -0.00045225632572521438 0.0053454155748257548 0.0045876548350177807 0.00084658513423525601 -0.0013009126029356333 -0.00018138771950767935 -0.0013669634786966035 0.004984337399429448 0.002140033157567714 0.0086414528395279324 0.0096229646691112832
leaf_weight=2775 137 546 1364 519 203 986 126 456 254 248 11070 201 974 24 877 1067 1247 222 47 560 782 395 852 470 1181 1592 166 404 51 691
leaf_count=2775 137 546 1364 519 203 986 126 456 254 248 11070 201 974 24 877 1067 1247 222 47 560 782 395 852 470 1181 1592 166 404 51 691
internal_value=0 0.0173957 -0.0071941 0.0238194 0.0108938 -0.00950305 -0.00120253 0.0136672 0.00306509 0.00869622 -0.0102541 -0.00315237 0.0177303 0.00617284 -0.00434652 0.00477575 0.0164489 -0.00171747 0.0175 -0.00280612 0.0276969 0.0261916 0.00467902 -0.00780046 -0.000162808 -0.00455007 0.0148684 0.00556543 0.00121237 0.0279545
internal_weight=0 7767 22720 3907 3860 16400 6320 2656 1982 953 14315 4338 1520 1296 2085 1204 1703 1099 250 686 2387 1605 1106 3245 1382 2956 190 703 299 1210
internal_count=30487 7767 22720 3907 3860 16400 6320 2656 1982 953 14315 4338 1520 1296 2085 1204 1703 1099 250 686 2387 1605 1106 3245 1382 2956 190 703 299 1210
is_linear=0
shrinkage=0.05


Tree=8
num_leaves=31
num_cat=0
split_feature=7 6 6 7 7 6 7 7 3 6 7 7 7 7 5 7 7 4 8 3 3 4 8 8 5 7 6 0 5 7
split_gain=1261.89 124.57 120.19 41.6893 25.1138 24.2602 22.7934 14.6199 12.8226 12.6932 7.22607 5.79126 5.65455 5.61094 6.99342 5.16739 4.72122 4.57099 4.28794 4.31094 4.21658 4.16234 4.07475 4.06665 4.03262 3.71048 3.68855 3.68158 3.33257 3.04075
threshold=0.4814974724235912 0.50162215986876901 0.43820815118078238 0.54871617320634813 0.50998638647765271 0.52091241958869483 0.43739151988254438 0.39461923727085829 -0.37940952255126059 0.41872241822703199 0.50607477570066572 0.53783909341244673 0.36777420662095411 0.57565143639564564 -0.5 0.70672976718006286 0.26845097336723128 -0.5 4.9015572891946713 -0.5 -0.37940952255126059 0.6830127018922193 4.6200466650627661 6.6444403513266588 -0.24999999999999997 0.46169243539383104 0.44254632083147871 5.5000000000000009 0.93301270189221952 0.22925412576224857
decision_type=2 2 2 2 2 2 2 2 2 2 2 2 2 2 2 2 2 2 2 2 2 2 2 2 2 2 2 2 2 2
left_child=2 4 6 10 -2 12 8 16 24 15 -3 26 -4 14 -5 18 -7 -9 19 -6 22 -20 -14 -22 -1 -8 -11 -18 -15 -10
right_child=1 3 5 13 9 7 25 17 29 11 -12 -13 20 28 -16 -17 27 -19 21 -21 23 -23 -24 -25 -26 -27 -28 -29 -30 -31
leaf_value=-0.0020449162813268537 0.00072383191789247023 0.0023791813015376084 -0.0028151101305608725 0.0030361375968958717 0.0023997822035925587 -0.0052666732975813401 -0.0011511518910284804 0.0037125301263490427 -0.011008327652458886 0.00096496389054347988 0.0027456966983399837 0.0043081094998561635 -0.00028489224338293167 0.0061452983437388642 0.0032869497217244527 0.0080943354582967367 -0.0012665755405793636 0.0012548078803399693 0.0024501781487917015 -0.00035040079681114837 -0.00058567762536144291 0.0036404397983311508 0.0016602663963786763 0.0029195655975459648 -0.0029882857409356321 -8.6432510114362049e-05 0.0013024414468142315 0.0012134520449290033 0.0045131566701783242 -0.0030980505662316577
leaf_weight=1189 1300 518 647 97 365 126 1097 431 2926 124 981 1079 1461 1739 444 64 214 825 226 198 2041 86 167 39 2163 557 398 340 53 8517
leaf_count=1189 1300 518 647 97 365 126 1097 431 2926 124 981 1079 1461 1739 444 64 214 825 226 198 2041 86 167 39 2163 557 398 340 53 8517
internal_value=0 0.0162474 -0.00720317 0.0226253 0.00988281 -0.00132531 -0.00945118 0.00333161 -0.0100735 0.0127756 0.0161191 0.0154825 -0.00339552 0.0268056 0.0223429 0.00816028 -0.00257353 0.00652866 0.00715714 0.00455151 -0.00264293 0.011859 -0.000737101 -0.00413462 -0.00735382 -0.00388452 0.011159 -0.000586643 0.0281529 -0.0108702
internal_weight=0 7672 22740 3832 3840 6291 16449 1936 14795 2540 1499 1601 4355 2333 541 939 680 1256 875 563 3708 312 1628 2080 3352 1654 522 554 1792 11443
internal_count=30412 7672 22740 3832 3840 6291 16449 1936 14795 2540 1499 1601 4355 2333 541 939 680 1256 875 563 3708 312 1628 2080 3352 1654 522 554 1792 11443
is_linear=0
shrinkage=0.05


Tree=9
num_leaves=31
num_cat=0
split_feature=7 6 6 7 7 7 7 6 3 3 7 6 6 7 1 0 7 6 1 7 3 5 7 7 1 5 6 0 0 3
split_gain=1219.6 117.858 105.275 37.0922 29.2712 17.4876 16.2352 12.8244 11.8448 11.3296 11.2222 10.5726 6.25586 6.36093 6.31156 5.0391 4.86373 4.67217 4.48067 4.07698 3.79241 3.4453 3.28547 3.27349 3.23792 3.23596 3.48515 3.16283 3.13015 3.09843
threshold=0.48310515909166246 0.44333409265078644 0.4960752376260017 0.52535744034961063 0.44340784617414186 0.52096676477506865 0.46021526379199201 0.41692876503098059 -0.37940952255126059 -0.37940952255126059 0.57565143639564564 0.54870532138611383 0.49267404185748792 0.29633733502939713 17.500000000000004 2.5000000000000004 0.339230536217003 0.54322138601739123 20.500000000000004 0.81632706295631363 -0.9829629131445341 -0.24999999999999997 0.38883872155538518 0.46169243539383104 6.5000000000000009 -0.5 0.54322138601739123 8.5000000000000018 3.5000000000000004 0.91597561503675362
decision_type=2 2 2 2 2 2 2 2 2 2 2 2 2 2 2 2 2 2 2 2 2 2 2 2 2 2 2 2 2 2
left_child=1 4 5 17 9 -2 8 18 12 21 25 -8 -3 -14 -15 -9 -11 -4 24 20 27 -1 -16 -6 -7 -5 -27 -17 -26 -12
right_child=2 6 3 10 23 7 11 15 -10 16 29 -13 13 14 22 19 -18 -19 -20 -21 -22 -23 -24 -25 28 26 -28 -29 -30 -31
leaf_value=-0.001942684995860379 0.000877096254364769 -0.000671163871386557 0.0011755943831833759 0.0037525604462695082 -0.00091695444047869843 0.00087505237520019716 0.00022519021952591145 0.003996468792975297 -0.0011462247730172181 -0.0077318788376048693 0.0062496205057398536 0.003150055992183199 -0.0033053550426959408 0.0019444132229126763 -0.0021522563789786483 9.5069342894028852e-05 -0.0021498426094082798 0.0035818591802237068 0.00021536894975899141 0.013857468678276093 0.0032743552566940008 -0.0027914481025096624 0.00063379502329036501 -1.0048432850101596e-05 0.0048194813534035291 0.0019486198649668581 0.0033284825650982844 0.0053711905060934654 0.0028883785816022378 0.0034646050434394477
leaf_weight=1326 1478 1045 420 215 847 130 1110 281 2040 5356 1745 281 121 619 144 89 6511 553 155 33 914 2282 480 692 135 378 549 32 379 122
leaf_count=1326 1478 1045 420 215 847 130 1110 281 2040 5356 1745 281 121 619 144 89 6511 553 155 33 914 2282 480 692 135 378 549 32 379 122
internal_value=0 -0.00709613 0.016016 0.0216286 -0.00919978 0.00985245 -0.000967466 0.0127328 -0.00244156 -0.0098538 0.0243727 0.0037473 -6.74554e-05 0.00216276 0.00322808 0.0157061 -0.0105998 0.0131423 0.00771277 0.0141386 0.013587 -0.00740022 -0.000320513 -0.00262346 0.00954969 0.0204685 0.0217503 0.0052686 0.0113327 0.0267608
internal_weight=0 22854 7608 3982 17014 3626 5840 2148 4449 15475 3009 1391 2409 1364 1243 1349 11867 973 799 1068 1035 3608 624 1539 644 1142 927 121 514 1867
internal_count=30462 22854 7608 3982 17014 3626 5840 2148 4449 15475 3009 1391 2409 1364 1243 1349 11867 973 799 1068 1035 3608 624 1539 644 1142 927 121 514 1867
is_linear=0
shrinkage=0.05


Tree=10
num_leaves=31
num_cat=0
split_feature=7 7 6 6 6 7 6 6 7 7 7 7 6 7 6 7 0 7 8 0 7 7 0 6 10 5 0 8 4 9
split_gain=1085.84 125.775 95.517 51.2707 25.2829 18.3261 12.1399 11.5526 10.2876 9.45444 8.98188 6.99549 5.90114 5.20849 4.97537 3.83669 3.82953 3.80278 3.71331 3.66958 3.40375 3.27077 3.18628 3.12124 3.67942 2.96352 2.77952 2.75175 2.89944 2.73272
threshold=0.46997782923109926 0.53239229724155124 0.43820815118078238 0.49448385607475848 0.53515806726443904 0.38433264931776018 0.41872241822703199 0.55123992275056999 0.50395704841884625 0.57565143639564564 0.44001890380816006 0.44531071940015826 0.44523773162152386 0.27986520233748818 0.62295103976927357 0.77702391452946318 8.5000000000000018 0.70672976718006286 1.0000000180025095e-35 2.5000000000000004 0.3852179108753947 0.23345933261092369 2.5000000000000004 0.47454455194601286 18.950000000000003 -0.5 3.5000000000000004 1.4978661367769959 0.6830127018922193 43.500000000000007
decision_type=2 2 2 2 2 2 2 2 2 2 2 2 2 2 2 2 2 2 2 2 2 2 2 2 2 2 2 2 2 2
left_child=2 4 5 6 8 21 17 13 -2 25 20 -7 -10 -4 19 22 -6 27 -12 -11 -9 -1 -8 24 -15 -5 -20 -3 -29 -26
right_child=1 3 7 9 16 11 15 10 12 14 18 -13 -14 23 -16 -17 -18 -19 26 -21 -22 -23 -24 -25 29 -27 -28 28 -30 -31
leaf_value=-0.0090855480305228713 0.00045387126629339858 0.0013121881479030097 -0.0045160002633117952 0.0037029172151792746 0.0034616098435896916 -0.0016348165008225656 0.0034810977047401354 -0.0015448303013817972 0.00091227202816944464 0.0041268331077631481 0.0022707099228031296 -0.00062324674577966257 0.001272267722309546 -0.00070744406903271726 0.0081463168336939114 0.013147845468881937 0.001870473720591001 0.0074052378624996518 0.0010922847872629024 0.0046590169573268395 0.0010762506234749253 -0.003652589189314135 0.0035876010338983383 -0.00020875890790422182 -0.0017046832591218102 0.0027752815258272252 0.0052949162369944434 0.0022294160481272532 0.0035867121091332195 0.00097845519906356103
leaf_weight=3642 2110 374 268 190 648 4407 225 392 477 343 231 846 669 2086 675 56 261 63 26 886 480 7233 801 1766 29 766 82 216 82 227
leaf_count=3642 2110 374 268 190 648 4407 225 392 477 343 231 846 669 2086 675 56 261 63 26 886 480 7233 801 1766 29 766 82 216 82 227
internal_value=0 0.0133991 -0.00738602 0.0190266 0.00707983 -0.0093378 0.0124587 -0.00175183 0.0050215 0.0231993 0.00257019 -0.00691272 0.00883508 -0.0029479 0.0252363 0.0158272 0.0144527 0.0075 0.0094764 0.0233421 -0.000114679 -0.0105092 0.0151316 -0.0025073 -0.0037041 0.0191423 0.0171296 0.00639881 0.00998322 0.00195312
internal_weight=0 8842 21715 4677 4165 16128 1817 5587 3256 2860 1211 5253 1146 4376 1904 1082 909 735 339 1229 872 10875 1026 4108 2342 956 108 672 298 256
internal_count=30557 8842 21715 4677 4165 16128 1817 5587 3256 2860 1211 5253 1146 4376 1904 1082 909 735 339 1229 872 10875 1026 4108 2342 956 108 672 298 256
is_linear=0
shrinkage=0.05


Tree=11
num_leaves=31
num_cat=0
split_feature=6 6 6 3 6 3 8 5 6 5 4 4 8 4 3 5 4 1 4 6 6 6 10 6 4 10 1 6 8 3
split_gain=653.42 90.7756 76.2805 15.2299 13.5657 13.512 12.9872 9.07431 8.94423 7.07752 14.1663 6.60252 6.5455 7.19303 6.5379 6.03826 4.82967 4.36871 4.30758 4.22245 4.05174 3.56621 3.48671 3.44809 3.00713 3.27097 3.00233 4.05649 2.99525 2.73597
threshold=0.46011570200873031 0.53227172118141219 0.38832760695777985 -0.60355339059327362 0.42412027049836282 -0.37940952255126059 5.5392989060884821 0.68301270189221941 0.4960752376260017 -0.5 -0.24999999999999994 -0.68301270189221952 3.5408542930527878 0.25000000000000017 -0.60355339059327362 -0.24999999999999997 -0.9330127018922193 3.5000000000000004 -0.5 0.59058765741906061 0.40426863928743112 0.59058765741906061 9.1500000000000021 0.24153831060531733 0.25000000000000017 12.100000000000001 13.500000000000002 0.59835491189898893 5.6149496020273224 -0.12940952255126048
decision_type=2 2 2 2 2 2 2 2 2 2 2 2 2 2 2 2 2 2 2 2 2 2 2 2 2 2 2 2 2 2
left_child=2 8 5 20 -5 15 7 9 18 10 17 19 13 -9 21 -1 -16 -3 -2 -8 -4 -11 -10 -7 29 -26 -13 -28 -24 -12
right_child=1 6 3 4 -6 23 11 12 22 14 24 26 -14 -15 16 -17 -18 -19 -20 -21 -22 -23 28 -25 25 -27 27 -29 -30 -31
leaf_value=-0.0010109128367824954 0.0010262220796132982 0.00088037421252379908 -0.00076565622872829258 -0.0014345409693456539 -0.0003615992640158078 -0.008058333509753152 0.0018899239307755334 0.0013171437957172378 0.0020574564283383167 0.0031919499920592593 0.0049084440012978348 -0.00040983563116957222 -0.00069918881405742835 0.0029309898631756691 0.0017471042958167678 -0.0029669828933594437 0.0027382818103018182 0.0073009629089306975 0.00027401588833070453 0.0064869456970516109 0.00043104134152111565 0.0053556376057661949 0.0014703450889193836 -0.0032409280791673555 0.0043880139168636827 0.0015467163513828716 -0.00041168367817470827 0.0058594268383900423 0.00054138782206515981 0.00058948470950868784
leaf_weight=803 936 27 696 2507 2868 3739 129 273 68 534 296 175 89 393 110 1668 840 456 2163 147 1840 636 1758 6487 29 347 34 44 217 55
leaf_count=803 936 27 696 2507 2868 3739 129 273 68 534 296 175 89 393 110 1668 840 456 2163 147 1840 636 1758 6487 29 347 34 44 217 55
internal_value=0 0.00925072 -0.00645623 -0.00260239 -0.0041093 -0.00885741 0.0143422 0.0152968 0.00468203 0.0164189 0.0133678 0.0069707 0.0103477 0.0120495 0.0181604 -0.00553926 0.0150789 0.0200052 0.00298887 0.0123188 0.000591483 0.0206624 0.00725037 -0.0096592 0.00895805 0.00585106 0.00113636 0.00929487 0.00686709 0.0122863
internal_weight=0 9756 20608 7911 5375 12697 4614 4085 5142 3330 1210 529 755 666 2120 2471 950 483 3099 276 2536 1170 2043 10226 727 376 253 78 1975 351
internal_count=30364 9756 20608 7911 5375 12697 4614 4085 5142 3330 1210 529 755 666 2120 2471 950 483 3099 276 2536 1170 2043 10226 727 376 253 78 1975 351
is_linear=0
shrinkage=0.05


Tree=12
num_leaves=31
num_cat=0
split_feature=7 7 7 7 2 0 7 2 7 2 7 2 2 7 2 7 7 8 2 8 8 4 0 7 2 8 0 4 8 8
split_gain=983.588 106.548 71.9566 17.9488 17.3269 14.6447 11.8841 8.47548 7.54759 8.62638 7.23213 6.14769 5.13769 5.03303 4.57412 5.33833 4.50225 4.41257 4.34776 4.25762 3.82832 4.20142 3.71258 3.65309 3.51926 3.37588 3.35676 3.75405 3.26274 4.67795
threshold=0.4814974724235912 0.42993750483365162 0.54871617320634813 0.38258790910087254 -0.5 1.5000000000000002 0.50793303038982252 0.78656609248549303 0.24564445999844492 -0.5 0.60699495501663581 -0.12940952255126034 -0.5 0.46021526379199201 -0.5 0.77702391452946318 0.60261570248812701 6.4838712935462262 -0.70710678118654757 5.5392989060884821 4.8322978221268906 -0.68301270189221952 11.500000000000002 0.44723351146754903 -0.5 5.1676349844808334 2.5000000000000004 -0.5 4.1971736807086968 6.0991966170931535
decision_type=2 2 2 2 2 2 2 2 2 2 2 2 2 2 2 2 2 2 2 2 2 2 2 2 2 2 2 2 2 2
left_child=1 3 6 8 28 16 18 23 -1 19 22 20 17 -9 -12 25 -4 -8 -2 -10 21 -5 26 -6 -22 -16 -7 -28 -3 -30
right_child=2 4 5 11 7 10 12 13 9 -11 14 -13 -14 -15 15 -17 -18 -19 -20 -21 24 -23 -24 -25 -26 -27 27 -29 29 -31
leaf_value=-0.007907312835924038 0.0022425530053399381 0.00046325718019546853 0.0026045909972510217 0.0019523977925250278 -0.00059440148690960155 0.0029095322038451376 0.0037879784550404862 -0.0010138058236775342 -0.0012974105356454047 -0.0034422245389124683 0.00812428905605154 -0.0016160271071183744 0.0015266118363642389 -8.8499778228295914e-05 0.0048318868687610601 0.011813979314520509 0.0063184786644295389 0.0018331534578944183 0.00094806908100985026 -0.0030815302629826377 -0.00082517984720470732 -0.00053506950292976088 0.0028212321365792743 0.00023709981784951484 -0.0027004969754884952 0.003193342670957733 0.0034245072724502531 0.0022816959713373264 0.0025350970613324227 0.00087924319288972962
leaf_weight=4217 186 259 300 39 1161 223 275 1094 946 4523 257 3458 1692 597 1230 193 278 64 1588 2392 806 459 231 1876 390 64 678 429 271 229
leaf_count=4217 186 259 300 39 1161 223 275 1094 946 4523 257 3458 1692 597 1230 193 278 64 1588 2392 806 459 231 1876 390 64 678 429 271 229
internal_value=0 -0.00674 0.0139503 -0.00867237 -0.000672043 0.0187387 0.00906373 -0.0017978 -0.00972636 -0.0088109 0.0174546 -0.00620148 0.0116753 -0.00463483 0.0196674 0.0186029 0.0260813 0.0172935 0.00607384 -0.00688286 -0.00373377 -5.02008e-05 0.0149824 -0.000218143 -0.00526756 0.0174459 0.0139662 0.0128388 0.00634058 0.0087
internal_weight=0 22717 7688 17230 5487 3883 3805 4728 12078 7861 3305 5152 2031 1691 1744 1487 578 339 1774 3338 1694 498 1561 3037 1196 1294 1330 1107 759 500
internal_count=30405 22717 7688 17230 5487 3883 3805 4728 12078 7861 3305 5152 2031 1691 1744 1487 578 339 1774 3338 1694 498 1561 3037 1196 1294 1330 1107 759 500
is_linear=0
shrinkage=0.05


Tree=13
num_leaves=31
num_cat=0
split_feature=7 7 6 6 7 6 3 6 6 3 8 7 3 6 0 0 7 1 4 8 7 6 3 6 0 0 3 7 7 8
split_gain=885.144 97.3504 93.0073 39.6451 22.9083 14.2043 13.7614 11.3201 7.5137 7.41502 8.46727 6.66549 6.30961 5.94338 5.94281 5.46134 5.10757 7.77447 4.56904 4.38781 4.37958 7.28214 4.36172 4.34035 4.25194 4.08399 3.63257 3.48451 3.40786 3.3195
threshold=0.47348351043093745 0.52997902742696146 0.43820815118078238 0.54322138601739123 0.39461923727085829 0.53515806726443904 -0.37940952255126059 0.41959680810033412 0.47840031291813262 -0.12940952255126048 3.6762205501217915 0.49989898910449809 -0.37940952255126059 0.70695303259335296 2.5000000000000004 2.5000000000000004 0.26452510379877664 17.500000000000004 -0.68301270189221952 5.1149908003866509 0.44835811828054495 0.54035340289137135 0.91597561503675362 0.44077256321851538 2.5000000000000004 11.500000000000002 -0.78656609248549292 0.38883872155538518 0.5544848865078944 1.0000000180025095e-35
decision_type=2 2 2 2 2 2 2 2 2 2 2 2 2 2 2 2 2 2 2 2 2 2 2 2 2 2 2 2 2 2
left_child=2 5 4 7 12 11 8 24 -4 10 -6 -2 -1 14 28 22 -10 18 19 -18 -8 -22 -9 -13 -3 26 -16 -19 -5 -7
right_child=1 3 6 13 9 29 20 15 16 -11 -12 23 -14 -15 25 -17 17 27 -20 -21 21 -23 -24 -25 -26 -27 -28 -29 -30 -31
leaf_value=-0.0027532804121855495 0.00036998601839039055 0.003807502034963323 -0.00041265782805668537 0.0023933181454127818 -0.0010674769309509419 0.0020001435033196514 -0.0011630426667866318 0.0033981038539472432 -0.0034068778056978999 -0.0012901405735521552 0.0013555630086994259 0.0006699902005492947 -0.0035528308206541868 0.0089590237633102535 0.0047069142672988944 0.0031223908468956899 0.003167571662280667 -0.0024675541598932929 0.0013855106253274102 0.0025045211977365329 -0.00035461385599701024 0.0030147172761050599 0.0021719501695656564 0.0010360273540596626 0.0018448930310860021 0.0038986903558696079 0.0036165448920059242 0.00047493131966248604 0.0036810117440607749 0.0041767970182959189
leaf_weight=2605 1671 135 1114 94 1332 606 1938 372 86 2866 288 461 9181 342 505 1527 99 149 646 127 752 123 81 750 621 218 506 742 412 232
leaf_count=2605 1671 135 1114 94 1332 606 1938 372 86 2866 288 461 9181 342 505 1527 99 149 646 127 752 123 81 750 621 218 506 742 412 232
internal_value=0 0.0120693 -0.00689632 0.0167645 -0.00883112 0.00599462 -0.00144564 0.0128107 0.000932332 -0.00579024 -0.00308642 0.00432859 -0.00998855 0.0219728 0.0207853 0.014798 0.0028867 0.0034671 0.00682339 0.0129425 -0.00395041 -0.00101429 0.0196192 0.00715318 0.00760582 0.0189076 0.0175692 0.000182379 0.0253458 0.0117243
internal_weight=0 8533 22048 4813 16272 3720 5776 2736 2963 4486 1620 2882 11786 2077 1735 1980 1849 1763 872 226 2813 875 453 1211 756 1229 1011 891 506 838
internal_count=30581 8533 22048 4813 16272 3720 5776 2736 2963 4486 1620 2882 11786 2077 1735 1980 1849 1763 872 226 2813 875 453 1211 756 1229 1011 891 506 838
is_linear=0
shrinkage=0.05


Tree=14
num_leaves=31
num_cat=0
split_feature=7 7 7 3 3 7 7 1 7 4 4 4 3 3 3 4 4 4 7 2 2 2 10 7 2 8 1 7 8 1
split_gain=839.486 82.3568 69.2399 25.0103 20.606 15.7489 11.7606 10.1397 8.34273 7.0212 5.75023 5.42829 5.36006 5.18343 7.72196 5.82487 5.4912 5.25477 5.1428 4.95706 4.72827 4.65409 4.34816 3.66569 3.98947 3.57225 3.29577 3.04198 2.90237 2.66367
threshold=0.47226119726395172 0.54871617320634813 0.39077241466160251 -0.37940952255126059 -0.37940952255126059 0.50607477570066572 0.44340784617414186 17.500000000000004 0.60699495501663581 0.6830127018922193 1.0000000180025095e-35 0.25000000000000017 -0.60355339059327362 -0.25881904510252113 -0.9829629131445341 -0.68301270189221952 0.25000000000000017 1.0000000180025095e-35 0.18539345304520227 -0.5 -0.60355339059327384 -0.9159756150367534 17.950000000000003 0.23345933261092369 -0.9159756150367534 6.4606863153656269 17.500000000000004 0.46445100721944804 1.0000000180025095e-35 12.500000000000002
decision_type=2 2 2 2 2 2 2 2 2 2 2 2 2 2 2 2 2 2 2 2 2 2 2 2 2 2 2 2 2 2
left_child=2 5 4 7 18 20 21 10 11 13 -4 12 26 14 15 -10 -15 -16 -1 25 29 -5 -20 -6 -25 -7 -3 -9 -13 -2
right_child=1 8 3 6 23 19 -8 27 9 -11 -12 28 -14 16 17 -17 -18 -19 22 -21 -22 -23 -24 24 -26 -27 -28 -29 -30 -31
leaf_value=-0.0071790261898698974 0.0014492800481826621 0.0057871158996091457 0.0021489602166110153 -0.00010111208848059273 -0.0084227988987113263 0.003394646268207123 -0.00037213212152363979 -0.00072669479621578293 0.0010671880182137245 0.0048658619699253744 0.00027867441805355664 0.0024053337981825907 0.0015638976223115442 0.0028855442926182962 0.0073332765634561599 0.005672907937191155 0.0063044944369050841 0.0040610193075459183 -0.0020399299389697533 0.0014232251715262463 0.00054701435298117886 -0.0012940666895729217 -0.0010591099180321127 -0.002513531435800586 -0.0030667051952855298 0.0013397717059692609 0.0025149059886105888 0.00046817032353305908 0.0022792829102693812 0.0029442862240585455
leaf_weight=470 121 141 438 280 3106 289 1753 1847 97 519 745 715 460 322 724 94 87 186 1917 1802 2247 3417 1090 1303 5397 59 353 281 250 162
leaf_count=470 121 141 438 280 3106 289 1753 1847 97 519 745 715 460 322 724 94 87 186 1917 1802 2247 3417 1090 1303 5397 59 353 281 250 162
internal_value=0 0.011538 -0.00685901 -0.00340857 -0.0091348 0.00705128 -0.00549083 1.88765e-05 0.0168566 0.0190919 0.00372992 0.0144932 0.0118187 0.0173675 0.019153 0.0100131 0.0125611 0.0210714 -0.00582758 0.0101977 0.00437747 -0.00709021 -0.00506734 -0.0103075 -0.00964925 0.0156609 0.0154352 -0.00204417 0.0171373 0.0104682
internal_weight=0 8628 22044 8761 13283 4680 5450 3311 3948 2029 1183 1919 954 1510 1101 191 409 910 3477 2150 2530 3697 3007 9806 6700 348 494 2128 965 283
internal_count=30672 8628 22044 8761 13283 4680 5450 3311 3948 2029 1183 1919 954 1510 1101 191 409 910 3477 2150 2530 3697 3007 9806 6700 348 494 2128 965 283
is_linear=0
shrinkage=0.05


Tree=15
num_leaves=31
num_cat=0
split_feature=7 7 6 6 7 6 3 3 7 7 5 4 7 6 7 2 2 2 7 2 7 2 5 3 4 7 6 4 8 3
split_gain=743.615 86.6239 85.9081 32.6339 24.3006 14.7762 11.6397 11.068 8.70079 7.17669 6.09724 6.22983 7.18337 6.01083 6.06211 5.4535 4.9844 4.44538 4.32888 4.31529 4.08495 7.18328 3.64606 3.50821 3.51117 3.48656 3.43882 4.17056 3.30434 3.29633
threshold=0.47101275771668011 0.54576448439364811 0.43820815118078238 0.53227172118141219 0.42312423471748423 0.53515806726443904 -0.37940952255126059 -0.37940952255126059 0.49989898910449809 0.67787685427820832 0.25000000000000006 0.25000000000000017 0.40430940860364778 0.41959680810033412 0.70672976718006286 -0.70710678118654757 -0.37940952255126009 -0.60355339059327384 0.37743194389722151 0.60355339059327384 0.26452510379877664 -0.9159756150367534 1.0000000180025095e-35 0.91597561503675362 0.25000000000000017 0.44944118564994712 0.69238303312125538 0.6830127018922193 6.2353901579610387 -0.60355339059327362
decision_type=2 2 2 2 2 2 2 2 2 2 2 2 2 2 2 2 2 2 2 2 2 2 2 2 2 2 2 2 2 2
left_child=2 5 4 13 7 8 10 22 17 26 11 12 -4 14 16 -6 -3 28 -8 25 -9 -22 -1 24 -15 -20 27 -5 -2 -19
right_child=1 3 6 9 15 -7 18 20 -10 -11 -12 -13 -14 23 -16 -17 -18 29 19 -21 21 -23 -24 -25 -26 -27 -28 -29 -30 -31
leaf_value=-0.0017395778979749832 0.0024557994659427937 0.004414759021962973 0.0003848265030191617 0.0026767045085319603 0.00082519623011072111 0.0023411991404286348 -0.0037762352986163983 -0.0075618518072408355 0.00091060194120489997 0.0090319093300057531 -0.00048495924007616877 -8.1250956081711789e-05 0.0029305009023828238 0.0033992709456049652 0.0074748434338340001 -0.00086853476667308473 0.0008280585647482485 0.00065716799920160357 -0.00056260706478494099 -0.0005986418413981544 -0.001746213245075662 -0.0024407593464829398 -0.0025585269067689323 0.001432629259437679 0.0036185647669759236 0.00072078179242206848 0.0065004419915481977 0.00282034876454384 0.0002563600189571552 -6.7063982168361077e-05
leaf_weight=1281 119 151 464 817 259 1072 568 3668 1684 439 1223 846 404 751 64 1928 393 641 662 1277 975 6145 1915 140 564 291 203 534 80 1055
leaf_count=1281 119 151 464 817 259 1072 568 3668 1684 439 1223 846 404 751 64 1928 393 641 662 1277 975 6145 1915 140 564 291 203 534 80 1055
internal_value=0 0.0105619 -0.00671163 0.0159024 -0.00857631 0.00590464 -0.00145379 -0.00934282 0.00436225 0.0204654 0.000744808 0.00266919 0.00564516 0.0114942 0.00731908 -0.00367513 0.00560662 0.00203826 -0.00376162 -0.00276906 -0.0101085 -0.00941011 -0.00675845 0.0132388 0.0140399 -0.00022298 0.0188707 0.0179589 0.00910804 0.00120873
internal_weight=0 8707 21906 4056 16171 4651 5735 13984 3579 1993 2937 1714 868 2063 608 2187 544 1895 2798 2230 10788 7120 3196 1455 1315 953 1554 1351 199 1696
internal_count=30613 8707 21906 4056 16171 4651 5735 13984 3579 1993 2937 1714 868 2063 608 2187 544 1895 2798 2230 10788 7120 3196 1455 1315 953 1554 1351 199 1696
is_linear=0
shrinkage=0.05


Tree=16
num_leaves=31
num_cat=0
split_feature=7 6 6 7 7 6 7 3 7 1 0 7 7 7 1 7 3 8 6 8 7 7 6 7 6 7 4 0 7 6
split_gain=704.588 93.3515 63.896 26.6419 24.3931 16.1032 15.2476 11.805 10.0143 7.18874 6.89657 6.68093 6.46862 6.35171 6.54918 6.16078 5.12211 4.98776 4.81845 4.41938 4.29713 4.09371 3.67788 3.50015 3.38631 3.12049 3.11412 3.04124 2.96757 2.78009
threshold=0.48310515909166246 0.42296649316919038 0.50162215986876901 0.59820176476359233 0.42195122971302862 0.51422126203167628 0.50998638647765271 -0.12940952255126048 0.38958890141023261 9.5000000000000018 2.5000000000000004 0.67787685427820832 0.52535744034961063 0.22493318503429127 17.500000000000004 0.46664252841437909 -0.37940952255126059 1.0000000180025095e-35 0.6411539359914199 3.6242520361853052 0.43324910629752994 0.40134562659881218 0.42865156757781969 0.26845097336723128 0.54574048896314509 0.31583468291445599 0.6830127018922193 2.5000000000000004 0.77702391452946318 0.55450817107537909
decision_type=2 2 2 2 2 2 2 2 2 2 2 2 2 2 2 2 2 2 2 2 2 2 2 2 2 2 2 2 2 2
left_child=1 4 6 12 7 15 27 13 23 -6 11 -8 -4 -1 21 16 -3 -10 26 -11 -19 -15 -12 -7 -14 -9 -5 -2 -24 -22
right_child=2 5 3 18 9 8 10 25 17 19 22 -13 24 14 -16 -17 -18 20 -20 -21 29 -23 28 -25 -26 -27 -28 -29 -30 -31
leaf_value=-0.0054934297615249397 0.0013143138126633204 -0.00042735926468216311 0.0019256550696823693 0.0038708014117843081 -0.00094252307345934138 -0.0037445538750798426 0.0018133736386440156 -0.0070377226095189611 0.00071961245044251392 -0.00053109793136119077 0.0015666803552040172 0.010986406916447684 0.0015361061803373837 -0.0013699531674571165 -0.002466795933666441 7.4719456230036565e-05 -0.00087521362948371072 0.00063020539439239689 0.00658493958590571 0.0014585890019502682 0.0022946873421407334 0.0016826079932708495 0.0019481103473581814 -0.00061636017107284809 0.0025156297810770365 -0.0021818934458719269 0.0037601966884134586 0.00012054458211707697 0.0096505776805558951 0.0043549945519264456
leaf_weight=1187 192 2018 944 608 933 128 497 3942 976 712 870 46 547 1440 1404 857 2762 188 453 306 116 133 1146 538 981 5282 320 1022 56 167
leaf_count=1187 192 2018 944 608 933 128 497 3942 976 712 870 46 547 1440 1404 857 2762 188 453 306 116 133 1146 538 981 5282 320 1022 56 167
internal_value=0 -0.00623728 0.0112438 0.0157896 -0.00849713 -0.00176452 0.0066695 -0.00925829 0.00195812 -0.00327396 0.00881931 0.0138352 0.012682 -0.00704851 -0.00581542 -0.00315993 -0.00385983 0.00429337 0.0213523 -0.000368369 0.00851911 -0.00359981 0.00750483 -0.00311562 0.0146924 -0.0102559 0.0192888 0.00203871 0.009297 0.0124117
internal_weight=0 23089 7682 3853 15339 7750 3829 13388 2113 1951 2615 543 2472 4164 2977 5637 4780 1447 1381 1018 471 1573 2072 666 1528 9224 928 1214 1202 283
internal_count=30771 23089 7682 3853 15339 7750 3829 13388 2113 1951 2615 543 2472 4164 2977 5637 4780 1447 1381 1018 471 1573 2072 666 1528 9224 928 1214 1202 283
is_linear=0
shrinkage=0.05


Tree=17
num_leaves=31
num_cat=0
split_feature=7 7 7 3 3 0 1 7 7 1 2 2 7 7 1 4 0 1 1 7 8 2 1 8 4 1 0 7 4 1
split_gain=664.431 72.8205 69.3032 23.3986 18.8216 11.069 11.3583 9.29708 8.69973 7.18678 6.88631 6.86446 6.61329 5.52227 7.07853 5.48254 5.46839 5.37091 4.85087 4.70825 4.52862 3.96666 3.95292 3.85327 3.44197 3.09254 2.99233 3.71412 3.06941 2.98679
threshold=0.47226119726395172 0.55123468349471738 0.39206102040354596 -0.60355339059327362 -0.37940952255126059 2.5000000000000004 9.5000000000000018 0.44340784617414186 0.49989898910449809 17.500000000000004 -0.5 -0.70710678118654757 0.72723847499553085 0.26452510379877664 17.500000000000004 -0.68301270189221952 10.500000000000002 17.500000000000004 4.5000000000000009 0.57565143639564564 6.4700249102891876 -0.60355339059327384 12.500000000000002 3.795426061844291 0.25000000000000017 21.500000000000004 11.500000000000002 0.81632706295631363 1.0000000180025095e-35 4.5000000000000009
decision_type=2 2 2 2 2 2 2 2 2 2 2 2 2 2 2 2 2 2 2 2 2 2 2 2 2 2 2 2 2 2
left_child=2 8 4 17 13 12 16 11 21 15 20 -5 18 -1 -15 22 -7 24 -3 -11 23 -2 -8 -10 -4 -12 27 28 -21 -18
right_child=1 5 3 7 -6 6 9 -9 10 19 25 -13 -14 14 -16 -17 29 -19 -20 26 -22 -23 -24 -25 -26 -27 -28 -29 -30 -31
leaf_value=-0.003834274924177962 0.0017453128640530864 0.0027481706110360771 0.0017536719652552499 -0.00012323439840877665 -0.0029411634783253933 0.0013615484109066351 0.0050127807957342455 -0.00033096973416253954 0.0016662560340432787 0.0012869580369694546 0.0012277488468703829 -0.0010661249023949716 0.010569718193161737 -0.0006808894228929913 -0.0026683726759202083 0.004993178465831998 0.0030509358089551189 -0.00026676207857740666 0.0023862133209546833 0.00322402585214078 0.0012408602483881177 0.00042971668950109523 0.0068072545119074214 0.0038434395327007448 0.00029551237985477876 0.00035939424201191091 0.0043227320581208676 0.010970121653651202 0.0023374165092888144 0.00094106006712354475
leaf_weight=973 220 186 425 499 9691 423 52 1938 115 298 1726 3518 74 1492 1090 387 104 1676 663 911 84 1939 222 239 576 489 138 63 217 72
leaf_count=973 220 186 425 499 9691 423 52 1938 115 298 1726 3518 74 1492 1090 387 104 1676 663 911 84 1939 222 239 576 489 138 63 217 72
internal_value=0 0.0098556 -0.00653282 -0.0030468 -0.00880454 0.0150197 0.0134958 -0.00479219 0.00576683 0.0151005 0.0076847 -0.00616443 0.019786 -0.00569269 -0.00448296 0.019497 0.00736644 0.000835824 0.0185365 0.0133144 0.0134132 0.00341014 0.0249088 0.0158898 0.00373377 0.00655192 0.014588 0.0137804 0.0131206 0.0147727
internal_weight=0 8622 21878 8632 13246 3810 2887 5955 4812 2288 2653 4017 923 3555 2582 661 599 2677 849 1627 438 2159 274 354 1001 2215 1329 1191 1128 176
internal_count=30500 8622 21878 8632 13246 3810 2887 5955 4812 2288 2653 4017 923 3555 2582 661 599 2677 849 1627 438 2159 274 354 1001 2215 1329 1191 1128 176
is_linear=0
shrinkage=0.05


Tree=18
num_leaves=31
num_cat=0
split_feature=7 7 6 6 7 6 1 6 7 0 7 7 1 4 7 7 6 1 7 7 0 1 1 4 8 9 7 1 1 6
split_gain=596.137 79.9854 67.658 25.5207 17.7534 17.3007 8.29581 7.63315 6.53887 6.09974 5.79015 5.43305 5.18626 4.98751 4.63197 4.16402 3.79841 3.50144 3.48387 3.42268 3.33721 3.27002 6.5573 3.19028 3.0303 2.84777 2.82726 2.75576 3.71132 2.60599
threshold=0.46445100721944804 0.54871617320634813 0.44333409265078644 0.49448385607475848 0.39461923727085829 0.50377866125660986 12.500000000000002 0.50780849726525201 0.63501579673867603 1.5000000000000002 0.27606887294797672 0.17555198766892785 18.500000000000004 -0.68301270189221952 0.50607477570066572 0.49989898910449809 0.41959680810033412 13.500000000000002 0.72723847499553085 0.30486825714971627 2.5000000000000004 8.5000000000000018 18.500000000000004 -0.68301270189221952 0.89587973461402759 73.500000000000014 0.38958890141023261 17.500000000000004 16.500000000000004 0.70695303259335296
decision_type=2 2 2 2 2 2 2 2 2 2 2 2 2 2 2 2 2 2 2 2 2 2 2 2 2 2 2 2 2 2
left_child=2 5 4 16 6 15 -1 -4 20 -10 -9 -8 19 27 -7 -2 18 23 -3 -13 -5 -6 -23 -11 -25 -18 -15 28 -12 -22
right_child=1 3 7 8 21 14 11 10 9 17 13 12 -14 26 -16 -17 25 -19 -20 -21 29 22 -24 24 -26 -27 -28 -29 -30 -31
leaf_value=-0.0028715434448865623 0.00016064193269739181 0.0011027571564841687 -0.0005545634187954896 0.0020583092698308464 -0.0010024891301342216 0.0014368436409531685 -0.0069992116692932822 -0.0040934162085584256 0.0072537300048043478 0.0027856783652695952 0.002352552431220466 -0.0023271479734312916 -0.0025685831528717918 -0.0011473859822954036 0.001842279449322433 0.00064415750457060277 0.003249254638306923 0.0063027316020198842 0.0054411561186386327 -0.00069935049425002703 0.0020366320499807149 -0.00018982012314232023 -0.0010811070868347193 0.0032613790685125212 0.0022776600561259688 0.0030799433059352428 0.00057572574838348769 0.00063493694768234916 0.0024474043885995378 0.0055250588013066636
leaf_weight=7724 2176 547 2804 510 2279 973 819 164 121 57 222 1061 1261 403 955 1409 266 628 61 1042 969 1004 1222 44 22 638 844 174 75 81
leaf_count=7724 2176 547 2804 510 2279 973 819 164 121 57 222 1061 1261 403 955 1409 266 628 61 1042 969 1004 1222 44 22 638 844 174 75 81
internal_value=0 0.00839458 -0.00671272 0.0138311 -0.00822569 0.00450526 -0.00923721 -0.00141379 0.0170025 0.0204702 0.00104942 -0.00744382 -0.0065547 0.00190629 0.00832469 0.00245119 0.00873016 0.0187916 0.00567434 -0.00503447 0.0150641 -0.00555216 -0.00418913 0.0110772 0.0185606 0.0107854 0.000250601 0.00628981 0.00921717 0.0134524
internal_weight=0 9457 21098 3944 16412 5513 11907 4686 2432 872 1882 4183 3364 1718 1928 3585 1512 751 608 2103 1560 4505 2226 123 66 904 1247 471 297 1050
internal_count=30555 9457 21098 3944 16412 5513 11907 4686 2432 872 1882 4183 3364 1718 1928 3585 1512 751 608 2103 1560 4505 2226 123 66 904 1247 471 297 1050
is_linear=0
shrinkage=0.05


Tree=19
num_leaves=31
num_cat=0
split_feature=7 7 6 6 7 6 6 7 3 7 3 1 7 3 1 4 6 7 7 1 3 7 7 10 7 1 9 3 7 10
split_gain=588.194 69.8076 68.7856 20.6683 18.4711 17.8027 11.9017 7.3553 7.08795 6.90347 5.18194 6.2071 5.0873 4.97318 7.70361 4.98267 4.89545 4.72171 4.46655 4.33006 4.05734 3.5835 3.43969 3.41185 4.68558 3.28204 3.18733 2.87676 3.27626 3.05732
threshold=0.46664252841437909 0.54871617320634813 0.42296649316919038 0.52987194866970877 0.38727460404690539 0.54574048896314509 0.48762830728007228 0.26845097336723128 -0.12940952255126048 0.64109502017133557 -0.12940952255126048 17.500000000000004 0.49459853481528204 -0.37940952255126059 17.500000000000004 -0.68301270189221952 0.41959680810033412 0.18539345304520227 0.70672976718006286 18.500000000000004 0.91597561503675362 0.50793303038982252 0.43324910629752994 18.950000000000003 0.36455832680785055 21.500000000000004 43.500000000000007 -0.9829629131445341 0.77702391452946318 14.900000000000002
decision_type=2 2 2 2 2 2 2 2 2 2 2 2 2 2 2 2 2 2 2 2 2 2 2 2 2 2 2 2 2 2
left_child=2 5 4 16 8 12 23 -8 17 -5 11 -6 -2 14 15 -9 18 -1 -3 -19 -11 -7 -15 -4 -25 -14 -26 29 -29 -18
right_child=1 3 6 9 10 21 7 13 -10 20 -12 -13 25 22 -16 -17 27 19 -20 -21 -22 -23 -24 24 26 -27 -28 28 -30 -31
leaf_value=-0.0061347471147432187 0.0002951823458100425 0.0016734582193690256 -0.00071564674036637 0.0021627797318831245 0.00048392540828526704 0.001971685129372275 -0.0038369051939153688 0.0024905993711825409 -0.0027456872465447951 0.00621912120953989 -0.0010362094914318179 -0.0011674293372112537 0.00095248014662089187 -0.0016716773132490011 -0.00017335002548326262 0.0012671482646136852 0.0036626563596807329 -0.0015721296410695917 0.0059576002019850974 -0.0025555832927925252 0.0022536492132734869 0.0023892111582000265 0.00027381318212343773 -0.0025467989017779556 -0.0013440185043929896 9.1922041159506201e-05 0.0013844240467315333 0.0026207865219194577 0.0098903377200321788 0.00072907472418262675
leaf_weight=883 2054 541 3441 1282 455 522 182 198 7585 671 2542 1025 1711 454 720 585 32 1728 66 666 37 577 418 220 41 425 328 1190 59 116
leaf_count=883 2054 541 3441 1282 455 522 182 198 7585 671 2542 1025 1711 454 720 585 32 1728 66 666 37 577 418 220 41 425 328 1190 59 116
internal_value=0 0.00862464 -0.00643834 0.0136142 -0.00832102 0.00485678 -0.00218423 0.000483966 -0.00939284 0.0172236 -0.0054264 -0.00307432 0.00337112 0.00122632 0.00296906 0.00640166 0.0100299 -0.00744965 0.00628089 -0.00629699 0.0211864 0.0105209 -0.00177752 -0.00387717 -0.000360781 0.00507959 0.00308266 0.0116589 0.01244 0.00506757
internal_weight=0 9283 21471 3994 14884 5289 6587 2557 10862 1990 4022 1480 4190 2375 1503 783 2004 3277 607 2394 708 1099 872 4030 589 2136 369 1397 1249 148
internal_count=30754 9283 21471 3994 14884 5289 6587 2557 10862 1990 4022 1480 4190 2375 1503 783 2004 3277 607 2394 708 1099 872 4030 589 2136 369 1397 1249 148
is_linear=0
shrinkage=0.05


Tree=20
num_leaves=31
num_cat=0
split_feature=6 6 3 6 6 6 5 3 6 5 5 2 8 2 10 3 6 5 6 9 5 8 8 10 6 3 5 10 1 10
split_gain=365.997 70.3599 38.2611 14.6163 11.4435 8.59415 7.81714 7.70252 6.62963 4.86736 4.4714 3.97108 3.92329 3.86909 3.60408 6.27364 5.59017 4.27277 2.92415 3.02271 2.68813 2.33137 2.25653 2.69119 2.24435 2.17329 2.03031 3.28293 3.16418 2.03899
threshold=0.44077256321851538 0.52525604972545614 -0.60355339059327362 0.42296649316919038 0.60721358760383082 0.25636456945923963 0.68301270189221941 -0.60355339059327362 0.38832760695777985 -0.24999999999999997 -0.5 -0.60355339059327384 3.0201273556387074 -0.70710678118654757 17.950000000000003 -0.37940952255126059 0.64955479807325567 -0.5 0.50162215986876901 53.500000000000007 0.93301270189221952 4.8789996228937618 6.0764941372188597 18.850000000000005 0.3817702973702467 0.78656609248549325 0.25000000000000006 11.550000000000002 16.500000000000004 16.750000000000004
decision_type=2 2 2 2 2 2 2 2 2 2 2 2 2 2 2 2 2 2 2 2 2 2 2 2 2 2 2 2 2 2
left_child=2 7 8 5 11 -4 14 18 9 -1 -9 -3 -8 -7 21 16 22 -18 -2 -20 -12 26 23 -16 -15 -22 27 -6 -29 -30
right_child=1 4 3 -5 6 13 12 10 -10 -11 20 -13 -14 24 15 -17 17 -19 19 -21 25 -23 -24 -25 -26 -27 -28 28 29 -31
leaf_value=-2.0431328312642274e-06 0.00051712841999197734 0.00093779977171001838 -0.0056266896627890257 -0.00054798831477952115 0.0038618326110717279 -0.0015926645297432139 0.0020185705499086632 -0.00046485257785760446 5.6096810745859262e-05 -0.0018362554263693599 0.00029651232970649005 0.0015427904121259911 -0.0011470201503686439 -0.0021654270866030196 0.0038434873947637647 0.0034674544224837485 0.0052927114167493003 0.0072987841920569233 -0.00083783453392559664 0.00148206896530921 -0.00035429391016877644 0.0022965972272916664 0.0051081223701291232 0.0015281987108562809 -0.00092966196446948944 0.00056423778187083412 0.0030900519738265107 0.00062135473698665677 0.0020333526360224717 0.0039540531783833601
leaf_weight=502 2086 422 4469 1424 45 2337 243 1237 1928 1092 2689 2566 64 4429 41 170 253 180 52 539 243 65 23 171 2477 98 303 100 199 202
leaf_count=502 2086 422 4469 1424 45 2337 243 1237 1928 1092 2689 2566 64 4429 41 170 253 180 52 539 243 65 23 171 2477 98 303 100 199 202
internal_value=0 0.00476295 -0.0064329 -0.00752511 0.0092555 -0.00802582 0.0121236 0.0014977 -0.00173907 -0.00412484 0.000178697 0.00727912 0.00476384 -0.00715541 0.0134132 0.0157816 0.0179641 0.0213337 0.00360011 0.00670474 0.00121287 0.0112418 0.0117553 0.0101415 -0.00775051 -0.00296921 0.0119405 0.010119 0.00895709 0.0109414
internal_weight=0 11991 18658 15136 5047 13712 2059 6944 3522 1594 4267 2988 307 9243 1752 838 668 433 2677 591 3030 914 235 212 6906 341 849 546 501 401
internal_count=30649 11991 18658 15136 5047 13712 2059 6944 3522 1594 4267 2988 307 9243 1752 838 668 433 2677 591 3030 914 235 212 6906 341 849 546 501 401
is_linear=0
shrinkage=0.05


Tree=21
num_leaves=31
num_cat=0
split_feature=6 6 6 6 5 2 6 6 8 2 10 10 0 8 9 2 8 2 0 8 6 5 6 0 9 2 8 10 2 2
split_gain=329.866 60.083 37.6976 8.92558 8.07822 7.29428 7.14979 6.70542 5.25659 5.04009 4.90858 4.82934 3.66347 3.50373 3.35859 3.23321 3.17944 2.75543 2.69519 2.63471 2.47737 2.72775 2.44075 2.40393 2.77806 2.32302 4.78962 2.28236 2.26974 2.25527
threshold=0.44077256321851538 0.54035340289137135 0.37856141181087366 0.20053157608997677 0.68301270189221941 0.78656609248549303 0.60721358760383082 0.4733683115201619 4.1971736807086968 -0.70710678118654757 15.550000000000002 17.950000000000003 4.5000000000000009 6.0509113120781883 45.500000000000007 0.78656609248549303 2.8029010331479989 -0.9159756150367534 8.5000000000000018 6.0149361578705784 0.29632368029464123 0.68301270189221941 0.29632368029464123 11.500000000000002 74.500000000000014 1.0000000180025095e-35 4.9732735209982879 12.900000000000002 0.60355339059327384 -0.5
decision_type=2 2 2 2 2 2 2 2 2 2 2 2 2 2 2 2 2 2 2 2 2 2 2 2 2 2 2 2 2 2
left_child=2 7 3 -1 6 13 10 28 -6 22 -3 12 16 23 -9 18 -8 -13 19 -12 -11 25 -5 -4 -25 26 -22 -14 -2 -19
right_child=1 4 5 9 8 -7 11 14 -10 20 15 17 27 -15 -16 -17 -18 29 -20 -21 21 -23 -24 24 -26 -27 -28 -29 -30 -31
leaf_value=-0.0065403866497356468 0.00023197801923267939 0.0016891178247381595 -0.00049444450392717866 -0.0028205708295902469 0.0012332996727881962 -0.00086339531742936771 0.0033487137227270081 -0.00025902882415540648 -0.0019723804786339187 -0.0042882842707831484 0.0025057049195517794 0.00055470527749423707 0.0028299338085538751 -0.0014760652119011433 0.00073024849834154584 0.00010413333469970338 0.00064581191410063583 0.0052541380347337994 0.0011557416424620409 0.001031226775616094 0.00099736328450143047 -0.0023481673437438125 -0.0012346884418798845 -0.00029067890431635492 0.0011251621477251631 -0.00201914875375172 -0.0016181027282242064 0.0022403848169843823 -0.000208997260408271 0.0044554846097201216
leaf_weight=3023 1893 615 4174 1456 616 1845 205 266 95 1330 582 31 92 787 3974 221 36 241 314 135 158 1154 1390 192 190 2129 823 577 1565 585
leaf_count=3023 1893 615 4174 1456 616 1845 205 266 95 1330 582 31 92 787 3974 221 36 241 314 135 158 1154 1390 192 190 2129 823 577 1565 585
internal_value=0 0.00441024 -0.00620543 -0.00798548 0.00911105 -0.00336672 0.0100647 0.00175695 0.00423699 -0.00715047 0.00790707 0.0123444 0.00980769 -0.00243075 0.00308962 0.00611022 0.0150934 0.0150379 0.00728661 0.00897838 -0.00802199 -0.00743433 -0.00543746 -0.0018986 0.00189791 -0.00666399 -0.00465087 0.00790359 0.000122903 0.0155872
internal_weight=0 12043 18651 11463 4345 7188 3634 7698 711 8440 1867 1767 910 5343 4240 1252 241 857 1031 717 5594 4264 2846 4556 382 3110 981 669 3458 826
internal_count=30694 12043 18651 11463 4345 7188 3634 7698 711 8440 1867 1767 910 5343 4240 1252 241 857 1031 717 5594 4264 2846 4556 382 3110 981 669 3458 826
is_linear=0
shrinkage=0.05


Tree=22
num_leaves=31
num_cat=0
split_feature=7 7 6 7 6 6 3 7 3 10 7 5 7 7 8 1 7 3 8 8 10 10 3 6 9 1 1 7 9 6
split_gain=477.05 58.2924 57.1808 19.7413 16.0659 8.69956 8.44091 8.23102 7.80714 6.152 6.00254 5.15425 4.89882 4.00199 4.68053 3.98273 3.89131 3.7471 5.34727 3.62543 3.58074 3.33427 3.2413 3.22862 3.50924 3.88148 2.94625 2.68878 2.592 2.59139
threshold=0.46664252841437909 0.52326229654038559 0.42296649316919038 0.38258790910087254 0.55123992275056999 0.59835491189898893 -0.37940952255126059 0.63501579673867603 -0.12940952255126048 17.950000000000003 0.42312423471748423 0.25000000000000006 0.60699495501663581 0.34161777684922245 6.7759365416542883 7.5000000000000009 0.43324910629752994 -0.37940952255126059 4.2413008733233104 3.5408542930527878 14.300000000000002 19.900000000000002 0.98296291314453432 0.42865156757781969 77.500000000000014 4.5000000000000009 17.500000000000004 0.44723351146754903 67.500000000000014 0.58303487089591199
decision_type=2 2 2 2 2 2 2 2 2 2 2 2 2 2 2 2 2 2 2 2 2 2 2 2 2 2 2 2 2 2
left_child=2 5 3 8 12 17 9 21 11 -4 -5 -1 23 -8 27 -12 -11 18 -2 -17 -14 22 -6 -3 25 -25 -18 -15 -23 -9
right_child=1 4 6 10 7 -7 13 29 -10 16 15 -13 20 14 -16 19 26 -19 -20 -21 -22 28 -24 24 -26 -27 -28 -29 -30 -31
leaf_value=-0.0016069226598572643 0.00053417644555240902 0.0011410270359839588 -0.00039306192985587296 -0.00099186240296168728 0.0018824322583418124 0.0029499563218828907 -0.0037722702756174454 0.0027309624992958833 -0.0025051825051720547 0.00047329396986387634 -0.00070076554142401511 -0.0026036455093953882 0.0036866108519798602 -0.00076696094918847978 0.0022785442745049483 -0.00043371895504566786 0.0034785601872810547 0.0001167733535278992 0.002775753343924109 0.00064967247286358836 0.0033566203624252225 0.001732563118219345 -0.00055439245257959816 0.0023950233158842038 0.0010481819834360418 0.0013406157354790118 0.00092092051751418991 -0.00027057854278061955 0.0054165891877845989 0.0055793514848096947
leaf_weight=1503 1504 591 2220 2923 1153 375 386 114 7326 771 623 1653 254 2119 65 521 100 2019 164 348 830 25 25 80 934 474 117 798 100 562
leaf_count=1503 1504 591 2220 2923 1153 375 386 114 7326 771 623 1653 254 2119 65 521 100 2019 164 348 830 25 25 80 934 474 117 798 100 562
internal_value=0 0.00738809 -0.00621769 -0.00793197 0.0109247 0.00291113 -0.00233425 0.0144581 -0.00911324 -0.000498753 -0.00512741 -0.00703422 0.00871404 -0.00408254 -0.00346244 -0.00254692 0.0027834 0.00217318 0.00392686 -0.000359609 0.0114391 0.0121355 0.0113115 0.00729317 0.00853495 0.0116877 0.00869816 -0.00375814 0.0199 0.0189349
internal_weight=0 9204 21473 14897 5142 4062 6576 1979 10482 3208 4415 3156 3163 3368 2982 1492 988 3687 1668 869 1084 1303 1178 2079 1488 554 217 2917 125 676
internal_count=30677 9204 21473 14897 5142 4062 6576 1979 10482 3208 4415 3156 3163 3368 2982 1492 988 3687 1668 869 1084 1303 1178 2079 1488 554 217 2917 125 676
is_linear=0
shrinkage=0.05


Tree=23
num_leaves=31
num_cat=0
split_feature=3 8 10 5 1 4 5 4 2 4 5 9 5 5 5 5 3 4 3 10 10 5 4 1 8 8 8 3 3 9
split_gain=147.095 26.5064 16.0066 10.4763 10.8073 9.94981 9.83208 19.8007 6.8875 6.04006 5.10479 4.99818 4.11168 3.9023 3.80784 3.37212 3.05173 2.83472 2.72273 2.58825 2.87668 2.47079 2.4116 2.39402 2.29062 2.17798 2.09423 2.01104 3.29967 1.9497
threshold=-0.5 5.422742508376845 17.950000000000003 0.68301270189221941 12.500000000000002 -0.5 -0.5 0.25000000000000017 0.25881904510252057 0.25000000000000017 -0.93301270189221919 80.500000000000014 0.25000000000000006 1.0000000180025095e-35 0.68301270189221941 -0.5 -0.70710678118654735 -0.24999999999999994 -0.37940952255126059 17.650000000000002 21.500000000000004 -0.5 0.93301270189221952 13.500000000000002 5.9776183370995293 2.8029010331479989 5.8507636298606682 -0.9829629131445341 -0.78656609248549292 69.500000000000014
decision_type=2 2 2 2 2 2 2 2 2 2 2 2 2 2 2 2 2 2 2 2 2 2 2 2 2 2 2 2 2 2
left_child=2 6 11 4 21 12 17 13 23 -5 -7 14 27 -8 15 -1 22 -2 -19 24 -21 -3 -13 -9 26 -16 -11 -4 -29 -6
right_child=1 3 5 9 29 10 7 8 -10 19 -12 16 -14 -15 25 -17 -18 18 -20 20 -22 -23 -24 -25 -26 -27 -28 28 -30 -31
leaf_value=-0.00036610338607182897 -0.00047908666976360925 -0.0019513081321048086 0.00090130536191005003 -0.0050996386906720344 -0.0011464265029333934 0.0017464159500362496 -0.00014493316642761599 -0.00089596348199057077 0.00054626305544672876 -0.0013615919359026036 -0.0002034081067495447 0.00072351414035182757 -0.001133374209774031 -0.00071464359198402739 -0.00010322491542750639 0.0006420635254142875 6.9284304105169536e-05 0.00022390560115778809 -0.00083707247184576928 0.00025405421261708169 -0.0025057544889459842 -0.0022074378242756191 0.0012885651062791771 0.00046521673235372515 -0.0029032821449563916 -0.00083009245764601174 0.0016371931307230859 0.003233688714580513 0.0026272749397421081 9.0271201916206781e-05
leaf_weight=579 797 2557 189 1662 813 727 793 827 2209 156 602 2513 74 3375 950 1515 863 145 2621 175 42 3115 372 233 222 378 24 808 616 705
leaf_count=579 797 2557 189 1662 813 727 793 827 2209 156 602 2513 74 3375 950 1515 863 145 2621 175 42 3115 372 233 222 378 24 808 616 705
internal_value=0 -0.00447401 0.00287895 -0.006413 -0.00547636 0.00593501 -0.00280455 -0.00176987 0.00114332 -0.00936541 0.0026994 0.00159344 0.008484 -0.0040547 0.000211864 0.00154011 0.00285486 -0.00496422 -0.00572126 -0.00514943 -0.000748848 -0.0064792 0.00363518 -0.00216981 -0.00752488 -0.00188253 -0.00333333 0.00901271 0.0096559 -0.00172925
internal_weight=0 20471 10186 9471 7190 3016 11000 7437 3269 2281 1329 7170 1687 4168 3422 2094 3748 3563 2766 619 217 5672 2885 1060 402 1328 180 1613 1424 1518
internal_count=30657 20471 10186 9471 7190 3016 11000 7437 3269 2281 1329 7170 1687 4168 3422 2094 3748 3563 2766 619 217 5672 2885 1060 402 1328 180 1613 1424 1518
is_linear=0
shrinkage=0.05


Tree=24
num_leaves=31
num_cat=0
split_feature=7 7 6 3 6 6 7 3 7 0 7 1 7 7 7 10 3 1 7 3 4 10 3 0 6 7 1 3 10 7
split_gain=437.793 58.2445 48.1781 13.5939 11.2304 10.9253 8.74356 8.21294 7.69379 7.38656 6.76036 6.70323 6.69142 6.68444 5.93834 4.31228 4.23944 4.0781 3.70598 3.62736 3.61649 3.37262 3.16005 3.16259 3.1041 3.03728 3.00552 2.74018 3.01167 2.9037
threshold=0.46021526379199201 0.55123468349471738 0.42524957240485634 -0.12940952255126048 0.52987194866970877 0.54322138601739123 0.19041596000129654 -0.37940952255126059 0.62282598481535556 3.5000000000000004 0.72723847499553085 18.500000000000004 0.36777420662095411 0.30486825714971627 0.48458388991077089 16.950000000000003 -0.9829629131445341 21.500000000000004 0.24908639157008847 -0.9829629131445341 -0.5 18.950000000000003 0.91597561503675362 1.5000000000000002 0.52091241958869483 0.42427212314246349 7.5000000000000009 0.78656609248549325 21.500000000000004 0.34161777684922245
decision_type=2 2 2 2 2 2 2 2 2 2 2 2 2 2 2 2 2 2 2 2 2 2 2 2 2 2 2 2 2 2
left_child=2 5 3 6 9 14 -1 15 -6 10 -3 13 -5 -8 -2 -4 20 26 -17 -20 -11 -7 23 -10 -21 -13 -16 28 -9 -30
right_child=1 4 7 12 8 21 11 27 22 16 -12 25 -14 -15 17 18 -18 -19 19 24 -22 -23 -24 -25 -26 -27 -28 -29 29 -31
leaf_value=-0.0052044148056654554 4.714929401115065e-05 0.0020419882187926869 -0.00045914331490831407 -0.0030003677527701157 0.0015509685781570485 0.0013520332651074331 -0.0016919264820233774 -0.0007777657004752359 0.0046375521655852179 -0.0023888008199300691 0.009243629863298233 -0.0018774084344107198 -0.00098690785626746598 -0.00021406142197556642 0.00031591146281337719 -0.0026292128098402722 0.0025055517584430601 -9.2913777728076416e-07 -0.0012039580945811376 0.00023752478399752808 0.0028412215249386643 0.0038324220388264666 0.0013685787924918259 0.004502808048224431 0.0025850403125545433 -0.00045266087052487638 0.0011122542928979824 -0.00041558103051047988 -0.0035067581779245657 0.001423067150795368
leaf_weight=940 1944 475 1510 6066 1033 1055 830 1816 121 117 55 1233 4066 1439 894 87 1207 550 109 683 62 204 38 739 488 302 1390 987 72 108
leaf_count=940 1944 475 1510 6066 1033 1055 830 1816 121 117 55 1233 4066 1439 894 87 1207 550 109 683 62 204 38 739 488 302 1390 987 72 108
internal_value=0 0.00651558 -0.0062717 -0.00778435 0.0113238 0.00345163 -0.00557546 -0.00243174 0.0140148 0.00861169 0.0136321 -0.00450841 -0.00881859 -0.00278206 0.00235977 -0.000525721 0.00669192 0.00381969 0.00150878 0.0021875 -0.000488827 0.00759531 0.0173998 0.0180233 0.00299957 -0.00706026 0.00475044 -0.00427003 -0.00533567 0.000833333
internal_weight=0 9884 20736 14876 3847 6037 4744 5860 1931 1916 530 3804 10132 2269 4778 2877 1386 2834 1367 1280 179 1259 898 860 1171 1535 2284 2983 1996 180
internal_count=30620 9884 20736 14876 3847 6037 4744 5860 1931 1916 530 3804 10132 2269 4778 2877 1386 2834 1367 1280 179 1259 898 860 1171 1535 2284 2983 1996 180
is_linear=0
shrinkage=0.05


Tree=25
num_leaves=31
num_cat=0
split_feature=7 7 6 7 2 6 2 6 7 2 7 3 7 4 3 10 6 7 7 3 3 7 0 2 4 10 0 6 3 3
split_gain=404.046 54.4029 46.1082 14.9203 11.9546 11.889 9.58441 9.41305 7.99018 7.82939 6.59581 5.55231 5.3706 5.16683 5.7603 5.15069 5.0891 4.78625 4.31376 4.14472 4.0555 3.87612 3.71698 3.34541 3.32395 3.29511 3.21618 3.18957 3.05043 2.87193
threshold=0.46021526379199201 0.57565143639564564 0.40130433611686611 0.40134562659881218 0.78656609248549303 0.54574048896314509 -0.5 0.50780849726525201 0.42195122971302862 -0.5 0.49798928671954451 -0.12940952255126048 0.72723847499553085 -0.68301270189221952 -0.9829629131445341 22.500000000000004 0.54322138601739123 0.23345933261092369 0.72723847499553085 -0.25881904510252113 0.60355339059327384 0.11932448835513786 2.5000000000000004 -0.12940952255126034 -0.9330127018922193 17.650000000000002 7.5000000000000009 0.42761989604726536 0.91597561503675362 -0.60355339059327362
decision_type=2 2 2 2 2 2 2 2 2 2 2 2 2 2 2 2 2 2 2 2 2 2 2 2 2 2 2 2 2 2
left_child=2 5 3 11 8 6 15 13 17 -5 -8 21 -9 14 -3 -2 -10 -4 -15 -16 23 -1 -12 24 -19 -23 -20 29 -11 -24
right_child=1 7 4 9 -6 -7 10 12 16 28 22 -13 -14 18 19 -17 -18 20 26 -21 -22 25 27 -25 -26 -27 -28 -29 -30 -31
leaf_value=-0.0081071461517523685 0.0016634790152564084 -0.0033874625054882593 -0.0045623953759547173 0.00038832601847012195 -0.00070527322838860043 0.0016750458992347617 -6.1232497889224247e-06 0.0021175367005155793 -0.00012335823437206115 -0.00067893678906846562 0.00093725448364157806 -0.0021009703926459628 0.0073289921426154953 0.0026130056310995271 0.0029252904779701774 -0.00078073015896927285 0.0019669356461481549 0.0015438524984825654 0.0086793210547451843 0.00030905041014780841 -0.00086488519495237089 -0.0020472974032479468 0.00051618010932353718 -0.001333461330290281 -0.00030770902561033306 -0.001510300641436587 0.0044826942455039659 0.00052769297353389983 -0.0018460500619436014 -0.00079960996764876717
leaf_weight=395 724 86 323 455 2032 1532 2392 1441 1901 818 460 7759 278 742 134 66 331 133 51 135 925 1542 191 760 1517 1387 85 1236 539 263
leaf_count=395 724 86 323 455 2032 1532 2392 1441 1901 818 460 7759 278 742 134 66 331 133 51 135 925 1542 191 760 1517 1387 85 1236 539 263
internal_value=0 0.00616341 -0.00614222 -0.00798662 -0.00313999 0.00372232 0.0026069 0.0118394 -0.00199915 -0.00378035 0.00172281 -0.00867432 0.0142307 0.00850568 0.00341549 0.00768987 0.000358423 -0.00343767 0.0105638 0.00701673 -0.00287481 -0.0069645 0.00373256 -0.00179461 -0.000530303 -0.00633749 0.01875 0.00264793 -0.00568349 -0.000936123
internal_weight=0 9816 20817 12895 7922 6864 5332 2952 5890 1812 4542 11083 1719 1233 355 790 2232 3658 878 269 3335 3324 2150 2410 1650 2929 136 1690 1357 454
internal_count=30633 9816 20817 12895 7922 6864 5332 2952 5890 1812 4542 11083 1719 1233 355 790 2232 3658 878 269 3335 3324 2150 2410 1650 2929 136 1690 1357 454
is_linear=0
shrinkage=0.05


Tree=26
num_leaves=31
num_cat=0
split_feature=7 7 6 7 2 7 2 0 6 6 2 7 6 7 1 7 2 0 1 6 3 0 6 1 2 1 0 0 6 10
split_gain=379.131 49.5807 45.2537 14.1268 11.8403 11.2219 10.8962 8.52597 8.3077 7.80965 5.9083 7.41174 5.29564 4.90621 4.71109 4.45893 4.43803 4.43214 4.36894 3.90152 3.66509 3.60378 3.51532 3.48731 3.45803 4.28786 3.70642 3.42246 3.29867 3.07703
threshold=0.46021526379199201 0.5544848865078944 0.42296649316919038 0.37122012108844704 -0.5 0.74913528103878513 -0.5 2.5000000000000004 0.50377866125660986 0.46773561460820662 0.78656609248549303 0.4091853574327084 0.27569658683437709 0.59820176476359233 12.500000000000002 0.48310515909166246 1.0000000180025095e-35 7.5000000000000009 12.500000000000002 0.52525604972545614 -0.60355339059327362 4.5000000000000009 0.60266866672888642 19.500000000000004 -0.5 13.500000000000002 11.500000000000002 3.5000000000000004 0.37952705457146002 17.150000000000002
decision_type=2 2 2 2 2 2 2 2 2 2 2 2 2 2 2 2 2 2 2 2 2 2 2 2 2 2 2 2 2 2
left_child=2 6 3 12 14 7 22 -3 28 -9 11 18 -1 -11 17 -10 21 -5 -4 -13 -6 -14 -2 -17 25 -15 -26 -7 -8 -21
right_child=1 5 10 4 20 27 8 9 15 13 -12 19 16 24 -16 23 -18 -19 -20 29 -22 -23 -24 -25 26 -27 -28 -29 -30 -31
leaf_value=-0.0050135593561570577 0.0014331872198709379 0.00185704299706473 -0.0020945371675196917 0.00037227861708545031 -0.00097049701866562055 0.0082548030800079445 -0.0013989650525603082 0.0015695720885399056 0.00017171348318587438 0.0012327671449158209 -0.00067768238586051821 -0.00011723859436676837 -0.0021294479785172113 0.0031609205910065443 0.0006480054505252214 0.0012644420611383725 -0.0020051105520623668 -0.00079392348591147694 -0.00059319667279361459 0.00016607119012155143 -0.00087093049206831905 -0.0014828137358481675 0.0041691390279445821 0.0007309287996224989 0.002490390688313149 0.0047169539047646376 0.0026993618717025048 0.0065461049631363351 0.00021824294437720049 0.0020299322476075104
leaf_weight=4650 800 835 694 248 913 80 340 762 443 709 1419 1826 1015 30 472 823 1700 464 1661 255 3393 1891 114 528 754 116 144 272 3028 283
leaf_count=4650 800 835 694 248 913 80 340 762 443 709 1419 1826 1015 30 472 823 1700 464 1661 255 3393 1891 114 528 754 116 144 272 3028 283
internal_value=0 0.00598026 -0.00594953 -0.00745117 -0.00544171 0.0105416 0.00320112 0.00964925 0.00231015 0.00819583 -0.00234197 -0.00149131 -0.00864304 0.0100328 -0.00101351 0.00505853 -0.00744138 -0.00358146 -0.00347665 0.000486464 -0.00665931 -0.0062543 0.00823304 0.00648594 0.0122126 0.0193493 0.0110523 0.0190341 0.0008462 0.00422862
internal_weight=0 9778 20884 14746 5490 3702 6076 3350 5162 2515 6138 4719 9256 1753 1184 1794 4606 712 2355 2364 4306 2906 914 1351 1044 146 898 352 3368 538
internal_count=30662 9778 20884 14746 5490 3702 6076 3350 5162 2515 6138 4719 9256 1753 1184 1794 4606 712 2355 2364 4306 2906 914 1351 1044 146 898 352 3368 538
is_linear=0
shrinkage=0.05


Tree=27
num_leaves=31
num_cat=0
split_feature=7 7 6 7 7 3 6 0 2 2 7 7 2 0 2 7 7 2 7 2 2 3 7 6 9 0 6 8 6 0
split_gain=340.336 43.7355 41.4241 15.6495 10.5961 9.64174 8.98394 9.64813 8.72549 8.41942 6.90755 6.22193 5.7715 4.53561 4.28208 4.35943 4.25026 4.7297 4.68279 4.1581 3.93998 3.78141 3.649 4.76729 3.76288 3.61381 3.61203 3.53601 3.43605 2.95383
threshold=0.46021526379199201 0.5544848865078944 0.41959680810033412 0.41602583824637868 0.50607477570066572 -0.37940952255126059 0.6411539359914199 3.5000000000000004 -0.5 0.78656609248549303 0.23345933261092369 0.67787685427820832 -0.5 5.5000000000000009 -0.5 0.81632706295631363 0.14350241055454291 -0.9159756150367534 0.26452510379877664 -0.60355339059327384 -0.12940952255126034 0.98296291314453432 0.43324910629752994 0.54322138601739123 71.500000000000014 2.5000000000000004 0.69238303312125538 6.4606863153656269 0.38033275956779744 5.5000000000000009
decision_type=2 2 2 2 2 2 2 2 2 2 2 2 2 2 2 2 2 2 2 2 2 2 2 2 2 2 2 2 2 2
left_child=2 4 3 5 19 29 7 11 -5 10 -4 21 27 -12 -9 -16 -7 18 -18 -2 -8 -3 -15 -24 -25 -14 -27 -6 -21 -1
right_child=1 6 9 8 12 16 20 14 -10 -11 13 -13 25 22 15 -17 17 -19 -20 28 -22 -23 23 24 -26 26 -28 -29 -30 -31
leaf_value=-0.0018212844749393034 0.0014033040340084902 0.0016171084453935781 -0.0046077799880701346 0.00072565752287917582 0.0023103538299959745 -0.0082711375270518167 0.0055981650326930449 0.0030021169431244986 -0.00059828268053078179 -0.00064431302326203171 -0.00056150924642675852 0.0071766306525794174 0.0010294382407469715 -0.00027276747914048856 0.0013737039401272412 0.0094554153347513308 -0.0033103444325828266 -0.0016608668418442484 -0.00075552955011007621 -0.0011102374243285745 0.0034208146717631285 -0.00014082237051716852 0.00022187213741016454 0.0050265985422709054 0.0024328248249195689 0.00036949021888752349 0.0056683899493118368 0.0011346211287754273 0.00020593110039132667 -0.0014309943724100328
leaf_weight=1431 382 756 260 365 333 1392 202 291 1416 1514 1828 133 476 1931 1856 54 1008 6633 916 249 408 49 700 24 127 1477 55 77 3122 1276
leaf_count=1431 382 756 260 365 333 1392 202 291 1416 1514 1828 133 476 1931 1856 54 1008 6633 916 249 408 49 700 24 127 1477 55 77 3122 1276
internal_value=0 0.00539315 -0.00586007 -0.00734311 0.00280546 -0.00796065 0.00965257 0.00857359 -0.0029548 -0.00250627 -0.00149384 0.0128198 0.00538668 -0.00104664 0.00676397 0.00590314 -0.00868052 -0.0082637 -0.00608108 0.00114242 0.0152049 0.0111646 0.000224659 0.00295241 0.0110099 0.00428287 0.00310052 0.0107927 0.000582171 -0.00531492
internal_weight=0 9920 20821 14437 6171 12656 3749 3139 1781 6384 4870 938 2418 4610 2201 1910 9949 8557 1924 3753 610 805 2782 851 151 2008 1532 410 3371 2707
internal_count=30741 9920 20821 14437 6171 12656 3749 3139 1781 6384 4870 938 2418 4610 2201 1910 9949 8557 1924 3753 610 805 2782 851 151 2008 1532 410 3371 2707
is_linear=0
shrinkage=0.05


Tree=28
num_leaves=31
num_cat=0
split_feature=7 6 7 7 7 6 2 1 4 7 7 1 6 6 1 10 7 2 1 10 10 2 6 6 7 9 8 7 6 2
split_gain=328.488 45.203 43.3507 15.0807 10.1528 9.17409 8.49932 7.1379 6.39548 6.24174 6.19748 6.19807 6.02935 4.4053 4.19479 4.01924 4.57499 3.78397 3.44664 3.37594 3.22323 2.81412 2.79137 2.70803 2.63637 3.78324 2.63171 2.59146 2.5286 2.80946
threshold=0.46021526379199201 0.39859912463587499 0.57885425200106189 0.4091853574327084 0.49989898910449809 0.65732975861633447 0.78656609248549303 7.5000000000000009 1.0000000180025095e-35 0.74913528103878513 0.42195122971302862 12.500000000000002 0.17543230929182776 0.55450817107537909 11.500000000000002 17.650000000000002 0.30486825714971627 -0.60355339059327384 20.500000000000004 18.050000000000004 16.050000000000004 -0.70710678118654757 0.41959680810033412 0.2376741161143536 0.65661827547335505 89.500000000000014 5.2176457913436556 0.22493318503429127 0.50780849726525201 -0.5
decision_type=2 2 2 2 2 2 2 2 2 2 2 2 2 2 2 2 2 2 2 2 2 2 2 2 2 2 2 2 2 2
left_child=1 3 4 12 13 8 10 -5 19 20 11 -3 -1 21 -14 -16 -17 -12 -6 -4 -10 -2 -20 -9 25 -7 -18 -13 -21 -30
right_child=2 6 5 7 18 24 -8 23 9 -11 17 27 14 -15 15 16 26 -19 22 28 -22 -23 -24 -25 -26 -27 -28 -29 29 -31
leaf_value=-0.006508783928002553 0.0012913626571769644 -0.00088811378550918976 0.0013377104904510606 -0.0012909762798188598 0.0010424167752504433 0.0031044497004766359 -0.00059894199472195495 0.0018249844920532237 0.0017474048820478095 0.0071658585212614591 0.0013184637792648781 -0.0030540762257003206 -0.0016421877753997755 0.0013933550319753865 -0.0017895148078792889 -0.002324519203355089 -0.0013496566785887816 -0.0001223737280923204 -0.001209553887841189 0.0027442075683163369 0.0018848475031955471 1.3898596778415262e-05 0.00043816893419637711 -0.0001247492273734198 0.0061827448632534093 -0.00022551858324243587 0.00035232403200716189 -0.00028178557297306521 0.0046630481015189898 0.0022334323877471643
leaf_weight=2295 248 1380 499 561 2624 163 2043 91 824 92 242 177 5169 443 1928 1129 338 2004 125 368 266 2691 795 737 248 29 407 2225 67 316
leaf_count=2295 248 1380 499 561 2624 163 2043 91 824 92 242 177 5169 443 1928 1129 338 2004 125 368 266 2691 795 737 248 29 407 2225 67 316
internal_value=0 -0.00575967 0.00535058 -0.00762446 0.00320892 0.0105153 -0.00283577 -0.00270878 0.00931332 0.0119501 -0.00189117 -0.00312665 -0.00823052 0.00124926 -0.00764547 -0.0063848 -0.00473586 0.000189225 0.00507901 0.00682 0.0108945 0.000548656 0.00244565 0.000241546 0.0171591 0.0127604 -0.00169463 -0.00159242 0.00893808 0.011782
internal_weight=0 20726 9798 12655 6926 2872 8071 1389 2432 1182 6028 3782 11266 3382 8971 3802 1874 2246 3544 1250 1090 2939 920 828 440 192 745 2402 751 383
internal_count=30524 20726 9798 12655 6926 2872 8071 1389 2432 1182 6028 3782 11266 3382 8971 3802 1874 2246 3544 1250 1090 2939 920 828 440 192 745 2402 751 383
is_linear=0
shrinkage=0.05


Tree=29
num_leaves=31
num_cat=0
split_feature=7 6 7 7 6 6 3 4 3 7 1 7 3 1 7 7 1 7 6 7 8 7 8 6 8 1 3 7 6 1
split_gain=295.988 37.6652 31.2629 13.1872 9.66962 8.38167 7.78453 6.73433 6.4018 5.20782 5.01466 4.89422 4.7359 4.6369 3.79011 3.74368 3.99607 3.71265 3.52169 2.95304 2.92671 2.89341 2.69655 2.61136 5.27118 2.50494 2.49655 2.46337 2.34539 2.29484
threshold=0.46021526379199201 0.4140666194867908 0.53521094339497044 0.38838332366544376 0.70695303259335296 0.60721358760383082 -0.12940952255126048 0.25000000000000017 -0.37940952255126059 0.4961857601525333 7.5000000000000009 0.74913528103878513 -0.37940952255126059 17.500000000000004 0.74913528103878513 0.13112420772264277 18.500000000000004 0.4188014458211422 0.34871034893418101 0.13112420772264277 6.4512596882907021 0.28812268531494872 3.7256208424938384 0.41959680810033412 5.5965666693001079 21.500000000000004 0.60355339059327384 0.55742270113210102 0.25242984280179814 17.500000000000004
decision_type=2 2 2 2 2 2 2 2 2 2 2 2 2 2 2 2 2 2 2 2 2 2 2 2 2 2 2 2 2 2
left_child=1 3 5 6 7 9 15 12 29 28 -5 23 13 -4 22 -1 21 -10 -12 -8 26 -17 -6 24 -9 -11 -19 -25 -2 -3
right_child=2 8 4 10 14 -7 19 11 17 25 18 -13 -14 -15 -16 16 -18 20 -20 -21 -22 -23 -24 27 -26 -27 -28 -29 -30 -31
leaf_value=-0.0066668940862006408 0.0016706552330028298 9.43955283096161e-05 0.0037919788957202216 -0.00076991060186228652 0.0039014513593635825 0.0024050071063238215 -0.0088765850755962109 0.00013753112072710378 -0.00079600931836772137 0.0007424811052319652 0.00014962651958122798 0.0066998155395008342 0.00080394602743036336 0.0013403183013641102 0.0073293683661458837 -0.0019254540531135457 -0.0018276031411226809 -0.00043977681067016165 -0.00060981338142223761 -0.0016706857857309882 0.0016483432375114745 -0.00043409969417964602 0.005119536474684154 0.00099807970804190183 0.0036155895974925578 1.4732019588208773e-05 -0.00022871259551642266 0.0016712794928036513 1.8400151008937661e-05 -0.00063538872444271824
leaf_weight=466 43 1617 360 1296 175 453 918 185 1616 1519 442 86 866 1034 70 1124 667 1022 1493 6614 57 878 63 391 50 371 996 1196 2798 1521
leaf_count=466 43 1617 360 1296 175 453 918 185 1616 1519 442 86 866 1034 70 1124 667 1022 1493 6614 57 878 63 391 50 371 996 1196 2798 1521
internal_value=0 -0.00564903 0.00494824 -0.00714311 0.00800938 0.00230517 -0.00799077 0.00737764 -0.00260836 0.00168305 -0.00434463 0.00956499 0.00553097 0.00733501 0.0165584 -0.00589713 -0.00517516 -0.00401991 -0.00273256 -0.00886219 -0.00262048 -0.00405844 0.0135504 0.00901482 0.00409574 0.00371693 -0.00293608 0.00974323 0.000329989 -0.000948056
internal_weight=0 20727 9660 13898 4476 5184 10667 4168 6829 4731 3231 1908 2260 1394 308 3135 2669 3691 1935 7532 2075 2002 238 1822 235 1890 2018 1587 2841 3138
internal_count=30387 20727 9660 13898 4476 5184 10667 4168 6829 4731 3231 1908 2260 1394 308 3135 2669 3691 1935 7532 2075 2002 238 1822 235 1890 2018 1587 2841 3138
is_linear=0
shrinkage=0.05


Tree=30
num_leaves=31
num_cat=0
split_feature=7 6 7 6 3 7 2 2 7 6 7 2 7 1 7 4 2 4 7 2 10 6 4 7 3 3 4 7 10 3
split_gain=279.438 36.651 36.3681 12.3521 11.7788 11.2387 10.6511 8.94778 8.34724 6.84077 5.01744 5.99471 6.06301 4.43599 5.82514 4.16023 4.41803 3.59082 3.43146 4.55279 3.32185 3.09677 2.96319 5.39192 3.22846 4.12045 3.15952 2.82295 2.63058 2.54844
threshold=0.44835811828054495 0.37744586032709787 0.58298247825943939 0.55450817107537909 -0.37940952255126059 0.37195696216269725 -0.5 -0.60355339059327384 0.4961857601525333 0.49972755926326962 0.14974437194175963 -0.70710678118654757 0.30486825714971627 17.500000000000004 0.33121675626461827 0.6830127018922193 -0.5 -0.5 0.41602583824637868 0.78656609248549303 9.7000000000000011 0.42761989604726536 1.0000000180025095e-35 0.74913528103878513 -0.25881904510252113 -0.9829629131445341 -0.68301270189221952 0.38958890141023261 17.950000000000003 -0.37940952255126059
decision_type=2 2 2 2 2 2 2 2 2 2 2 2 2 2 2 2 2 2 2 2 2 2 2 2 2 2 2 2 2 2
left_child=1 5 3 7 13 10 -7 -2 -9 22 -1 12 -12 14 -3 16 -11 -16 -6 -20 -17 -10 24 -24 25 26 -4 -15 -5 -30
right_child=2 4 9 28 18 6 -8 8 21 15 11 -13 -14 27 17 20 -18 -19 19 -21 -22 -23 23 -25 -26 -27 -28 -29 29 -31
leaf_value=-0.0070511284448496114 0.0013924558007452029 -0.00092434893090797556 -0.0028108771703490524 0.0010154239988864556 -0.00090781939536559164 0.00018731961884427414 -0.001246050999398559 -9.7098465247230658e-05 3.2950460608459355e-05 0.0039181980931111754 -0.0027250796962295099 -0.0019274261726418872 -0.00049504904166177419 -0.0016314000202164169 0.0014020065105333603 0.00045985011905110289 0.002049262371671863 0.00013399289419123995 -0.0002524879652640741 -0.00049280398853229356 0.0021134050902215443 0.00055978705591563092 0.0016405163143717678 0.0065499781291339324 -0.00040611442557247359 0.0032130124993199173 0.002955519682222857 -0.0005236960375251537 0.0028563217031542022 0.0013401044794626284
leaf_weight=1684 757 638 77 1075 3006 614 1629 3359 651 160 2044 3671 670 707 387 43 1045 1088 1179 910 485 1942 426 52 188 278 20 1327 349 130
leaf_count=1684 757 638 77 1075 3006 614 1629 3359 651 160 2044 3671 670 707 387 43 1045 1088 1179 910 485 1942 426 52 188 278 20 1327 349 130
internal_value=0 -0.00575713 0.00419385 0.00253086 -0.00347057 -0.00780644 -0.00467566 0.00160046 0.000949261 0.00914744 -0.00867673 -0.00803641 -0.00625461 -0.00149204 0.000112399 0.0110718 0.00945021 0.00183898 -0.00508096 -0.00352441 0.0147727 0.00308041 0.0059438 0.00883891 0.00348579 0.00616667 -0.00270619 -0.0031588 0.00654762 0.00962944
internal_weight=0 19554 11037 8263 9242 10312 2243 6709 5952 2774 8069 6385 2714 4147 2113 1733 1205 1475 5095 2089 528 2593 1041 478 563 375 97 2034 1554 479
internal_count=30591 19554 11037 8263 9242 10312 2243 6709 5952 2774 8069 6385 2714 4147 2113 1733 1205 1475 5095 2089 528 2593 1041 478 563 375 97 2034 1554 479
is_linear=0
shrinkage=0.05


Tree=31
num_leaves=31
num_cat=0
split_feature=7 7 7 3 3 7 7 7 8 8 8 7 7 7 0 10 0 10 0 3 3 8 3 3 3 0 0 5 7 0
split_gain=254.92 36.4401 30.1616 13.1848 12.0378 8.17137 7.45142 6.99656 6.876 5.98096 5.33952 4.64602 4.30726 3.88283 3.79483 3.52902 3.3325 4.20774 3.18319 2.89664 2.78631 2.64009 2.6128 2.44912 2.42548 2.36654 2.36568 2.36329 2.32627 2.30322
threshold=0.45434126074477049 0.37122012108844704 0.57565143639564564 -0.12940952255126048 -0.37940952255126059 0.49989898910449809 0.21611442886028548 0.74913528103878513 1.4978661367769959 3.6242520361853052 6.6339758955710328 0.42195122971302862 0.38958890141023261 0.16116886892064616 2.5000000000000004 17.950000000000003 1.5000000000000002 12.750000000000002 2.5000000000000004 0.98296291314453432 -0.70710678118654735 5.84209303720238 -0.70710678118654735 -0.37940952255126059 0.12940952255126043 2.5000000000000004 4.5000000000000009 -0.5 0.42534848649487017 7.5000000000000009
decision_type=2 2 2 2 2 2 2 2 2 2 2 2 2 2 2 2 2 2 2 2 2 2 2 2 2 2 2 2 2 2
left_child=1 3 5 6 9 15 -1 16 -8 12 11 25 -3 -5 22 -2 17 -4 19 -7 -14 -13 -9 27 -15 -6 -10 -17 -23 -12
right_child=2 4 7 13 10 18 8 14 26 -11 29 21 20 24 -16 23 -18 -19 -20 -21 -22 28 -24 -25 -26 -27 -28 -29 -30 -31
leaf_value=-0.0033919848893909157 6.0958249032239127e-06 -0.0013072813060378394 0.00056329519718250904 -0.007669921709234917 -0.00078107304307783662 0.0010770707649527978 -0.0019055957869552242 0.0050356164454531506 -0.00093481779516394609 0.00093156509002765707 0.0010592871271213721 -0.00042583078377357797 1.5000893818289258e-05 -0.0015619209522066205 0.0056220088481240636 0.0012944828071144319 0.0017190266131338616 0.001844106400077844 0.00058554079833977597 -0.00048822595553453394 -0.0008430019335589887 0.0015622499862658437 0.0069500503934611605 0.00026668094698001631 -0.0018558292464943929 -0.00069947166141089568 -0.00010800614495664121 0.0026348465050536497 3.8449813629015674e-05 -0.00034353403541774463
leaf_weight=1238 3022 719 133 1333 527 816 669 31 614 615 176 2091 1775 794 305 269 2236 232 2605 55 383 29 36 479 4769 3063 1173 143 201 178
leaf_count=1238 3022 719 133 1333 527 816 669 31 614 615 176 2091 1775 794 305 269 2236 232 2605 55 383 29 36 479 4769 3063 1173 143 201 178
internal_value=0 -0.00551617 0.00411841 -0.00754721 -0.00331172 0.00240729 -0.00513671 0.00837117 -0.00354235 -0.000959336 -0.00462291 -0.00498012 -0.00191606 -0.00883846 0.0147849 0.000840148 0.00745386 0.0118836 0.00417146 0.00678817 -0.000799351 -0.00323675 0.0255597 0.0036055 -0.00825768 -0.00610724 -0.00192361 0.00643204 0.00184783 0.00134181
internal_weight=0 20347 10362 10590 9757 7389 3694 2973 2456 3492 6265 5911 2877 6896 372 3913 2601 365 3476 871 2158 2321 67 891 5563 3590 1787 412 230 354
internal_count=30709 20347 10362 10590 9757 7389 3694 2973 2456 3492 6265 5911 2877 6896 372 3913 2601 365 3476 871 2158 2321 67 891 5563 3590 1787 412 230 354
is_linear=0
shrinkage=0.05


Tree=32
num_leaves=31
num_cat=0
split_feature=7 7 3 7 7 0 7 8 7 3 7 7 3 7 7 10 8 10 8 3 3 3 8 0 5 7 0 0 8 3
split_gain=232.348 34.0984 29.3368 15.8989 7.5322 7.43172 6.10785 5.73771 5.45083 5.22903 5.22145 4.97451 4.89494 4.82222 4.7049 4.56758 3.6933 3.39552 3.19975 6.9797 2.90319 2.90199 7.80853 5.9222 2.60967 2.83567 2.58964 2.5884 2.58142 3.86773
threshold=0.44340784617414186 0.54871617320634813 -0.37940952255126059 0.39612797331898758 0.22493318503429127 2.5000000000000004 0.48310515909166246 2.1383330595080285 0.14350241055454291 -0.12940952255126048 0.74913528103878513 0.60699495501663581 -0.60355339059327362 0.339230536217003 0.39612797331898758 17.650000000000002 5.8507636298606682 15.550000000000002 4.2835627800822236 1.0000000180025095e-35 0.60355339059327384 -0.25881904510252113 4.6200466650627661 10.500000000000002 -0.93301270189221919 0.40690650999063921 1.5000000000000002 3.5000000000000004 4.9015572891946713 1.0000000180025095e-35
decision_type=2 2 2 2 2 2 2 2 2 2 2 2 2 2 2 2 2 2 2 2 2 2 2 2 2 2 2 2 2 2
left_child=2 6 4 8 -1 10 28 14 -4 15 17 20 -12 -9 -6 -10 -5 -3 27 -20 -7 22 -13 -23 25 -15 -21 -8 -2 -30
right_child=1 5 3 16 7 11 18 13 9 -11 12 21 -14 24 -16 -17 -18 -19 19 26 -22 23 -24 -25 -26 -27 -28 -29 29 -31
leaf_value=-0.0029342321609432498 -8.4406877017310924e-05 0.0010420452041798507 -0.0069159699584008406 -0.00046536451803277923 -0.0014069390503627045 0.0010359651574951168 0.00052845627116813456 -0.00074549904982871705 -0.0015073695589993873 -0.0014237424776307704 0.0061456334942644499 0.0024422822252087198 0.0066735677267552584 0.001388719546962576 -0.00026962460729740707 -0.00029465798640804231 -6.2341171586532965e-05 0.0021405195169956286 0.0027115454881859614 0.0023854641896399703 -0.00028990870431055971 0.0013577791843720904 0.0045871684557694335 0.001847190956630522 0.00030944816526972882 0.0058049884939152313 0.00016515303176213028 0.00014989796545835656 0.0018423565137264564 0.00013386134123520021
leaf_weight=703 3217 690 1457 2833 1434 1154 859 923 395 7481 30 1074 38 62 1458 576 568 201 247 67 224 337 117 75 1039 22 414 2096 184 465
leaf_count=703 3217 690 1457 2833 1434 1154 859 923 395 7481 30 1074 38 62 1458 576 568 201 247 67 224 337 117 75 1039 22 414 2096 184 465
internal_value=0 0.00331078 -0.00570089 -0.00698159 -0.00267905 0.00708122 0.00134289 -0.00198967 -0.007994 -0.0075071 0.0109098 0.00584955 0.0242647 3.66569e-05 -0.00342324 -0.0040551 -0.0040319 0.00989057 0.00280003 0.00576923 0.00364659 0.00774329 0.00899454 0.00412621 0.00223731 0.0107143 0.00226091 0.00206853 -4.52664e-05 0.00283128
internal_weight=0 11489 18951 13310 5641 3940 7549 4938 9909 8452 959 2981 68 2046 2892 971 3401 891 3683 728 1378 1603 1191 412 1123 84 481 2955 3866 649
internal_count=30440 11489 18951 13310 5641 3940 7549 4938 9909 8452 959 2981 68 2046 2892 971 3401 891 3683 728 1378 1603 1191 412 1123 84 481 2955 3866 649
is_linear=0
shrinkage=0.05


Tree=33
num_leaves=31
num_cat=0
split_feature=7 7 7 3 7 1 0 7 3 10 1 10 7 1 10 1 3 8 7 3 0 1 1 7 7 1 5 5 3 7
split_gain=223.94 33.9585 28.4445 14.749 9.02598 9.60833 8.56455 8.09591 5.15368 5.04335 5.03431 4.79182 4.70411 4.32172 4.94174 8.21037 4.21736 4.26157 3.87646 3.7026 3.63995 2.93714 3.96746 2.80347 2.79682 2.57134 5.78542 2.50274 2.40537 2.37093
threshold=0.44340784617414186 0.53239229724155124 0.3852179108753947 -0.12940952255126048 0.18094069933012566 18.500000000000004 2.5000000000000004 0.74913528103878513 -0.37940952255126059 18.450000000000003 17.500000000000004 15.550000000000002 0.23345933261092369 21.500000000000004 17.950000000000003 12.500000000000002 -0.25881904510252113 3.1567740231385479 0.30486825714971627 -0.78656609248549292 4.5000000000000009 22.500000000000004 12.500000000000002 0.81632706295631363 0.48612669369306866 8.5000000000000018 -0.5 -0.6830127018922193 0.91597561503675362 0.42993750483365162
decision_type=2 2 2 2 2 2 2 2 2 2 2 2 2 2 2 2 2 2 2 2 2 2 2 2 2 2 2 2 2 2
left_child=2 13 3 4 -1 18 7 11 10 23 29 28 25 14 -2 -16 17 -11 -6 -13 -20 22 -10 -8 -17 26 -5 -24 -3 -4
right_child=1 6 8 12 5 -7 9 -9 21 16 -12 19 -14 -15 15 24 -18 -19 20 -21 -22 -23 27 -25 -26 -27 -28 -29 -30 -31
leaf_value=-0.0039891494737984007 0.00010402519437596597 0.0010669941864758449 0.00014245097170741545 0.00069218007219928879 -0.0009261026008422935 -0.0015456471336305567 0.00085910021964830672 0.0064991025787574826 -0.00041871358534875116 0.0022864203312993356 -0.00077638650573701661 0.00094250357477840274 -0.0012700457774663665 -0.00017095139626994023 8.0498229902522395e-05 0.00086475793733612751 0.0012617493683699356 0.0036760297272741024 -0.0007201448207470513 0.0023480041032040988 0.00036074672182194873 -0.0005899706064189811 -0.00046573761468420157 0.0071402584579407583 0.0028716353962956521 -0.0057876715008356077 -0.0034222374676500474 0.0022114256874969929 0.00025367555993435764 0.0012728407610811177
leaf_weight=924 4135 724 675 110 1228 892 2304 62 3266 606 1579 82 5646 1285 783 385 344 214 544 153 834 611 25 61 332 2107 253 65 142 216
leaf_count=924 4135 724 675 110 1228 892 2304 62 3266 606 1579 82 5646 1285 783 385 344 214 544 153 834 611 25 61 332 2107 253 65 142 216
internal_value=0 0.00323803 -0.00557773 -0.00696483 -0.00464156 -0.00348056 0.00652174 0.0102429 -0.00287595 0.00529541 -0.001083 0.00925295 -0.00823066 0.00101156 0.00160825 0.00406667 0.00798969 0.00993902 -0.00194743 0.0155851 -0.000126996 -0.00399231 -0.0034118 0.00396934 0.00793236 -0.0100506 -0.00616391 0.00694444 0.00753464 0.001922
internal_weight=0 11612 18975 12538 4422 3498 4692 1163 6437 3529 2470 1101 8116 6920 5635 1500 1164 820 2606 235 1378 3967 3356 2365 717 2470 363 90 866 891
