tree
version=v3
num_class=1
num_tree_per_iteration=1
label_index=0
max_feature_idx=9
objective=quantile
feature_names=Month Hour hour_x hour_y month_x month_y net_target-1 diffuse_solar_radiation+1 relative_humidity+1 drybulb_temp+1
feature_infos=[1:12] [0:23] [-1:1] [-1:1] [-0.86602540378443871:1] [-1:1] [0:1] [0:6.9196838498474111] [10:100] [5.5999999999999996:32.200000000000003]
tree_sizes=1866 2433 2265 2647 2908 2703 2907 2882 2905 2930 2360 2360 2802 2627 2923 2558 2906 2931 2932 2812 2957 2901 2945 2938 2919 2926 2935 2934 2940 2911 2946 2913 2949 2951 2929 2946 2938 2929 2943 2970 2907 2940 2951 2961 2951 2931 2936 2937 2923 2921 2923 2955 2941 2944 2930 2925 2949 2937 2950 2936 2904 2938 2946 2963 2918 2925 2956 2932 2945 2937 2950 2945 2933 2941 2945 2939 2937 2926 2912 2931 2936 2956 2944 2944 2945 2938 2942 2972 2952 2939 2943 2931 2944 2921 2945 2945 2942 2941 2956 2979 2953 2939 2966 2941 2982 2969 2946 2919 2957 2966 2947 2947 2953 2940 2956 2963 2970 2958 2976 2940 2946 2961 2949 2946 2942 2947 2961 2947

Tree=0
num_leaves=20
num_cat=0
split_feature=6 7 7 6 7 1 1 7 7 4 8 6 6 4 8 0 6 6 6
split_gain=2.24982 2.23297 0.4121 0.230126 0.350442 0.0374665 0.03082 0.0143383 0.0980257 0.211672 0.0181297 0.0652174 0.10352 0.00303531 0.0464664 3.46945e-18 1.73472e-18 2.1684e-19 2.71051e-20
threshold=0.035675318879856054 6.787280966457331 6.0001757199539183 0.052171512443510759 6.7280301689677797 12.500000000000002 11.500000000000002 6.4777410025491262 6.4884444749049646 -0.24999999999999994 36.500000000000007 0.14877265005211313 0.10048492595619686 -0.68301270189221952 67.500000000000014 4.5000000000000009 0.085537014144820719 0.4862053088149309 0.37266720458748465
decision_type=2 2 2 2 2 2 2 2 2 2 2 2 2 2 2 2 2 2 2
left_child=1 2 -1 4 6 -4 -2 15 9 -9 11 12 -10 14 -12 -5 -17 -15 -13
right_child=3 -3 5 7 -6 -7 -8 8 10 -11 13 18 -14 17 -16 16 -18 -19 -20
leaf_value=0.018168191677792933 0.018551249431592431 0.017894674286276314 0.018358313574750974 0.019974952971097082 0.018457305905879195 0.019523612808299617 0.019273055100774171 0.018656760783370176 0.019428940505023463 0.022249716170000509 0.018960048921411499 0.019332040693947762 0.018635830872591262 0.019082085693457883 0.018797247525151307 0.019605467316632996 0.021723138220841064 0.025329845237195059 0.020698645366792334
leaf_weight=20 23 20 38 9063 28 21 56 28 25 54 263 114 21 1682 20 38 12629 42 24
leaf_count=20 23 20 38 9063 28 21 56 28 25 54 263 114 21 1682 20 38 12629 42 24
internal_value=0.0188344 0.0113087 0.015087 0.0188616 0.016548 0.0171895 0.0182515 0.0188719 0.0187525 0.0170552 0.018816 0.018341 0.0167105 0.0188595 0.0187078 0.0188844 0.0188844 0.0188844 0.0188844
internal_weight=0 99 79 24110 107 59 79 24003 2273 82 2191 184 46 2007 283 21730 12667 1724 138
internal_count=24209 99 79 24110 107 59 79 24003 2273 82 2191 184 46 2007 283 21730 12667 1724 138
is_linear=0
shrinkage=1


Tree=1
num_leaves=26
num_cat=0
split_feature=6 7 1 7 6 1 9 7 7 9 8 6 9 6 1 6 8 0 9 0 6 9 6 1 0
split_gain=1.67131 1.21 0.198352 0.113553 0.101104 0.139795 0.0448348 0.0199902 0.161966 0.264669 0.0141077 0.0312256 0.0107692 0.0332594 0.00131974 0.0204007 0.0277778 3.46945e-18 1.73472e-18 2.1684e-19 2.1684e-19 2.1684e-19 1.0842e-19 1.35525e-20 6.77626e-21
threshold=0.035675318879856054 6.7747949886470034 11.500000000000002 6.6167340815536484 0.052171512443510759 11.500000000000002 28.600000000000005 6.4777410025491262 6.4884444749049646 19.300000000000001 24.500000000000004 0.14877265005211313 24.700000000000003 0.17040924461912063 9.5000000000000018 0.18040713493459867 62.500000000000007 8.5000000000000018 20.300000000000004 2.5000000000000004 0.38033171407854444 25.300000000000004 0.43498612815108989 10.500000000000002 8.5000000000000018
decision_type=2 2 2 2 2 2 2 2 2 2 2 2 2 2 2 2 2 2 2 2 2 2 2 2 2
left_child=1 2 -1 -4 5 -2 7 17 9 -9 11 -10 14 -14 15 16 -12 -6 -19 23 -21 -20 -17 -16 -15
right_child=4 -3 3 -5 6 -7 -8 8 10 -11 12 -13 13 24 19 22 -18 18 21 20 -22 -23 -24 -25 -26
leaf_value=-0.00063407308865057362 -0.00035736639336874987 -0.00089255416028957604 6.4369886128989867e-05 -0.0007732189835679827 0.00079448329615843254 0.00041567596580437805 -5.3032757079585041e-05 -0.00016845941216210754 -0.00017533269298133274 0.0018094771258664367 -0.00088625501048312594 0.00046164857760786046 -0.00091625319502540491 0.00078308228322526924 0.00067136311700210182 0.0005602577719605507 0.00079239080474152962 0.0030694705266068926 0.0024015904157467815 0.00011679042716587815 0.0023535450958468117 0.0028877128197291315 0.0061811008861837992 0.0032572381257472216 0.0032405960289997892
leaf_weight=28 37 20 31 21 12280 50 22 36 21 53 20 40 22 26 34 456 25 8425 1106 1155 200 75 48 55 34
leaf_count=28 37 20 31 21 12280 50 22 36 21 53 20 40 22 26 34 456 25 8425 1106 1155 200 75 48 55 34
internal_value=0 -0.00645 -0.0037 -0.00187308 2.72915e-05 -0.00167414 3.34252e-05 3.54838e-05 -0.000107303 -0.00219719 -2.02247e-05 -0.000769672 1.80723e-06 -0.000559756 2.49122e-05 -4.10747e-05 -0.00106111 5e-05 5e-05 5e-05 5e-05 5e-05 5e-05 5e-05 5e-05
internal_weight=0 100 80 52 24220 87 24133 24111 2225 89 2136 61 2075 82 1993 549 45 21886 9606 1444 1355 1181 504 89 60
internal_count=24320 100 80 52 24220 87 24133 24111 2225 89 2136 61 2075 82 1993 549 45 21886 9606 1444 1355 1181 504 89 60
is_linear=0
shrinkage=0.05


Tree=2
num_leaves=24
num_cat=0
split_feature=6 7 1 4 7 7 7 6 6 0 6 6 7 6 6 6 7 1 1 6 6 0 6
split_gain=1.64799 1.29907 0.302099 0.184205 0.266667 0.114894 0.027292 0.0400879 0.026631 0.0325942 0.0648084 0.0692641 0.0272727 0.00584416 0.00244473 0.00956063 0.0296185 6.93889e-18 4.33681e-19 2.1684e-19 1.0842e-19 5.42101e-20 1.35525e-20
threshold=0.052171512443510759 6.7996129651804988 12.500000000000002 1.0000000180025095e-35 6.4449255380430106 6.5964631079239817 6.7208229279629697 0.06517146368562271 0.21686379095339473 6.5000000000000009 0.12503555831670943 0.14877265005211313 6.8227417564880897 0.19578339341669151 0.10048492595619686 0.093572061245469365 6.4838712935462262 1.5000000000000002 1.0000000180025095e-35 0.63359146996335203 0.45587767517223277 10.500000000000002 0.085537014144820719
decision_type=2 2 2 2 2 2 2 2 2 2 2 2 2 2 2 2 2 2 2 2 2 2 2
left_child=1 2 3 4 -1 -5 14 -8 9 10 22 -12 13 -13 15 21 -17 18 19 -16 -10 -2 -9
right_child=6 -3 -4 5 -6 -7 7 8 20 -11 11 12 -14 -15 17 16 -18 -19 -20 -21 -22 -23 -24
leaf_value=-0.00091360192618508945 0.0002450997211693871 -0.00084746747554012331 4.5512551899528581e-05 0.00011881607747057461 -0.00072527715898070434 -0.00045547363458608195 1.0651624063194674e-05 0.00023708061373466495 0.00025173526220624522 0.0027266273325787186 -0.00088826627936027826 -0.00083457178917586711 9.6034067155687745e-05 -5.5660057181560267e-05 0.015405362655301361 0.0011259269612727228 -0.00015612692412092616 0.0015857800359446229 0.015477213594315095 0.016790890259410617 0.0080458713062141456 0.0015212394366273829 0.00038994647828201632
leaf_weight=24 294 27 56 27 40 20 20 38 473 147 24 35 33 20 946 59 24 20893 1057 50 25 25 55
leaf_count=24 294 27 56 27 40 20 20 38 473 147 24 35 33 20 946 59 24 20893 1057 50 25 25 55
internal_value=0 -0.00458918 -0.00294401 -0.0044545 -0.0062 -0.00207766 3.76125e-05 -0.000237356 -0.000185294 -0.000518182 -0.00092561 -0.00173571 -0.00108636 -0.00176818 4.78585e-05 -7.43781e-05 -0.00055241 5e-05 5e-05 5e-05 5e-05 5e-05 5e-05
internal_weight=0 194 167 111 64 47 24218 870 850 352 205 112 88 55 23348 402 83 22946 2053 996 498 319 93
internal_count=24412 194 167 111 64 47 24218 870 850 352 205 112 88 55 23348 402 83 22946 2053 996 498 319 93
is_linear=0
shrinkage=0.05


Tree=3
num_leaves=28
num_cat=0
split_feature=6 9 1 1 1 0 9 6 1 9 9 6 1 5 9 9 1 6 6 9 0 2 1 0 6 6 9
split_gain=0.781834 0.630006 1.15961 0.0797101 0.0484091 0.114894 0.0448372 0.029257 0.0456589 0.0643538 0.205529 0.0052273 0.0181361 0.0637007 0.0948617 0.0146526 0.0346154 0.000486089 0.0105803 0.0388889 3.46945e-18 3.46945e-18 4.33681e-19 2.1684e-19 2.1684e-19 1.35525e-20 1.35525e-20
threshold=0.052171512443510759 19.300000000000001 11.500000000000002 12.500000000000002 11.500000000000002 3.5000000000000004 28.600000000000005 0.085537014144820719 11.500000000000002 18.150000000000002 19.700000000000003 0.18040713493459867 9.5000000000000018 0.68301270189221941 18.150000000000002 24.700000000000003 11.500000000000002 0.27516632356024556 0.27183800929349761 16.050000000000004 11.500000000000002 -0.78656609248549325 1.0000000180025095e-35 10.500000000000002 0.17040924461912063 0.4750278106097427 18.150000000000002
decision_type=2 2 2 2 2 2 2 2 2 2 2 2 2 2 2 2 2 2 2 2 2 2 2 2 2 2 2
left_child=1 4 -3 -4 5 -1 7 8 9 -2 -11 12 13 -9 -15 23 -17 18 -13 -20 21 -19 25 24 -14 -22 -26
right_child=6 2 3 -5 -6 -7 -8 11 -10 10 -12 17 15 14 -16 16 -18 20 19 -21 22 -23 -24 -25 26 -27 -28
leaf_value=0.00012055575249563063 0.00059533146332712964 -0.00080519195628760056 -0.00068626261935729113 0.00071902860449501137 3.0156322015066759e-05 -0.00054500400406687084 -1.1714367847213276e-05 0.0017570637535370432 0.00056843419634548234 -0.00013109708161357543 0.00022292505181039767 0.00042748913222309117 7.4221753366553514e-05 0.0003273656817861985 -0.00085199995014329519 0.00085939481977348974 -0.00074566798740407993 0.001903862678596201 0.0001080349996921956 0.0046212302047169088 0.015616291576983257 0.0030429294504641224 0.0048769830423527243 0.0035516145741894978 0.00059033972833403626 0.019079144164375977 0.00020588326882897421
leaf_weight=27 54 26 24 22 62 20 22 126 176 26 38 1794 1028 24 22 45 20 1913 20 70 58 16175 2286 152 55 57 66
leaf_count=27 54 26 24 22 62 20 22 126 176 26 38 1794 1028 24 22 45 20 1913 20 70 58 16175 2286 152 55 57 66
internal_value=0 -0.00326492 -0.00689444 -0.00212391 -0.000867431 -0.00207766 3.34895e-05 3.55402e-05 -0.000460204 -0.00122119 -0.00229375 4.16357e-05 -4.75293e-05 -0.000531395 -0.00212391 1.33968e-05 -0.000719231 4.77652e-05 2.34607e-05 -0.000505556 5e-05 5e-05 5e-05 5e-05 5e-05 5e-05 5e-05
internal_weight=0 181 72 46 109 47 24227 24205 294 118 64 23911 1538 172 46 1366 65 22373 1884 90 20489 18088 2401 1301 1149 115 121
internal_count=24408 181 72 46 109 47 24227 24205 294 118 64 23911 1538 172 46 1366 65 22373 1884 90 20489 18088 2401 1301 1149 115 121
is_linear=0
shrinkage=0.05


Tree=4
num_leaves=31
num_cat=0
split_feature=6 1 6 7 7 1 7 1 8 6 6 1 7 6 6 8 1 5 8 7 0 1 1 6 0 7 6 6 0 0
split_gain=1.07462 1.24487 0.175137 0.228452 0.0324561 0.0285529 0.0185804 0.0852628 0.0376077 0.00352177 0.00690695 0.0131712 0.0261905 0.00107031 0.00994759 0.034585 0.0010694 0.00324074 0.009069 0.0363014 3.46945e-18 1.73472e-18 8.67362e-19 8.67362e-19 4.33681e-19 4.33681e-19 1.0842e-19 5.42101e-20 2.71051e-20 2.71051e-20
threshold=0.035675318879856054 11.500000000000002 0.052171512443510759 6.7280301689677797 6.4449255380430106 11.500000000000002 6.7940263567282555 11.500000000000002 38.500000000000007 0.085537014144820719 0.075590081920622762 11.500000000000002 6.4838712935462262 0.27516632356024556 0.27183800929349761 77.500000000000014 9.5000000000000018 0.68301270189221941 67.500000000000014 6.4777410025491262 9.5000000000000018 11.500000000000002 1.0000000180025095e-35 0.65525442424490221 11.500000000000002 6.787280966457331 0.20633387658238497 0.42409940915740979 8.5000000000000018 3.5000000000000004
decision_type=2 2 2 2 2 2 2 2 2 2 2 2 2 2 2 2 2 2 2 2 2 2 2 2 2 2 2 2 2 2
left_child=1 -1 3 5 -3 -2 9 8 -8 10 28 12 -12 14 16 -16 17 26 29 -20 21 23 -22 -15 25 -18 -11 -10 -4 -19
right_child=2 4 6 -5 -6 -7 7 -9 27 13 11 -13 -14 20 15 -17 24 18 19 -21 22 -23 -24 -25 -26 -27 -28 -29 -30 -31
leaf_value=-0.00076405278609029256 -0.00017583060461450134 -0.00082017565822800186 3.7359007241249578e-05 -0.0002584256987892565 0.00015179262615830277 0.00052792333687250084 -8.7037718882996422e-06 -0.00079904500294967833 8.827311572377163e-05 0.00038559804581032398 0.00063102242447956301 0.0013334712576243549 -0.00010588881673750991 0.0012855914698683664 0.0044568566147562593 2.3197999856887365e-06 0.00035834828192864149 0.00041819005259537725 0.00035268657571351002 -0.00012227641756415686 0.0148452916821969 0.0068077696450804803 0.0045567379711033322 0.010715997100627301 0.0029669641926249081 0.00024159630701095885 0.0014249778196156826 0.0028809914017318295 0.0011859149541704344 0.00067181697204790895
leaf_weight=35 23 20 153 23 37 44 25 39 370 211 22 52 20 6664 70 22 2210 82 53 20 321 6691 6311 162 178 22 293 23 21 61
leaf_count=35 23 20 153 23 37 44 25 39 370 211 22 52 20 6664 70 22 2210 82 53 20 321 6691 6311 162 178 22 293 23 21 61
internal_value=0 -0.00538478 2.93269e-05 -0.00217222 -0.000827193 -0.000696269 3.75498e-05 -0.000278228 -6.96172e-05 4.36546e-05 -0.000136567 -0.000481915 -0.00114048 4.57212e-05 1.89634e-05 -0.000493478 3.40256e-05 -1.94444e-05 -0.000181481 -0.000634932 5e-05 5e-05 5e-05 5e-05 5e-05 5e-05 5e-05 5e-05 5e-05 5e-05
internal_weight=0 92 24186 90 57 67 24096 457 418 23639 268 94 42 23371 3222 92 3130 720 216 73 20149 13517 6632 6826 2410 2232 504 393 174 143
internal_count=24278 92 24186 90 57 67 24096 457 418 23639 268 94 42 23371 3222 92 3130 720 216 73 20149 13517 6632 6826 2410 2232 504 393 174 143
is_linear=0
shrinkage=0.05


Tree=5
num_leaves=29
num_cat=0
split_feature=6 3 7 4 6 9 7 7 4 8 8 7 7 6 3 7 6 6 5 4 7 6 6 4 7 6 6 6
split_gain=1.00733 0.57483 0.135281 0.119048 0.0876675 0.167143 0.019259 0.168365 0.365678 0.0120289 0.0357143 0.00285003 0.0177716 0.0287234 0.00648931 0.0307096 0.000363339 0.0159846 0.0336066 3.46945e-18 3.46945e-18 4.33681e-19 2.1684e-19 1.0842e-19 2.71051e-20 1.35525e-20 6.77626e-21 6.77626e-21
threshold=0.035675318879856054 0.25881904510252091 6.7208229279629697 -0.5 0.052171512443510759 19.300000000000001 6.4777410025491262 6.4884444749049646 -0.24999999999999994 24.500000000000004 17.500000000000004 6.7280301689677797 6.7363734861220923 0.25930895980883661 0.25881904510252091 6.7996129651804988 0.27516632356024556 0.27183800929349761 0.68301270189221941 0.93301270189221952 6.4175486092242702 0.67873751799716608 0.4650083299689895 -0.24999999999999994 6.4700249102891876 0.23652275406225295 0.71418095147092819 0.53940480551387793
decision_type=2 2 2 2 2 2 2 2 2 2 2 2 2 2 2 2 2 2 2 2 2 2 2 2 2 2 2 2
left_child=1 3 -3 -1 5 -2 16 8 -8 10 -9 22 13 -13 15 25 17 -6 -19 20 -18 -21 -11 -16 -22 -14 -23 -24
right_child=4 2 -4 -5 6 -7 7 9 -10 11 -12 12 14 -15 23 -17 19 18 -20 21 24 26 27 -25 -26 -27 -28 -29
leaf_value=-0.00079744211160705149 0.00012318939227965318 -0.00049200539179595311 -0.00072731591436775412 0.00031750595042767286 0.00038791226430541411 -0.00019098383747510005 -0.00017534554849185684 0.00037184855750955841 0.003034196451027787 0.00028973329577584487 -9.8295376900836909e-05 -0.00078686047324372135 0.0012413068299857882 0.0007355111190872649 8.7092715852346556e-05 -5.9971893037955636e-05 0.0049175781866502306 0.0072559415419985148 -2.6521767010925098e-06 0.0057129515035965897 0.0027189025080728308 0.016189213331571143 0.0072353779926602572 0.00061036442379405883 0.0086689392885160501 0.00017477981511995609 0.011746693946670309 0.0082534727255532247
leaf_weight=21 65 22 20 35 2385 35 29 50 57 1187 20 20 55 27 499 26 17013 41 20 2280 166 28 40 164 25 48 24 20
leaf_count=21 65 22 20 35 2385 35 29 50 57 1187 20 20 55 27 499 26 17013 41 20 2280 166 28 40 164 25 48 24 20
internal_value=0 -0.00505204 -0.00947381 -0.00173571 2.73886e-05 -0.00145 3.34875e-05 -0.000106111 -0.00227558 -1.95733e-05 -0.000664286 2.06136e-06 -6.91895e-05 -0.00101383 -1.31313e-05 -0.000337597 4.77254e-05 2.95585e-05 -0.000769672 5e-05 5e-05 5e-05 5e-05 5e-05 5e-05 5e-05 5e-05 5e-05
internal_weight=0 98 42 56 24324 100 24224 2242 86 2156 70 2086 839 47 792 129 21982 2446 61 19536 17204 2332 1247 663 191 103 52 60
internal_count=24422 98 42 56 24324 100 24224 2242 86 2156 70 2086 839 47 792 129 21982 2446 61 19536 17204 2332 1247 663 191 103 52 60
is_linear=0
shrinkage=0.05


Tree=6
num_leaves=31
num_cat=0
split_feature=7 0 7 1 9 7 0 7 7 7 4 4 1 9 9 1 7 7 9 0 4 2 7 5 7 0 7 7 0 7
split_gain=0.156195 0.165958 0.147984 0.187243 0.22846 0.215803 0.0356944 0.0283217 0.0212594 0.0898387 0.282871 0.0294925 0.0323984 0.0219116 0.0272727 0.0203704 0.00876783 0.00561567 0.0215863 0.103226 0.0160255 0.155648 0.00468496 0.00291459 0.0261963 4.33681e-19 2.1684e-19 2.1684e-19 2.71051e-20 1.35525e-20
threshold=6.7208229279629697 6.5000000000000009 6.7363734861220923 10.500000000000002 20.300000000000004 6.8150914436671455 4.5000000000000009 6.7940263567282555 6.4777410025491262 6.4884444749049646 -0.24999999999999994 -0.68301270189221952 10.500000000000002 25.300000000000004 25.850000000000005 11.500000000000002 6.8669327419268669 5.8185970451577838 14.300000000000002 3.5000000000000004 -0.68301270189221952 -0.9159756150367534 6.612712626606327 0.93301270189221952 5.9148525341228533 8.5000000000000018 6.6802269323173 6.4591213688611626 4.5000000000000009 6.8585644830997969
decision_type=2 2 2 2 2 2 2 2 2 2 2 2 2 2 2 2 2 2 2 2 2 2 2 2 2 2 2 2 2 2
left_child=8 2 -2 28 6 -6 7 15 17 10 -10 12 -11 26 -15 -5 -7 -1 19 -19 21 -20 -14 25 -25 -22 -13 -27 -4 -30
right_child=1 -3 3 4 5 16 -8 -9 9 11 -12 13 22 14 -16 -17 -18 18 20 -21 23 -23 -24 24 -26 27 -28 -29 29 -31
leaf_value=0.002211912501224233 -0.00079737280297666234 0.0016079609100733087 0.00011263873258641262 0.00031666461004936316 -0.00080857217207481286 -0.00062388755769297345 6.3512941975482612e-05 -0.00031979908321827684 -0.00016658500609671766 0.0026527272477799855 0.0030125755417495315 0.00032517276526471155 -0.00014352032183470397 -0.00016745405368202545 0.0020890131052478549 -1.5662226570950078e-05 -0.00058148037502175724 0.0025156819752242092 -0.00074927712877478566 -0.00045852546413709751 0.00041203093793529407 0.00076800704358162347 -0.00060430870959814371 -0.00024135532384613714 0.0004447624909087341 0.0017935456783109685 0.00031746731971165948 0.0031721560059687925 0.0019925811131412305 0.00097793141085958575
leaf_weight=18141 33 471 128 33 38 21 64 39 23 54 60 997 22 20 24 27 26 124 23 31 1284 196 37 34 277 1682 185 47 55 32
leaf_count=18141 33 471 128 33 38 21 64 39 23 54 60 997 22 20 24 27 26 124 23 31 1284 196 37 34 277 1682 185 47 55 32
internal_value=0 -0.000622182 -0.00126048 -0.00102991 -0.00196613 -0.00406765 -0.000870245 -0.00146515 2.63553e-05 -0.00016097 -0.00175723 -6.20239e-05 -0.000834956 9.21697e-06 -0.00108636 -0.000783333 -0.00633298 3.85526e-05 -1.76041e-05 -0.000595161 7.663e-06 -0.000406621 -0.00164492 3.49579e-05 -0.000110772 5e-05 5e-05 5e-05 5e-05 5e-05
internal_weight=0 967 496 463 248 85 163 99 23261 1422 83 1339 113 1226 44 60 47 21839 3698 155 3543 219 59 3324 311 3013 1182 1729 215 87
internal_count=24228 967 496 463 248 85 163 99 23261 1422 83 1339 113 1226 44 60 47 21839 3698 155 3543 219 59 3324 311 3013 1182 1729 215 87
is_linear=0
shrinkage=0.05


Tree=7
num_leaves=31
num_cat=0
split_feature=6 7 7 6 9 7 6 7 7 7 7 1 7 1 7 7 5 6 6 7 1 1 1 6 6 1 1 5 6 6
split_gain=1.16957 0.918604 0.247686 0.0939419 0.213571 0.0283883 0.0259586 0.0369807 0.395245 0.0224423 0.0923207 0.0455272 0.117575 0.00307227 0.0104349 0.03137 0.00044379 0.00349363 0.0376826 6.93889e-18 2.1684e-19 2.1684e-19 1.0842e-19 1.0842e-19 5.42101e-20 2.71051e-20 2.71051e-20 2.71051e-20 2.71051e-20 1.35525e-20
threshold=0.035675318879856054 6.7598349808735607 6.1409609789068069 0.052171512443510759 19.700000000000003 6.6586524827771933 0.22613484019624933 6.4777410025491262 6.4884444749049646 6.7208229279629697 6.7363734861220923 11.500000000000002 6.7940263567282555 9.5000000000000018 5.6436769842906767 5.5234569284970165 0.93301270189221952 0.32876725947975888 0.31944884054767991 6.5652639781676854 14.500000000000002 22.500000000000004 11.500000000000002 0.50647394389158207 0.19578339341669151 8.5000000000000018 15.500000000000002 0.93301270189221952 0.21686379095339473 0.19037028802237846
decision_type=2 2 2 2 2 2 2 2 2 2 2 2 2 2 2 2 2 2 2 2 2 2 2 2 2 2 2 2 2 2
left_child=1 2 -1 4 -2 -4 7 13 -9 22 -11 -12 -13 14 15 -5 19 18 26 -8 -15 -19 -10 -21 -24 -16 -18 28 -22 -27
right_child=3 -3 5 6 -6 -7 16 8 9 10 11 12 -14 20 25 -17 17 21 -20 23 27 -23 24 -25 -26 29 -28 -29 -30 -31
leaf_value=-0.0007145716475886639 2.600639908977052e-05 -0.00069658510977309372 0.00031239190145859551 0.0013148766901489159 -0.00020598978540985852 -2.8621942400936702e-05 0.0038353847657039892 -0.0001582411639416733 0.00050793817498517629 -0.00075646391605491267 0.00018242628992154789 0.00056761478802610404 -0.00079074785733975026 0.0002734299084435952 0.00055855192066260747 -6.987241111631685e-05 0.00021255036145218691 0.0009338440824824308 4.0512692601982901e-05 0.00019009984576105112 0.0046094737136402426 0.014883570849222967 0.0012359419614985769 0.0078425997382888073 0.0035585178826027333 0.00030278100222921888 0.01476179358137502 0.0071240761215481388 0.0093688207961185998 0.00058579832736531813
leaf_weight=30 64 20 31 49 29 21 18472 36 272 33 299 48 23 1255 106 22 205 1682 24 888 147 106 228 39 24 55 22 29 27 42
leaf_count=30 64 20 31 49 29 21 18472 36 272 33 299 48 23 1255 106 22 205 1682 24 888 147 106 228 39 24 55 22 29 27 42
internal_value=0 -0.00534216 -0.00299878 2.31693e-05 -0.0015629 -0.000911538 2.92815e-05 -0.000116976 -0.000365369 -0.00016575 -0.000446278 -0.00022027 -0.00135845 2.11316e-05 -0.000132482 -0.000654225 4.76677e-05 2.54782e-05 -0.000149203 5e-05 5e-05 5e-05 5e-05 5e-05 5e-05 5e-05 5e-05 5e-05 5e-05 5e-05
internal_weight=0 102 82 24226 93 52 24133 2695 963 927 403 370 71 1732 274 71 21438 2039 251 19399 1458 1788 524 927 252 203 227 203 174 97
internal_count=24328 102 82 24226 93 52 24133 2695 963 927 403 370 71 1732 274 71 21438 2039 251 19399 1458 1788 524 927 252 203 227 203 174 97
is_linear=0
shrinkage=0.05


Tree=8
num_leaves=31
num_cat=0
split_feature=9 2 4 1 0 9 1 9 8 0 8 8 9 8 8 9 8 1 1 9 9 8 8 5 9 9 9 8 2 8
split_gain=0.0483983 0.0364426 0.0855228 0.101217 0.152087 0.118262 0.0870445 0.127412 0.233429 0.210751 0.0434363 0.0795179 0.0362288 0.0217206 0.0262156 0.0652038 0.019033 0.0234783 0.010702 0.00898863 0.0209692 0.00479327 0.0346237 0.00122628 0.0107645 0.0332594 5.8072e-05 3.46945e-18 8.67362e-19 1.0842e-19
threshold=28.600000000000005 -0.60355339059327384 -0.24999999999999994 12.500000000000002 6.5000000000000009 14.300000000000002 10.500000000000002 17.650000000000002 64.500000000000014 4.5000000000000009 51.500000000000007 55.500000000000007 19.300000000000001 66.500000000000014 69.500000000000014 18.150000000000002 14.500000000000002 10.500000000000002 11.500000000000002 19.700000000000003 20.300000000000004 24.500000000000004 23.500000000000004 0.93301270189221952 19.300000000000001 19.700000000000003 20.300000000000004 80.500000000000014 -0.9829629131445341 89.500000000000014
decision_type=2 2 2 2 2 2 2 2 2 2 2 2 2 2 2 2 2 2 2 2 2 2 2 2 2 2 2 2 2 2
left_child=1 2 3 4 5 -1 13 -8 10 -10 -9 -12 -13 19 15 -15 17 -4 26 -7 -21 22 -18 28 -25 -26 -14 -3 29 -23
right_child=-2 27 16 -5 -6 6 7 8 9 -11 11 12 18 14 -16 -17 21 -19 -20 20 -22 23 -24 24 25 -27 -28 -29 -30 -31
leaf_value=-0.00040904550975618911 2.7803076070320907e-06 0.0023411923902583016 -0.0001424319074885631 0.0004657248825465179 0.0015067606865237955 4.8697694590005587e-05 0.00013462918775700196 0.00031153155117510782 -9.4278439180077268e-05 -0.00068540789150859326 -0.00075246300143217023 3.0098045797200795e-05 -0.00015294931320168433 -0.00041661621435543886 0.00059641621489075125 0.0019053135975217635 0.0003427118073413614 0.0073758968081410435 -0.00012653632893627512 -0.00070259854440278395 0.00064719170020927227 0.0025864413482885049 6.5166458146519168e-05 9.4405425861314517e-05 -0.00025606759194705866 0.0008675694381074673 -2.3753022723210003e-05 0.0056070845958575829 0.0012461507181762985 0.0037808369657434007
leaf_weight=20 20 8840 23 811 424 147 86 45 38 23 22 38 21 29 31 26 161 27 39 29 45 586 25 617 22 60 20 8279 3587 22
leaf_count=20 20 8840 23 811 424 147 86 45 38 23 22 38 21 29 31 26 161 27 39 29 45 586 25 617 22 60 20 8279 3587 22
internal_value=0 1.06511e-05 -8.52506e-05 -0.000372386 -0.000688689 -0.00116396 -0.00104546 -0.00160663 -0.00218577 -0.00486803 -0.00130135 -0.00173571 -0.00122119 -0.000438599 -0.00111279 -0.00176818 2.07602e-05 -0.00095 -0.001825 -0.000176244 -0.000625676 3.0315e-05 -0.000218817 3.97834e-05 -2.15308e-05 -0.000559756 -0.00238902 5e-05 5e-05 5e-05
internal_weight=0 24143 7024 1894 1083 659 639 332 246 61 185 140 118 307 86 55 5130 50 80 221 74 5080 186 4894 699 82 41 17119 4195 608
internal_count=24163 24143 7024 1894 1083 659 639 332 246 61 185 140 118 307 86 55 5130 50 80 221 74 5080 186 4894 699 82 41 17119 4195 608
is_linear=0
shrinkage=0.05


Tree=9
num_leaves=31
num_cat=0
split_feature=6 3 6 3 8 6 3 4 7 6 3 7 6 7 7 6 6 3 8 4 7 2 3 6 3 2 4 2 6 6
split_gain=0.502623 0.269443 0.0852715 0.143391 0.0677596 0.0129986 0.0204967 0.0630782 0.102439 0.00495148 0.0167669 0.034277 0.0393196 0.00827479 0.040991 0.00106763 0.0108372 0.029902 0.00126427 0.00711087 0.0270186 3.46945e-18 4.33681e-19 4.33681e-19 2.1684e-19 1.0842e-19 5.42101e-20 2.71051e-20 2.71051e-20 2.71051e-20
threshold=0.035675318879856054 0.25881904510252091 0.052171512443510759 0.25881904510252091 64.500000000000014 0.085537014144820719 0.25881904510252091 -0.24999999999999994 6.8227417564880897 0.18040713493459867 0.60355339059327384 6.7086942120556854 0.17040924461912063 6.7940263567282555 6.8150914436671455 0.32876725947975888 0.32551364991366888 0.78656609248549325 77.500000000000014 -0.24999999999999994 5.8185970451577838 -0.70710678118654757 -0.70710678118654735 0.56425236082924835 0.37940952255126054 -0.37940952255126009 0.25000000000000017 -0.9159756150367534 0.71418095147092819 0.58712340626640269
decision_type=2 2 2 2 2 2 2 2 2 2 2 2 2 2 2 2 2 2 2 2 2 2 2 2 2 2 2 2 2 2
left_child=1 4 3 -2 -1 6 27 8 -8 10 13 12 -12 24 -15 16 18 -18 22 20 -20 23 -11 -17 -7 26 -21 -4 29 -25
right_child=2 -3 5 -5 -6 9 7 -9 -10 15 11 -13 -14 14 -16 21 17 -19 19 25 -22 -23 -24 28 -26 -27 -28 -29 -30 -31
leaf_value=0.00015119270604695289 0.00037410774774664145 -0.00070089099346462081 0.001264314844122962 -0.00019393906475777625 -0.00065063233870622014 8.4389080474628312e-05 -8.978497118046128e-05 0.00041330107597386829 0.00022391215295571485 0.012772515495800434 0.00095995304124208379 6.2486858716119534e-06 -0.00011856092996239548 -0.00071403180590536703 0.00010822935724869379 0.0032677802477977811 0.0076800915050078177 4.0205528731672437e-05 0.0059695508248404283 0.0026061298034884238 -4.1486637025502093e-05 0.0048852488087996054 0.00023592107774203725 0.0090678317265870251 0.00035014493010147255 0.0042089335881159134 0.0021108080512489114 0.0035002858617073432 0.016612241626687844 0.0094553946233847715
leaf_weight=31 64 35 141 39 30 1059 20 75 21 115 141 20 22 20 91 2183 61 24 87 142 28 16603 2374 47 192 81 293 29 21 111
leaf_count=31 64 35 141 39 30 1059 20 75 21 115 141 20 22 20 91 2183 61 24 87 142 28 16603 2374 47 192 81 293 29 21 111
internal_value=0 -0.00359583 2.92566e-05 -0.00140631 -0.00158934 3.54173e-05 -0.00029965 -0.000812069 -0.00238902 3.94582e-05 -4.70874e-05 -0.000496448 -0.000256748 1.32893e-05 -0.00040045 4.54894e-05 1.87988e-05 -0.000538235 3.39744e-05 -2.92393e-05 -0.000384783 5e-05 5e-05 5e-05 5e-05 5e-05 5e-05 5e-05 5e-05 5e-05
internal_weight=0 96 24104 103 61 24001 286 116 41 23715 1545 183 163 1362 111 22170 3205 85 3120 631 115 18965 2489 2362 1251 516 435 170 179 158
internal_count=24200 96 24104 103 61 24001 286 116 41 23715 1545 183 163 1362 111 22170 3205 85 3120 631 115 18965 2489 2362 1251 516 435 170 179 158
is_linear=0
shrinkage=0.05


Tree=10
num_leaves=25
num_cat=0
split_feature=6 1 9 6 9 9 6 7 7 7 7 1 0 7 6 6 5 6 1 6 0 7 7 6
split_gain=1.18401 0.506206 0.417868 0.100174 0.197727 0.0411294 0.0136707 0.0218709 0.163636 0.0101376 0.0517345 0.146802 0.240698 0.00182002 0.000290508 0.0120117 0.0276543 3.46945e-18 4.33681e-19 4.33681e-19 1.0842e-19 1.0842e-19 2.71051e-20 1.35525e-20
threshold=0.035675318879856054 12.500000000000002 19.300000000000001 0.052171512443510759 19.700000000000003 28.600000000000005 0.085537014144820719 6.5035391097261348 6.4175486092242702 6.7208229279629697 6.7481730371604982 9.5000000000000018 6.5000000000000009 6.5532206455302013 0.27516632356024556 0.27183800929349761 0.68301270189221941 0.52651131992918931 15.500000000000002 0.54503187539988873 8.5000000000000018 5.705446369702539 6.8051685367398056 0.25431473896964046
decision_type=2 2 2 2 2 2 2 2 2 2 2 2 2 2 2 2 2 2 2 2 2 2 2 2
left_child=1 2 13 4 -2 6 7 8 -5 14 11 12 -11 -1 15 18 -17 -16 -8 21 -12 -19 -9 -13
right_child=3 -3 -4 5 -6 -7 9 22 -10 10 20 23 -14 -15 17 16 -18 19 -20 -21 -22 -23 -24 -25
leaf_value=-0.0003532221317073959 3.7052995355673206e-05 0.00018735214622262969 -0.00067059149268699396 0.00039276358675665072 -0.00014447356246066352 2.2192144468876838e-07 0.00042343682133223607 0.00010439927373653512 -8.5295722621438208e-05 -0.00069606030514993416 3.2550536863311129e-05 0.0021349895284309022 0.0062312958620266649 -0.00036518330067908503 0.0030756863950183962 0.0064688930578680418 -0.00014253879523265026 0.013734908975704455 0.010935215514723861 0.010244937962227297 0.001400078912117526 0.010098085173028529 0.0002128374693453024 0.0033820074171273355
leaf_weight=23 58 30 28 90 30 24 2827 139 20 20 594 57 23 20 16332 56 25 619 86 3010 98 37 27 44
leaf_count=23 58 30 28 90 30 24 2827 139 20 20 594 57 23 20 16332 56 25 619 86 3010 98 37 27 44
internal_value=0 -0.00539554 -0.00769648 2.93525e-05 -0.00165455 3.5494e-05 3.75539e-05 -0.000312319 -0.000859091 4.16065e-05 -0.000129426 -0.000991667 -0.00343837 -0.00460116 4.78253e-05 3.32999e-05 -0.000567284 5e-05 5e-05 5e-05 5e-05 5e-05 5e-05 5e-05
internal_weight=0 101 71 24216 88 24128 24104 276 110 23828 836 144 43 43 22992 2994 81 19998 2913 3666 692 656 166 101
internal_count=24317 101 71 24216 88 24128 24104 276 110 23828 836 144 43 43 22992 2994 81 19998 2913 3666 692 656 166 101
is_linear=0
shrinkage=0.05


Tree=11
num_leaves=25
num_cat=0
split_feature=6 7 9 9 8 9 7 7 9 9 6 9 6 7 9 7 6 6 7 5 6 6 7 0
split_gain=0.520379 0.517192 0.16665 0.326275 0.0408257 0.0350099 0.0188331 0.102679 0.229271 0.0186542 0.0282609 0.00919661 0.0871795 0.1 0.00800618 0.0331197 0.000870543 0.0129723 0.0361111 6.93889e-18 2.1684e-19 1.35525e-20 1.35525e-20 6.77626e-21
threshold=0.052171512443510759 6.7940263567282555 19.300000000000001 20.300000000000004 60.500000000000007 28.050000000000004 6.4777410025491262 6.4884444749049646 19.300000000000001 15.550000000000002 0.22162311340498006 17.650000000000002 0.33471075040691967 6.6457407421766872 24.700000000000003 6.7940263567282555 0.18040713493459867 0.17523501184666293 5.705446369702539 -0.25000000000000028 0.39054881215084764 0.3165042617960318 6.0856370699937399 9.5000000000000018
decision_type=2 2 2 2 2 2 2 2 2 2 2 2 2 2 2 2 2 2 2 2 2 2 2 2
left_child=1 2 4 -4 -1 6 16 8 -8 10 -9 12 -11 -14 20 21 17 -2 -19 -18 -13 -16 -6 -20
right_child=5 -3 3 -5 22 -7 7 9 -10 11 -12 14 13 -15 15 -17 19 18 23 -21 -22 -23 -24 -25
leaf_value=-0.0001441492021900347 0.00022235642132535844 -0.00045840832159338299 -0.00058493191545067904 0.00017472658106681944 6.9073323474692054e-05 3.3186078963734142e-06 -0.00017079566364931287 0.0010660241824085191 0.0012497206916005886 0.00027376455089332858 -3.2023554677740318e-06 8.7186034465615585e-05 0.0014596801864803723 -0.00021745918948730284 0.00052248888178561077 -0.00066227938521009548 0.0040093845755080834 -9.179716509199326e-05 0.0046164627832256996 0.0017162797161896738 0.0018031651141327176 0.0048250153568020777 0.00033997008299876041 0.0040564576507734111
leaf_weight=20 1019 28 25 26 34 28 26 26 51 272 20 1453 20 20 57 24 8520 20 28 12106 279 36 55 24
leaf_count=20 1019 28 25 26 34 28 26 26 51 272 20 1453 20 20 57 24 8520 20 28 12106 279 36 55 24
internal_value=0 -0.00260957 -0.0015125 -0.00387157 -0.000408716 3.12726e-05 3.3334e-05 -0.00010324 -0.00189805 -4.06208e-05 -0.00103696 -1.94123e-05 -0.000270513 -0.00245 2.29584e-05 -0.00037735 4.76977e-05 4.17049e-06 -0.000644444 5e-05 5e-05 5e-05 5e-05 5e-05
internal_weight=0 188 160 51 109 24029 24001 2284 77 2207 46 2161 312 40 1849 117 21717 1091 72 20626 1732 93 89 52
internal_count=24217 188 160 51 109 24029 24001 2284 77 2207 46 2161 312 40 1849 117 21717 1091 72 20626 1732 93 89 52
is_linear=0
shrinkage=0.05


Tree=12
num_leaves=30
num_cat=0
split_feature=6 7 1 7 6 7 7 4 0 7 1 7 7 6 6 6 1 6 6 1 1 4 6 0 6 1 6 6 6
split_gain=0.526483 0.324459 0.137567 0.11781 0.103235 0.0478283 0.163932 0.471545 0.0402086 0.060462 0.197068 0.36478 0.0209897 0.0459502 0.107143 0.0167975 0.0311321 0.000869611 0.0122421 0.0322967 3.46945e-18 8.67362e-19 4.33681e-19 2.1684e-19 2.1684e-19 5.42101e-20 5.42101e-20 2.71051e-20 2.71051e-20
threshold=0.052171512443510759 6.7996129651804988 11.500000000000002 6.130138349771844 0.035675318879856054 6.4777410025491262 6.4884444749049646 -0.24999999999999994 4.5000000000000009 6.7013457377751759 9.5000000000000018 6.7598349808735607 6.7940263567282555 0.14877265005211313 0.10700593832243306 0.37763150347448377 9.5000000000000018 0.18040713493459867 0.17523501184666293 10.500000000000002 17.500000000000004 0.6830127018922193 0.53676261286154781 11.500000000000002 0.57150536438862276 11.500000000000002 0.71418095147092819 0.24139251090549688 0.16031097254439983
decision_type=2 2 2 2 2 2 2 2 2 2 2 2 2 2 2 2 2 2 2 2 2 2 2 2 2 2 2 2 2
left_child=1 2 4 -4 -1 17 7 -7 9 15 11 -11 27 14 -14 25 -17 18 23 -20 -19 -22 -10 -2 -23 -8 -26 -12 -27
right_child=5 -3 3 -5 -6 6 8 -9 22 10 12 -13 13 -15 -16 16 -18 20 19 -21 21 24 -24 -25 26 28 -28 -29 -30
leaf_value=-0.00033147298265127792 0.00019664597668526699 -0.00061127365253489478 -0.00054497827824375345 3.8236396622577667e-05 -0.00014730322521531503 -0.00016227519524459884 0.00030731702899696942 0.0024365692531345511 2.0133391690502554e-05 -0.00066552354689029575 0.00026931060240734578 0.00031268402719751218 0.00048717091025874629 0.00076718156537957554 -0.0006503789994952515 -7.7438056523590488e-06 0.0099790680316222402 0.0020817966719394341 -8.3478345047065955e-05 0.00020240678880016489 0.013237052367176661 0.014308875594246271 0.0080595894924968669 0.0015556087893178108 0.014511231896261152 0.00047419251682765415 0.018682830258744728 0.0027661177776586374 0.002629189708790787
leaf_weight=26 954 25 26 85 23 24 272 58 1363 24 110 29 27 59 21 20 33 14592 22 54 4089 1524 24 62 333 111 43 27 47
leaf_count=26 954 25 26 85 23 24 272 58 1363 24 110 29 27 59 21 20 33 14592 22 54 4089 1524 24 62 333 111 43 27 47
internal_value=0 -0.0026527 -0.001825 -0.000850901 -0.00403163 2.49185e-05 -0.000194553 -0.00238902 -0.000111514 -0.000398718 -0.000960101 -0.00372358 -0.000359836 -0.000884579 -0.00203333 -5.35197e-05 -0.000893396 4.7693e-05 4.21246e-06 -0.000607895 5e-05 5e-05 5e-05 5e-05 5e-05 5e-05 5e-05 5e-05 5e-05
internal_weight=0 185 160 111 49 23922 2249 82 2167 780 297 53 244 107 48 483 53 21673 1092 76 20581 5989 1387 1016 1900 430 376 137 158
internal_count=24107 185 160 111 49 23922 2249 82 2167 780 297 53 244 107 48 483 53 21673 1092 76 20581 5989 1387 1016 1900 430 376 137 158
is_linear=0
shrinkage=0.05


Tree=13
num_leaves=28
num_cat=0
split_feature=6 9 3 0 3 7 7 9 9 6 7 9 3 6 6 3 3 3 7 9 6 0 6 0 6 7 7
split_gain=0.704212 0.504959 0.513851 0.201923 0.13943 0.0176373 0.0983546 0.2475 0.015062 0.06917 0.166234 0.0067431 0.0403198 0.00214645 0.0106536 0.0279518 0.00310378 0.00957189 0.0441302 0.0472921 3.46945e-18 4.33681e-19 2.1684e-19 1.0842e-19 1.0842e-19 5.42101e-20 1.35525e-20
threshold=0.052171512443510759 19.300000000000001 0.25881904510252091 4.5000000000000009 0.37940952255126054 6.4777410025491262 6.4884444749049646 19.300000000000001 18.150000000000002 0.27516632356024556 6.7013457377751759 24.700000000000003 0.25881904510252091 0.32876725947975888 0.32551364991366888 0.78656609248549325 0.60355339059327384 0.78656609248549325 5.8274728624953296 17.650000000000002 0.64002445207265535 11.500000000000002 0.48993064807310366 2.5000000000000004 0.71418095147092819 6.5257622587071271 6.2700423577822813
decision_type=2 2 2 2 2 2 2 2 2 2 2 2 2 2 2 2 2 2 2 2 2 2 2 2 2 2 2
left_child=1 4 3 -3 26 13 7 -7 9 25 -11 22 -13 14 16 -16 21 18 19 -18 -15 -2 -10 -19 -22 -8 -1
right_child=5 2 -4 -5 -6 6 8 -9 11 10 -12 12 -14 20 15 -17 17 23 -20 -21 24 -23 -24 -25 -26 -27 -28
leaf_value=0.00019288667714013378 0.00011591356058882384 0.00016766232359963215 -0.00039977985089653667 -0.00052920839440409454 -0.00032219584894740088 -0.00015415177809349309 0.0016073833115839643 0.0010706115411425064 3.2774235443148405e-05 0.0027976393070319842 -0.00026436514198887912 -0.00060248091878103516 9.7134591354732742e-05 0.0047813255295439889 0.0018874398808312487 -0.00025878725893411228 -0.00037212760654576623 0.00090588577809141372 0.00051927964048090549 0.0012921828075096861 0.012327383470001313 0.002379543905914377 0.0062848447849166659 0.00043493390238285808 0.0098417843921832591 0.00026926559965194776 2.8081263155366209e-05
leaf_weight=38 2248 28 32 24 23 25 34 55 1604 64 35 21 116 17325 58 25 38 86 220 31 566 248 57 562 370 281 55
leaf_count=38 2248 28 32 24 23 25 34 55 1604 64 35 21 116 17325 58 25 38 86 220 31 566 248 57 562 370 281 55
internal_value=0 -0.00295 -0.00590238 -0.00283462 -0.000812069 2.92264e-05 -0.000102705 -0.001825 -4.04159e-05 -0.000312319 -0.00146515 2.21913e-05 -0.000314964 4.3112e-05 7.33789e-06 -0.00055241 2.0871e-05 -5.67236e-05 -0.000296021 -0.00139928 5e-05 5e-05 5e-05 5e-05 5e-05 5e-05 5e-05
internal_weight=0 200 84 52 116 24069 2292 80 2212 414 99 1798 137 21777 3516 83 3433 937 289 69 18261 2496 1661 648 936 315 93
internal_count=24269 200 84 52 116 24069 2292 80 2212 414 99 1798 137 21777 3516 83 3433 937 289 69 18261 2496 1661 648 936 315 93
is_linear=0
shrinkage=0.05


Tree=14
num_leaves=31
num_cat=0
split_feature=7 0 7 7 7 8 1 7 7 7 0 0 7 8 2 1 7 7 0 1 1 7 1 7 7 8 7 7 7 7
split_gain=0.115017 0.145851 0.130044 0.0453399 0.22092 0.0435897 0.09699 0.0417355 0.0247185 0.0163008 0.0261505 0.0398693 0.082386 0.0452849 0.098488 0.170576 0.174772 0.268451 0.00909091 0.011294 0.0273275 0.0588235 0.00644374 0.028907 0.00553348 0.0360709 0.00375757 0.0300185 0.000842472 0.0166462
threshold=6.7280301689677797 4.5000000000000009 6.7434699110516263 6.7940263567282555 6.8051685367398056 60.500000000000007 10.500000000000002 6.7481730371604982 6.888571940009542 5.7853612818482238 6.5000000000000009 3.5000000000000004 5.8274728624953296 64.500000000000014 -0.9159756150367534 12.500000000000002 6.6802269323173 6.3534997185584592 4.5000000000000009 8.5000000000000018 13.500000000000002 6.4838712935462262 11.500000000000002 6.7996129651804988 6.612712626606327 66.500000000000014 5.9148525341228533 5.8985256106096173 5.4827179284163234 5.5032948732385458
decision_type=2 2 2 2 2 2 2 2 2 2 2 2 2 2 2 2 2 2 2 2 2 2 2 2 2 2 2 2 2 2
left_child=9 2 -2 7 -5 -6 -7 -4 22 28 11 24 -13 -14 15 16 17 -15 19 -16 21 -21 -3 -24 26 -26 27 -11 -1 -30
right_child=1 8 3 4 5 6 -8 -9 -10 10 -12 12 13 14 18 -17 -18 -19 -20 20 -22 -23 23 -25 25 -27 -28 -29 29 -31
leaf_value=0.003795751510551794 -0.0006318347295906281 0.0002710596915748089 -5.6358137029031586e-05 -0.00060038160445460365 1.4029477226584514e-05 0.00031324047723775425 -0.00012088651863302611 0.00023773911663484018 -0.00036754771866075327 0.00089049605434310874 0.001460700146270243 -0.0003497281085045447 5.8502861474040165e-05 -0.00048364559096703729 0.0052340835885997979 0.00065944060443755401 0.0010214164353306956 -0.00045303541115055258 0.0005842804603064484 -0.00030461811839924358 0.0039051375824493868 0.00034000278588195191 0.00020117744898959217 -0.00037524436965808284 0.00039577856457132351 -0.00017202777668106907 0.0004909688111583595 -3.3566634573170553e-06 -0.0003715734428566745 0.00011850524632185157
leaf_weight=17004 34 470 20 25 68 29 23 101 34 195 2916 35 415 26 71 64 23 21 162 34 59 34 96 27 112 23 1191 29 57 1057
leaf_count=17004 34 470 20 25 68 29 23 101 34 195 2916 35 415 26 71 64 23 21 162 34 59 34 96 27 112 23 1191 29 57 1057
internal_value=0 -0.000543312 -0.00145 -0.00107782 -0.00167414 -0.000783333 -0.00187308 -0.000363223 -0.00010949 2.44985e-05 -5.16636e-05 -0.000170529 -0.000426695 -0.000335039 -0.000658502 -0.00181567 -0.00352143 -0.00526915 -0.000227778 -0.000455051 -0.000737402 -0.00142059 -3.4317e-05 -0.000356504 -1.45161e-05 -0.00032037 1.46643e-05 -0.000173214 4.72403e-05 5.1167e-06
internal_weight=0 927 300 266 145 120 52 121 627 23528 5410 2494 944 909 494 134 70 47 360 198 127 68 593 123 1550 135 1415 224 18118 1114
internal_count=24455 927 300 266 145 120 52 121 627 23528 5410 2494 944 909 494 134 70 47 360 198 127 68 593 123 1550 135 1415 224 18118 1114
is_linear=0
shrinkage=0.05


Tree=15
num_leaves=27
num_cat=0
split_feature=6 0 1 6 9 7 9 7 6 0 7 6 6 6 1 0 1 6 2 2 6 4 6 0 1 0
split_gain=0.649948 0.505161 0.141418 0.0894949 0.158163 0.0132858 0.0417531 0.102671 0.0573649 0.0665206 0.190476 0.0356042 0.000952296 0.0107835 0.0240864 0.00268524 0.00968204 0.0349608 3.46945e-18 4.33681e-19 4.33681e-19 2.1684e-19 2.1684e-19 5.42101e-20 5.42101e-20 1.35525e-20
threshold=0.035675318879856054 4.5000000000000009 11.500000000000002 0.052171512443510759 19.300000000000001 6.4777410025491262 18.950000000000003 6.4884444749049646 0.25930895980883661 3.5000000000000004 6.612712626606327 0.27516632356024556 0.32876725947975888 0.32551364991366888 8.5000000000000018 1.5000000000000002 9.5000000000000018 0.25431473896964046 -0.70710678118654757 -0.9159756150367534 0.2968578066348283 1.0000000180025095e-35 0.47048936799800456 2.5000000000000004 10.500000000000002 4.5000000000000009
decision_type=2 2 2 2 2 2 2 2 2 2 2 2 2 2 2 2 2 2 2 2 2 2 2 2 2 2
left_child=1 2 -1 4 -2 12 7 -7 23 10 -10 -11 13 15 -15 16 17 -5 19 -14 -17 -21 -8 -9 -25 -13
right_child=3 -3 -4 5 -6 6 22 8 9 11 -12 25 18 14 -16 20 -18 -19 -20 21 -22 -23 -24 24 -26 -27
leaf_value=-0.00052686842684541329 8.2778687216767243e-05 -0.00047860242760820862 0.00029658400432683399 -0.00013822218796731532 -0.00014365304531886505 -0.00011879892874931121 2.4285998076180926e-05 0.0013194714455591228 0.0012246735919312021 6.7550888052531768e-05 -0.00022578762992360118 0.00055284004289336776 0.0027987757678512421 -0.00025013459346946986 0.0042377202794389654 0.0002396557454439236 0.0017283737142528483 0.00092383668068198293 0.0063361759660320793 0.0042951404835339137 0.00077765107502852319 0.0033967523958747317 0.0059245339827651653 0.00025885896596002095 0.00019690061758655694 0.0012865377470082538
leaf_weight=34 62 24 39 21 36 30 1585 34 36 23 27 68 666 28 58 2539 257 58 16332 311 562 1014 74 152 220 36
leaf_count=34 62 24 39 21 36 30 1585 34 36 23 27 68 666 28 58 2539 257 58 16332 311 562 1014 74 152 220 36
internal_value=0 -0.00407371 -0.00200479 2.72999e-05 -0.00148061 3.34238e-05 -8.1291e-05 -0.000429233 -0.00028557 -0.00100263 -0.00233095 -0.000343701 4.54225e-05 2.16151e-05 -0.000531395 3.54524e-05 -9.88095e-05 -0.000582911 5e-05 5e-05 5e-05 5e-05 5e-05 5e-05 5e-05 5e-05
internal_weight=0 97 73 24229 98 24131 2285 626 596 190 63 127 21846 3523 86 3437 336 79 18323 1991 3101 1325 1659 406 372 104
internal_count=24326 97 73 24229 98 24131 2285 626 596 190 63 127 21846 3523 86 3437 336 79 18323 1991 3101 1325 1659 406 372 104
is_linear=0
shrinkage=0.05


Tree=16
num_leaves=31
num_cat=0
split_feature=7 5 7 7 7 4 2 4 7 4 7 4 7 7 9 7 7 9 8 7 7 5 9 4 7 4 2 5 8 9
split_gain=0.0805797 0.0886074 0.0956571 0.0324822 0.0383454 0.107143 0.0355356 0.108542 0.034219 0.0305164 0.029409 0.0259176 0.0343109 0.0773388 0.0853485 0.0310935 0.0210002 0.124528 0.0378049 0.00247331 0.0152893 0.0287879 0.00280789 0.0184486 0.0194444 0.00286912 0.0250749 0.00210332 0.00614357 0.0391445
threshold=6.4838712935462262 1.0000000180025095e-35 6.4884444749049646 6.6052970053993443 6.6167340815536484 1.0000000180025095e-35 -0.9829629131445341 -0.5 6.7810569817395221 -0.5 6.787280966457331 -0.5 6.7013457377751759 6.7363734861220923 16.650000000000002 6.7996129651804988 6.8335702358000203 19.700000000000003 65.500000000000014 5.4827179284163234 5.5032948732385458 0.68301270189221941 14.300000000000002 1.0000000180025095e-35 5.8507636298606682 -0.68301270189221952 -0.9159756150367534 0.93301270189221952 50.500000000000007 17.150000000000002
decision_type=2 2 2 2 2 2 2 2 2 2 2 2 2 2 2 2 2 2 2 2 2 2 2 2 2 2 2 2 2 2
left_child=19 -2 -3 9 5 -5 7 10 -9 -4 -6 -8 -13 14 -14 -15 17 -17 -18 -1 21 -21 23 24 -22 26 -24 -27 29 -29
right_child=1 2 3 4 6 -7 11 8 -10 -11 -12 12 13 15 -16 16 18 -19 -20 20 22 -23 25 -25 -26 27 -28 28 -30 -31
leaf_value=0.003540082128898741 0.0011269599196885832 -2.7967860666308972e-05 -7.5076959227699045e-05 0.0021944124978123879 -0.00040573971786584968 -0.0002129763179681131 6.3601408088607614e-05 0.00020279671250638599 -0.0005507788574469814 0.00025322256194371486 -0.00033470392718568944 0.00045272140762284179 0.00040188741872179863 0.0002094842611796655 -0.00059982307700822551 0.00018678850053813729 4.0702838125681546e-05 -0.00050033923163832336 -0.00025798220955161626 0.00576331423223335 1.40555888567118e-05 -0.00030898243110003416 -4.2162366180625671e-05 0.0018564116621884901 -0.00025576781743373274 0.00043840206946610865 0.00052709355554216638 -3.1133482030855364e-05 0.00029577696314288043 0.00073955014854512385
leaf_weight=17073 1150 29 30 27 21 21 204 85 23 325 23 130 20 118 37 33 62 20 20 38 21 22 35 220 24 3963 251 21 311 97
leaf_count=17073 1150 29 30 27 21 21 204 85 23 325 23 130 20 118 37 33 62 20 20 38 21 22 35 220 24 3963 251 21 311 97
internal_value=0 -0.000265391 -0.000560749 -0.000492118 -0.0006609 -0.00203333 -0.000578141 -0.00126579 -0.000412963 -9.08451e-05 -0.00335909 -0.000415839 -0.000631818 -0.000917742 -0.00258158 -0.000542885 -0.00106111 -0.00183679 -0.000559756 4.09404e-05 1.0024e-05 -0.000783333 1.96541e-05 -0.000138679 -0.00106111 2.86233e-05 -0.000124825 3.86157e-05 -6.65501e-05 -0.000373729
internal_weight=0 2378 1228 1199 844 48 796 152 108 355 44 644 440 310 57 253 135 53 82 22076 5003 60 4943 265 45 4678 286 4392 429 118
internal_count=24454 2378 1228 1199 844 48 796 152 108 355 44 644 440 310 57 253 135 53 82 22076 5003 60 4943 265 45 4678 286 4392 429 118
is_linear=0
shrinkage=0.05


Tree=17
num_leaves=31
num_cat=0
split_feature=6 7 1 6 1 4 7 6 7 6 7 7 1 6 6 7 1 7 7 6 0 1 6 6 7 6 6 7 6 2
split_gain=0.876406 0.585242 0.186786 0.0409552 0.0683176 0.117525 0.511364 0.0405526 0.0267857 0.0231191 0.0196492 0.065758 0.100186 0.0174888 0.0282609 0.0173127 0.0311321 0.00204476 0.0146862 0.031746 0.00253742 0.00557532 0.018088 0.0267442 0.00922957 0.035119 0.00709418 0.0416667 3.46945e-18 2.1684e-19
threshold=0.035675318879856054 6.7656153457204473 11.500000000000002 0.11358532891028662 11.500000000000002 -0.24999999999999994 6.5154528834577485 0.052171512443510759 6.5213569628644246 0.06517146368562271 6.7280301689677797 6.7363734861220923 10.500000000000002 0.13032677758458469 0.12503555831670943 6.7481730371604982 9.5000000000000018 5.4827179284163234 5.5032948732385458 0.34499040152924426 4.5000000000000009 9.5000000000000018 0.18040713493459867 0.16031097254439983 6.612712626606327 0.34982365019962219 0.27516632356024556 5.8274728624953296 0.24994554663932428 -0.9829629131445341
decision_type=2 2 2 2 2 2 2 2 2 2 2 2 2 2 2 2 2 2 2 2 2 2 2 2 2 2 2 2 2 2
left_child=1 2 -1 4 5 6 -2 -7 -4 -8 17 12 -12 14 -13 16 -15 28 19 -19 21 22 23 -20 26 -26 27 -24 -5 -23
right_child=3 -3 8 10 -6 7 9 -9 -10 -11 11 13 -14 15 -16 -17 -18 18 20 -21 -22 29 24 -25 25 -27 -28 -29 -30 -31
leaf_value=-0.00025232808722932946 -0.00011472073923669075 -0.00048051451149610461 2.8246994172782425e-05 0.0020609811164910207 0.00043993687555115104 -0.00012204963660418928 -6.322934090989626e-05 0.00021921926889182468 -0.00038560694773057043 0.00017977221505576966 -0.00057588042910478065 0.0007512789291661033 0.0032847990396893097 -1.4693673250921331e-05 -0.00050764167416652401 2.6674462830704788e-05 0.00010742138848459996 -0.00030096212474481913 0.00055871366877593563 0.011183067710140805 0.0018084452985696051 0.0024845371300917548 -0.00032519149787171159 -0.00016220005379310082 0.00043172150440465903 -0.00018695348249501438 0.00073812044359052096 0.00063484025476717764 0.005736735289150423 0.00043465349448075372
leaf_weight=23 22 20 27 353 463 22 29 182 21 59 22 26 27 20 20 590 33 21 23 42 3558 234 20 20 59 21 687 100 16471 1030
leaf_count=23 22 20 27 353 463 22 29 182 21 59 22 26 27 20 20 590 33 21 23 42 3558 234 20 20 59 21 687 100 16471 1030
internal_value=0 -0.00489506 -0.0027669 2.10193e-05 -0.0003361 -0.000905414 -0.00222273 -0.000195098 -0.000991667 -0.000518182 3.28892e-05 -0.000221003 -0.00199082 -9.51379e-05 -0.00103696 -2.77605e-05 -0.000893396 4.11657e-05 1.56062e-05 -0.000743651 2.39221e-05 -1.83683e-05 -0.00011129 -0.00111279 -6.27396e-05 -0.000575 -1.19579e-05 -0.000366667 5e-05 5e-05
internal_weight=0 91 71 24154 777 314 110 204 48 88 23377 738 49 689 46 643 53 22639 5815 63 5752 2194 930 43 887 80 807 120 16824 1264
internal_count=24245 91 71 24154 777 314 110 204 48 88 23377 738 49 689 46 643 53 22639 5815 63 5752 2194 930 43 887 80 807 120 16824 1264
is_linear=0
shrinkage=0.05


Tree=18
num_leaves=31
num_cat=0
split_feature=0 9 8 0 1 8 1 1 9 1 9 8 9 3 1 0 9 8 8 8 0 0 9 1 8 5 8 9 3 1
split_gain=0.0261382 0.0935582 0.107107 0.146087 0.251429 0.0303653 0.0816858 0.147565 0.0339477 0.0383925 0.0303288 0.0263678 0.0252016 0.0475394 0.0599789 0.0517936 0.0582093 0.0504671 0.0692578 0.0648348 0.0902958 0.0630997 0.114469 0.00805556 0.0169118 0.00465894 0.0121083 0.0314815 0.00186283 0.0269543
threshold=6.5000000000000009 19.300000000000001 67.500000000000014 4.5000000000000009 10.500000000000002 51.500000000000007 10.500000000000002 12.500000000000002 21.400000000000002 11.500000000000002 19.700000000000003 14.500000000000002 16.650000000000002 0.25881904510252091 8.5000000000000018 2.5000000000000004 18.850000000000005 51.500000000000007 62.500000000000007 69.500000000000014 4.5000000000000009 3.5000000000000004 17.650000000000002 9.5000000000000018 72.500000000000014 0.93301270189221952 31.500000000000004 21.050000000000004 0.37940952255126054 8.5000000000000018
decision_type=2 2 2 2 2 2 2 2 2 2 2 2 2 2 2 2 2 2 2 2 2 2 2 2 2 2 2 2 2 2
left_child=1 12 5 -4 -5 11 -7 8 9 10 -8 -3 28 -14 -15 23 17 -17 -19 20 21 -20 -23 24 -16 -13 -27 -28 -1 -30
right_child=-2 2 3 4 -6 6 7 -9 -10 -11 -12 25 13 14 15 16 -18 18 19 -21 -22 22 -24 -25 -26 26 27 -29 29 -31
leaf_value=0.00031369590837455105 0.0018357714934791648 -9.7111460380893292e-05 0.0039134967272248617 0.00042685404371416125 -0.00045070018484265253 9.9747131296295361e-05 -7.3556988981091803e-05 0.00059867055026262522 -0.0005150848252625926 -0.00035728270038122085 -6.1676773589664668e-05 0.000196241386438225 0.00040984951795095486 0.00022851204360566942 0.00081833646527237349 -0.00012981979242363169 0.00012975166973721127 5.4254238406833337e-05 -0.00012865217297910902 0.00062618590825342193 0.0001776965011740424 -0.00023192785798431962 -0.00010698106792332129 0.00077457757643271735 -0.00013604896406742867 3.1144677207388743e-05 0.0023322350774319495 -0.00043398414113652239 0.0007570906671036852 -0.00031133843467270937
leaf_weight=5254 12745 32 42 22 28 202 22 100 23 44 25 415 1189 391 46 28 77 69 34 35 29 21 39 145 34 102 34 20 2754 301
leaf_count=5254 12745 32 42 22 28 202 22 100 23 44 25 415 1189 391 46 28 77 69 34 35 29 21 39 145 34 102 34 20 2754 301
internal_value=0 -5.38332e-05 -0.000490054 -0.00212391 -0.00395 -0.000342542 -0.000671154 -0.00135187 -0.00258158 -0.0021478 -0.00314149 -0.000115837 -7.43825e-06 -0.000160576 -0.000424684 -0.000757899 -0.00115482 -0.00151863 -0.00127159 -0.00184873 -0.00238902 -0.00314149 -0.00411667 -0.000172222 -0.000575 -3.75657e-05 -0.000270513 -0.000875926 3.19473e-05 9.00165e-07
internal_weight=0 11557 1111 92 50 1019 416 214 114 91 47 603 10446 2137 948 557 332 255 227 158 123 94 60 225 80 571 156 54 8309 3055
internal_count=24302 11557 1111 92 50 1019 416 214 114 91 47 603 10446 2137 948 557 332 255 227 158 123 94 60 225 80 571 156 54 8309 3055
is_linear=0
shrinkage=0.05


Tree=19
num_leaves=30
num_cat=0
split_feature=6 8 1 6 1 0 6 5 3 0 8 6 1 1 8 8 8 6 2 0 6 0 2 1 2 6 6 1 6
split_gain=0.80605 0.474615 0.0988701 0.0902079 0.126729 0.209059 0.0117054 0.0176838 0.0360846 0.0663965 0.106189 0.0285362 0.028132 0.0307267 0.0765306 0.0508093 0.0325542 0.0347222 0.00189015 0.00918023 0.0243507 3.46945e-18 3.46945e-18 4.33681e-19 2.1684e-19 2.71051e-20 2.71051e-20 1.35525e-20 6.77626e-21
threshold=0.035675318879856054 64.500000000000014 11.500000000000002 0.052171512443510759 11.500000000000002 3.5000000000000004 0.33715757233955046 0.68301270189221941 0.25881904510252091 3.5000000000000004 77.500000000000014 0.32551364991366888 8.5000000000000018 9.5000000000000018 60.500000000000007 65.500000000000014 48.500000000000007 0.085537014144820719 -0.9829629131445341 6.5000000000000009 0.25930895980883661 11.500000000000002 -0.9829629131445341 1.5000000000000002 -0.12940952255126034 0.51074768225764755 0.51970903317814765 10.500000000000002 0.19578339341669151
decision_type=2 2 2 2 2 2 2 2 2 2 2 2 2 2 2 2 2 2 2 2 2 2 2 2 2 2 2 2 2
left_child=1 2 -1 4 5 -2 7 18 24 11 12 -10 -11 14 -14 -16 -15 -18 19 20 28 22 25 26 -9 -8 -23 -19 -5
right_child=3 -3 -4 6 -6 -7 21 8 9 10 -12 -13 13 16 15 -17 17 27 -20 -21 -22 23 -24 -25 -26 -27 -28 -29 -30
leaf_value=-0.00029365429527691015 0.00013093998053372241 -0.00042940984591963616 1.3915347496485993e-06 0.001591213145587328 0.00030294575905029288 -6.9978145927497516e-05 0.0027101674593939286 0.00036454093378339013 8.1630348280082619e-05 0.0026543611751128644 -0.00031748255758312757 -0.00031884064634841032 0.00046576503979447651 8.211947523314133e-06 -0.00055134497113973975 -0.00013613165192815922 -1.3914476481967527e-05 0.00023290709467880673 0.00017294852051071192 0.0019385130792850256 8.2243627651763806e-05 0.011467059543313132 0.0031087303356344539 0.003699066694319473 0.011964813746170526 0.013951369384966827 0.012295408821604514 0.000123375715003769 0.00022748131158065768
leaf_weight=24 20 40 35 38 56 21 211 1013 533 96 24 33 35 20 20 29 24 76 2952 370 28 155 16409 1996 26 26 57 44 22
leaf_count=24 20 40 35 38 56 21 211 1013 533 96 24 33 35 20 20 29 24 76 2952 370 28 155 16409 1996 26 26 57 44 22
internal_value=0 -0.00449545 -0.00164492 2.53431e-05 -0.00149639 -0.00360854 3.14333e-05 -3.35965e-05 -0.000152737 -0.000378266 -0.000901087 -3.83392e-05 -0.000676744 -0.000958065 -0.00173571 -0.00301122 -0.000559756 -0.000297222 3.53372e-05 -5.91703e-05 -0.000518182 5e-05 5e-05 5e-05 5e-05 5e-05 5e-05 5e-05 5e-05
internal_weight=0 99 59 24334 97 41 24237 5383 1973 934 368 566 344 248 84 49 164 144 3410 458 88 18854 16646 2208 1039 237 212 120 60
internal_count=24433 99 59 24334 97 41 24237 5383 1973 934 368 566 344 248 84 49 164 144 3410 458 88 18854 16646 2208 1039 237 212 120 60
is_linear=0
shrinkage=0.05


Tree=20
num_leaves=31
num_cat=0
split_feature=6 7 8 7 0 6 6 6 7 7 3 7 7 6 3 4 3 6 3 6 0 0 6 7 8 8 6 0 6 4
split_gain=0.579511 0.75968 0.0977273 0.0428763 0.0979054 0.085465 0.0964286 0.0697417 0.0302881 0.112505 0.0253212 0.0270497 0.0252964 0.00667232 0.0111552 0.0283996 0.0724587 0.0302112 0.0264361 0.0583453 0.0929152 0.00521491 0.0173387 0.0267442 0.000733598 0.0107069 0.0361248 3.46945e-18 4.33681e-19 2.1684e-19
threshold=0.035675318879856054 6.7656153457204473 64.500000000000014 6.6052970053993443 4.5000000000000009 0.33471075040691967 0.3814361627635971 0.052171512443510759 6.7280301689677797 6.7434699110516263 0.25881904510252091 6.8669327419268669 6.1643663291330322 0.32876725947975888 0.25881904510252091 -0.24999999999999994 0.37940952255126054 0.32551364991366888 0.78656609248549325 0.22162311340498006 4.5000000000000009 1.5000000000000002 0.18040713493459867 6.2567088148180039 42.500000000000007 41.500000000000007 0.37665195040658772 9.5000000000000018 0.32299241776664117 1.0000000180025095e-35
decision_type=2 2 2 2 2 2 2 2 2 2 2 2 2 2 2 2 2 2 2 2 2 2 2 2 2 2 2 2 2 2
left_child=1 2 -1 13 5 7 -7 -5 -9 -10 -11 -12 -4 14 28 16 -16 21 19 -18 -21 22 23 -17 25 29 -27 -26 -2 -15
right_child=3 -3 12 4 -6 6 -8 8 9 10 11 -13 -14 24 15 17 18 -19 -20 20 -22 -23 -24 -25 27 26 -28 -29 -30 -31
leaf_value=0.00016462936278184478 0.00069451783850506895 -0.0004204754250637011 -0.00040646831114615214 -0.00012063533172860708 5.3935904180097742e-05 -0.00033255871377132687 0.0040166506835832309 1.371940497130105e-05 -0.00052380237294251159 -0.00048993344395498737 0.00016171125226859649 1.6302608382445188e-05 -0.00032727878132751453 0.0097916687214005364 -2.0578570956341026e-05 -0.00013267143282855563 5.4072426833144242e-05 -0.00029782313086797814 0.0025229662587315863 -0.00030577503749973855 0.0028621559868157128 0.00017311684130278909 0.00067317842250648767 0.0020529803497291626 0.0040404667537033978 5.2611704603917897e-06 0.0085760626907696695 0.0033116967172234324 0.011372127302770794 0.0035837515469141802
leaf_weight=43 2212 20 22 37 1037 35 21 207 25 26 161 31 23 28 38 20 61 31 211 21 20 1255 126 23 11858 21 66 5458 83 1155
leaf_count=43 2212 20 22 37 1037 35 21 207 25 26 161 31 23 28 38 20 61 31 211 21 20 1255 126 23 11858 21 66 5458 83 1155
internal_value=0 -0.0036537 -0.00165455 1.70334e-05 -0.00023481 -0.000778729 -0.00262857 -0.000566016 -0.000394444 -0.000773045 -0.000408716 -0.000210417 -0.00328333 3.45727e-05 -2.31529e-05 -0.000116113 -0.000519801 -1.87285e-05 -0.000269489 -0.000930392 -0.00238902 1.48876e-05 -0.000245858 -0.00111279 4.73098e-05 1.06299e-05 -0.000524713 5e-05 5e-05 5e-05
internal_weight=0 108 88 24267 1580 543 56 487 450 243 218 192 45 22687 4101 1806 351 1455 313 102 41 1424 169 43 18586 1270 87 17316 2295 1183
internal_count=24375 108 88 24267 1580 543 56 487 450 243 218 192 45 22687 4101 1806 351 1455 313 102 41 1424 169 43 18586 1270 87 17316 2295 1183
is_linear=0
shrinkage=0.05


Tree=21
num_leaves=31
num_cat=0
split_feature=6 7 1 4 9 7 7 7 4 9 6 9 7 7 9 6 6 5 7 9 7 7 3 6 6 1 4 4 1 6
split_gain=0.488632 0.682011 0.0713917 0.0538695 0.0490542 0.0364455 0.0237647 0.169483 0.380952 0.0181468 0.0287234 0.00676914 0.0207997 0.118198 0.0932432 0.00200708 0.0143309 0.0335185 0.0311894 0.00317285 0.0119244 0.0346154 8.67362e-19 2.1684e-19 1.0842e-19 2.71051e-20 2.71051e-20 2.71051e-20 1.35525e-20 1.35525e-20
threshold=0.052171512443510759 6.8150914436671455 10.500000000000002 -0.68301270189221952 28.600000000000005 6.7434699110516263 6.4777410025491262 6.4884444749049646 -0.24999999999999994 15.550000000000002 0.22613484019624933 20.300000000000004 6.7280301689677797 6.7481730371604982 17.650000000000002 0.33471075040691967 0.32551364991366888 0.93301270189221952 6.2567088148180039 13.950000000000001 5.8185970451577838 6.0556116797489983 0.91597561503675362 0.41712878192836506 0.47145668912248379 11.500000000000002 1.0000000180025095e-35 0.6830127018922193 12.500000000000002 0.4650083299689895
decision_type=2 2 2 2 2 2 2 2 2 2 2 2 2 2 2 2 2 2 2 2 2 2 2 2 2 2 2 2 2 2
left_child=1 2 -1 -4 6 28 15 8 -8 10 -9 12 24 14 -14 16 19 18 -18 20 26 -22 -21 -13 -11 -15 -2 -24 -5 -25
right_child=4 -3 3 5 -6 -7 7 9 -10 11 -12 23 13 25 -16 -17 17 -19 -20 22 21 -23 27 29 -26 -27 -28 -29 -30 -31
leaf_value=-0.00011567210964599718 0.00029336943823217443 -0.00026280552055817004 -0.0003093032590410522 7.3904180842737453e-06 6.9862197280261967e-06 6.0966495408938674e-07 -0.00013512057459055281 0.00090725294857782945 0.00075880561527165338 4.21246203504964e-05 -0.000302704166805747 0.00020611831145397636 0.0013368469981861798 3.201733761048183e-05 -0.00049301633138060014 0.0039592963754103367 0.00572370479572047 -0.00021607821471212875 -0.00012915573593931876 0.00021564852178023974 -0.00026856773673685619 0.001672243377091545 0.0018616884664278647 0.0055055815083834003 0.0057191495125997558 0.0015090568643149308 0.00040457216742260179 0.0033947799947804352 0.00049867126559571091 0.0050163323286024431
leaf_weight=26 55 24 38 57 20 22 28 27 56 515 20 1187 23 188 37 18211 193 22 28 2947 20 45 187 66 20 35 169 57 32 55
leaf_count=26 55 24 38 57 20 22 28 27 56 515 20 1187 23 188 37 18211 193 22 28 2947 20 45 187 66 20 35 169 57 32 55
internal_value=0 -0.00246256 -0.00137857 -0.000956711 2.52179e-05 -0.00040045 2.72643e-05 -0.000127226 -0.00233095 -4.20387e-05 -0.00101383 -2.0555e-05 -0.000133374 -0.000480035 -0.00245 4.31613e-05 9.70991e-06 -0.000361523 -0.000176244 3.56322e-05 -0.00012301 -0.000719231 5e-05 5e-05 5e-05 5e-05 5e-05 5e-05 5e-05 5e-05
internal_weight=0 199 175 149 24211 111 24191 2257 84 2173 47 2126 818 283 60 21934 3723 243 221 3480 289 65 3191 1308 535 223 224 244 89 121
internal_count=24410 199 175 149 24211 111 24191 2257 84 2173 47 2126 818 283 60 21934 3723 243 221 3480 289 65 3191 1308 535 223 224 244 89 121
is_linear=0
shrinkage=0.05


Tree=22
num_leaves=31
num_cat=0
split_feature=6 7 7 9 7 6 3 4 9 6 6 9 6 7 7 1 4 7 7 7 7 7 9 9 7 6 6 3 1 1
split_gain=0.955351 0.621534 0.186076 0.0311569 0.0311321 0.0158037 0.0222488 0.0249198 0.0600319 0.116667 0.0401733 0.0950226 0.0266589 0.0106195 0.119267 0.0234097 0.0669421 0.1 0.00354596 0.0462963 0.0026965 0.0465035 0.00220036 0.0148689 0.0231481 0.000370666 0.0085043 0.0188492 3.46945e-18 4.33681e-19
threshold=0.035675318879856054 6.7434699110516263 6.1643663291330322 28.050000000000004 6.6287023148084918 0.33471075040691967 0.25881904510252091 0.25000000000000017 14.300000000000002 0.27931798639204536 0.32551364991366888 18.950000000000003 0.052171512443510759 6.7363734861220923 6.7208229279629697 10.500000000000002 -0.24999999999999994 6.3534997185584592 6.7013457377751759 6.7135633652932718 5.6436769842906767 5.5965666693001079 17.650000000000002 17.150000000000002 6.4838712935462262 0.36870214063138956 0.36792523822863793 0.78656609248549325 22.500000000000004 14.500000000000002
decision_type=2 2 2 2 2 2 2 2 2 2 2 2 2 2 2 2 2 2 2 2 2 2 2 2 2 2 2 2 2 2
left_child=1 2 -1 5 -4 6 29 8 9 -8 12 -12 -10 14 15 22 17 -17 25 -20 21 -9 23 -14 -25 26 -7 -28 -27 -2
right_child=3 -3 4 -5 -6 18 7 20 10 -11 11 -13 13 -15 -16 16 -18 -19 19 -21 -22 -23 -24 24 -26 28 27 -29 -30 -31
leaf_value=-0.00037050299431079899 7.3428809584986631e-05 -0.00039264419305893021 5.5098206502441144e-05 1.447384565012094e-05 -0.000294352315233827 0.0021978107945404479 -0.00027498571161318998 0.00043041594430207395 -4.6623421286955453e-05 0.00056589678745256201 -0.00039874508906805425 0.0028022248770023517 7.3153384224299277e-05 6.6402636101420539e-05 -9.6939214758527722e-05 0.00016224901174703767 0.00033237438086001076 -3.0082967297686378e-05 -0.00015334472812617505 0.0012960161008737951 0.00035760852888000162 -0.00010640263311011457 0.00025355346687533364 -2.6735422924129007e-05 0.0013346099464080876 0.0036973976526061521 0.0077873242197116985 -2.2154341524024957e-05 0.011928830327166663 0.0042436217522710731
leaf_weight=24 2021 26 33 31 20 2245 20 266 29 28 26 42 220 466 29 20 81 20 20 250 964 20 416 24 30 15403 76 36 896 644
leaf_count=24 2021 26 33 31 20 2245 20 266 29 28 26 42 220 466 29 20 81 20 20 250 964 20 416 24 30 15403 76 36 896 644
internal_value=0 -0.00480437 -0.0025474 2.12207e-05 -0.000893396 2.32422e-05 -5.24972e-05 -0.000153628 -0.00029459 -0.00203333 -0.000235103 -0.00142059 -0.000174719 -0.000141424 -0.000247619 -0.000134957 -0.000776446 -0.00245 4.47163e-05 -0.000135185 1e-05 -0.000124825 -2.24638e-05 -0.000132482 -0.000875926 4.73199e-05 2.87866e-05 -0.000396429 5e-05 5e-05
internal_weight=0 103 77 24323 53 24292 5366 2701 1451 48 1403 68 1335 1306 840 811 121 40 18926 270 1250 286 690 274 54 18656 2357 112 16299 2665
internal_count=24426 103 77 24323 53 24292 5366 2701 1451 48 1403 68 1335 1306 840 811 121 40 18926 270 1250 286 690 274 54 18656 2357 112 16299 2665
is_linear=0
shrinkage=0.05


Tree=23
num_leaves=31
num_cat=0
split_feature=6 7 8 4 9 7 7 4 9 6 8 6 9 6 7 7 6 6 7 0 6 4 9 7 7 0 2 6 0 6
split_gain=0.316459 0.46047 0.0941876 0.0808972 0.0488896 0.0221834 0.0791321 0.225684 0.0160594 0.03 0.0135155 0.0333333 0.0119753 0.0392512 0.131944 0.1875 0.00534285 0.016108 0.0597128 0.121569 0.0113745 0.0216298 0.00252119 0.0115584 0.0285529 0.00331769 0.0176402 0.0263425 3.46945e-18 1.73472e-18
threshold=0.052171512443510759 6.7996129651804988 51.500000000000007 -0.68301270189221952 28.600000000000005 6.4777410025491262 6.4884444749049646 -0.24999999999999994 15.550000000000002 0.23652275406225295 24.500000000000004 0.18521168891376813 18.950000000000003 0.25930895980883661 6.7280301689677797 6.7996129651804988 0.33972551881076629 0.32551364991366888 6.2567088148180039 4.5000000000000009 0.32876725947975888 0.25000000000000017 13.950000000000001 5.8185970451577838 6.0001757199539183 1.5000000000000002 -0.70710678118654757 0.27931798639204536 9.5000000000000018 0.5287383667126071
decision_type=2 2 2 2 2 2 2 2 2 2 2 2 2 2 2 2 2 2 2 2 2 2 2 2 2 2 2 2 2 2
left_child=1 2 -1 -4 5 16 7 -7 9 -8 11 -10 13 -12 -15 -16 17 22 20 -20 21 -19 23 -2 -25 26 -24 -28 29 -18
right_child=4 -3 3 -5 -6 6 8 -9 10 -11 12 -13 -14 14 15 -17 28 18 19 -21 -22 -23 25 24 -26 -27 27 -29 -30 -31
leaf_value=-0.00010720527444929474 1.0909166051776123e-05 -0.00037345048203427024 -0.00034522759356551155 0.00010757027968956727 5.9132164591189574e-06 -0.00012702308817312758 0.00085915439267939269 0.00071533945652586535 3.1146669106765433e-05 -0.00046930726855624731 0.00012698782547123562 0.0002322041647166812 2.6808154901549712e-05 0.00038065843648928143 -0.00016663246386431813 0.0097731085813880392 0.0038939354194746827 -0.0001340230355513672 -0.00019090639150266724 0.0071300474332904196 0.0022754099376177893 0.0036483329299829767 0.0022512103130466875 -0.00025387829007559784 0.0019696669738386244 0.00028874216754750585 -0.00014340849440615499 0.00085512260638721674 0.0029922566087962101 0.010096496818149657
leaf_weight=25 230 23 37 110 20 28 30 66 20 20 390 40 1527 114 24 24 9248 28 20 31 298 43 228 23 44 2863 21 26 6140 2644
leaf_count=25 230 23 37 110 20 28 30 66 20 20 390 40 1527 114 24 24 9248 28 20 31 298 43 228 23 44 2863 21 26 6140 2644
internal_value=0 -0.00200128 -0.00111279 -0.000630272 2.10624e-05 2.31072e-05 -0.000125208 -0.00154574 -6.42074e-05 -0.00095 -4.35016e-05 -0.000783333 -2.21501e-05 -0.000221739 -0.000875926 -0.003075 3.85777e-05 -1.48508e-05 -0.000307143 -0.00191078 -8.55014e-05 -0.000654225 2.08879e-05 -0.00011835 -0.000696269 3.40663e-05 -0.000131818 -0.00101383 5e-05 5e-05
internal_weight=0 195 172 147 24190 24170 2283 94 2189 50 2139 60 2079 552 162 48 21887 3855 420 51 369 71 3435 297 67 3138 275 47 18032 11892
internal_count=24385 195 172 147 24190 24170 2283 94 2189 50 2139 60 2079 552 162 48 21887 3855 420 51 369 71 3435 297 67 3138 275 47 18032 11892
is_linear=0
shrinkage=0.05


Tree=24
num_leaves=31
num_cat=0
split_feature=6 0 1 6 9 7 0 1 7 7 8 6 9 0 6 8 9 9 8 0 7 7 7 8 9 4 0 6 6 6
split_gain=0.382003 0.362319 0.0472921 0.040117 0.0750939 0.0256786 0.04396 0.0631849 0.0953822 0.183529 0.0949134 0.149764 0.020426 0.0123418 0.025 0.00678476 0.0143416 0.024359 0.0409091 0.00223021 0.0408187 0.00183854 0.0187487 0.03 0.00227662 0.0232946 0.00220159 0.0245456 0.000757576 3.46945e-18
threshold=0.035675318879856054 4.5000000000000009 11.500000000000002 0.052171512443510759 19.300000000000001 6.2567088148180039 4.5000000000000009 9.5000000000000018 6.7013457377751759 6.7656153457204473 62.500000000000007 0.33199299615436423 24.700000000000003 3.5000000000000004 0.23652275406225295 64.500000000000014 17.650000000000002 18.850000000000005 69.500000000000014 6.5000000000000009 6.3604381731226871 5.3683070215747577 5.3867833963027953 74.500000000000014 14.300000000000002 1.0000000180025095e-35 1.5000000000000002 0.18040713493459867 0.20633387658238497 0.2968578066348283
decision_type=2 2 2 2 2 2 2 2 2 2 2 2 2 2 2 2 2 2 2 2 2 2 2 2 2 2 2 2 2 2
left_child=1 2 -1 4 -2 21 7 8 10 -10 -7 13 15 -12 -15 -9 -17 18 28 20 -8 29 23 -23 25 -24 27 -26 -18 -5
right_child=3 -3 -4 5 -6 6 19 12 9 -11 11 -13 -14 14 -16 16 17 -19 -20 -21 -22 22 24 -25 26 -27 -28 -29 -30 -31
leaf_value=-0.00035088574375542134 0.00010192906567705202 -0.00033782951586346132 1.6059372960942898e-05 0.00051667969382072551 -3.0128805519605459e-05 0.00022744629785022443 2.4083806250647239e-06 4.4077382434581939e-05 -0.00027419950470180583 0.0018803697643222763 0.00034092803381978671 -0.000455085147589722 -0.00045579770914038219 -0.00011580410081996383 0.0016500812375110825 0.00011899596628405748 -9.381981067063841e-05 0.0011080761128181378 0.0010996461194890089 0.0008136834302119643 6.7590802557804556e-06 -0.00047357294504063696 -0.00024419550171812923 0.0091580234093361999 -0.00010315402122382228 0.0018750291949625603 0.0007932012022853985 0.00089802787669125456 -3.1653224561443635e-05 0.0064988305353465342
leaf_weight=38 60 23 31 586 34 214 23 532 25 26 39 32 39 20 20 198 24 76 36 1953 353 20 38 30 37 293 3171 366 20 16051
leaf_count=38 60 23 31 586 34 214 23 532 25 26 39 32 39 20 20 198 24 76 36 1953 353 20 38 30 37 293 3171 366 20 16051
internal_value=0 -0.00321087 -0.00139928 1.70999e-05 -0.00101383 2.11007e-05 -0.000101515 -0.00033432 -0.000880851 -0.00289118 -0.000565385 -0.0017518 -0.000112162 -0.000582911 -0.0012 -6.28668e-05 -0.000232486 -0.000591026 -0.0012 2.85316e-05 -8.29787e-05 4.27156e-05 1.20733e-05 -0.00095 2.43918e-05 -0.000101057 3.60101e-05 -7.40695e-05 -0.00222273 5e-05
internal_weight=0 92 69 24316 94 24222 3630 1301 376 51 325 111 925 79 40 886 354 156 80 2329 376 20592 3955 50 3905 331 3574 403 44 16637
internal_count=24408 92 69 24316 94 24222 3630 1301 376 51 325 111 925 79 40 886 354 156 80 2329 376 20592 3955 50 3905 331 3574 403 44 16637
is_linear=0
shrinkage=0.05


Tree=25
num_leaves=31
num_cat=0
split_feature=6 7 1 0 7 0 6 7 1 6 2 6 7 7 5 1 0 1 1 8 0 6 8 6 6 0 2 6 1 1
split_gain=0.42174 0.751362 0.0976771 0.0795367 0.021301 0.0503226 0.1304 0.258511 0.0139219 0.0261905 0.0147696 0.0287511 0.00379491 0.0198193 0.0439394 0.0623656 0.00372682 0.00954901 0.0314805 0.0361357 0.0310204 0.113043 0.0273973 0.0140734 0.0311321 3.46945e-18 4.33681e-19 4.33681e-19 1.0842e-19 1.0842e-19
threshold=0.052171512443510759 6.7996129651804988 10.500000000000002 4.5000000000000009 6.7013457377751759 4.5000000000000009 0.27516632356024556 6.7598349808735607 9.5000000000000018 0.22162311340498006 -0.9829629131445341 0.11358532891028662 5.3399361658330653 5.3867833963027953 0.68301270189221941 7.5000000000000009 4.5000000000000009 9.5000000000000018 8.5000000000000018 62.500000000000007 3.5000000000000004 0.24622562688160518 74.500000000000014 0.35899052996205533 0.21196683177460798 10.500000000000002 0.9159756150367534 0.57894378717589379 11.500000000000002 6.5000000000000009
decision_type=2 2 2 2 2 2 2 2 2 2 2 2 2 2 2 2 2 2 2 2 2 2 2 2 2 2 2 2 2 2
left_child=1 2 -1 -4 12 6 8 -8 9 -6 11 -10 25 14 -14 -16 17 18 29 -20 22 -22 23 24 -21 -2 -27 -19 -7 -15
right_child=4 -3 3 -5 5 28 7 -9 10 -11 -12 -13 13 16 15 -17 -18 27 19 20 21 -23 -24 -25 -26 26 -28 -29 -30 -31
leaf_value=-0.00014855916181458922 0.0033850990585177878 -0.00033724868462989472 5.3198377359442152e-06 -0.00024624827117962001 -0.00040264918735599816 7.8761090550152541e-05 -0.00026107470816167977 0.00050226919317510423 0.00028819403395568443 0.001362763325643143 3.4355306523511365e-05 -0.00044933437497718859 0.0044787505295518113 0.0056788477104905699 0.0062291861146609277 -0.00046527813928741988 0.00055955627117178859 6.7684582017238438e-05 0.00036284046734969862 -0.00013739503496680181 0.00016396951793706257 -0.00023894475404765705 0.00032960429836208899 -0.00036110230377219558 0.00055967209547524966 0.0033423937503165866 0.0099126742606014014 0.0076953839915079626 0.00016421259226074943 0.00073909661810471125
leaf_weight=24 12533 23 103 37 20 543 20 27 32 22 191 21 116 92 29 31 3960 1535 147 20 26 20 73 20 33 3244 655 41 134 587
leaf_count=24 12533 23 103 37 20 543 20 27 32 22 191 21 116 92 29 31 3960 1535 147 20 26 20 73 20 33 3244 655 41 134 587
internal_value=0 -0.00235642 -0.00116951 -0.000664286 2.72464e-05 -0.000197525 -0.000700751 -0.00314149 -0.00029965 -0.00114048 -0.000154918 -0.000893396 3.70478e-05 5.42348e-06 -0.000518182 -0.00161667 1.94843e-05 -2.7101e-05 -0.000146464 -0.000539971 -0.000991667 -0.00212391 -0.000634932 -0.00131986 -0.000893396 5e-05 5e-05 5e-05 5e-05 5e-05
internal_weight=0 187 164 140 24172 1010 333 47 286 42 244 53 23162 6730 176 60 6554 2594 1018 339 192 46 146 73 53 16432 3899 1576 677 679
internal_count=24359 187 164 140 24172 1010 333 47 286 42 244 53 23162 6730 176 60 6554 2594 1018 339 192 46 146 73 53 16432 3899 1576 677 679
is_linear=0
shrinkage=0.05


Tree=26
num_leaves=31
num_cat=0
split_feature=6 7 4 6 9 7 7 9 6 6 6 5 6 6 7 9 7 8 6 6 6 7 8 8 6 7 7 7 3 3
split_gain=0.22953 0.239781 0.152941 0.037262 0.0583453 0.0929152 0.0210637 0.0417107 0.203062 0.0146541 0.0301519 0.0756173 0.00400758 0.00998882 0.0380952 0.00961051 0.0165446 0.0621321 0.0995671 0.00212893 0.0108658 0.0363014 0.000715009 0.00975768 0.0394737 0.000712687 0.0406892 3.46945e-18 4.33681e-19 2.1684e-19
threshold=0.035675318879856054 6.7747949886470034 -0.5 0.052171512443510759 19.300000000000001 6.7013457377751759 6.7013457377751759 18.150000000000002 0.27516632356024556 0.16031097254439983 0.12503555831670943 1.0000000180025095e-35 0.33471075040691967 0.33199299615436423 6.2095950515606413 13.950000000000001 5.3399361658330653 77.500000000000014 0.27183800929349761 0.10048492595619686 0.093572061245469365 6.4838712935462262 42.500000000000007 41.500000000000007 0.37510014181880891 5.6436769842906767 5.6330006924953082 6.6802269323173 0.60355339059327384 0.98296291314453432
decision_type=2 2 2 2 2 2 2 2 2 2 2 2 2 2 2 2 2 2 2 2 2 2 2 2 2 2 2 2 2 2
left_child=1 2 -1 4 -2 -6 12 8 -8 10 -9 -12 13 15 -15 16 -5 -18 -19 20 -17 -22 23 29 -25 26 -21 -24 -27 -14
right_child=3 -3 -4 6 5 -7 7 9 -10 -11 11 -13 22 14 -16 19 17 18 -20 25 21 -23 27 24 -26 28 -28 -29 -30 -31
leaf_value=-0.00030882923924068243 1.20311552364821e-05 -0.00032067709206779139 1.503636317951335e-05 0.0020260807824444798 -9.3000713230733368e-05 2.8488340584217312e-06 0.00013370408775024498 0.00014579738561006157 -0.00024638220448917864 4.5794983842061241e-05 0.0031245273883319202 -0.00044304772661233081 0.0026606158032629204 0.0025018342298287321 -3.5310353757081468e-05 5.2328550228695064e-06 0.00047585189864960721 1.7880598776070415e-05 -0.00026362854500369416 0.0010914506569744279 0.0007415973068135922 -6.8451843027327741e-05 0.0033599499055809363 -0.00032883416864844668 0.0084592627636281108 0.00028232224366038505 -0.0001227734994894732 0.0028980910026108133 0.00030886732114693266 0.0067810824196507004
leaf_weight=20 61 21 65 188 21 20 112 127 34 666 49 32 1145 64 20 280 95 23 21 999 53 20 17317 20 75 1912 24 28 841 61
leaf_count=20 61 21 65 188 21 20 112 127 34 666 49 32 1145 64 20 280 95 23 21 999 53 20 17317 20 75 1912 24 28 841 61
internal_value=0 -0.00230849 -0.00112647 2.32598e-05 -0.000930392 -0.00238902 2.72784e-05 -0.000195098 -0.000977397 -6.44165e-05 -0.000430769 -0.00118457 3.70612e-05 -5.06608e-06 -0.000545238 5.1167e-06 -0.00025581 -0.000669424 -0.00222273 2.57811e-05 -9.16431e-05 -0.000634932 4.73185e-05 1.1568e-05 -0.000476316 3.67585e-05 1.12415e-06 5e-05 5e-05 5e-05
internal_weight=0 106 85 24308 102 41 24206 1020 146 874 208 81 23186 4540 84 4456 327 139 44 4129 353 73 18646 1301 95 3776 1023 17345 2753 1206
internal_count=24414 106 85 24308 102 41 24206 1020 146 874 208 81 23186 4540 84 4456 327 139 44 4129 353 73 18646 1301 95 3776 1023 17345 2753 1206
is_linear=0
shrinkage=0.05


Tree=27
num_leaves=31
num_cat=0
split_feature=6 0 8 6 0 1 0 1 8 8 6 9 6 9 6 8 8 9 8 6 1 6 6 6 5 2 1 8 1 6
split_gain=0.174568 0.226681 0.0265152 0.0234356 0.0289701 0.0366146 0.044388 0.0549908 0.0440751 0.0812472 0.0804859 0.0892857 0.0374484 0.0359524 0.0283774 0.0566596 0.0974529 0.0180982 0.0349809 0.0256888 0.0290272 0.0282609 0.0041776 0.0291636 0.000489316 0.00907338 0.0288462 6.93889e-18 2.1684e-19 2.1684e-19
threshold=0.035675318879856054 4.5000000000000009 66.500000000000014 0.33471075040691967 6.5000000000000009 12.500000000000002 3.5000000000000004 8.5000000000000018 60.500000000000007 61.500000000000007 0.25930895980883661 19.300000000000001 0.17523501184666293 24.700000000000003 0.3165042617960318 71.500000000000014 85.000000000000014 17.150000000000002 64.500000000000014 0.093572061245469365 10.500000000000002 0.20103088817200579 0.27516632356024556 0.28348133736443587 0.93301270189221952 -0.60355339059327384 9.5000000000000018 42.500000000000007 16.500000000000004 0.32876725947975888
decision_type=2 2 2 2 2 2 2 2 2 2 2 2 2 2 2 2 2 2 2 2 2 2 2 2 2 2 2 2 2 2
left_child=1 2 -1 4 5 6 14 -8 13 12 17 -12 -10 -9 22 -16 -17 -11 -19 -20 21 -21 -2 -24 27 26 -26 -5 -27 -7
right_child=3 -3 -4 24 -6 29 7 8 9 10 11 -13 -14 -15 15 16 -18 18 19 20 -22 -23 23 -25 25 28 -28 -29 -30 -31
leaf_value=3.2301266352299755e-05 9.155810557082104e-05 -0.00029318416454927312 -7.3593440780056306e-05 0.0026766790846487216 0.00063903238015469591 0.00098187635223327034 0.0021991369760662343 1.9658077672917276e-05 -1.1775723103731638e-05 5.8747259622612984e-06 -0.00021200505606652024 0.0060906041371853988 -0.00043862420073940598 -0.00042416590105260363 0.0035030514572090355 -0.00050436731916455332 0.0018720935404391481 2.230500119498461e-05 1.8232250530060278e-06 0.00084094220838475608 -9.1221101624069687e-05 -0.00010261664305638331 8.3851113521377093e-05 0.00054246215406479994 -0.00057051671535256123 0.0046648942896876074 0.0065695246782197965 0.0032989609106518492 0.010235937520372815 0.010066569904268548
leaf_weight=42 688 23 24 1067 2579 1014 222 151 26 87 36 20 21 24 67 21 22 67 23 26 33 20 29 159 26 986 78 16067 755 42
leaf_count=42 688 23 24 1067 2579 1014 222 151 26 87 36 20 21 24 67 21 22 67 23 26 33 20 29 159 26 986 78 16067 755 42
internal_value=0 -0.00219719 -0.000707576 2.12597e-05 -7.08853e-05 -0.000182309 -0.000323134 -0.000611376 -0.00088633 -0.00120348 -0.000911538 -0.00262857 -0.00314149 -0.000235714 -0.00010213 -0.000859091 -0.00227558 -0.000535938 -0.000837574 -0.00142059 -0.00184873 -0.00103696 -7.07762e-06 -0.000215957 4.73655e-05 2.28997e-05 -0.000430769 5e-05 5e-05 5e-05
internal_weight=0 89 66 24356 5377 2798 1742 756 534 359 312 56 47 175 986 110 43 256 169 102 79 46 876 188 18979 1845 104 17134 1741 1056
internal_count=24445 89 66 24356 5377 2798 1742 756 534 359 312 56 47 175 986 110 43 256 169 102 79 46 876 188 18979 1845 104 17134 1741 1056
is_linear=0
shrinkage=0.05


Tree=28
num_leaves=31
num_cat=0
split_feature=6 0 9 6 9 7 0 7 2 9 7 6 6 5 0 6 9 7 7 0 9 6 0 7 7 5 2 9 6 6
split_gain=0.350178 0.309439 0.063593 0.037799 0.0677041 0.0252098 0.0397057 0.0356528 0.0235504 0.0539326 0.109372 0.0270027 0.0210288 0.0717949 0.0148525 0.0267442 0.0141108 0.0254545 0.0130448 0.0539948 0.109091 0.0151099 0.0321429 0.00311265 0.0207914 0.0518031 0.0624593 0.00221269 0.0129232 0.034127
threshold=0.035675318879856054 4.5000000000000009 17.150000000000002 0.052171512443510759 19.300000000000001 6.2567088148180039 6.5000000000000009 6.2643497376646673 -0.70710678118654757 17.650000000000002 6.6883539385227424 0.18040713493459867 0.33715757233955046 0.93301270189221952 3.5000000000000004 0.26737548030958697 24.700000000000003 6.7940263567282555 6.5213569628644246 4.5000000000000009 19.300000000000001 0.10048492595619686 3.5000000000000004 5.3399361658330653 5.3867833963027953 0.68301270189221941 -0.37940952255126009 14.300000000000002 0.27516632356024556 0.23155186907585715
decision_type=2 2 2 2 2 2 2 2 2 2 2 2 2 2 2 2 2 2 2 2 2 2 2 2 2 2 2 2 2 2
left_child=1 2 -1 4 -2 23 7 -7 16 10 12 -11 14 -14 -10 -16 18 -18 19 21 -21 22 -9 -5 25 -25 -27 28 29 -26
right_child=3 -3 -4 5 -6 6 -8 8 9 11 -12 -13 13 -15 15 -17 17 -19 -20 20 -22 -23 -24 24 27 26 -28 -29 -30 -31
leaf_value=-7.1514491503223856e-05 1.1233692697214075e-05 -0.00027832121406779734 0.00035548877643284504 0.0032249204218461492 -9.1491743905422555e-05 -7.3969710902340978e-05 0.00070927795838216499 0.00015778435021019424 0.00015478314219912178 -0.00041004990829111951 -0.00028425452510703967 0.00039748403186718872 0.0027927817003169939 -0.00059688656387834086 -0.00012798916677237237 0.0011366637627159587 0.00071041709421486819 -0.00040389806466221018 1.9399583466601604e-05 0.0011590317639019274 -7.9435112087340739e-05 0.000493361851132732 -8.5082648720659218e-05 0.0040480615273666689 0.00033282116574902417 -0.00065178336318152399 0.0056925235641598418 0.00046055546408605059 0.0018093107829403644 -0.00012345356617325803
leaf_weight=34 62 26 40 16419 37 21 1937 36 76 33 22 270 35 30 20 23 28 22 648 33 22 308 20 116 43 29 24 3603 276 20
leaf_count=34 62 26 40 16419 37 21 1937 36 76 33 22 270 35 30 20 23 28 22 648 33 22 308 20 116 43 29 24 3603 276 20
internal_value=0 -0.00295 -0.00130135 1.48949e-05 -0.000960101 1.88977e-05 -0.00010346 -0.00028394 -0.000257503 -0.000539391 -0.00116359 -0.000115017 -0.000765217 -0.00148846 -0.000370168 -0.00111279 -0.000129051 -0.00095 -9.05811e-05 -0.000307995 -0.00176818 -8.73626e-05 -0.000842857 4.02582e-05 1.35004e-06 -0.000541716 -0.00183679 2.46322e-05 -9.74926e-05 -0.000743651
internal_weight=0 100 74 24213 99 24114 3584 1647 1626 509 206 303 184 65 119 43 1117 50 1067 419 55 364 56 20530 4111 169 53 3942 339 63
internal_count=24313 100 74 24213 99 24114 3584 1647 1626 509 206 303 184 65 119 43 1117 50 1067 419 55 364 56 20530 4111 169 53 3942 339 63
is_linear=0
shrinkage=0.05


Tree=29
num_leaves=31
num_cat=0
split_feature=6 8 0 7 0 6 7 7 6 0 1 6 3 0 6 8 1 8 0 6 4 1 1 0 1 7 6 0 6 6
split_gain=0.274507 0.227072 0.142029 0.0206034 0.0509067 0.143845 0.0322007 0.11677 0.0260065 0.0870748 0.0221317 0.00651126 0.0120093 0.0302215 0.0515883 0.0783674 0.0261982 0.0636023 0.0677878 0.0324561 0.00521138 0.0361418 3.46945e-18 8.67362e-19 4.33681e-19 4.33681e-19 2.1684e-19 1.0842e-19 1.0842e-19 1.0842e-19
threshold=0.035675318879856054 54.500000000000007 4.5000000000000009 6.7013457377751759 4.5000000000000009 0.33471075040691967 6.7363734861220923 6.7208229279629697 0.06517146368562271 4.5000000000000009 11.500000000000002 0.33471075040691967 0.60355339059327384 4.5000000000000009 0.32551364991366888 62.500000000000007 8.5000000000000018 67.500000000000014 3.5000000000000004 0.22162311340498006 -0.68301270189221952 11.500000000000002 21.500000000000004 10.500000000000002 22.500000000000004 6.6167340815536484 0.71418095147092819 11.500000000000002 0.32299241776664117 0.60990923711469924
decision_type=2 2 2 2 2 2 2 2 2 2 2 2 2 2 2 2 2 2 2 2 2 2 2 2 2 2 2 2 2 2
left_child=1 -1 -3 8 5 6 7 -5 9 -2 -8 12 20 14 16 -16 -14 -18 19 -19 21 -10 -13 25 -24 -22 29 -15 -25 -26
right_child=3 2 -4 4 -6 -7 10 -9 11 -11 -12 22 13 27 15 -17 17 18 -20 -21 23 -23 24 28 26 -27 -28 -29 -30 -31
leaf_value=-0.00032085039489339735 0.00010259696857117725 1.1090518705658313e-05 -0.000262998647105458 0.00039992654957294162 1.2953023188159369e-05 -0.00027011817536870411 2.0453975523606294e-05 -0.00039721278761492313 -7.5308937566602403e-05 -9.2576085306172773e-05 -0.00036961821975388382 0.0021236746208419116 9.6763424336851364e-05 0.0012400555369047788 0.00098489759251193664 -0.00049678845241887695 0.00015901322295457473 -0.00015283244168127461 -0.00019801792421454882 0.0010447220087957153 0.00017708046826747821 0.0010076130168477557 0.010244629532326086 0.0018788334238390313 0.0097372657200026427 0.00048598436035438204 0.01535656255545691 0.0010814272125906545 0.0028078490322708373 0.0099042335189807873
leaf_weight=20 112 49 20 47 676 21 201 23 24 35 38 16488 256 646 24 25 113 20 25 37 2210 157 985 586 888 176 25 118 37 70
leaf_count=20 112 49 20 47 676 21 201 23 24 35 38 16488 256 646 24 25 113 20 25 37 2210 157 985 586 888 176 25 118 37 70
internal_value=0 -0.00275899 -0.00139928 2.29876e-05 -0.000198509 -0.000707576 -0.000435437 -0.00137857 3.26517e-05 -0.000630272 -0.000159205 3.69053e-05 -1.73552e-05 -0.000147785 -0.00045 -0.00199082 -0.000282594 -0.000719231 -0.00177927 -0.000827193 3.4326e-05 -0.000226243 5e-05 5e-05 5e-05 5e-05 5e-05 5e-05 5e-05 5e-05
internal_weight=0 89 69 24063 1006 330 309 70 23057 147 239 22910 4454 1264 500 49 451 195 82 57 3190 181 18456 3009 1968 2386 983 764 623 958
internal_count=24152 89 69 24063 1006 330 309 70 23057 147 239 22910 4454 1264 500 49 451 195 82 57 3190 181 18456 3009 1968 2386 983 764 623 958
is_linear=0
shrinkage=0.05


Tree=30
num_leaves=31
num_cat=0
split_feature=6 7 8 6 1 7 7 7 4 0 6 7 6 7 7 1 7 7 0 1 4 9 7 7 9 6 7 7 7 0
split_gain=0.514035 0.360023 0.147727 0.085726 0.129512 0.230488 0.0273923 0.0891872 0.23772 0.0285728 0.0450632 0.159919 0.0264376 0.0249391 0.126604 0.0275187 0.00502033 0.0186226 0.0277778 0.0642857 0.00418629 0.00627528 0.0126853 0.0686869 0.0995671 0.00914711 0.0379518 0.00753373 0.0298408 3.46945e-18
threshold=0.035675318879856054 6.7747949886470034 64.500000000000014 0.052171512443510759 11.500000000000002 6.7135633652932718 6.4777410025491262 6.4884444749049646 -0.24999999999999994 4.5000000000000009 0.33471075040691967 6.612712626606327 0.06517146368562271 6.7280301689677797 6.7434699110516263 11.500000000000002 5.3399361658330653 5.3867833963027953 3.5000000000000004 8.5000000000000018 0.25000000000000017 19.700000000000003 6.2998675207595936 6.3604381731226871 17.150000000000002 0.11358532891028662 5.7381826048292135 5.5032948732385458 5.4827179284163234 11.500000000000002
decision_type=2 2 2 2 2 2 2 2 2 2 2 2 2 2 2 2 2 2 2 2 2 2 2 2 2 2 2 2 2 2
left_child=1 2 -1 4 5 -2 12 8 -8 10 13 -12 -5 -9 -15 -16 29 18 19 -18 21 22 25 24 -24 26 -19 28 -27 -14
right_child=3 -3 -4 6 -6 -7 7 9 -10 -11 11 -13 16 14 15 -17 17 20 -20 -21 -22 -23 23 -25 -26 27 -28 -29 -30 -31
leaf_value=1.2806032064288784e-05 -9.3263148103406402e-05 -0.00030704370812817579 -0.00025077973606668158 -6.206760324716995e-05 0.00023589307513030718 7.8785940194194683e-06 -0.00011711399937610526 7.8663423659522641e-05 0.00052318577624742486 1.2175186440669238e-05 0.00062254055004752758 -0.00062462503810668259 0.0029243915304047558 -0.00037667087296764534 8.5268651772595812e-05 -0.00035563571130286262 -0.0007191993435037734 -1.0451026617552209e-05 0.0040880884996872978 0.0043795534591079292 0.00045565122811451963 0.00057077764633633988 0.00077018405771182472 2.0193670364948463e-05 -0.00066166288844252553 0.0047030454050829042 8.1873774998285267e-05 0.0002646260036074408 -0.00033289019678654498 0.0030080095196023107
leaf_weight=39 20 21 33 37 59 21 26 446 57 1385 79 38 14525 25 180 31 35 20 100 45 3016 1024 23 136 21 90 63 804 26 1988
leaf_count=39 20 21 33 37 59 21 26 446 57 1385 79 38 14525 25 180 31 35 20 100 45 3016 1024 23 136 21 90 63 804 26 1988
internal_value=0 -0.00371344 -0.00203333 1.09375e-05 -0.00145 -0.00360854 1.69694e-05 -0.0001485 -0.00175723 -8.73626e-05 -0.000325469 -0.00123205 3.40569e-05 -0.000169941 -0.000585593 -0.000186967 3.63114e-05 -5.52471e-06 -0.000505556 -0.0012 1.17078e-05 -4.06208e-05 -0.000119062 -0.000505556 -0.00222273 -4.97009e-05 -0.00055241 -4.34782e-06 -0.000381034 5e-05
internal_weight=0 93 72 24320 100 41 24220 2267 83 2184 799 117 21953 682 236 211 21916 5403 180 80 5223 2207 1183 180 44 1003 83 920 116 16513
internal_count=24413 93 72 24320 100 41 24220 2267 83 2184 799 117 21953 682 236 211 21916 5403 180 80 5223 2207 1183 180 44 1003 83 920 116 16513
is_linear=0
shrinkage=0.05


Tree=31
num_leaves=31
num_cat=0
split_feature=6 7 8 7 5 1 7 6 1 6 7 8 6 9 7 6 7 7 7 6 6 6 9 1 1 6 6 6 1 7
split_gain=0.535015 0.384127 0.128571 0.0141767 0.021106 0.0462259 0.0555962 0.113043 0.0688935 0.0733981 0.214101 0.0518207 0.0535714 0.0350746 0.0195119 0.0295918 0.00482406 0.0351732 0.00345863 0.0358848 0.00342509 0.0672749 0.0952381 3.46945e-18 8.67362e-19 8.67362e-19 8.67362e-19 2.1684e-19 1.0842e-19 1.0842e-19
threshold=0.035675318879856054 6.7481730371604982 64.500000000000014 5.2958110956362647 0.68301270189221941 9.5000000000000018 5.3867833963027953 0.36961150036419149 8.5000000000000018 0.33199299615436423 6.612712626606327 67.500000000000014 0.22162311340498006 18.150000000000002 5.310736838221497 0.31944884054767991 6.2998675207595936 6.3306113777081938 6.7280301689677797 0.27516632356024556 0.18040713493459867 0.17523501184666293 19.700000000000003 19.500000000000004 5.5000000000000009 0.46618392702385436 0.53676261286154781 0.54237997099993052 13.500000000000002 6.8506555468196231
decision_type=2 2 2 2 2 2 2 2 2 2 2 2 2 2 2 2 2 2 2 2 2 2 2 2 2 2 2 2 2 2
left_child=1 2 -1 23 14 6 7 -6 16 11 13 -10 -13 -11 15 -5 -8 -18 27 -20 21 28 -23 -2 -22 -25 -26 -7 29 -16
right_child=3 -3 -4 4 5 18 8 -9 9 10 -12 12 -14 -15 20 -17 17 -19 19 -21 24 22 -24 25 26 -27 -28 -29 -30 -31
leaf_value=1.2454123828817017e-05 0.0026183435875313846 -0.00029188199098125346 -0.0002381050074437641 -5.564310793855082e-05 -0.00069133741998693421 2.9021871329014615e-05 0.00017693110332460895 0.0079771944587949117 8.6443722367729922e-05 0.00035010564713427658 -0.00059872536731389071 0.00010493001796116054 -0.00020023270769690531 -4.3606895829838984e-06 0.00017072407593841555 0.0064569646416363178 -0.00055677404331122007 0.0028504724927334423 1.9375409078787144e-05 6.469881240737039e-05 0.0074754517651027148 -0.00017669450063813969 0.0022256806104618727 0.0092342769518782286 0.00085561864328786291 0.0092640308046256468 0.0044059131351405819 0.010710111524402703 0.0027510266027483809 2.0566197692869595e-05
leaf_weight=35 12280 20 35 20 20 1255 445 26 148 47 24 24 32 20 769 29 24 130 218 25 38 24 32 1999 4267 2060 222 25 108 30
leaf_count=35 12280 20 35 20 20 1255 445 26 148 47 24 24 32 20 769 29 24 130 218 25 38 24 32 1999 4267 2060 222 25 108 30
internal_value=0 -0.00383889 -0.00209286 2.32961e-05 -3.12297e-05 -0.000153004 -0.000428723 -0.00212391 -0.000341499 -0.000966949 -0.0021478 -0.000440196 -0.00173571 -0.000696269 2.29193e-05 -0.000970408 -3.34725e-05 -0.000274675 1.71701e-05 -0.000155761 3.17851e-05 -5.38422e-05 -0.00173571 5e-05 5e-05 5e-05 5e-05 5e-05 5e-05 5e-05
internal_weight=0 90 70 24341 8002 2463 940 46 894 295 91 204 56 67 5539 49 599 154 1523 243 5490 963 56 16339 4527 4059 4489 1280 907 799
internal_count=24431 90 70 24341 8002 2463 940 46 894 295 91 204 56 67 5539 49 599 154 1523 243 5490 963 56 16339 4527 4059 4489 1280 907 799
is_linear=0
shrinkage=0.05


Tree=32
num_leaves=31
num_cat=0
split_feature=6 7 9 6 1 6 3 6 7 6 4 9 8 9 4 7 1 6 1 9 7 9 7 6 6 9 4 7 9 8
split_gain=0.48646 0.45 0.102857 0.0411748 0.120129 0.0250278 0.0241984 0.0487806 0.195804 0.0377394 0.0274841 0.0421533 0.102083 0.0330616 0.0235978 0.0193685 0.0483248 0.0878865 0.0386473 0.0507937 0.00853832 0.191031 0.00808261 0.0384447 0.00701432 0.0203884 0.00460008 0.0164531 0.0267442 0.000746
threshold=0.035675318879856054 6.7434699110516263 19.300000000000001 0.06517146368562271 10.500000000000002 0.33972551881076629 0.60355339059327384 0.33199299615436423 6.2567088148180039 0.10048492595619686 -0.68301270189221952 18.850000000000005 65.500000000000014 19.300000000000001 -0.68301270189221952 5.8274728624953296 7.5000000000000009 0.3165042617960318 8.5000000000000018 17.650000000000002 6.612712626606327 17.650000000000002 6.7280301689677797 0.19578339341669151 0.11358532891028662 15.550000000000002 -0.24999999999999994 6.4960202730614371 17.650000000000002 42.500000000000007
decision_type=2 2 2 2 2 2 2 2 2 2 2 2 2 2 2 2 2 2 2 2 2 2 2 2 2 2 2 2 2 2
left_child=1 2 -1 4 -2 6 10 9 -9 -8 11 -5 13 -13 -6 16 -11 18 -18 -20 29 -22 -17 -24 25 -12 27 28 -27 -7
right_child=3 -3 -4 5 14 20 7 8 -10 15 24 12 -14 -15 -16 22 17 -19 19 -21 21 -23 23 -25 -26 26 -28 -29 -30 -31
leaf_value=1.6625775640961026e-05 -9.173834800829046e-05 -0.00027576341837820984 -0.00022687885474340403 0.00056767005023539488 -4.6602267370248966e-06 0.0022668377549067693 -5.0279064204068227e-05 0.0053214946094426677 -0.00059962095974664374 0.0010550640702567178 1.2885862485669843e-05 5.9334310877484646e-07 -3.1149844234356545e-05 8.2734606351993959e-06 9.637086400244877e-05 0.00010876632252601777 0.0012534330620180896 -0.00046559338397651057 -0.00019237227373258852 0.00043037696695374732 -0.00056878410673866903 0.00059737331014978867 -0.00030529449345459534 0.00018738345891133117 0.00069644855948376391 1.5290795639008072e-05 0.00019908218241509068 0.00038165718355325033 -8.2519700662832957e-05 0.0032400205167891008
leaf_weight=45 25 28 25 154 34 1248 22 84 33 247 38 23 24 73 138 807 98 27 35 28 20 426 21 88 3093 23 307 104 20 16841
leaf_count=45 25 28 25 154 34 1248 22 84 33 247 38 23 24 73 138 807 98 27 35 28 20 426 21 88 3093 23 307 104 20 16841
internal_value=0 -0.00352143 -0.00137857 8.47349e-06 -0.000711421 1.44113e-05 -8.08656e-05 -0.000252013 -0.00123205 -0.0001685 -1.47836e-05 -0.000497445 -0.0012 -0.000470833 -0.000240698 -0.000135048 -0.00040977 -0.00101383 -0.000571118 -0.0015373 4.19072e-05 -0.000174215 -4.58515e-06 -0.000408716 2.2106e-05 -0.000153252 -6.01322e-05 -0.000290136 -0.00111279 4.72359e-05
internal_weight=0 98 70 24081 197 23884 5349 1490 117 1373 3859 274 120 96 172 1351 435 188 161 63 18535 446 916 109 3585 492 454 147 43 18089
internal_count=24179 98 70 24081 197 23884 5349 1490 117 1373 3859 274 120 96 172 1351 435 188 161 63 18535 446 916 109 3585 492 454 147 43 18089
is_linear=0
shrinkage=0.05


Tree=33
num_leaves=31
num_cat=0
split_feature=6 3 4 4 7 7 7 5 6 7 2 6 7 6 6 7 7 8 3 5 7 7 8 6 7 4 2 7 7 2
split_gain=0.325729 0.160411 0.256716 0.0695489 0.0261905 0.0199049 0.0620756 0.0898494 0.214896 0.114502 0.037619 0.0147421 0.0346154 0.00564861 0.0110128 0.0779289 0.106977 0.00746621 0.0160613 0.0310171 0.0418182 0.0791571 0.176343 0.0209572 0.00684221 0.0331034 3.46945e-18 3.46945e-18 8.67362e-19 4.33681e-19
threshold=0.052171512443510759 0.25881904510252091 1.0000000180025095e-35 -0.68301270189221952 6.5743780037801338 6.7013457377751759 6.7481730371604982 1.0000000180025095e-35 0.25930895980883661 6.7208229279629697 -0.70710678118654757 0.06517146368562271 6.2490090583839573 0.33972551881076629 0.33199299615436423 6.2567088148180039 6.4353484435784418 72.500000000000014 0.25881904510252091 1.0000000180025095e-35 5.8274728624953296 5.6330006924953082 80.500000000000014 0.3165042617960318 6.612712626606327 1.0000000180025095e-35 0.96592582628906831 6.5827171805257967 5.7975752026129497 0.98296291314453432
decision_type=2 2 2 2 2 2 2 2 2 2 2 2 2 2 2 2 2 2 2 2 2 2 2 2 2 2 2 2 2 2
left_child=1 3 -3 -1 -4 11 7 -7 10 -10 -9 12 -2 14 17 -16 -17 28 -19 -20 21 23 -23 -21 26 -26 27 -15 -13 -28
right_child=5 2 4 -5 -6 6 -8 8 9 -11 -12 13 -14 24 15 16 -18 18 19 20 -22 22 -24 -25 25 -27 29 -29 -30 -31
leaf_value=-0.00021465220160503059 -7.8178472054083793e-05 -0.00011141749454566921 7.6955299884856186e-06 2.3451090895598282e-05 -8.4563192601198401e-05 0.0014404218247295497 7.0635647169772759e-05 9.5502007100542994e-05 1.5654291427881494e-05 -0.00016500520526802932 -0.00034645895725898151 0.00095968647101295169 0.00032127864728582453 0.0021517788219481133 0.0022133301407098877 -0.00057237109265360594 0.0024517100520653496 0.0023977104163119831 0.0009977000775587871 0.00071935533634955734 9.3855213203778188e-05 -0.00018295101323880279 0.0015626457269638527 6.6411355644085265e-05 0.0031327019755078879 -0.00053222251695598545 0.0092748188805507597 0.0029205341831261373 0.00012508535268812676 0.0084030002720716108
leaf_weight=38 20 36 22 74 20 148 746 79 22 20 21 748 45 16175 222 20 23 852 314 74 115 26 27 33 120 25 1009 59 2210 1013
leaf_count=38 20 36 22 74 20 148 746 79 22 20 21 748 45 16175 222 20 23 852 314 74 115 26 27 33 120 25 1009 59 2210 1013
internal_value=0 -0.00205526 -0.00379615 -0.000842857 -0.00114048 2.31027e-05 -0.000191313 -0.000812069 -0.00171056 -0.0047119 -0.00045 3.27064e-05 -0.000719231 3.48255e-05 -1.43225e-05 -0.000327358 -0.00227558 4.53512e-06 -8.87925e-05 -0.000289559 -0.000677273 -0.0012 -0.00278019 -0.00041729 4.72828e-05 -0.000294828 5e-05 5e-05 5e-05 5e-05
internal_weight=0 190 78 112 42 24166 1036 290 142 42 100 23130 65 23065 4664 265 43 4399 1441 589 275 160 53 107 18401 145 18256 16234 2958 2022
internal_count=24356 190 78 112 42 24166 1036 290 142 42 100 23130 65 23065 4664 265 43 4399 1441 589 275 160 53 107 18401 145 18256 16234 2958 2022
is_linear=0
shrinkage=0.05


Tree=34
num_leaves=31
num_cat=0
split_feature=6 8 7 5 7 9 6 6 9 6 7 7 7 6 1 8 5 1 6 1 7 7 7 8 8 6 5 1 6 7
split_gain=0.159409 0.245308 0.0273505 0.0400454 0.0720276 0.0428031 0.0944262 0.0308868 0.114023 0.0137888 0.0357143 0.0115325 0.120464 0.00347162 0.0122307 0.0256512 0.0469452 0.0485456 0.103736 0.0383333 0.101818 0.00337776 0.028193 0.000745007 0.0100702 0.0391304 4.33681e-19 2.1684e-19 1.0842e-19 1.0842e-19
threshold=0.035675318879856054 64.500000000000014 6.4777410025491262 0.68301270189221941 6.4884444749049646 24.700000000000003 0.13032677758458469 0.36129494015490554 17.650000000000002 0.06517146368562271 5.9094397911047301 6.7280301689677797 6.7434699110516263 0.32876725947975888 9.5000000000000018 71.500000000000014 1.0000000180025095e-35 7.5000000000000009 0.31291335624351152 8.5000000000000018 5.8707073513045964 6.8150914436671455 6.8227417564880897 42.500000000000007 41.500000000000007 0.37108451743583171 -0.6830127018922193 11.500000000000002 0.49321634740891024 6.4175486092242702
decision_type=2 2 2 2 2 2 2 2 2 2 2 2 2 2 2 2 2 2 2 2 2 2 2 2 2 2 2 2 2 2
left_child=1 -1 9 21 -5 7 -7 11 -9 10 -2 -6 -13 14 15 29 -17 -18 19 -19 -21 27 -23 24 -15 -26 -16 28 -4 -11
right_child=2 -3 3 4 5 6 -8 8 -10 13 -12 12 -14 23 26 16 17 18 -20 20 -22 22 -24 -25 25 -27 -28 -29 -30 -31
leaf_value=5.5885666470854173e-06 -7.5068858724378613e-05 -0.00020385172061498734 0.00044482562263987665 -0.00011267076253478238 7.5996713436936666e-05 -0.00038925382205068956 3.9763439555506575e-05 -0.00051213249855196652 0.0004464329965961696 8.4039525415498042e-05 0.00031310869537582521 -0.00032989400807955662 2.4449744930679793e-05 0.0021670662438124447 0.0014144633777755428 0.00088200547149274236 0.00096016331215582689 0.00022857996641215424 -0.00049183578577172236 -0.00017389116116668952 0.00040276522976745357 6.5129823275743299e-06 0.0001288152495860204 0.0029040155468542353 -0.00080649945269974034 0.0058569402001887897 0.00021024689487587602 0.00020102429086529328 0.005957425611527685 0.00089511199217593709
leaf_weight=58 20 39 762 39 445 25 36 25 62 515 50 29 200 1159 666 198 63 46 20 22 28 31 215 17147 20 72 1891 424 23 61
leaf_count=58 20 39 762 39 445 25 36 25 62 515 50 29 200 1159 666 198 63 46 20 22 28 31 215 17147 20 72 1891 424 23 61
internal_value=0 -0.00201186 1.91282e-05 -0.000144301 -0.000414576 -0.000314964 -0.00158934 -0.000212812 -0.00109943 3.635e-05 -0.000664286 -9.8368e-05 -0.000386681 3.85886e-05 -6.98006e-06 -0.000159864 -0.000480504 -0.00106732 -0.00167414 -0.000991667 -0.00195 1.56357e-05 -0.000153252 4.72823e-05 1.0032e-05 -0.000493478 5e-05 5e-05 5e-05 5e-05
internal_weight=0 97 24294 2316 861 822 61 761 87 21978 70 674 229 21908 3510 953 377 179 116 96 50 1455 246 18398 1251 92 2557 1209 785 576
internal_count=24391 97 24294 2316 861 822 61 761 87 21978 70 674 229 21908 3510 953 377 179 116 96 50 1455 246 18398 1251 92 2557 1209 785 576
is_linear=0
shrinkage=0.05


Tree=35
num_leaves=31
num_cat=0
split_feature=6 9 6 8 3 7 7 7 7 9 6 9 6 9 7 7 0 9 9 3 3 4 8 6 6 0 8 8 4 0
split_gain=0.249825 0.257653 0.0543634 0.157525 0.0413962 0.0574189 0.283272 0.0346154 0.0242088 0.0646687 0.23405 0.0140414 0.0315853 0.0783993 0.00547642 0.0170865 0.027619 0.00623458 0.0242598 0.0276402 0.0813187 0.00595875 0.0435065 0.00144568 0.0169287 0.0314815 0.000680907 0.00888439 0.0237179 2.1684e-19
threshold=0.035675318879856054 19.700000000000003 0.10048492595619686 80.500000000000014 0.25881904510252091 6.612712626606327 6.4289123753618673 6.1409609789068069 6.7013457377751759 18.150000000000002 0.27516632356024556 20.800000000000004 0.21686379095339473 19.700000000000003 6.2567088148180039 6.2643497376646673 8.5000000000000018 17.650000000000002 17.150000000000002 0.60355339059327384 0.78656609248549325 -0.68301270189221952 69.500000000000014 0.18040713493459867 0.17523501184666293 4.5000000000000009 42.500000000000007 41.500000000000007 0.6830127018922193 11.500000000000002
decision_type=2 2 2 2 2 2 2 2 2 2 2 2 2 2 2 2 2 2 2 2 2 2 2 2 2 2 2 2 2 2
left_child=1 7 3 4 -2 6 -6 -1 14 10 -10 12 13 -11 23 16 -16 18 -17 -20 -21 22 -19 24 -4 -26 27 -25 -29 -23
right_child=2 -3 8 -5 5 -7 -8 -9 9 11 -12 -13 -14 -15 15 17 -18 21 19 20 -22 29 -24 26 25 -27 -28 28 -30 -31
