tree
version=v3
num_class=1
num_tree_per_iteration=1
label_index=0
max_feature_idx=9
objective=quantile
feature_names=Month Hour hour_x hour_y month_x month_y net_target-1 diffuse_solar_radiation+1 relative_humidity+1 drybulb_temp+1
feature_infos=[1:12] [0:23] [-1:1] [-1:1] [-0.86602540378443871:1] [-1:1] [0:1] [0:6.9196838498474111] [10:100] [5.5999999999999996:32.200000000000003]
tree_sizes=2708 2873 2857 2893 2880 2887 2884 2886 2887 2885 2897 2870 2887 2881 2900 2860 2887 2873 2904 2908 2898 2888 2891 2879 2886 2902 2889 2903 2913 2887 2875 2896 2899 2894 2908 2899 2911 2900 2918 2922 2896 2901 2906 2959 2916 2932 2896 2949 2901 2929 2897 2900 2945 2942 2946 2898 2936 2888 2910 2944 2922 2909 2939 2923 2920 2930 2936 2915 2956 2937 2943 2961 2932 2937 2919 2941 2936 2911 2914 2870 2931 2919 2944 2942 2921 2936 2907 2921 2934 2943 2901 2926 2940 2908 2924 2946 2914 2914 2925 2891 2930 2898 2949 2912 2935 2911 2903 2915 2938 2962 2939 2918 2969 2912 2926 2938 2909 2927 2919 2903 2934 2930 2869 2951 2888 2924 2954 2931 2927 2946 2938 2921 2921 2939 2928 2900 2952 2935 2942 2936 2918 2905 2942 2930 2928 2922 2894 2894 2928 2956 2929 2883 2878 2907 2919 2927 2879 2919 2898 2916 2925 2901 2857 2900 2903 2947 2943 2928 2943 2908 2934 2951 2903 2920 2913 2924 2887 2944 2931 2929 2891 2920 2909 2959 2901 2904 2881 2940 2925 2879 2900 2931 2903 2892 2953 2917 2941 2883 2908 2885 2881 2943 2915 2879 2914 2927 2915 2918 2911 2956 2902 2943 2893 2904 2862 2918 2890 2890 2892 2866 2913 2896 2898 2889 2903 2882 2873 2926 2881 2909 2918 2894 2917 2929 2911 2922 2926 2908 2880 2921 2886 2929 2891 2939 2936 2945 2921 2925 2927 2922 2926 2910 2919 2904 2920 2905 2946 2874 2927 2891 2900 2930 2911 2860 2876 2875 2866 2888 2882 2908 2935 2903 2914 2922 2916 2891 2952 2925 2909 2902 2911 2943 2950 2904 2913 2879 2896 2900 2920 2906 2899

Tree=0
num_leaves=31
num_cat=0
split_feature=6 1 6 6 6 1 1 7 6 6 1 1 6 7 7 6 6 7 6 0 0 7 7 7 1 1 8 1 0 4
split_gain=1603.65 137.301 79.8463 73.5662 54.1381 52.2565 45.8639 16.8298 10.8415 8.48213 8.07869 4.92794 3.96219 7.52986 3.79292 3.759 3.42835 3.39906 3.19212 3.36785 3.03206 2.88951 2.52345 2.34702 2.76395 4.12005 2.28131 2.2387 2.71821 2.01327
threshold=0.28348133736443587 13.500000000000002 0.19037028802237846 0.34982365019962219 0.17523501184666293 12.500000000000002 11.500000000000002 6.3826613261450529 0.31944884054767991 0.14253560728208384 10.500000000000002 5.5000000000000009 0.26359465827485778 6.5964631079239817 5.3867833963027953 0.37108451743583171 0.21196683177460798 6.4777410025491262 0.22613484019624933 6.5000000000000009 2.5000000000000004 5.2496487501035594 6.0924398260614181 5.310736838221497 7.5000000000000009 8.5000000000000018 70.500000000000014 8.5000000000000018 8.5000000000000018 0.6830127018922193
decision_type=2 2 2 2 2 2 2 2 2 2 2 2 2 2 2 2 2 2 2 2 2 2 2 2 2 2 2 2 2 2
left_child=1 4 9 6 27 10 8 14 20 26 12 -10 -6 -14 -5 -9 -7 -8 19 -12 -2 -11 -4 -22 -25 -26 -3 28 -1 -18
right_child=3 2 22 7 5 16 17 15 11 21 18 -13 13 -15 -16 -17 29 -19 -20 -21 23 -23 -24 24 25 -27 -28 -29 -30 -31
leaf_value=0.254473224994895 0.26146123372367358 0.25634483875586228 0.26529749080323201 0.2692593026906252 0.25694848448038099 0.26145310265873151 0.2666692450642586 0.26084677937606104 0.2666692450642586 0.26261560452721822 0.25604561689694094 0.2621505351279666 0.25959947935166383 0.2595478327718837 0.26657613962888715 0.26485965113497512 0.26205269601196052 0.26135713329761645 0.2578147456049919 0.25970282197745292 0.2599628919924456 0.26133529719488707 0.26268774579705223 0.26147697589026675 0.26104578779208509 0.2596024113786598 0.25785846992712891 0.25357733390337672 0.25496075691177111 0.26456256299018149
leaf_weight=41 109 122 391 15305 705 107 766 201 75 32 92 529 166 57 2060 612 95 71 210 133 31 164 71 66 112 163 59 1548 48 68
leaf_count=41 109 122 391 15305 705 107 766 201 75 32 92 529 166 57 2060 612 95 71 210 133 31 164 71 66 112 163 59 1548 48 68
internal_value=0.263596 0.235114 0.253158 0.269395 0.230485 0.236926 0.260092 0.270378 0.253308 0.236083 0.232945 0.257768 0.23031 0.236119 0.270708 0.263347 0.257022 0.268886 0.238568 0.23443 0.247707 0.24329 0.267092 0.245559 0.246756 0.244551 0.228279 0.224059 0.23177 0.261587
internal_weight=0 4109 839 20100 3270 1633 1922 18178 1085 377 1363 604 928 223 17365 813 270 837 435 225 481 196 462 372 341 275 181 1637 89 163
internal_count=24209 4109 839 20100 3270 1633 1922 18178 1085 377 1363 604 928 223 17365 813 270 837 435 225 481 196 462 372 341 275 181 1637 89 163
is_linear=0
shrinkage=1


Tree=1
num_leaves=31
num_cat=0
split_feature=6 1 6 6 6 1 1 7 6 7 6 6 1 6 7 1 6 7 1 5 6 7 6 0 7 6 1 7 6 7
split_gain=1530.53 145.293 73.0396 65.616 46.9298 43.3107 42.2145 17.3797 12.5236 8.02217 6.89659 6.13442 6.51671 5.80041 4.73816 4.37767 4.11093 3.94122 3.9191 3.66175 3.50385 3.42826 3.32717 4.19061 3.12023 2.85488 3.52331 2.77908 3.58666 2.75488
threshold=0.28348133736443587 13.500000000000002 0.18040713493459867 0.34744175893860357 0.17523501184666293 11.500000000000002 11.500000000000002 6.0810760527360186 0.31944884054767991 6.2924942092024017 0.14253560728208384 0.24622562688160518 7.5000000000000009 0.20633387658238497 4.2555875595453392 9.5000000000000018 0.3648667354104842 5.0906732680195743 8.5000000000000018 0.93301270189221952 0.24139251090549688 5.6330006924953082 0.2968578066348283 8.5000000000000018 6.7013457377751759 0.14253560728208384 12.500000000000002 5.0906732680195743 0.36961150036419149 6.6522174514715386
decision_type=2 2 2 2 2 2 2 2 2 2 2 2 2 2 2 2 2 2 2 2 2 2 2 2 2 2 2 2 2 2
left_child=1 4 10 5 18 8 11 27 15 20 -3 -6 -13 21 -10 22 29 -12 -1 -16 -8 -4 -2 -24 -11 -20 -27 -5 -29 -9
right_child=3 2 13 7 6 -7 9 16 14 24 17 12 -14 -15 19 -17 -18 -19 25 -21 -22 -23 23 -25 -26 26 -28 28 -30 -31
leaf_value=-0.0085014677458319365 -0.0034316227213748067 -0.0067358808952265592 0.00015818621279663632 0.005477060276316479 -0.0066116939776475194 0.0027225492587422185 -0.0029548109797571803 -0.00031851168546836452 0.0027765128359635571 -0.004087061794201219 2.4859734882626273e-05 -0.0041444713743834845 -0.0045199857279658306 0.0017349677465831978 -0.0010429621494449759 -0.0044830689454603617 0.0016610016620870749 -0.002262262379909999 -0.0099269523569182651 -0.0028703615884705883 -6.0294336039987133e-05 -0.0022747481154772238 -0.0020792614329024767 -0.0025272799616075682 -0.0079990822917432071 -0.0077430622899987622 -0.0036325546461375788 0.00022854818240205079 0.0038347746380623 -0.0040592329698978359
leaf_weight=78 108 176 50 14888 639 811 187 182 67 160 21 87 415 411 419 125 1310 133 1111 45 88 44 165 74 53 321 90 329 1681 52
leaf_count=78 108 176 50 14888 639 811 187 182 67 160 21 87 415 411 419 125 1310 133 1111 45 88 44 165 74 53 321 90 329 1681 52
internal_value=0 -0.0277977 -0.00920659 0.00582395 -0.0326053 -0.00324972 -0.0266314 0.00671646 -0.0101969 -0.0143238 -0.0275 -0.0318953 -0.027759 0.00274752 -0.00492938 -0.0161229 0.0016386 -0.0197727 -0.0386875 -0.00672414 -0.00868182 -0.00845745 -0.019013 -0.0157218 -0.021608 -0.0392477 -0.0356873 0.00718044 0.00543532 -0.00446581
internal_weight=0 4064 835 20256 3229 1814 1629 18442 1003 488 330 1141 502 505 531 472 1544 154 1600 464 275 94 347 239 213 1522 411 16898 2010 234
internal_count=24320 4064 835 20256 3229 1814 1629 18442 1003 488 330 1141 502 505 531 472 1544 154 1600 464 275 94 347 239 213 1522 411 16898 2010 234
is_linear=0
shrinkage=0.05


Tree=2
num_leaves=31
num_cat=0
split_feature=6 6 1 6 3 7 1 6 1 6 6 6 1 6 7 1 6 7 7 0 1 4 2 4 7 7 6 6 1 1
split_gain=1476.12 134.964 160.924 69.4145 46.6268 15.3103 12.6687 11.1082 10.3552 8.68526 8.66169 8.1634 5.9713 5.31541 4.96955 3.92251 3.8698 3.81538 3.70769 3.39202 3.44831 3.41173 3.13754 2.77385 2.52822 2.45114 2.64757 2.33869 2.27561 2.18149
threshold=0.28348133736443587 0.17523501184666293 12.500000000000002 0.34744175893860357 0.25881904510252091 6.0991966170931535 11.500000000000002 0.14877265005211313 12.500000000000002 0.21196683177460798 0.31944884054767991 0.24622562688160518 7.5000000000000009 0.37108451743583171 6.0856370699937399 8.5000000000000018 0.24139251090549688 6.0810760527360186 5.2806591939842535 2.5000000000000004 8.5000000000000018 -0.68301270189221952 -0.9159756150367534 -0.5 6.6522174514715386 2.740319461670996 0.36961150036419149 0.27183800929349761 11.500000000000002 10.500000000000002
decision_type=2 2 2 2 2 2 2 2 2 2 2 2 2 2 2 2 2 2 2 2 2 2 2 2 2 2 2 2 2 2
left_child=1 7 6 4 22 25 11 15 -9 17 19 -3 -13 24 -11 -1 -8 -4 -10 -6 -21 -22 -2 27 -7 -5 28 -14 -27 -25
right_child=3 2 9 5 10 13 16 8 18 14 -12 12 23 -15 -16 -17 -18 -19 -20 20 21 -23 -24 29 -26 26 -28 -29 -30 -31
leaf_value=-0.0085326142828356603 0.00036358492490853601 -0.0062363710449917569 -0.00062818464513180253 0.0052797680957592076 -0.0020353743983002937 -0.0004276303605610866 -0.004293683039638653 -0.0072210561077555441 -0.0013694961716701386 0.0018656376142753726 -0.001392215310408277 -0.0039057674918072079 -0.0056435501336156912 0.0020771730079641227 -0.0012791522556045377 -0.0092023690807941424 -0.0021399964432335318 -0.00181129139531875 -0.0028107380597036241 -0.0024584428457087061 0.00054316372763733151 -0.0045085788043647823 0.003257566008979665 -0.004271170342341063 -0.004779743233580689 0.0001671643029376081 0.0043565113099487008 -0.00042060640091238534 0.0045629182594272063 -0.0047862057331949483
leaf_weight=48 266 656 203 12670 118 271 154 303 29 439 493 80 74 1093 117 1388 82 64 162 211 27 136 594 260 61 344 3759 24 226 60
leaf_count=48 266 656 203 12670 118 271 154 303 29 439 493 80 74 1093 117 1388 82 64 162 211 27 136 594 260 61 344 3759 24 226 60
internal_value=0 -0.0269557 -0.018528 0.00579789 -0.00344851 0.00672384 -0.0289029 -0.0366192 -0.0301518 -0.00100547 -0.0108756 -0.0310615 -0.0262349 0.00174561 0.00255396 -0.038844 -0.0183475 -0.0084176 -0.021034 -0.0155691 -0.0179011 -0.0124387 0.00505814 -0.0238397 -0.00379518 0.00714116 0.006114 -0.0164796 0.0029386 -0.0260938
internal_weight=0 4143 2213 20269 1845 18424 1390 1930 494 823 985 1154 498 1425 556 1436 236 267 191 492 374 163 860 418 332 16999 4329 98 570 320
internal_count=24412 4143 2213 20269 1845 18424 1390 1930 494 823 985 1154 498 1425 556 1436 236 267 191 492 374 163 860 418 332 16999 4329 98 570 320
is_linear=0
shrinkage=0.05


Tree=3
num_leaves=31
num_cat=0
split_feature=6 6 1 6 3 6 1 6 6 1 2 1 6 2 5 6 1 2 1 3 6 6 1 6 1 0 1 0 9 1
split_gain=1423.34 116.425 126.726 78.0592 50.3664 12.2641 11.9281 10.7048 8.8301 8.7721 7.71575 7.05497 6.16666 5.73133 5.50463 4.80256 4.46712 4.44153 3.47265 3.38517 3.88218 3.34751 3.12337 2.90282 2.72463 2.94011 2.64945 2.75922 2.53864 2.44996
threshold=0.27516632356024556 0.17523501184666293 12.500000000000002 0.34744175893860357 0.25881904510252091 0.31944884054767991 10.500000000000002 0.14253560728208384 0.20633387658238497 12.500000000000002 -0.60355339059327384 12.500000000000002 0.23155186907585715 -0.60355339059327384 0.68301270189221941 0.37108451743583171 9.5000000000000018 -0.9159756150367534 9.5000000000000018 0.78656609248549325 0.36870214063138956 0.30563784173143788 13.500000000000002 0.24139251090549688 8.5000000000000018 6.5000000000000009 14.500000000000002 10.500000000000002 21.950000000000003 5.5000000000000009
decision_type=2 2 2 2 2 2 2 2 2 2 2 2 2 2 2 2 2 2 2 2 2 2 2 2 2 2 2 2 2 2
left_child=1 7 6 4 17 18 12 13 26 -9 11 15 24 -1 -8 -5 -14 -2 21 -12 29 -6 -10 -16 25 -3 27 -4 -11 -21
right_child=3 2 8 10 5 -7 14 9 22 28 19 -13 16 -15 23 -17 -18 -19 -20 20 -22 -23 -24 -25 -26 -27 -28 -29 -30 -31
leaf_value=-0.008642914357504675 -0.00022794534207609964 -0.0059814225379712874 -0.0028459602647605709 -0.0014302698515102038 -0.0029540170043188966 -0.0011630619451622499 -0.0044701639672049395 -0.0068558251414430962 -0.00094422865345453416 -0.0024342266312193366 0.0050159309581300467 0.0053243714973492326 -0.0042877774886780576 -0.0079139200691893639 -0.0060380827142814328 0.0023382991990738926 -0.0048088935656388446 0.0031193397231833275 -0.0040494814302849767 0.0029101481153664403 0.003836394534414771 -0.0022509924807529408 0.0013257733054608842 -0.0035898014754880722 -0.006185039283436073 -0.0057322324184513503 -7.0866620136933364e-05 -8.7416069188817061e-05 -0.003341722946208236 -0.00019607279273498314
leaf_weight=1325 280 41 131 322 261 491 324 356 147 182 11803 1247 326 47 77 1048 104 664 158 139 3619 170 376 23 266 79 56 34 22 290
leaf_count=1325 280 41 131 322 261 491 324 356 147 182 11803 1247 326 47 77 1048 104 664 158 139 3619 170 376 23 266 79 56 34 22 290
internal_value=0 -0.0272676 -0.0187601 0.00563098 -0.00369071 -0.0110648 -0.0285484 -0.0360041 -0.00244624 -0.0301786 0.00665259 0.00413737 -0.0320833 -0.0383819 -0.0217453 0.00166058 -0.0279651 0.00474576 -0.0159295 0.00706785 0.00582016 -0.0182541 0.00109465 -0.032 -0.036671 -0.0304167 -0.0108258 -0.0140152 -0.0219118 0.00132284
internal_weight=0 3916 1984 20492 2024 1080 1240 1932 744 560 18468 2617 816 1372 424 1370 430 944 589 15851 4048 431 523 100 386 120 221 165 204 429
internal_count=24408 3916 1984 20492 2024 1080 1240 1932 744 560 18468 2617 816 1372 424 1370 430 944 589 15851 4048 431 523 100 386 120 221 165 204 429
is_linear=0
shrinkage=0.05


Tree=4
num_leaves=31
num_cat=0
split_feature=6 6 1 6 3 7 6 1 1 6 6 6 1 1 6 7 6 5 0 1 7 7 0 1 7 7 1 6 1 7
split_gain=1404.86 134.316 134.19 60.0676 38.7247 18.291 13.197 11.998 10.9138 10.4343 8.58523 8.01014 6.06949 5.6873 5.43605 5.3597 4.66452 3.86636 3.17958 3.02011 2.81447 2.74501 2.61114 2.57898 3.63273 2.57888 2.22419 3.97387 3.87661 2.13696
threshold=0.28348133736443587 0.17523501184666293 12.500000000000002 0.34744175893860357 0.25881904510252091 5.5032948732385458 0.23155186907585715 13.500000000000002 9.5000000000000018 0.20633387658238497 0.32551364991366888 0.13654783652950339 10.500000000000002 8.5000000000000018 0.40084555488645141 5.9148525341228533 0.15506295148856988 0.68301270189221941 6.5000000000000009 11.500000000000002 6.4224346156700198 5.9750802605835984 11.500000000000002 11.500000000000002 6.7086942120556854 6.7598349808735607 9.5000000000000018 0.30563784173143788 7.5000000000000009 5.8985256106096173
decision_type=2 2 2 2 2 2 2 2 2 2 2 2 2 2 2 2 2 2 2 2 2 2 2 2 2 2 2 2 2 2
left_child=1 7 6 4 21 -5 12 13 22 -4 26 -9 -3 -1 20 -11 -15 -14 -13 -18 -7 -2 25 -10 -25 -8 27 29 -29 -6
right_child=3 2 9 5 10 14 8 11 23 15 -12 18 17 16 -16 -17 19 -19 -20 -21 -22 -23 -24 24 -26 -27 -28 28 -30 -31
leaf_value=-0.0074380039094972808 0.0027762729077015404 -0.0056913810968250832 -0.0015318198825716037 0.0045670048626427892 -0.0029692963641325624 0.00091619763320593148 -0.0038414380864543146 -0.0056217821190825586 -0.0050367577247195537 0.0019193870839264522 -0.0007874926179016993 -0.0016106538827541234 -0.0038634911711723698 -0.0082938416819625677 0.0033740032344262193 -0.0011445943134484745 -0.0063003249026422365 -0.0062429240422632003 -0.0021263867392681507 -0.0033489069876882212 -0.0010735177943803013 7.6438199651404379e-05 -0.0026235231093089811 -0.00037217868337783379 -0.0071435375444955963 -0.0027560361382943373 -0.0031709388857229766 -0.00072263212770399946 -0.0023372021296826279 -0.0025172648934844622
leaf_weight=86 638 418 229 15628 63 938 352 161 245 384 406 92 173 1275 1290 196 150 69 52 112 434 197 32 73 28 29 145 109 151 123
leaf_count=86 638 418 229 15628 63 938 352 161 245 384 406 92 173 1275 1290 196 150 69 52 112 434 197 32 73 28 29 145 109 151 123
internal_value=0 -0.0261983 -0.0178366 0.00573328 -0.00289847 0.00659787 -0.0271018 -0.035861 -0.0226054 -0.00158529 -0.00955115 -0.0267623 -0.0322727 -0.0375709 0.00276672 0.00198276 -0.038271 -0.0259711 -0.0181944 -0.0321947 0.000575802 0.00504491 -0.0280932 -0.0160549 -0.00933168 -0.0292454 -0.0133968 -0.0151457 -0.0111538 -0.0207258
internal_weight=0 4156 2228 20122 1832 18290 1419 1928 759 809 997 305 660 1623 2662 580 1537 242 144 262 1372 835 413 346 101 381 591 446 260 186
internal_count=24278 4156 2228 20122 1832 18290 1419 1928 759 809 997 305 660 1623 2662 580 1537 242 144 262 1372 835 413 346 101 381 591 446 260 186
is_linear=0
shrinkage=0.05


Tree=5
num_leaves=31
num_cat=0
split_feature=6 6 3 7 6 7 3 6 6 3 5 3 6 3 6 6 7 7 6 7 4 6 3 3 6 7 8 5 3 6
split_gain=1354.94 142.724 129.753 52.9362 25.7082 18.8497 15.2126 10.8443 9.91689 9.46214 8.39115 8.02572 6.80489 6.1683 13.1098 5.15787 5.15582 4.67833 4.17019 4.11034 4.01742 3.79251 3.68021 3.56946 3.53804 2.90166 2.69715 2.2284 2.21357 2.12176
threshold=0.28348133736443587 0.17040924461912063 0.25881904510252091 5.5032948732385458 0.3648667354104842 5.9622923416208602 0.25881904510252091 0.13032677758458469 0.24139251090549688 1.0000000180025095e-35 0.68301270189221941 0.60355339059327384 0.21686379095339473 0.91597561503675362 0.36570143646720993 0.20633387658238497 6.5330615650778476 6.7086942120556854 0.31291335624351152 6.4224346156700198 -0.5 0.32551364991366888 0.60355339059327384 0.60355339059327384 0.29252467778362656 6.4175486092242702 61.500000000000007 1.0000000180025095e-35 0.78656609248549325 0.14877265005211313
decision_type=2 2 2 2 2 2 2 2 2 2 2 2 2 2 2 2 2 2 2 2 2 2 2 2 2 2 2 2 2 2
left_child=1 7 5 13 6 15 -5 28 27 29 21 -10 -7 -2 18 -3 24 -14 -15 -6 25 23 -23 -8 -12 -13 -26 -4 -1 -9
right_child=3 2 8 4 19 12 10 9 11 -11 16 20 17 14 -16 -17 -18 -19 -20 -21 -22 22 -24 -25 26 -27 -28 -29 -30 -31
leaf_value=-0.0079647974359327647 0.0045095200639726106 -0.00071384974568978099 -0.0048374198925794426 0.001104727483776428 0.0024681772356126503 -0.0032051317829369752 -0.0014402111164141676 -0.0023243356095702136 -0.0046181145284480115 -0.0061305914875854003 -0.003485584874337424 -0.0031632279589248213 -0.00095279321293208143 -0.0024346267032196041 0.0029523931689533658 0.001225671819457777 -0.0067858709099602029 -0.0061128078997498662 -0.00068827351410965512 0.00014446000097915608 -0.0036339045573853829 -0.0026652653222617394 0.00031318632945597717 -0.0016123473992267984 -0.00058630461923018802 -0.0020550448237448503 -0.0027696842123137045 -0.0060414828190068579 -0.0079668719266797038 -0.0024338726718552278
leaf_weight=1123 14367 199 324 463 1666 201 97 94 204 443 21 31 223 42 1887 432 87 37 251 605 264 137 261 182 90 56 124 324 29 158
leaf_count=1123 14367 199 324 463 1666 201 97 94 204 443 21 31 223 42 1887 432 87 37 251 605 264 137 261 182 90 56 124 324 29 158
internal_value=0 -0.0255758 -0.0172495 0.00580621 0.00042794 -0.00477106 -0.0047435 -0.0359218 -0.0285765 -0.0309892 -0.00821572 -0.0236712 -0.0124566 0.00701955 0.00454128 0.000843899 -0.0148602 -0.00711538 -0.00529863 0.00375716 -0.028255 -0.00505539 -0.00192211 -0.00952509 -0.0110106 -0.0189368 -0.00908879 -0.0327778 -0.0388976 -0.023254
internal_weight=0 4142 2295 20280 3733 1092 1462 1847 1203 695 999 555 461 16547 2180 631 322 260 293 2271 351 677 398 279 235 87 214 648 1152 252
internal_count=24422 4142 2295 20280 3733 1092 1462 1847 1203 695 999 555 461 16547 2180 631 322 260 293 2271 351 677 398 279 235 87 214 648 1152 252
is_linear=0
shrinkage=0.05


Tree=6
num_leaves=31
num_cat=0
split_feature=7 7 0 7 0 7 9 1 1 5 1 1 1 4 5 0 1 5 1 1 1 0 1 7 0 4 1 1 7 1
split_gain=758.979 88.8154 73.4348 37.157 20.3495 15.7415 13.6162 10.7184 9.90546 9.77585 9.03544 7.55967 10.1689 11.5206 8.2745 7.00924 6.62283 7.81786 6.3943 8.62672 5.66409 4.01311 3.9858 3.74424 3.31575 3.29012 11.1339 3.2192 3.21885 3.0969
threshold=5.5032948732385458 6.4175486092242702 4.5000000000000009 4.5900436644025815 2.5000000000000004 6.0856370699937399 17.650000000000002 8.5000000000000018 13.500000000000002 0.93301270189221952 8.5000000000000018 12.500000000000002 8.5000000000000018 -0.24999999999999994 -0.25000000000000028 9.5000000000000018 7.5000000000000009 0.93301270189221952 7.5000000000000009 13.500000000000002 10.500000000000002 9.5000000000000018 6.5000000000000009 5.3542222040740404 11.500000000000002 -0.24999999999999994 14.500000000000002 9.5000000000000018 6.5532206455302013 7.5000000000000009
decision_type=2 2 2 2 2 2 2 2 2 2 2 2 2 2 2 2 2 2 2 2 2 2 2 2 2 2 2 2 2 2
left_child=3 5 4 -1 6 9 -3 -4 15 11 -6 12 22 -14 -15 20 -7 -18 -11 -20 -5 -9 -2 -22 29 26 -13 -23 -29 -17
right_child=1 2 7 8 10 16 -8 21 -10 18 -12 25 13 14 -16 24 17 -19 19 -21 23 27 -24 -25 -26 -27 -28 28 -30 -31
leaf_value=0.0041050034294364242 0.00090961553577061094 -0.0057856620442274728 -0.0012285266316098093 0.00078908611647875474 -0.0020860151193209213 -0.00099233779762672079 -0.00055362827952779058 -0.0050610266802278798 0.0027013367065024333 -5.3762476441809241e-05 -0.0077527878712695553 -0.0056183352780482245 -0.009013364898226876 -0.0049743211118516749 -0.0021403275658989332 -0.0021419774368613797 -0.0033461896483243493 -0.0048348091448591523 -0.0072677893224825756 -0.00091747138658592364 -0.0036103950514847155 -0.0034255691071108235 -0.0015113792636973007 0.0016764619830481075 -0.0011639622594729272 0.00035106002356921363 -0.00016154760798909904 -0.0053035791699982474 -0.0061794913823556442 -0.004615943532477019
leaf_weight=14679 180 48 234 828 96 202 98 1167 862 57 786 56 49 178 369 217 1668 140 122 81 93 64 612 35 204 557 213 145 97 91
leaf_count=14679 180 48 234 828 96 202 98 1167 862 57 786 56 49 178 369 217 1668 140 122 81 93 64 612 35 204 557 213 145 97 91
internal_value=0 -0.0130222 -0.0201234 0.00632709 -0.0306809 -0.0086909 -0.0133904 -0.0137654 0.000461373 -0.00602061 -0.0335431 -0.00494354 -0.00719741 -0.0121309 -0.0100503 -0.00203678 -0.0119776 -0.0129369 -0.0151923 -0.0193473 0.000491632 -0.0153445 -0.00348485 -0.00929688 -0.00675781 -0.00115617 -0.00569703 -0.0204412 -0.0230785 -0.0100325
internal_weight=0 7219 2735 17009 1028 4484 146 1707 2330 2474 882 2214 1388 596 547 1468 2010 1808 260 203 956 1473 792 128 512 826 269 306 242 308
internal_count=24228 7219 2735 17009 1028 4484 146 1707 2330 2474 882 2214 1388 596 547 1468 2010 1808 260 203 956 1473 792 128 512 826 269 306 242 308
is_linear=0
shrinkage=0.05


Tree=7
num_leaves=31
num_cat=0
split_feature=6 6 1 7 6 1 6 1 1 6 7 1 3 6 5 6 6 1 7 6 6 1 7 6 7 9 9 5 5 7
split_gain=1236.36 140.284 118.002 55.1082 23.9082 16.1253 14.6672 13.8573 12.5757 9.84248 7.50729 6.68485 6.58159 13.9276 6.48641 6.47576 4.56916 4.38944 4.20312 4.08876 4.04591 3.90287 3.64012 3.45582 3.6946 2.96217 2.96087 2.95076 2.7756 2.64339
threshold=0.28348133736443587 0.17523501184666293 12.500000000000002 5.3867833963027953 0.3671616949946061 11.500000000000002 0.11358532891028662 10.500000000000002 12.500000000000002 0.23155186907585715 6.7280301689677797 8.5000000000000018 0.91597561503675362 0.35605202958530952 0.68301270189221941 0.19578339341669151 0.31944884054767991 7.5000000000000009 5.9362152003510085 0.31291335624351152 0.14877265005211313 9.5000000000000018 6.0856370699937399 0.20633387658238497 6.6883539385227424 18.850000000000005 23.050000000000004 0.68301270189221941 0.68301270189221941 6.4884444749049646
decision_type=2 2 2 2 2 2 2 2 2 2 2 2 2 2 2 2 2 2 2 2 2 2 2 2 2 2 2 2 2 2
left_child=1 6 7 12 5 14 -1 9 11 -3 17 25 -2 19 16 -4 -5 -11 -17 -14 -10 -18 -6 27 -25 -8 -23 -9 -12 -16
right_child=3 2 15 4 22 -7 8 23 20 10 28 -13 13 -15 29 18 21 -19 -20 -21 -22 26 -24 24 -26 -27 -28 -29 -30 -31
leaf_value=-0.00772272348909384 0.0040599881071915539 -0.0050289159617528554 -0.001375245220916686 -0.0017915172177972876 0.0029444360885779418 0.0013178616433606545 -0.0067193186087588039 -0.0029997489720509727 -0.0025991561329777751 -0.0033258067330822309 -0.00070914717148317079 -0.0057452490701208917 -0.0027314533288807195 0.0025910590843112587 -0.002138695329490277 0.0011061773645431067 0.00014119275737624348 -0.0032383821568419944 -0.00081692163625145589 -0.00089851530493987902 -0.002122720518561634 -0.0024345759296917737 0.0011129098119037446 -0.0019640922447821106 -0.0057974207229786858 -0.0053088605232731985 -0.0046618194131987506 -0.0053399572383604557 -0.0067282151628877199 -0.0034107040455711498
leaf_weight=865 14103 405 159 255 1194 500 39 106 209 109 51 597 32 1826 257 440 376 336 207 142 186 139 1244 220 100 35 25 41 27 103
leaf_count=865 14103 405 159 255 1194 500 39 106 209 109 51 597 32 1826 257 440 376 336 207 142 186 139 1244 220 100 35 25 41 27 103
internal_value=0 -0.0243006 -0.0156713 0.00571747 0.000536892 -0.00410121 -0.0341365 -0.0244713 -0.0302111 -0.0280065 -0.0234751 -0.0343778 0.00703425 0.00435 -0.00734848 -0.000440447 -0.00482704 -0.0259831 0.0017813 -0.00916667 -0.0231329 -0.00222222 0.0036854 -0.0174465 -0.0145313 -0.0202027 -0.00865854 -0.0237925 -0.00916667 -0.0129167
internal_weight=0 4132 2201 20196 4093 1655 1931 1395 1066 928 523 671 16103 2000 1155 806 795 445 647 174 395 540 2438 467 320 74 164 147 78 360
internal_count=24328 4132 2201 20196 4093 1655 1931 1395 1066 928 523 671 16103 2000 1155 806 795 445 647 174 395 540 2438 467 320 74 164 147 78 360
is_linear=0
shrinkage=0.05


Tree=8
num_leaves=31
num_cat=0
split_feature=2 1 5 0 2 1 4 9 9 1 9 0 8 0 4 8 5 1 9 1 0 2 1 0 0 1 8 1 1 1
split_gain=545.852 148.502 76.3747 59.9236 45.5357 69.1567 22.3401 16.0844 13.6182 12.6304 9.96481 9.04271 8.64008 8.36473 8.00152 7.76569 6.89735 6.272 5.87273 4.56242 4.54488 4.18798 5.77785 4.61141 3.84159 3.49957 3.49426 3.4566 3.29079 3.09255
threshold=-0.60355339059327384 13.500000000000002 0.68301270189221941 2.5000000000000004 -0.12940952255126034 15.500000000000002 0.25000000000000017 18.150000000000002 13.200000000000001 14.500000000000002 17.650000000000002 2.5000000000000004 49.500000000000007 6.5000000000000009 0.6830127018922193 63.500000000000007 -0.25000000000000028 12.500000000000002 26.400000000000002 12.500000000000002 6.5000000000000009 0.1294095225512602 17.500000000000004 9.5000000000000018 6.5000000000000009 7.5000000000000009 68.500000000000014 9.5000000000000018 12.500000000000002 12.500000000000002
decision_type=2 2 2 2 2 2 2 2 2 2 2 2 2 2 2 2 2 2 2 2 2 2 2 2 2 2 2 2 2 2
left_child=1 2 7 10 5 11 9 14 -5 20 15 -2 18 25 -1 -4 17 -16 19 -9 -3 22 23 -6 -11 -13 -17 -14 -10 -18
right_child=4 6 3 8 21 -7 -8 12 28 24 -12 13 27 -15 16 26 29 -19 -20 -21 -22 -23 -24 -25 -26 -27 -28 -29 -30 -31
leaf_value=-0.0070646957544180881 0.00040323414879699928 -0.0031514044407227951 -0.0048398833177003371 0.0014527204974058433 0.0020306781885760894 0.0043519557749776535 0.0032661356593164182 -0.0024885705674112472 -0.0073359672498137674 -0.00074592070299296653 -0.0001955501160030796 -0.0015668016246926126 -0.0032711172735013006 -0.0014035342492033783 -0.0046937141766867059 0.0014183389386845976 -0.0011021223337905292 0.0003295213887686999 -0.0046967474618917968 0.00081565718494667214 -0.0012909932837817156 0.0035524175483851203 0.0044894537646222952 -0.0010032665769939915 0.0014191561165994699 -0.0030898448659160255 -0.0040608283877256023 -0.004655085284402131 -0.0055958755823610085 0.0020690380598707542
leaf_weight=60 400 261 48 22 665 2016 1036 506 824 270 175 275 381 1088 80 29 453 45 54 90 190 11071 1011 320 221 273 243 1721 220 115
leaf_count=60 400 261 48 22 665 2016 1036 506 824 270 175 275 381 1088 80 29 453 45 54 90 190 11071 1011 320 221 273 243 1721 220 115
internal_value=0 -0.0110193 -0.0155557 -0.024755 0.00551682 0.000885982 0.00059909 -0.0114586 -0.0314306 -0.00497346 -0.0103788 -0.00561395 -0.0132304 -0.00726161 -0.0049834 -0.015625 -0.00346681 -0.0141 -0.00819231 -0.00676175 -0.0110144 0.00695282 0.00484469 0.00211929 0.000575357 -0.0122993 -0.0123529 -0.0147883 -0.032251 -0.00112676
internal_weight=0 7044 5066 1561 17119 4052 1978 3505 1066 942 495 2036 2752 1636 753 320 693 125 650 596 451 13067 1996 985 491 548 272 2102 1044 568
internal_count=24163 7044 5066 1561 17119 4052 1978 3505 1066 942 495 2036 2752 1636 753 320 693 125 650 596 451 13067 1996 985 491 548 272 2102 1044 568
is_linear=0
shrinkage=0.05


Tree=9
num_leaves=31
num_cat=0
split_feature=6 6 3 6 3 7 6 6 2 6 3 7 7 2 5 6 7 2 6 7 7 6 2 7 3 2 5 7 7 2
split_gain=1143.15 148.188 112.214 47.4378 31.3224 16.608 16.3173 12.6303 11.1423 9.71107 7.31143 6.75197 6.05806 5.99787 5.02062 4.95968 4.76388 4.56281 4.22803 3.1859 3.1221 3.11787 3.09944 5.0451 3.04875 2.879 2.77566 2.46529 2.38884 2.35046
threshold=0.28348133736443587 0.16031097254439983 0.25881904510252091 0.34744175893860357 0.25881904510252091 6.197461422143415 0.21196683177460798 0.22162311340498006 -0.37940952255126009 0.11358532891028662 1.0000000180025095e-35 6.1147871526576338 6.2775824567537457 -0.5 0.93301270189221952 0.3165042617960318 2.740319461670996 -0.70710678118654757 0.40642097192223309 6.1059080600786215 5.9750802605835984 0.41619632748572261 -0.70710678118654757 6.7747949886470034 1.0000000180025095e-35 -0.9829629131445341 0.93301270189221952 6.7208229279629697 5.0336952619030333 1.0000000180025095e-35
decision_type=2 2 2 2 2 2 2 2 2 2 2 2 2 2 2 2 2 2 2 2 2 2 2 2 2 2 2 2 2 2
left_child=1 9 6 4 20 16 12 -4 14 -1 -11 -8 25 -12 22 17 -5 -6 24 -15 -2 -7 -9 -24 -18 -3 -17 -13 -27 -19
right_child=3 2 7 5 15 21 11 8 -10 10 13 27 -14 19 -16 26 18 29 -20 -21 -22 -23 23 -25 -26 28 -28 -29 -30 -31
leaf_value=-0.0069407224372808364 0.0020816215794404488 -0.0020374080641394361 -0.0046129703382599948 0.0037252864424833221 -0.0021988731114970603 -0.00021999491331661246 0.0011319524642587745 -0.0031868802095673249 -0.0034476524730408138 -0.0022359881078604484 -0.0052572277990983194 -0.00078116537695916864 -0.0033610086653866156 -0.0063340586267550325 -0.0038413823989037659 -0.00057425402392995834 0.0037179746114701278 -0.0017724843487806931 0.0043444764883519629 -0.0056908297260255024 -2.0470943575030866e-05 0.0029355798666053238 -0.0030844404829667299 0.0002148460847526992 0.00062021649845429416 0.00022320157739775726 -0.0027339821613700786 -0.0066888048488074215 -0.00093220316755232503 -0.0027869226080473423
leaf_weight=872 653 56 556 12526 107 851 473 258 115 260 462 186 128 29 62 488 526 279 2791 28 194 448 253 24 1148 47 51 34 259 36
leaf_count=872 653 56 556 12526 107 851 473 258 115 260 462 186 128 29 62 488 526 279 2791 28 194 448 253 24 1148 47 51 34 259 36
internal_value=0 -0.023168 -0.0153682 0.00579585 -0.00193031 0.0065596 -0.00429205 -0.0257019 -0.0212921 -0.0347471 -0.03069 0.000645743 -0.0112755 -0.0341185 -0.0185469 -0.00810874 0.00697619 -0.0121682 0.00557391 -0.0188158 0.00507969 0.00111047 -0.016986 -0.0206588 0.00358722 -0.00796961 -0.00493043 -0.00659091 -0.00606209 -0.0151984
internal_weight=0 4102 2451 20098 1808 18290 1183 1268 712 1651 779 693 490 519 597 961 16991 422 4465 57 847 1299 535 277 1674 362 539 220 306 315
internal_count=24200 4102 2451 20098 1808 18290 1183 1268 712 1651 779 693 490 519 597 961 16991 422 4465 57 847 1299 535 277 1674 362 539 220 306 315
is_linear=0
shrinkage=0.05


Tree=10
num_leaves=31
num_cat=0
split_feature=6 6 1 6 3 7 6 6 1 6 6 6 1 7 1 1 7 1 1 7 5 3 6 0 6 7 6 1 0 1
split_gain=1100.54 114.052 92.1444 71.6583 39.5459 17.2211 12.4252 10.2619 11.1959 9.22723 7.83429 6.29156 5.28083 5.09629 4.88337 5.2898 4.59875 4.34972 4.15548 3.92655 3.63396 3.17033 2.74998 2.64034 2.46339 2.20438 2.10972 2.07673 2.01774 2.02841
threshold=0.26737548030958697 0.15506295148856988 11.500000000000002 0.34744175893860357 0.25881904510252091 5.2337752898422689 0.21686379095339473 0.2968578066348283 7.5000000000000009 0.11358532891028662 0.23155186907585715 0.41182455820238739 10.500000000000002 5.9532399610262798 14.500000000000002 8.5000000000000018 6.1147871526576338 9.5000000000000018 12.500000000000002 5.8819276874444908 0.93301270189221952 0.91597561503675362 0.42409940915740979 10.500000000000002 0.17523501184666293 6.4289123753618673 0.31944884054767991 15.500000000000002 3.5000000000000004 8.5000000000000018
decision_type=2 2 2 2 2 2 2 2 2 2 2 2 2 2 2 2 2 2 2 2 2 2 2 2 2 2 2 2 2 2
left_child=1 9 10 4 19 21 13 8 -6 -1 12 25 -3 27 15 -11 -8 -12 -17 -2 26 -5 23 -23 -14 -7 -9 -4 -10 -30
right_child=3 2 6 5 7 11 16 20 28 14 17 -13 24 -15 -16 18 -18 -19 -20 -21 -22 22 -24 -25 -26 -27 -28 -29 29 -31
leaf_value=-0.0066958728617260198 0.0019892876540874302 -0.004368805133990657 -0.00083185528229440329 0.0035814270716346443 -0.0026862655659693289 0.00085621629840598994 0.00079118530028010061 -0.0013355950782834435 -0.0036054032315011226 -0.0058249085405970569 -0.0030699027112321507 0.0037157399569845507 -0.0042147028070080887 -0.0022744832723908888 -0.0010591144496317699 -0.0049499008632802148 -0.0017677247264678243 -0.003929175767296819 -0.0022118687198258674 -4.2657409504157968e-05 -0.0017173712747852175 0.0012253561858156928 0.0045012572859786954 -0.00054121548370385101 -0.0043495017980922151 -0.00076294947360503471 -0.00045035579450243801 0.0015805578325633876 -0.0013173577397116879 -0.0015766982588309283
leaf_weight=862 688 544 284 13389 73 1324 330 303 83 42 259 1509 56 296 34 376 153 163 212 312 64 489 1036 134 117 480 463 24 72 146
leaf_count=862 688 544 284 13389 73 1324 330 303 83 42 259 1509 56 296 34 376 153 163 212 312 64 489 1036 134 117 480 463 24 72 146
internal_value=0 -0.0239765 -0.0167588 0.00546985 -0.003049 0.00649243 -0.00634545 -0.00915282 -0.0160294 -0.0345052 -0.0266967 0.00322895 -0.029878 -0.0111258 -0.0300753 -0.0310714 -0.000367495 -0.0212915 -0.0322959 0.0043 -0.00605422 0.00721093 0.00514919 0.00252408 -0.0222688 0.00123614 -0.00509791 -0.00662338 -0.0117691 -0.00924312
internal_weight=0 3752 2226 20565 2204 18361 1087 1204 374 1526 1139 3313 717 604 664 630 483 422 588 1000 830 15048 1659 623 173 1804 766 308 301 218
internal_count=24317 3752 2226 20565 2204 18361 1087 1204 374 1526 1139 3313 717 604 664 630 483 422 588 1000 830 15048 1659 623 173 1804 766 308 301 218
is_linear=0
shrinkage=0.05


Tree=11
num_leaves=31
num_cat=0
split_feature=6 6 6 1 1 7 6 6 1 1 6 1 1 1 6 6 7 9 6 1 7 1 6 7 7 7 1 8 1 7
split_gain=1054.58 91.2416 83.6055 75.5937 43.3856 22.2649 11.9172 10.2793 13.1137 8.85807 6.66452 5.53729 6.82014 5.34735 5.15399 4.32865 3.8802 3.8695 3.62186 3.89601 3.23882 3.58364 2.9125 2.89216 2.65857 2.49284 2.25449 2.22938 2.19043 2.1533
threshold=0.25431473896964046 0.15506295148856988 0.33471075040691967 11.500000000000002 11.500000000000002 5.2600927804663344 0.10048492595619686 0.2968578066348283 7.5000000000000009 14.500000000000002 0.41352337625247304 12.500000000000002 8.5000000000000018 10.500000000000002 0.22162311340498006 0.19037028802237846 5.8819276874444908 16.650000000000002 0.23155186907585715 9.5000000000000018 6.7690675942505676 10.500000000000002 0.14253560728208384 6.2869283273353256 2.4414009612931857 5.310736838221497 10.500000000000002 85.000000000000014 12.500000000000002 6.5330615650778476
decision_type=2 2 2 2 2 2 2 2 2 2 2 2 2 2 2 2 2 2 2 2 2 2 2 2 2 2 2 2 2 2
left_child=1 6 4 13 7 24 -1 8 -2 14 28 12 -8 18 23 -15 -6 -13 27 -20 -10 -22 -19 -5 -4 -11 -14 -3 -7 -16
right_child=2 3 5 9 16 10 11 -9 20 25 -12 17 26 15 29 -17 -18 22 19 -21 21 -23 -24 -25 -26 -27 -28 -29 -30 -31
leaf_value=-0.0065185750980660297 -0.002544575229287038 -0.0042091836345111355 0.0033300234565693736 -0.00096884727777177238 0.0019050077480059363 7.0040514408020236e-05 -0.0053435822555446492 -0.001191250629717428 -0.0019748995526682627 0.0011579145359925187 0.0035359855570647062 -0.0014249766373087914 -0.005402571067503005 -0.0052190291022302 -0.0001689448657678234 -0.0040347800895977198 -6.6699922557427363e-05 -0.0025004993736185725 -0.0032387913933126637 -0.0025926041629555714 0.00074138013862878676 -0.0048737800186200129 -0.0019813630810942063 -0.0030683264480627533 0.0028215066641469333 -0.00076497217694166319 -0.0042335485497653966 -0.003175058379726284 0.0031384981922107993 -0.0045448724563297259
leaf_weight=663 104 515 12386 326 579 1718 54 599 350 119 1433 84 193 82 167 126 306 167 151 52 48 23 44 177 2865 117 343 20 363 43
leaf_count=663 104 515 12386 326 579 1718 54 599 350 119 1433 84 193 82 167 126 306 167 151 52 48 23 44 177 2865 117 343 20 363 43
internal_value=0 -0.0245796 0.00529773 -0.017223 -0.00439647 0.0063356 -0.0335853 -0.0109164 -0.0160238 -0.00725237 0.00274758 -0.0297881 -0.0325847 -0.0272252 -0.0100316 -0.0201442 0.00388418 -0.0241949 -0.0292209 -0.0235345 -0.0120962 -0.00235915 -0.0278081 -0.0127783 0.00716232 0.00114407 -0.034291 -0.0313785 0.000940654 -0.00345238
internal_weight=0 3443 20774 1895 2009 18765 1548 1124 525 949 3514 885 590 946 713 208 885 295 738 203 421 71 211 503 15251 236 536 535 2081 210
internal_count=24217 3443 20774 1895 2009 18765 1548 1124 525 949 3514 885 590 946 713 208 885 295 738 203 421 71 211 503 15251 236 536 535 2081 210
is_linear=0
shrinkage=0.05


Tree=12
num_leaves=31
num_cat=0
split_feature=6 6 6 1 3 7 6 1 1 6 6 6 1 1 6 7 6 1 7 4 7 1 7 6 3 6 0 1 1 7
split_gain=976.834 92.5789 85.8776 72.1148 44.7282 22.3367 10.8819 9.62525 9.02108 8.51532 8.02309 7.75364 7.75329 7.08531 6.78606 5.12333 4.43958 4.21761 3.99703 3.68087 3.29692 3.25263 3.05557 2.8058 2.5127 2.55032 2.88823 2.48585 2.48472 2.20792
threshold=0.25431473896964046 0.16031097254439983 0.33471075040691967 11.500000000000002 0.25881904510252091 4.6298509007569537 0.085537014144820719 11.500000000000002 8.5000000000000018 0.2968578066348283 0.39299764127944253 0.20633387658238497 7.5000000000000009 10.500000000000002 0.14253560728208384 6.7013457377751759 0.22613484019624933 12.500000000000002 5.9750802605835984 -0.68301270189221952 6.1059080600786215 14.500000000000002 6.4700249102891876 0.19037028802237846 0.91597561503675362 0.40371887201630036 10.500000000000002 9.5000000000000018 9.5000000000000018 6.612712626606327
decision_type=2 2 2 2 2 2 2 2 2 2 2 2 2 2 2 2 2 2 2 2 2 2 2 2 2 2 2 2 2 2
left_child=1 6 4 13 22 24 -1 8 20 12 17 18 -6 16 21 -13 -3 29 -5 -14 -8 -9 -2 -15 -4 26 -26 -21 -18 -7
right_child=2 3 5 11 9 10 7 14 -10 -11 -12 15 19 23 -16 -17 28 -19 -20 27 -22 -23 -24 -25 25 -27 -28 -29 -30 -31
leaf_value=-0.0066493195092548543 0.0016219947655404011 -0.0040795292238606758 0.0031934495939489552 -0.00070679436672759193 -0.0023241383803627043 0.0001050193131591436 -0.0055062561889765091 -0.0029639109374719696 -0.0050451556315791995 -0.0011754408072998362 0.0028279267900332399 2.7818584348563878e-06 0.00051703244007415361 -0.0048343706603869163 -0.0016267664749617457 -0.0049990466589861079 -0.0030261021823255879 0.0030583687584273545 -0.0024547754214711863 -0.0018057509214139201 -0.0032324624847313299 -0.0011507036648353813 -0.0025398373566673468 -0.0037527985941815572 0.00087940997289912145 0.0036529462267795828 -0.001444809916190673 -0.0031619478231005847 -0.0025219793575947378 -0.0020580717811380521
leaf_weight=468 792 448 13066 261 94 1264 36 445 464 592 2493 434 41 72 135 29 163 428 206 251 29 39 89 135 204 900 78 157 71 223
leaf_count=468 792 448 13066 261 94 1264 36 445 464 592 2493 434 41 72 135 29 163 428 206 251 29 39 89 135 204 900 78 157 71 223
internal_value=0 -0.0235189 0.00527477 -0.015782 -0.00452877 0.00633416 -0.0322277 -0.029608 -0.0345605 -0.0110903 0.00322368 -0.00604839 -0.0156123 -0.0259646 -0.0253756 -0.00146328 -0.0284238 0.000789817 -0.0105942 -0.0128786 -0.0171154 -0.0281405 0.00392452 -0.0178623 0.00729646 0.00508883 0.000939716 -0.0143137 -0.0228419 -0.000469065
internal_weight=0 3435 20672 1819 2016 18656 1616 1148 529 1135 4408 930 543 889 619 463 682 1915 467 449 65 484 881 207 14248 1182 282 408 234 1487
internal_count=24107 3435 20672 1819 2016 18656 1616 1148 529 1135 4408 930 543 889 619 463 682 1915 467 449 65 484 881 207 14248 1182 282 408 234 1487
is_linear=0
shrinkage=0.05


Tree=13
num_leaves=31
num_cat=0
split_feature=6 6 3 7 6 6 3 6 6 3 6 3 3 3 6 7 3 8 3 3 3 6 8 0 3 0 6 0 0 6
split_gain=943.231 134.242 103.281 45.5327 18.9725 13.1978 12.7607 12.0714 11.8324 9.09659 6.89972 6.1929 5.33545 5.16448 7.27204 4.98114 4.63596 4.59881 4.41306 4.16475 3.96899 3.18433 3.03386 2.83223 2.74163 2.52306 2.39667 2.37233 2.27643 3.23647
threshold=0.28820619847880474 0.15506295148856988 0.25881904510252091 5.0336952619030333 0.32551364991366888 0.22162311340498006 0.91597561503675362 0.10048492595619686 0.21196683177460798 1.0000000180025095e-35 0.40503129600762028 -0.25881904510252113 0.78656609248549325 0.91597561503675362 0.36129494015490554 6.2775824567537457 -0.5 70.500000000000014 0.37940952255126054 0.25881904510252091 0.25881904510252091 0.25431473896964046 69.500000000000014 8.5000000000000018 0.60355339059327384 10.500000000000002 0.13654783652950339 3.5000000000000004 6.5000000000000009 0.13032677758458469
decision_type=2 2 2 2 2 2 2 2 2 2 2 2 2 2 2 2 2 2 2 2 2 2 2 2 2 2 2 2 2 2
left_child=1 7 8 13 9 18 17 -1 16 -5 20 28 19 -2 23 -10 -3 21 -4 26 -6 -7 -11 -15 -19 -18 -13 -23 29 -9
right_child=3 2 5 4 10 6 -8 11 15 22 -12 12 -14 14 -16 -17 25 24 -20 -21 -22 27 -24 -25 -26 -27 -28 -29 -30 -31
leaf_value=-0.005960297408374976 0.0030148991423842105 4.1275410223965244e-05 -0.0045699671479405967 0.0015134019093760499 0.0025674832736041243 -0.0027077790795353492 -0.002859435629507003 -0.0017094673970216329 0.00077373030031066634 -0.001074777504292001 0.0031564071198707713 -0.0029220004661725803 -0.0045674044110406656 7.7125210744060824e-05 0.0020935603916326486 -0.0020279796886601398 -0.0017763456996776911 -0.0031907388935294937 -0.0037897501320912383 -0.0047297261418967809 -3.9273264006092549e-05 -0.002552774237648844 -0.0024225203441450372 -0.0020669350832951089 -0.0021786471142773759 -0.00066506583275513509 -0.0018883299974323136 -0.0015512200794030762 -0.0017759998545686551 -0.00094396465478659587
leaf_weight=680 13503 111 156 210 669 223 131 56 576 333 1858 227 49 73 1467 174 335 48 432 355 1634 88 218 61 111 102 97 199 52 41
leaf_count=680 13503 111 156 210 669 223 131 56 576 333 1858 227 49 73 1467 174 335 48 432 355 1634 88 218 61 111 102 97 199 52 41
internal_value=0 -0.0201573 -0.0133861 0.00579472 0.00161824 -0.0228674 -0.0186875 -0.0318385 -0.0032473 -0.0056406 0.00294581 -0.0279618 -0.0298626 0.00715572 0.00447064 0.000833333 -0.00883212 -0.0158931 -0.0285544 -0.0310125 0.00111702 -0.0135784 -0.00901543 -0.0066791 -0.0233176 -0.0111499 -0.0269136 -0.0100958 -0.0186745 -0.0141495
internal_weight=0 4243 2686 20026 4922 1388 800 1557 1298 761 4161 877 728 15104 1601 750 548 669 588 679 2303 510 551 134 159 437 324 287 149 97
internal_count=24269 4243 2686 20026 4922 1388 800 1557 1298 761 4161 877 728 15104 1601 750 548 669 588 679 2303 510 551 134 159 437 324 287 149 97
is_linear=0
shrinkage=0.05


Tree=14
num_leaves=31
num_cat=0
split_feature=7 7 0 7 0 1 5 1 1 0 0 0 7 1 8 1 7 1 1 3 8 0 8 1 1 0 0 8 8 8
split_gain=558.939 67.0267 53.7001 27.8768 14.0964 10.5817 11.9254 10.0931 8.11392 7.09341 12.3172 14.5881 8.67464 5.85221 5.73185 5.64567 5.64393 5.4332 5.43025 5.14132 4.77184 4.60892 4.12799 5.14166 4.02661 3.97197 3.86932 3.60682 3.38473 3.33384
threshold=5.4271478232179229 6.4175486092242702 4.5000000000000009 4.6298509007569537 2.5000000000000004 7.5000000000000009 0.93301270189221952 12.500000000000002 14.500000000000002 11.500000000000002 3.5000000000000004 6.5000000000000009 5.9362152003510085 13.500000000000002 56.500000000000007 8.5000000000000018 6.0991966170931535 12.500000000000002 9.5000000000000018 0.91597561503675362 59.500000000000007 9.5000000000000018 28.500000000000004 12.500000000000002 6.5000000000000009 9.5000000000000018 3.5000000000000004 75.500000000000014 77.500000000000014 41.500000000000007
decision_type=2 2 2 2 2 2 2 2 2 2 2 2 2 2 2 2 2 2 2 2 2 2 2 2 2 2 2 2 2 2
left_child=3 5 4 19 20 -2 8 14 9 10 16 12 -12 21 -8 -6 -7 -17 -4 -1 -3 24 -13 -24 -5 -20 -26 -18 -28 -27
right_child=1 2 18 13 15 6 7 -9 -10 -11 11 22 -14 -15 -16 17 27 -19 25 -21 -22 -23 23 -25 26 29 28 -29 -30 -31
leaf_value=0.0028626837110385921 -0.00036839837636189893 -0.0010569666531086862 -0.0018321859998098812 0.001630517376926197 -0.0016634321240448946 -0.00019916916488872335 -0.0024255318888890894 -0.00099372392473219095 0.0002579827621559342 -0.00058244327394370028 -0.0053359891889570776 -3.1954615410872733e-05 -0.0043123148296688998 0.0019175369590648335 -0.0046922553020347152 -0.0053874459148475261 -0.0015054248250593212 -0.0034043570421205815 -0.0033919165315011352 0.0016240068804612455 -0.0031215168786801707 -0.0014844805100502334 -0.0026978524213903199 -0.00095600659488801181 -0.00033487682834443841 -0.00056702533536876821 -0.0042681459320476709 -0.0026688032409453743 -0.00037722604312385169 -0.0035323909302851508
leaf_weight=13569 854 87 538 398 97 604 51 181 295 593 105 131 244 748 131 649 350 129 951 1301 64 376 771 503 359 24 25 86 34 207
leaf_count=13569 854 87 538 398 97 604 51 181 295 593 105 131 244 748 131 649 350 129 951 1301 64 376 771 503 359 24 25 86 34 207
internal_value=0 -0.00984467 -0.016098 0.00646193 -0.0251511 -0.00633956 -0.00740729 -0.0160537 -0.00655486 -0.00724756 -0.00830172 -0.010858 -0.0200072 0.000824742 -0.0243681 -0.0275857 -0.00399038 -0.0290039 -0.0106977 0.00719738 -0.011043 -0.00135067 -0.00858541 -0.00945447 0.000759804 -0.0125931 -0.00266746 -0.00832569 -0.0145339 -0.018474
internal_weight=0 7645 2746 16810 1026 4899 4045 363 3682 3387 2794 1754 349 1940 182 875 1040 778 1720 14870 151 1192 1405 1274 816 1182 418 436 59 231
internal_count=24455 7645 2746 16810 1026 4899 4045 363 3682 3387 2794 1754 349 1940 182 875 1040 778 1720 14870 151 1192 1405 1274 816 1182 418 436 59 231
is_linear=0
shrinkage=0.05


Tree=15
num_leaves=31
num_cat=0
split_feature=6 6 1 7 6 1 6 6 6 1 1 1 1 6 1 0 1 6 6 6 9 1 0 4 0 4 6 4 9 9
split_gain=899.508 124.823 92.9373 47.3683 17.5007 13.7865 12.9133 12.4746 11.0312 11.6805 8.08001 8.94105 7.56784 6.00882 4.89696 5.71893 4.5894 4.52174 3.54403 3.1642 3.08434 3.05188 2.89964 2.7724 2.66001 2.53684 2.35437 2.28347 2.25732 1.97994
threshold=0.28348133736443587 0.15506295148856988 11.500000000000002 4.5900436644025815 0.3648667354104842 11.500000000000002 0.085537014144820719 0.21686379095339473 0.21196683177460798 7.5000000000000009 11.500000000000002 8.5000000000000018 10.500000000000002 0.2968578066348283 9.5000000000000018 4.5000000000000009 12.500000000000002 0.11902439775085942 0.17040924461912063 0.41976281940021037 21.050000000000004 12.500000000000002 6.5000000000000009 -0.24999999999999994 6.5000000000000009 0.6830127018922193 0.19037028802237846 -0.5 21.050000000000004 19.300000000000001
decision_type=2 2 2 2 2 2 2 2 2 2 2 2 2 2 2 2 2 2 2 2 2 2 2 2 2 2 2 2 2 2
left_child=1 6 8 -2 5 13 -1 16 12 -10 11 -8 -3 -5 15 -11 22 23 -18 -6 -19 24 26 -12 -9 29 -4 -15 -17 -14
right_child=3 2 7 4 19 -7 10 21 9 14 17 -13 25 27 -16 28 18 20 -20 -21 -22 -23 -24 -25 -26 -27 -28 -29 -30 -31
leaf_value=-0.0056955811501628291 0.0026563518878549171 -0.0036715653415758487 -0.0028121182594175822 -0.0021609473593078672 0.0010267343877875313 0.0016146597945732603 -0.0041428190990210247 -0.0037968321673946116 -0.0028894983751566704 -0.003132504734650739 -0.0026916485633820516 -0.0043021644431172693 -0.0041017043675766716 9.9247842836576282e-05 -0.0033476350878301076 -0.0014602994785893079 -0.00093826412789633671 -0.0014650690463920034 -0.00051932509716227991 0.0034798685862858559 -0.0024919143449959116 0.00095730990141869104 -0.0012174023720979725 -0.0027756600825767481 -4.1733085371795674e-05 -0.001355589289361042 -0.0048602237723753402 -0.00089600603657396876 -0.0016727918693020265 -0.0046387848685167593
leaf_weight=484 14516 371 32 128 1790 703 51 47 130 174 114 421 29 229 313 127 114 209 324 1833 82 521 88 181 91 51 33 970 111 59
leaf_count=484 14516 371 32 128 1790 703 51 47 130 174 114 421 29 229 313 127 114 209 324 1833 82 521 88 181 91 51 33 970 111 59
internal_value=0 -0.0198033 -0.0131501 0.00573987 0.00185698 -0.00185961 -0.0310863 -0.0033 -0.0221703 -0.0186988 -0.0279915 -0.0328602 -0.0279902 -0.0048587 -0.0162241 -0.0198058 -0.00857445 -0.02407 -0.00597032 0.00393942 -0.0196478 0.0014302 -0.0160294 -0.0284322 -0.00518116 -0.0180396 -0.0240385 -0.00375938 -0.0147689 -0.0231818
internal_weight=0 4157 2615 20169 5653 2030 1542 1250 1365 855 1058 472 510 1327 725 412 591 586 438 3623 291 659 153 295 138 139 65 1199 238 88
internal_count=24326 4157 2615 20169 5653 2030 1542 1250 1365 855 1058 472 510 1327 725 412 591 586 438 3623 291 659 153 295 138 139 65 1199 238 88
is_linear=0
shrinkage=0.05


Tree=16
num_leaves=31
num_cat=0
split_feature=7 7 5 7 4 9 2 5 3 2 3 3 4 9 5 2 3 2 2 4 7 8 8 3 3 4 7 7 8 9
split_gain=520.977 70.8212 52.4481 30.6359 13.4443 11.0125 8.06446 11.0863 9.97205 7.74646 6.95904 6.89058 11.656 9.22676 6.67113 6.53182 6.17977 5.75016 5.11976 6.8059 5.05856 4.27034 4.05756 4.38004 4.00254 3.73672 3.87369 3.31293 3.29516 3.1912
threshold=5.4271478232179229 6.4175486092242702 0.68301270189221941 4.3372693810700085 0.25000000000000017 17.650000000000002 -0.37940952255126009 0.93301270189221952 1.0000000180025095e-35 -0.5 -0.25881904510252113 -0.5 0.25000000000000017 17.650000000000002 -0.25000000000000028 -0.70710678118654757 1.0000000180025095e-35 -0.9159756150367534 1.0000000180025095e-35 0.6830127018922193 6.0390628155997765 55.500000000000007 51.500000000000007 0.25881904510252091 0.91597561503675362 0.25000000000000017 6.5532206455302013 6.0924398260614181 75.500000000000014 26.950000000000003
decision_type=2 2 2 2 2 2 2 2 2 2 2 2 2 2 2 2 2 2 2 2 2 2 2 2 2 2 2 2 2 2
left_child=3 6 15 24 9 -6 7 11 -9 16 -5 -2 13 17 22 25 -4 -13 -12 -20 -16 -10 29 -24 -1 -3 -27 -19 -22 -14
right_child=1 2 4 10 5 -7 -8 8 21 -11 18 12 14 -15 20 -17 -18 27 19 -21 28 -23 23 -25 -26 26 -28 -29 -30 -31
leaf_value=0.0025803034107361152 0.00026848131818622481 -0.0029938850978595208 -0.0029570170459172805 0.0018926413720786643 -0.0035116878237622068 -0.00070700170828847178 -0.00039436016898829077 -0.00076555140948027169 -0.0025496481326283847 -0.001516031825020964 -0.0011200227208027619 -0.0060667285110913832 -0.00063081323133726546 -0.0018184330245988448 3.7983186953635155e-06 -0.0014865787968934563 -0.0049787056666564314 -0.0029141011448442244 0.0014142819410457932 -0.0018694624504347196 -0.0010917117276530791 -0.0040825466490273729 -0.001056321383680058 -0.0026793775843340175 0.0014886747876307169 -0.0026417490298443255 -0.0036494458366466485 -0.0019904792565781505 -0.0021979677122382023 -0.0030981554628820365
leaf_weight=13468 292 937 121 926 47 104 851 175 52 108 741 62 303 587 787 520 677 70 590 95 667 121 328 314 1061 142 102 74 102 30
leaf_count=13468 292 937 121 926 47 104 851 175 52 108 741 62 303 587 787 520 677 70 590 95 667 121 328 314 1061 142 102 74 102 30
internal_value=0 -0.00938895 -0.0157777 0.00639521 -0.0245246 -0.0107119 -0.00572949 -0.0066776 -0.0152011 -0.0268267 0.00110119 -0.0058573 -0.00650421 -0.0117938 -0.0048469 -0.0103424 -0.0285276 -0.0208981 -0.00109046 0.00202555 -0.00281491 -0.0237139 -0.00808974 -0.0104128 0.00725222 -0.0123984 -0.0179098 -0.0154167 -0.00569896 -0.00361111
internal_weight=0 7573 2758 16881 1057 151 4815 3964 348 906 2352 3616 3324 793 2531 1701 798 206 1426 685 1556 173 975 642 14529 1181 244 144 769 333
internal_count=24454 7573 2758 16881 1057 151 4815 3964 348 906 2352 3616 3324 793 2531 1701 798 206 1426 685 1556 173 975 642 14529 1181 244 144 769 333
is_linear=0
shrinkage=0.05


Tree=17
num_leaves=31
num_cat=0
split_feature=6 6 1 7 6 6 1 1 1 6 1 3 6 6 1 6 0 1 0 1 6 7 7 6 0 7 6 1 1 0
split_gain=865.094 106.75 76.0588 47.967 20.42 19.6197 17.5285 12.561 9.8768 10.2647 7.03094 5.71116 7.37989 5.26791 5.18178 4.44671 3.7215 3.51583 3.44812 3.44028 3.15662 3.01868 2.68817 2.55688 2.52163 2.69572 2.38003 2.04416 1.964 1.92292
threshold=0.27516632356024556 0.17040924461912063 11.500000000000002 4.6298509007569537 0.10048492595619686 0.34499040152924426 11.500000000000002 11.500000000000002 7.5000000000000009 0.22162311340498006 12.500000000000002 0.91597561503675362 0.36129494015490554 0.41352337625247304 10.500000000000002 0.13032677758458469 2.5000000000000004 8.5000000000000018 11.500000000000002 12.500000000000002 0.075590081920622762 6.840011483758766 6.0626210638078133 0.32551364991366888 6.5000000000000009 6.7208229279629697 0.20633387658238497 12.500000000000002 14.500000000000002 10.500000000000002
decision_type=2 2 2 2 2 2 2 2 2 2 2 2 2 2 2 2 2 2 2 2 2 2 2 2 2 2 2 2 2 2
left_child=1 4 8 11 19 7 17 23 -3 14 24 -2 16 27 -10 -8 -13 22 21 -1 -21 -11 -6 -5 25 -4 -12 -7 -17 -14
right_child=3 2 10 5 6 13 15 -9 9 18 26 12 29 -15 -16 28 -18 -19 -20 20 -22 -23 -24 -25 -26 -27 -28 -29 -30 -31
leaf_value=-0.0053068211871625014 0.0024595193770869488 -0.0033147379356997329 -0.002053075242812227 -0.00099361645740712596 -0.004624536906141583 0.00025294899808299274 -0.0021703860764655612 0.0010877836161127718 -0.002916141899398113 -0.0024833492133894031 -0.00058749720955175483 0.00077984529712977417 0.0020463473823159055 0.003156433512196469 -0.0034290320400302862 -0.0015458295547509612 -0.0027289081062104414 -0.003598479729853036 -0.00056652944189459467 -0.0046156845574422669 -0.0020204110315842588 -0.0021054957657830661 -0.0033736197319702461 -0.00040377062106029522 -0.00083378306200878553 -0.0071211902539482647 0.00045223109834100443 0.0027158394756466278 -0.00031452896145649125 0.001265840176407317
leaf_weight=466 13302 147 68 680 32 1750 287 544 313 413 248 34 824 1949 113 310 55 502 51 103 95 53 30 328 148 20 508 467 43 362
leaf_count=466 13302 147 68 680 32 1750 287 544 313 413 248 34 824 1949 113 310 55 502 51 103 95 53 30 328 148 20 508 467 43 362
internal_value=0 -0.0199304 -0.0121446 0.00564486 -0.0286081 0.00176373 -0.0247259 -0.00303479 -0.0212615 -0.0193823 -0.00212702 0.00716728 0.00397059 0.00355137 -0.0251291 -0.0190625 -0.00991573 -0.0311525 -0.014647 -0.0356476 -0.0301263 -0.0159979 -0.0199194 -0.00633929 -0.00966102 -0.0163636 0.000224868 0.0018843 -0.0153045 0.00501265
internal_weight=0 3950 2082 20295 1868 5718 1204 1552 1090 943 992 14577 1275 4166 426 640 89 564 517 664 198 466 62 1008 236 88 756 2217 353 1186
internal_count=24245 3950 2082 20295 1868 5718 1204 1552 1090 943 992 14577 1275 4166 426 640 89 564 517 664 198 466 62 1008 236 88 756 2217 353 1186
is_linear=0
shrinkage=0.05


Tree=18
num_leaves=31
num_cat=0
split_feature=1 1 4 0 1 1 1 5 5 1 8 1 1 1 1 1 0 0 9 9 1 4 9 8 8 4 9 1 9 8
split_gain=174.514 340.283 64.1123 52.1819 25.2674 21.3848 19.3457 12.237 11.0417 8.80991 8.66701 7.3366 6.50619 5.58516 4.79438 3.87956 3.82684 3.75015 3.55143 3.22656 3.03664 2.96429 2.88475 2.92183 2.57971 2.50084 2.38443 5.52639 2.36671 2.26779
threshold=14.500000000000002 6.5000000000000009 0.25000000000000017 4.5000000000000009 8.5000000000000018 12.500000000000002 12.500000000000002 -0.25000000000000028 -0.6830127018922193 4.5000000000000009 44.500000000000007 7.5000000000000009 8.5000000000000018 13.500000000000002 9.5000000000000018 7.5000000000000009 10.500000000000002 3.5000000000000004 26.950000000000003 19.700000000000003 15.500000000000002 0.25000000000000017 21.400000000000002 60.500000000000007 21.500000000000004 -0.68301270189221952 20.800000000000004 10.500000000000002 20.300000000000004 58.500000000000007
decision_type=2 2 2 2 2 2 2 2 2 2 2 2 2 2 2 2 2 2 2 2 2 2 2 2 2 2 2 2 2 2
left_child=1 9 3 4 15 -6 7 10 -8 -1 18 -9 19 26 -12 29 25 -7 24 -5 21 -2 23 -16 -4 -11 27 -14 -15 -3
right_child=20 2 6 12 5 17 8 11 -10 16 14 -13 13 28 22 -17 -18 -19 -20 -21 -22 -23 -24 -25 -26 -27 -28 -29 -30 -31
leaf_value=0.0019733558710832585 0.00031482716230637315 0.00048739451120961342 0.00089910176065286949 -0.0017875370510758598 -0.0048117208311418665 -0.0012967965792339612 -0.0010939939892107371 0.0010099284890618143 0.0011049016534738201 -0.00047020379330986185 -0.0017343442696322081 -0.0013071565555914471 -0.0028309113660333952 -0.0018007906583400455 -0.002147046127129701 -0.0018237936560154214 -0.00045985377707005119 -0.0031618907745672611 -0.0026028485356578415 -0.00011590768161555236 0.00267146812165707 0.0029267569447300537 -0.0036185479235616444 -0.0026877584029722382 -0.0013159829000702569 0.0015607291354169087 -0.0025338098286830715 -0.005353969972909248 2.7118790351464203e-06 -0.0012543230275803435
leaf_weight=5057 496 82 91 144 871 218 229 303 829 125 446 1581 156 75 101 224 414 215 29 415 8092 533 92 291 226 1457 998 191 187 134
leaf_count=5057 496 82 91 144 871 218 229 303 829 125 446 1581 156 75 101 224 414 215 29 415 8092 533 92 291 226 1457 998 191 187 134
internal_value=0 -0.00165618 -0.00862943 -0.0132417 -0.0196789 -0.0231748 -0.00435396 -0.00631329 0.00149811 0.00637991 -0.010094 -0.00375265 -0.00805863 -0.00967486 -0.0126075 -0.00931818 0.00356713 -0.0140935 -0.00333815 -0.00341234 0.00709434 0.00453596 -0.0160537 -0.0141837 -0.00180599 0.00468711 -0.0109758 -0.0145461 -0.00299618 -0.00453704
internal_weight=0 15181 8128 3910 1744 1304 4218 3160 1058 7053 1276 1884 2166 1607 930 440 1996 433 346 559 9121 1029 484 392 317 1582 1345 347 262 216
internal_count=24302 15181 8128 3910 1744 1304 4218 3160 1058 7053 1276 1884 2166 1607 930 440 1996 433 346 559 9121 1029 484 392 317 1582 1345 347 262 216
is_linear=0
shrinkage=0.05


Tree=19
num_leaves=31
num_cat=0
split_feature=6 6 1 6 3 6 1 1 2 1 1 6 6 6 5 1 1 8 6 3 0 3 6 5 2 6 6 6 1 0
split_gain=768.193 84.1961 64.8127 47.9553 21.495 16.5938 15.0008 10.7311 8.81312 11.849 8.4857 8.34997 5.95698 5.92265 5.68556 4.63571 4.49131 4.35085 4.00796 3.75198 3.63246 3.5686 3.86596 3.3226 3.15985 3.15036 2.77542 2.40175 1.70265 1.70243
threshold=0.26737548030958697 0.16031097254439983 10.500000000000002 0.34744175893860357 0.25881904510252091 0.093572061245469365 11.500000000000002 12.500000000000002 -0.12940952255126034 13.500000000000002 7.5000000000000009 0.21686379095339473 0.32551364991366888 0.20633387658238497 -0.6830127018922193 9.5000000000000018 8.5000000000000018 59.500000000000007 0.20103088817200579 0.91597561503675362 4.5000000000000009 0.98296291314453432 0.30117300836357258 -0.25000000000000028 -0.9159756150367534 0.41352337625247304 0.40228203515292121 0.23652275406225295 12.500000000000002 8.5000000000000018
decision_type=2 2 2 2 2 2 2 2 2 2 2 2 2 2 2 2 2 2 2 2 2 2 2 2 2 2 2 2 2 2
left_child=1 5 10 4 24 28 16 17 9 25 -3 29 21 -9 -8 20 -7 18 -4 -10 -13 -6 -23 -22 -2 -5 -21 -17 -1 -12
right_child=3 2 7 8 12 6 14 13 19 -11 11 15 -14 -15 -16 27 -18 -19 -20 26 23 22 -24 -25 -26 -27 -28 -29 -30 -31
leaf_value=-0.0048622375810892741 1.5705972736825737e-06 -0.0032318460251181489 -0.0011454360328758532 0.00032265890326037662 -0.00092346762567713724 -0.0040508014311300012 -0.0018125189399480577 -0.00083561998049996248 0.0021025196287679042 0.0032123616577019194 -0.0027159703418485172 -0.0023949913704082539 -0.00027347674566459591 0.0002980264739436048 -0.0016123059876033798 -0.0023479607837979147 -0.0035014943517173158 -0.0031808339997656098 1.2760137057221964e-05 0.00022937428333260764 -0.0012022031121341151 -0.0020492136658485783 -0.00063999668054422426 -0.0019376662281634979 0.00099568260794319157 0.0024568902592744081 0.0027358298454185324 -0.00074452897663257196 -0.0033745781897175802 -0.0026801659262458842
leaf_weight=410 333 124 80 1627 704 52 211 355 11030 2728 189 119 414 466 344 51 419 276 116 450 101 37 44 53 675 1239 1387 80 171 148
leaf_count=410 333 124 80 1627 704 52 211 355 11030 2728 189 119 414 466 344 51 419 276 116 450 101 37 44 53 675 1239 1387 80 171 148
internal_value=0 -0.018994 -0.0125417 0.00556222 -0.00140349 -0.0276587 -0.0238353 -0.00545437 0.00639497 0.00473811 -0.0231358 -0.02111 -0.00592786 -0.00200061 -0.0182658 -0.0162624 -0.0303981 -0.0114619 -0.00576531 0.0071153 -0.0199725 -0.00848726 -0.0184259 -0.0149026 0.00397817 0.00249302 0.00502314 -0.00853053 -0.0344105 -0.0269214
internal_weight=0 3765 2158 20668 2207 1607 1026 1293 18461 5594 865 741 1199 821 555 404 471 472 196 12867 273 785 81 154 1008 2866 1837 131 581 337
internal_count=24433 3765 2158 20668 2207 1607 1026 1293 18461 5594 865 741 1199 821 555 404 471 472 196 12867 273 785 81 154 1008 2866 1837 131 581 337
is_linear=0
shrinkage=0.05


Tree=20
num_leaves=31
num_cat=0
split_feature=6 6 7 3 6 3 6 3 3 6 3 3 6 6 4 3 3 6 5 0 3 4 3 7 6 0 3 7 0 3
split_gain=723.141 65.7904 64.6553 64.4346 28.854 22.3283 18.7303 13.4017 8.27819 8.06683 7.27515 6.66162 6.31232 5.41044 4.73206 4.59017 4.10728 4.56379 4.0025 3.86778 3.80777 3.59898 3.42328 3.17399 2.89625 2.84662 2.82992 2.80647 2.82161 2.77421
threshold=0.24994554663932428 0.15506295148856988 4.3372693810700085 0.37940952255126054 0.32551364991366888 0.60355339059327384 0.075590081920622762 0.25881904510252091 0.78656609248549325 0.28348133736443587 1.0000000180025095e-35 0.91597561503675362 0.398311605619389 0.23155186907585715 1.0000000180025095e-35 -0.25881904510252113 0.91597561503675362 0.35321814471533874 -0.6830127018922193 2.5000000000000004 0.25881904510252091 -0.68301270189221952 0.60355339059327384 6.4777410025491262 0.18040713493459867 4.5000000000000009 0.98296291314453432 6.7086942120556854 1.5000000000000002 0.91597561503675362
decision_type=2 2 2 2 2 2 2 2 2 2 2 2 2 2 2 2 2 2 2 2 2 2 2 2 2 2 2 2 2 2
left_child=1 6 16 10 5 15 -1 18 -9 11 24 25 20 29 -10 -4 -2 19 -8 -18 -6 -12 -15 -14 -3 -7 -11 28 -20 -5
right_child=2 3 4 13 12 9 7 8 14 26 21 -13 23 22 -16 -17 17 -19 27 -21 -22 -23 -24 -25 -26 -27 -28 -29 -30 -31
leaf_value=-0.0046636225809979096 0.0021023467518526892 -0.00077237448734329694 0.0018339452547888109 -0.0026101681853132217 0.0021233457188118443 -0.0023873885318071199 -0.0021687293353926276 -0.0033596317755536101 0.0025536617784382323 -0.00086423852056797049 -0.0068362493070924409 -0.0015023048736227383 0.0025474850983421013 -0.001111659422529508 -0.004115587619409616 -0.00073323466252230615 0.0014308840827910757 0.001478565482037742 -0.0014561883259960285 -0.002399135701974735 -7.3491790058148405e-06 -0.0018209373801962915 -0.0021666359837257659 -7.6994100483618322e-05 -3.124600084210995e-05 -0.00068677642069340096 -0.0018476411692443515 -0.0039473132349885321 -0.0014784094514270615 -0.0034830154121866341
leaf_weight=404 13312 199 357 475 751 81 240 458 23 377 32 80 2275 44 39 575 20 1013 26 25 1669 404 116 270 492 124 41 22 362 69
leaf_count=404 13312 199 357 475 751 81 240 458 23 377 32 80 2275 44 39 575 20 1013 26 25 1669 404 116 270 492 124 41 22 362 69
internal_value=0 -0.0195338 0.00530877 -0.0130898 0.00121212 -0.00454893 -0.0270299 -0.0238248 -0.0298077 -0.0112767 -0.00567658 -0.0177632 0.00310927 -0.0249574 -0.0126613 0.000525751 0.00719033 0.00419187 -0.0190385 -0.0113889 0.00128099 -0.0107339 -0.016875 0.00484774 -0.00248553 -0.0129878 -0.00685407 -0.0160366 -0.0150515 -0.0273346
internal_weight=0 3405 20970 1831 6600 1635 1574 1170 520 703 1127 285 4965 704 62 932 14370 1058 650 45 2420 436 160 2545 691 205 418 410 388 544
internal_count=24375 3405 20970 1831 6600 1635 1574 1170 520 703 1127 285 4965 704 62 932 14370 1058 650 45 2420 436 160 2545 691 205 418 410 388 544
is_linear=0
shrinkage=0.05


Tree=21
num_leaves=31
num_cat=0
split_feature=6 6 6 1 3 7 6 1 1 6 1 7 7 1 6 9 3 6 1 6 1 6 4 9 7 6 5 9 7 4
split_gain=684.029 73.3484 63.4376 49.8691 31.3395 22.3859 19.3396 14.5459 5.66319 5.33212 5.09864 5.04096 5.00912 4.99383 4.67688 4.43494 4.03046 3.9462 3.73724 3.22558 4.37227 3.12777 2.93104 2.58961 2.55 2.37568 2.33826 2.28082 2.23882 2.21794
threshold=0.24622562688160518 0.32551364991366888 0.15506295148856988 11.500000000000002 0.25881904510252091 4.135134555718313 0.075590081920622762 11.500000000000002 9.5000000000000018 0.398311605619389 12.500000000000002 6.6287023148084918 5.3683070215747577 8.5000000000000018 0.2968578066348283 17.650000000000002 0.91597561503675362 0.19037028802237846 12.500000000000002 0.29252467778362656 8.5000000000000018 0.41267332543381596 0.25000000000000017 17.650000000000002 6.4700249102891876 0.16572977205382142 0.68301270189221941 21.400000000000002 5.9622923416208602 0.6830127018922193
decision_type=2 2 2 2 2 2 2 2 2 2 2 2 2 2 2 2 2 2 2 2 2 2 2 2 2 2 2 2 2 2
left_child=2 4 6 8 28 16 -1 13 26 18 27 -9 14 15 -6 -8 -3 23 -7 20 -14 29 -19 -10 -11 -25 -4 -5 -2 -18
right_child=1 5 3 10 12 9 7 11 17 24 -12 -13 19 -15 -16 -17 21 22 -20 -21 -22 -23 -24 25 -26 -27 -28 -29 -30 -31
leaf_value=-0.0044328939911343545 0.00092895893234751822 0.0020112725126825853 -0.0026736495118872372 -0.0019208527517899584 -0.0019255758120277492 8.6075387634457375e-05 -0.0042961114172465377 -0.0014124808231440614 -0.0026903938694017699 0.0023993887285212877 -0.00028750365351948038 -0.0026615592410934395 -0.0011303101212769284 -0.0032089431561053241 -0.00098767223745781034 -0.0032425109910739799 0.0003514894993063432 -0.0031347653476342316 0.0021991208780695061 -0.00064648193857518726 -0.0016448583744898299 0.0031075592018380139 -0.00099675559976921085 -0.0027742521840498956 0.00019549775337972394 -0.0020210289147839389 -0.0033777272883274223 -0.00068884383626722557 -0.00033525373301113853 -0.0015458818876978094
leaf_weight=376 606 13123 270 157 64 1864 23 556 49 2368 651 75 185 473 72 40 142 118 613 402 369 689 116 47 250 116 158 73 260 105
leaf_count=376 606 13123 270 157 64 1864 23 556 49 2368 651 75 185 473 72 40 142 118 613 402 369 689 116 47 250 116 158 73 260 105
internal_value=0 0.00522641 -0.0192586 -0.0127564 -0.00399132 0.00616869 -0.0266542 -0.0234769 -0.0212185 0.00332924 -0.00436152 -0.018332 -0.00962454 -0.0295336 -0.0186029 -0.0163095 0.0071977 -0.0172758 0.00166633 -0.00834728 -0.0108213 0.00402778 -0.0127991 -0.022217 0.0049026 -0.0191871 -0.0253271 -0.0107609 0.00311201 -0.000799595
internal_weight=0 21112 3298 1755 1958 19154 1543 1167 874 5095 881 631 1092 536 136 63 14059 446 2477 956 554 936 234 212 2618 163 428 230 866 247
internal_count=24410 21112 3298 1755 1958 19154 1543 1167 874 5095 881 631 1092 536 136 63 14059 446 2477 956 554 936 234 212 2618 163 428 230 866 247
is_linear=0
shrinkage=0.05


Tree=22
num_leaves=31
num_cat=0
split_feature=6 6 7 1 6 1 1 6 6 1 6 6 1 1 6 3 6 6 1 7 9 1 4 1 1 9 7 7 9 9
split_gain=643.654 68.3135 65.1064 60.4911 26.1301 21.9149 11.3156 8.72066 6.98339 7.10122 5.59208 5.21326 7.31335 4.84172 4.96641 4.79687 4.26343 3.53687 3.31395 2.94668 2.7345 2.51009 2.50857 2.50114 2.35047 2.03474 1.97008 1.92493 2.90988 1.82944
threshold=0.24994554663932428 0.13032677758458469 4.2835627800822236 11.500000000000002 0.34230500011446585 11.500000000000002 11.500000000000002 0.06517146368562271 0.20103088817200579 9.5000000000000018 0.17040924461912063 0.2968578066348283 7.5000000000000009 10.500000000000002 0.14253560728208384 0.91597561503675362 0.41352337625247304 0.41352337625247304 12.500000000000002 6.6802269323173 21.400000000000002 7.5000000000000009 -0.68301270189221952 12.500000000000002 8.5000000000000018 16.650000000000002 6.8335702358000203 6.5257622587071271 19.700000000000003 17.650000000000002
decision_type=2 2 2 2 2 2 2 2 2 2 2 2 2 2 2 2 2 2 2 2 2 2 2 2 2 2 2 2 2 2
left_child=1 6 15 8 5 11 24 -8 13 21 29 12 -4 -3 -15 -2 23 -17 -12 -9 -11 -10 -23 -6 -1 -16 -14 -18 -29 -5
right_child=2 3 4 10 16 -7 7 19 9 20 18 -13 26 14 25 17 27 -19 -20 -21 -22 22 -24 -25 -26 -27 -28 28 -30 -31
leaf_value=-0.0043935797289572096 0.0019097822851151414 -0.0028590799439826972 -0.0016204924971397708 -0.00055034906239727376 0.00022861228901992285 0.00094837697807383873 -0.0039028537904601916 -0.0016620910014419428 -0.0025277033201313651 -0.00092837400254964847 -0.0016349857994027127 -0.00072359919058196309 -0.0011758650866315478 -0.0024075201399930512 -0.0034721642010123264 -0.00027122666933412644 0.0027391088639977332 0.0032285437437783154 -8.0859031030706643e-05 -0.0025478486414231235 -0.0021456556125284162 -0.0015667916264227777 -0.0016816589784725883 0.002143352852697403 -0.0039577965548054884 -0.0023215121868583057 0.0014144011319422911 -0.0031767995732795368 0.00099126957646633118 -0.0011319293909729283
leaf_weight=29 13353 399 105 146 1848 808 179 428 59 142 197 712 436 42 31 285 1990 729 572 48 72 22 206 561 465 130 39 26 151 216
leaf_count=29 13353 399 105 146 1848 808 179 428 59 142 197 712 436 42 31 285 1990 729 572 48 72 22 206 561 465 130 39 26 151 216
internal_value=0 -0.0182759 0.00522133 -0.0131804 0.0011414 -0.00347619 -0.0281832 -0.023874 -0.0215118 -0.0171507 -0.00505526 -0.00751548 -0.0110345 -0.0251412 -0.0188547 0.00711718 0.00326049 0.00380178 -0.00264304 -0.0203361 -0.010257 -0.0222909 -0.0199123 0.00181299 -0.0338968 -0.0148602 -0.00839474 0.00486964 -0.000127119 -0.0101796
internal_weight=0 3383 21043 2234 6676 2100 1149 655 1103 501 1131 1292 580 602 203 14367 4576 1014 769 476 214 287 228 2409 494 161 475 2167 177 362
internal_count=24426 3383 21043 2234 6676 2100 1149 655 1103 501 1131 1292 580 602 203 14367 4576 1014 769 476 214 287 228 2409 494 161 475 2167 177 362
is_linear=0
shrinkage=0.05


Tree=23
num_leaves=31
num_cat=0
split_feature=6 6 7 2 6 6 7 7 7 2 7 6 6 2 6 7 6 6 0 9 7 7 2 2 0 4 2 0 9 8
split_gain=618.566 87.5075 48.6278 26.569 15.8386 14.3259 14.1472 9.7857 9.38955 7.95828 6.50103 6.36419 5.91274 5.22884 4.51126 4.12151 3.8474 3.71213 4.98893 3.31695 3.31441 2.91867 2.86021 2.70603 2.39015 2.30268 2.30282 2.18102 3.09951 2.9239
threshold=0.27516632356024556 0.15506295148856988 4.2555875595453392 -0.70710678118654757 0.3648667354104842 0.075590081920622762 4.6959141240107813 6.391078890228977 6.7135633652932718 -0.37940952255126009 5.3254430739639957 0.22162311340498006 0.22613484019624933 -0.5 0.17523501184666293 6.7656153457204473 0.30117300836357258 0.10700593832243306 8.5000000000000018 25.850000000000005 6.1706556649511866 5.6330006924953082 -0.60355339059327384 -0.9159756150367534 4.5000000000000009 -0.24999999999999994 -0.78656609248549325 2.5000000000000004 20.300000000000004 69.500000000000014
decision_type=2 2 2 2 2 2 2 2 2 2 2 2 2 2 2 2 2 2 2 2 2 2 2 2 2 2 2 2 2 2
left_child=1 5 -2 7 13 -1 -5 11 17 10 -8 -3 22 19 -9 24 -15 18 -7 21 -6 -4 -12 27 -14 26 -25 29 -29 -19
right_child=2 3 4 6 20 8 9 14 -10 -11 12 -13 15 16 -16 -17 -18 23 -20 -21 -22 -23 -24 25 -26 -27 -28 28 -30 -31
leaf_value=-0.0039759534749909163 0.0017936140581082923 -0.00082960518099484267 0.0010882174065102476 0.00067557297374091292 0.001772593492241699 -0.0025600804721449336 0.00038996531896346863 -0.0025821259507466257 -0.0030632680608951714 -0.0023943055060254917 -0.0021789356729249687 0.00014441473911108659 -0.0014815096771645211 -0.00086998024391619498 -0.0020818293212386415 0.00091215168740460583 -0.00043378948570302702 -0.00096727347308732479 -0.0024068210576023217 -0.0032153253780073964 0.00095736386260856772 -0.00038786224457800297 -0.002288407820216146 -0.0026699723371245284 -0.00096950905510092937 -0.0023376475463138917 -0.00096302844413993858 -0.0014196623003772614 -0.0017848003143947759 -0.00079795534136888546
leaf_weight=389 14246 629 428 75 2813 220 42 124 183 137 155 462 105 148 435 29 643 32 105 23 1149 969 92 57 132 175 50 181 118 39
leaf_count=389 14246 629 428 75 2813 220 42 124 183 137 155 462 105 148 435 29 643 32 105 23 1149 969 92 57 132 175 50 181 118 39
internal_value=0 -0.0160502 0.0055288 -0.0101045 0.00182205 -0.0253276 -0.0177934 -0.0065303 -0.0225431 -0.0200289 -0.0173649 -0.00377406 -0.0189133 -0.00156829 -0.0119097 -0.0137406 -0.00482617 -0.0205962 -0.0249615 0.000246479 0.00371403 0.00055655 -0.0244838 -0.0184202 -0.0159177 -0.0221099 -0.0163318 -0.0156081 -0.0137375 -0.0234859
internal_weight=0 3966 20419 2417 6173 1549 767 1650 1160 692 555 1091 513 2211 559 266 791 977 325 1420 3962 1397 247 652 237 282 107 370 299 71
internal_count=24385 3966 20419 2417 6173 1549 767 1650 1160 692 555 1091 513 2211 559 266 791 977 325 1420 3962 1397 247 652 237 282 107 370 299 71
is_linear=0
shrinkage=0.05


Tree=24
num_leaves=31
num_cat=0
split_feature=6 1 7 6 6 6 1 1 6 0 6 6 1 1 1 6 6 4 1 6 1 1 7 4 6 9 7 1 0 7
split_gain=584.878 67.9938 59.0683 32.8558 25.9491 20.7396 19.2974 18.2825 7.5817 6.14051 5.73326 5.09245 4.04857 4.22055 3.98241 3.74491 3.58144 3.78557 3.48585 6.33563 3.17849 3.10286 2.81155 2.80553 2.79987 2.75738 2.70438 2.7 2.48553 2.15598
threshold=0.24994554663932428 12.500000000000002 4.1026092131977068 0.13654783652950339 0.10048492595619686 0.32551364991366888 11.500000000000002 10.500000000000002 0.15506295148856988 10.500000000000002 0.23155186907585715 0.40642097192223309 8.5000000000000018 11.500000000000002 12.500000000000002 0.075590081920622762 0.14877265005211313 -0.68301270189221952 8.5000000000000018 0.28820619847880474 7.5000000000000009 7.5000000000000009 6.4353484435784418 -0.68301270189221952 0.35157456309980867 16.650000000000002 6.7598349808735607 11.500000000000002 6.5000000000000009 5.8985256106096173
decision_type=2 2 2 2 2 2 2 2 2 2 2 2 2 2 2 2 2 2 2 2 2 2 2 2 2 2 2 2 2 2
left_child=1 3 24 12 15 6 18 10 28 16 21 14 -1 -14 -7 -3 27 -18 19 -4 -12 -5 -13 -23 -2 -19 -15 -9 -6 -8
right_child=2 4 5 7 8 11 29 9 -10 -11 20 22 13 26 -16 -17 17 25 -20 -21 -22 23 -24 -25 -26 -27 -28 -29 -30 -31
leaf_value=-0.0031459246181962555 0.00026816908586878855 -0.0029525632177846966 -0.0010394421881724505 -0.0029907463996420268 -0.0007215648834152851 0.00011078937943160754 0.0012198468463397467 -0.0016896343500797794 -0.00020315443529472511 -9.8134854796508146e-05 -0.0024679065542625562 0.0023526982789492546 -0.0036002504014072921 -0.0023387977572144805 0.0019249623787608089 -0.0012266774263309885 -0.0060183684541890853 -0.0034628918373770488 -0.00095282018917831977 -0.00060244422893559817 -0.0011032650606114408 -0.0024712195308265856 -0.00017584519468263283 -0.0021181562127021059 0.0017542029714453112 -0.0020632325586707433 -0.0036624729841040976 -0.0017065593565364413 -0.00094268183798139999 -4.9065142959925607e-05
leaf_weight=32 416 107 186 77 187 2059 416 24 680 152 25 2215 503 268 636 95 34 49 517 307 137 35 257 513 13753 256 34 30 119 289
leaf_count=32 416 107 186 77 187 2059 416 24 680 152 25 2215 503 268 636 95 34 49 517 307 137 35 257 513 13753 256 34 30 119 289
internal_value=0 -0.0172245 0.00524833 -0.0224908 -0.00760943 0.00144798 -0.00331633 -0.0176126 -0.00426471 -0.0105734 -0.0224873 0.00302932 -0.0302539 -0.0309472 0.00152597 -0.0239356 -0.013874 -0.011969 -0.00774752 -0.0107556 -0.0141049 -0.02466 0.00466829 -0.0233394 0.00709418 -0.0102049 -0.0262748 -0.0258333 -0.0108007 0.00303192
internal_weight=0 3357 21051 2169 1188 6882 1715 1332 986 545 787 5167 837 805 2695 202 393 339 1010 493 162 625 2472 548 14169 305 302 54 306 705
internal_count=24408 3357 21051 2169 1188 6882 1715 1332 986 545 787 5167 837 805 2695 202 393 339 1010 493 162 625 2472 548 14169 305 302 54 306 705
is_linear=0
shrinkage=0.05


Tree=25
num_leaves=31
num_cat=0
split_feature=6 1 7 6 6 1 6 1 6 1 6 1 1 6 1 7 0 6 6 6 7 1 5 0 1 7 6 6 6 6
split_gain=538.592 72.8186 53.5102 37.3268 28.4218 18.127 13.8443 10.2382 9.35877 7.0978 9.15405 5.98284 4.35603 4.08889 4.60136 3.94789 3.21078 3.20047 3.1572 2.8155 2.74873 2.67788 2.65808 2.47076 2.17248 2.16235 2.13236 2.07229 2.04533 1.96748
threshold=0.26737548030958697 12.500000000000002 4.2555875595453392 0.13032677758458469 0.15506295148856988 9.5000000000000018 0.36961150036419149 13.500000000000002 0.075590081920622762 11.500000000000002 0.16572977205382142 7.5000000000000009 11.500000000000002 0.22613484019624933 8.5000000000000018 6.4224346156700198 6.5000000000000009 0.32551364991366888 0.35157456309980867 0.052171512443510759 6.7086942120556854 10.500000000000002 -0.6830127018922193 4.5000000000000009 12.500000000000002 6.5388628896926706 0.10048492595619686 0.19037028802237846 0.20633387658238497 0.035675318879856054
decision_type=2 2 2 2 2 2 2 2 2 2 2 2 2 2 2 2 2 2 2 2 2 2 2 2 2 2 2 2 2 2
left_child=1 3 18 12 8 11 7 17 29 10 -7 -5 26 14 23 24 20 21 -2 -14 -11 -4 25 -13 -8 -10 -1 -12 -16 -3
right_child=2 4 6 5 -6 9 15 -9 22 16 27 13 19 -15 28 -17 -18 -19 -20 -21 -22 -23 -24 -25 -26 -27 -28 -29 -30 -31
leaf_value=-0.003659557562022903 0.00021923580144281036 -0.0036570999328055065 -0.00078667340239800684 -0.0025449442711037835 2.2766644852763864e-05 -0.0021491854817554312 0.0012080864093723775 0.0015314337578553564 -0.00099730476524577264 -0.00062170721566292143 -0.0020056095916205631 -0.0022598662252499169 -0.0039764140025984442 -0.0010622630536162572 -0.0023167200216745029 -8.4199722166122825e-05 -0.00010462586931602426 -0.00020928592004121062 0.0017029377235235873 -0.0020053377036671986 -0.0043559464817606993 -0.00038128057716039387 -0.00077278530102267641 -0.0019022910272624783 0.0032641964631055401 -0.00046032417310274326 -0.0025180660354907833 -0.0017695169163704277 -0.00092509899521897403 -0.0020238800576103848
leaf_weight=268 428 20 707 133 799 186 2314 551 110 110 153 24 67 219 123 578 188 1080 13769 228 29 328 269 90 846 23 219 339 78 83
leaf_count=268 428 20 707 133 799 186 2314 551 110 110 153 24 67 219 123 578 188 1080 13769 228 29 328 269 90 846 23 219 339 78 83
internal_value=0 -0.0152382 0.00534477 -0.0203117 -0.00569018 -0.0160945 0.00155059 -0.00120218 -0.0149752 -0.0118532 -0.0147714 -0.022485 -0.0293286 -0.0201217 -0.0237698 0.00351391 -0.00580275 -0.00278369 0.00705624 -0.0245339 -0.0115647 -0.00477053 -0.0115299 -0.0157456 0.00420886 -0.017312 -0.0322331 -0.0111992 -0.0283209 -0.0284223
internal_weight=0 3758 20601 2454 1304 1672 6404 2666 505 1005 678 667 782 534 315 3738 327 2115 14197 295 139 1035 402 114 3160 133 487 492 201 103
internal_count=24359 3758 20601 2454 1304 1672 6404 2666 505 1005 678 667 782 534 315 3738 327 2115 14197 295 139 1035 402 114 3160 133 487 492 201 103
is_linear=0
shrinkage=0.05


Tree=26
num_leaves=31
num_cat=0
split_feature=6 6 3 7 6 6 6 3 3 3 3 3 6 5 6 6 6 3 7 3 7 7 6 4 4 7 6 5 6 8
split_gain=525.385 69.9834 66.9941 52.5984 16.027 13.9557 13.9328 8.66467 8.57131 8.38442 6.8136 6.62201 5.84904 5.48416 4.83619 4.38 4.2591 3.92228 3.59704 3.458 3.43739 3.00803 2.28683 2.2565 3.04832 2.16249 2.03216 1.91414 1.89081 1.86806
threshold=0.26737548030958697 0.10048492595619686 0.25881904510252091 4.3372693810700085 0.20103088817200579 0.36961150036419149 0.17040924461912063 0.25881904510252091 0.60355339059327384 0.37940952255126054 0.25881904510252091 0.91597561503675362 0.41798514166690043 -0.6830127018922193 0.16031097254439983 0.075590081920622762 0.30563784173143788 0.91597561503675362 6.4224346156700198 0.98296291314453432 6.5617373797951473 6.2567088148180039 0.23652275406225295 0.93301270189221952 -0.5 5.3683070215747577 0.35469291702112205 1.0000000180025095e-35 0.45587767517223277 78.500000000000014
decision_type=2 2 2 2 2 2 2 2 2 2 2 2 2 2 2 2 2 2 2 2 2 2 2 2 2 2 2 2 2 2
left_child=1 10 6 11 9 7 13 -5 -6 14 15 26 -13 29 -4 -1 19 23 28 25 22 -17 -8 24 -10 -9 -2 -23 -7 -3
right_child=3 2 4 5 8 18 20 16 17 -11 -12 12 -14 -15 -16 21 -18 -19 -20 -21 -22 27 -24 -25 -26 -27 -28 -29 -30 -31
leaf_value=-0.0029809820139536764 0.00021532426010162364 -0.0011304354563603637 -0.0018694999507043127 0.00093928489419678029 -0.0012708059481673221 0.00094736489626375681 -0.00019390229503853042 -0.0013577361869291857 -0.00070418796002738701 -0.0024456482834679257 -0.0037265215610553654 -0.00045754819319663301 0.0030553077909344813 -0.0010620200369343567 -0.002379503420128143 -0.00046800397390796321 -0.00042369404790026656 -0.0018823887033779076 3.4920078391724282e-05 -0.0015028578205280023 -0.0029059159192543322 -0.0019555438767989981 0.00082842895155414438 8.1364341144400501e-06 -0.0013821583760076053 -0.00078429393660361881 0.001651058010108375 -0.00151157087711648 0.0035708942039330638 -0.0010410007638750813
leaf_weight=242 489 191 190 941 273 1973 541 20 67 524 285 330 719 405 103 58 1207 92 603 26 122 43 275 27 237 425 12788 62 1125 31
leaf_count=242 489 191 190 941 273 1973 541 20 67 524 285 330 719 405 103 58 1207 92 603 26 122 43 275 27 237 425 12788 62 1125 31
internal_value=0 -0.014992 -0.0117658 0.00531071 -0.019268 0.00151108 -0.00451278 -0.00128198 -0.0136925 -0.0240177 -0.0293841 0.00698695 0.00316254 -0.0102831 -0.017244 -0.0252161 -0.00343564 -0.0181501 0.00348757 -0.00746815 -0.00065565 -0.0188804 0.000514706 -0.0156118 -0.0168421 -0.00643258 0.00728911 -0.0239286 0.00417527 -0.0165991
internal_weight=0 3768 3078 20646 1513 6320 1565 2619 696 817 690 14326 1049 627 293 405 1678 423 3701 471 938 163 816 331 304 445 13277 105 3098 222
internal_count=24414 3768 3078 20646 1513 6320 1565 2619 696 817 690 14326 1049 627 293 405 1678 423 3701 471 938 163 816 331 304 445 13277 105 3098 222
is_linear=0
shrinkage=0.05


Tree=27
num_leaves=31
num_cat=0
split_feature=6 6 1 6 1 1 2 1 1 6 6 6 6 1 0 1 6 6 1 1 0 5 1 6 9 1 1 1 6 9
split_gain=509.896 59.4586 55.7531 48.9235 13.6742 11.6891 11.2675 16.7852 8.7003 8.06907 7.86563 6.97172 6.31199 4.94676 3.7127 5.00632 3.17528 2.94085 3.25393 2.78907 2.34698 2.34269 2.22299 2.02462 1.83228 1.8358 1.74026 1.71733 1.65331 1.47597
threshold=0.24994554663932428 0.12503555831670943 11.500000000000002 0.35321814471533874 11.500000000000002 11.500000000000002 0.37940952255126043 13.500000000000002 7.5000000000000009 0.3165042617960318 0.41435505153690599 0.20633387658238497 0.075590081920622762 6.5000000000000009 10.500000000000002 10.500000000000002 0.20103088817200579 0.075590081920622762 10.500000000000002 9.5000000000000018 10.500000000000002 -0.6830127018922193 8.5000000000000018 0.27183800929349761 19.700000000000003 13.500000000000002 4.5000000000000009 8.5000000000000018 0.14253560728208384 17.650000000000002
decision_type=2 2 2 2 2 2 2 2 2 2 2 2 2 2 2 2 2 2 2 2 2 2 2 2 2 2 2 2 2 2
left_child=1 4 8 5 17 9 7 10 -3 13 -5 14 -6 -2 -10 -16 20 -1 22 -13 24 -14 -19 27 25 -4 -11 29 -17 -15
right_child=3 2 16 6 12 -7 -8 -9 11 26 -12 19 21 23 15 28 -18 18 -20 -21 -22 -23 -24 -25 -26 -27 -28 -29 -30 -31
leaf_value=-0.0037009919575064715 -0.0015441395758278064 -0.0024488623060059107 -0.0012157964178438124 0.00015587778094547524 -0.0029023217729954925 0.00044530804659194249 0.0012488484126165684 0.0023043241616621979 -0.0022218401826642285 0.00020137436908699321 0.0020951966900464025 -0.0012780577449256366 -0.0015770450144699641 -0.00058309632811639383 -0.0019089627236576476 -0.00099066006537358825 -6.0381943167404688e-06 -0.0035112261989018556 -0.0020462976382397044 -0.0017556734804166714 0.00010010500383424715 -0.0012467408118334443 -0.0029709739871573784 -0.00060199328071820757 -0.00096717032677799686 -3.8387935398485201e-05 -0.00019109114034838309 -0.0010825735464072889 0.00025802965245597451 -0.00096834575511760713
leaf_weight=160 70 89 173 2087 213 1252 9018 4639 521 106 2475 216 142 29 82 21 444 22 136 193 100 242 127 556 241 174 655 170 38 54
leaf_count=160 70 89 173 2087 213 1252 9018 4639 521 106 2475 216 142 29 82 21 444 22 136 193 100 242 127 556 241 174 655 170 38 54
internal_value=0 -0.0158503 -0.0113482 0.00519078 -0.0257534 -0.000850622 0.00614976 0.00491876 -0.0190517 -0.00362805 0.00276523 -0.0178035 -0.0208082 -0.00689135 -0.0209743 -0.0137766 -0.00345406 -0.0323876 -0.0293421 -0.0126711 -0.0055814 -0.0169792 -0.0344463 -0.00578801 -0.00678571 -0.00445965 0.000141262 -0.00949605 -0.00266949 -0.0153916
internal_weight=0 3334 2292 21111 1042 2892 18219 9201 1160 1640 4562 1071 597 879 662 141 1132 445 285 409 688 384 149 809 588 347 761 253 59 83
internal_count=24445 3334 2292 21111 1042 2892 18219 9201 1160 1640 4562 1071 597 879 662 141 1132 445 285 409 688 384 149 809 588 347 761 253 59 83
is_linear=0
shrinkage=0.05


Tree=28
num_leaves=31
num_cat=0
split_feature=6 7 6 3 6 3 3 6 6 6 3 2 2 2 6 0 6 5 0 6 0 6 7 2 6 7 6 2 0 6
split_gain=463.715 59.9066 55.4625 51.5764 15.9628 13.6331 10.7971 9.40764 7.98172 6.73689 6.32842 5.95495 5.85583 4.9161 4.78059 4.41849 3.80843 3.39927 3.07056 2.96825 2.94795 2.48842 2.37284 2.36174 3.29852 2.37593 2.05848 1.98931 1.92422 1.91731
threshold=0.24994554663932428 4.3372693810700085 0.11902439775085942 0.25881904510252091 0.39438618171215406 1.0000000180025095e-35 0.25881904510252091 0.30932057124942125 0.20103088817200579 0.075590081920622762 0.91597561503675362 1.0000000180025095e-35 -0.70710678118654757 -0.9159756150367534 0.41712878192836506 10.500000000000002 0.15506295148856988 -0.93301270189221919 10.500000000000002 0.3580816735015801 2.5000000000000004 0.035675318879856054 6.4353484435784418 -0.9159756150367534 0.10048492595619686 6.7598349808735607 0.14877265005211313 -0.37940952255126009 4.5000000000000009 0.26737548030958697
decision_type=2 2 2 2 2 2 2 2 2 2 2 2 2 2 2 2 2 2 2 2 2 2 2 2 2 2 2 2 2 2
left_child=2 10 5 16 6 9 -3 11 13 21 19 29 17 15 18 26 20 -10 -12 -2 -4 -1 -6 24 25 -7 -5 -14 -11 -8
right_child=1 4 3 8 22 23 7 -9 12 28 14 -13 27 -15 -16 -17 -18 -19 -20 -21 -22 -23 -24 -25 -26 -27 -28 -29 -30 -31
leaf_value=-0.0031847427849781744 0.00016058126158135513 0.0010105599667866642 -0.00081425210141200348 -0.0015352280566389639 0.001779246278597857 -0.0023343685450057153 -0.0011951411786001414 -0.00017048499858883157 -0.0024184185597258632 -0.00053181550241189067 0.00016821992400679471 -0.0013739888438172984 -0.0012224729817998116 -0.00205057680835151 0.0026382830044825835 -7.3051111623124564e-05 -0.00032820714152673077 -0.00080548241988069179 -0.0021352315833840837 0.0016191983794539508 -0.00083060312198395274 -0.0014802524820676528 1.1922437334684336e-05 -0.0030888936692433089 -0.0016800202826214028 -0.0032069255425839389 -0.0031357356299633512 -0.0017808366578825161 -0.0010821655614979371 -0.00050256805064508839
leaf_weight=24 699 1347 38 72 2340 257 202 1859 21 111 225 46 241 477 703 53 902 182 89 12657 250 89 324 185 123 97 99 51 88 462
leaf_count=24 699 1347 38 72 2340 257 202 1859 21 111 225 46 241 477 703 53 902 182 89 12657 250 89 324 185 123 97 99 51 88 462
internal_value=0 0.00506837 -0.0149405 -0.0108361 0.00111702 -0.0249949 -0.000914198 -0.0028153 -0.0181689 -0.0163782 0.0068773 -0.00771127 -0.0133081 -0.0216013 0.00307522 -0.0154911 -0.00346639 -0.00678571 -0.00205414 0.00716682 -0.00847222 -0.0261283 0.00410285 -0.0290559 -0.027196 -0.0296469 -0.0194006 -0.0178425 -0.0108417 -0.00650602
internal_weight=0 20953 3360 2386 6580 974 3916 2569 1196 312 14373 710 495 701 1017 224 1190 203 314 13356 288 113 2664 662 477 354 171 292 199 664
internal_count=24313 20953 3360 2386 6580 974 3916 2569 1196 312 14373 710 495 701 1017 224 1190 203 314 13356 288 113 2664 662 477 354 171 292 199 664
is_linear=0
shrinkage=0.05


Tree=29
num_leaves=31
num_cat=0
split_feature=6 6 1 7 1 1 6 1 6 6 1 3 7 0 6 6 6 6 6 0 6 7 0 6 1 1 7 1 6 4
split_gain=436.856 58.3411 48.6309 45.8774 13.0892 11.2704 11.2162 9.72814 11.0669 8.6489 6.29051 4.59505 4.27479 3.63219 3.37991 3.37059 3.16516 2.64481 2.49773 3.06306 2.47257 2.22011 2.13608 2.10667 2.06902 3.11948 2.01626 1.94285 3.63365 2.49376
threshold=0.26737548030958697 0.13032677758458469 11.500000000000002 3.8176519431297078 11.500000000000002 7.5000000000000009 0.06517146368562271 13.500000000000002 0.37587346957420276 0.20103088817200579 10.500000000000002 0.91597561503675362 6.6883539385227424 10.500000000000002 0.40642097192223309 0.35973217168069571 0.22162311340498006 0.052171512443510759 0.38628614387837651 10.500000000000002 0.29252467778362656 6.5617373797951473 10.500000000000002 0.43162789182179523 8.5000000000000018 10.500000000000002 6.7280301689677797 8.5000000000000018 0.14877265005211313 -0.24999999999999994
decision_type=2 2 2 2 2 2 2 2 2 2 2 2 2 2 2 2 2 2 2 2 2 2 2 2 2 2 2 2 2 2
left_child=1 4 5 11 17 -3 -6 8 20 10 27 15 -8 -11 18 -2 -4 -1 -13 -20 -5 -18 26 -10 -19 -26 -12 28 -7 -29
right_child=3 2 16 7 6 9 12 -9 23 13 22 14 -14 -15 -16 -17 21 24 19 -21 -22 -23 -24 -25 25 -27 -28 29 -30 -31
leaf_value=-0.0035195575425264985 0.00012885402781057583 -0.0020677750839572825 -0.00058976015748183003 -0.00082179826045310211 -0.0027404795994417676 0.00062324520658211049 -0.0011064657546814736 0.0018052322921627154 0.00036693579984460112 -0.0014986092686760343 -0.0020471347877691272 0.00054233025221993531 -0.0019257371363497985 -0.00032418542115771818 0.0025146604432064261 0.0015586451300508037 0.00058678695142409256 -0.0026692291168382435 -0.00027497953157206215 -0.0024207394629846418 -0.00023623734864186555 -0.0027990448099520049 -4.7749003381550309e-05 0.0021615261158691723 -0.0024755335573229016 -0.0019955672675468043 -0.001920624785919042 -0.0023741985042019442 -0.0017402218116279265 -0.001409567242394813
leaf_weight=74 743 127 811 410 183 23 432 1354 1502 461 99 86 56 129 536 12240 398 31 48 25 2001 62 40 1509 183 196 43 97 49 204
leaf_count=74 743 127 811 410 183 23 432 1354 1502 461 99 86 56 129 536 12240 398 31 48 25 2001 62 40 1509 183 196 43 97 49 204
internal_value=0 -0.0134843 -0.00925187 0.00518994 -0.022803 -0.0161635 -0.0182824 0.00182556 0.000878827 -0.0145961 -0.0190766 0.00685663 -0.0143238 -0.0103814 0.00289568 0.00706867 -0.00233478 -0.0290702 -0.00350629 -0.0103082 -0.00164558 0.000978261 -0.011456 0.0029002 -0.0275 -0.0285158 -0.014331 -0.0227949 -0.0154167 -0.0245598
internal_weight=0 3698 2543 20454 1155 1272 671 6776 5422 1145 555 13678 488 590 695 12983 1271 484 159 73 2411 460 182 3011 410 379 142 373 72 301
internal_count=24152 3698 2543 20454 1155 1272 671 6776 5422 1145 555 13678 488 590 695 12983 1271 484 159 73 2411 460 182 3011 410 379 142 373 72 301
is_linear=0
shrinkage=0.05


Tree=30
num_leaves=31
num_cat=0
split_feature=6 1 7 6 6 1 6 6 1 7 1 1 0 6 6 6 6 6 4 1 1 6 6 1 4 6 4 1 7 7
split_gain=415.186 56.8038 44.4217 33.5648 24.1452 16.1581 13.8968 11.4571 7.99524 6.23089 5.49385 5.12459 4.72984 3.88634 3.21461 3.19449 3.05295 2.60988 2.59191 2.56691 2.61291 3.04505 2.74982 2.7094 2.38398 2.36714 2.2526 2.17166 2.10887 1.99078
threshold=0.27183800929349761 12.500000000000002 3.8176519431297078 0.12503555831670943 0.075590081920622762 10.500000000000002 0.20633387658238497 0.36961150036419149 10.500000000000002 6.0856370699937399 11.500000000000002 7.5000000000000009 10.500000000000002 0.10700593832243306 0.14253560728208384 0.10048492595619686 0.35899052996205533 0.43498612815108989 -0.68301270189221952 7.5000000000000009 8.5000000000000018 0.14877265005211313 0.16572977205382142 9.5000000000000018 -0.5 0.052171512443510759 -0.68301270189221952 12.500000000000002 5.2230512493957635 6.6287023148084918
decision_type=2 2 2 2 2 2 2 2 2 2 2 2 2 2 2 2 2 2 2 2 2 2 2 2 2 2 2 2 2 2
left_child=1 3 16 10 -3 6 19 8 24 -6 25 28 14 29 -7 -11 -2 27 -16 -5 21 -21 -22 -24 -4 -1 -13 -9 -8 -12
right_child=2 4 7 5 9 12 11 17 -10 15 13 26 -14 -15 18 -17 -18 -19 -20 20 22 -23 23 -25 -26 -27 -28 -29 -30 -31
leaf_value=-0.0033975957838557609 0.00012380735338228673 -0.0022018587465902836 0.000108813771951309 -0.0023465482769718534 6.5846443218884072e-05 -0.0015348349643563223 -0.0019528924899021327 0.00034072117282892342 0.00078002870088536027 -0.001002022983336818 -0.0016809548368819528 0.00014538229602377149 -0.00010315661110386391 -0.0013584137715471111 -0.0050303036343587546 -0.00067528936912060629 0.0014297837575795059 0.0024481772305203296 -0.001434922644106041 0.00028955728850943674 -0.0020397262017638148 -0.0017177578241232977 -0.0013897518892853804 -0.0010827784032352188 -0.00075092735772537816 -0.0024865071352107044 -0.00086151794940231459 0.0020967236717603257 -0.0013920356379287777 -0.0022281680951082359
leaf_weight=76 687 113 302 42 778 78 26 1749 1156 67 124 48 187 63 39 394 13116 1870 398 23 164 63 80 121 1199 356 444 485 72 93
leaf_count=76 687 113 302 42 778 78 26 1749 1156 67 124 48 187 63 39 394 13116 1870 398 23 164 63 80 121 1199 356 444 485 72 93
internal_value=0 -0.0127001 0.00519257 -0.0171696 -0.00444527 -0.0135084 -0.0173384 0.00187213 -0.000685924 -0.00242736 -0.0263483 -0.012161 -0.00759972 -0.0208929 -0.0100728 -0.00703362 0.00681899 0.00352827 -0.00840389 -0.0235345 -0.0224335 -0.014593 -0.0242808 -0.0203607 -0.00309294 -0.0298843 -0.0100813 0.00237466 -0.022602 -0.0240668
internal_weight=0 3849 20564 2497 1352 1785 1083 6761 2657 1239 712 590 702 280 515 461 13803 4104 437 493 451 86 365 201 1501 432 492 2234 98 217
internal_count=24413 3849 20564 2497 1352 1785 1083 6761 2657 1239 712 590 702 280 515 461 13803 4104 437 493 451 86 365 201 1501 432 492 2234 98 217
is_linear=0
shrinkage=0.05


Tree=31
num_leaves=31
num_cat=0
split_feature=6 7 1 6 6 6 1 1 6 6 1 6 8 6 6 1 6 3 1 7 6 7 9 8 7 1 6 1 7 7
split_gain=383.427 50.6005 48.6637 30.1349 21.3239 14.6555 10.9115 8.152 7.96181 5.94199 4.9936 4.77672 4.65284 4.51272 4.44754 6.88435 3.68255 3.38363 2.85298 2.61641 2.34146 2.15515 2.1114 2.35073 2.1003 2.00361 1.83642 1.76955 1.70026 1.6826
threshold=0.24994554663932428 4.0163424379838117 11.500000000000002 0.10048492595619686 0.11902439775085942 0.3814361627635971 12.500000000000002 10.500000000000002 0.20103088817200579 0.15506295148856988 8.5000000000000018 0.035675318879856054 54.500000000000007 0.3648667354104842 0.31944884054767991 6.5000000000000009 0.14877265005211313 0.91597561503675362 13.500000000000002 6.3707564150300433 0.052171512443510759 6.840011483758766 19.300000000000001 62.500000000000007 6.8292529045770554 7.5000000000000009 0.43498612815108989 4.5000000000000009 5.0906732680195743 6.6883539385227424
decision_type=2 2 2 2 2 2 2 2 2 2 2 2 2 2 2 2 2 2 2 2 2 2 2 2 2 2 2 2 2 2
left_child=2 13 4 11 20 6 14 8 24 -5 -10 -4 19 27 15 28 -14 -15 -11 -9 -1 -12 23 -16 25 -6 -7 -2 -3 -13
right_child=1 5 3 9 7 26 -8 12 10 18 21 29 16 17 22 -17 -18 -19 -20 -21 -22 -23 -24 -25 -26 -27 -28 -29 -30 -31
leaf_value=-0.0031803732425461453 0.00014845564761471267 -0.0016124675033152664 -0.0031154847195562193 -0.00083525428625875271 -0.0021999425885839267 0.00079536492502219687 0.0010725244865275652 0.0003005739532751191 -0.0014721628062840727 -0.0010008500754428537 -0.0010555612712123683 -0.0012440669961048304 -0.0012627829768234737 0.0015418431686517364 0.00030312807947641688 -0.00051310677638953615 -0.0022567503607596549 0.0011941588587420214 0.00010309797478370298 -0.0016703644173528161 -0.0023125120999330263 0.00015054315838467956 0.00029571889717811358 -0.00074887162759958267 -0.0023295062581141063 -0.0015980664948929612 0.002364804834573363 7.2421059905211668e-05 -0.0013262964644306029 -0.0017577187240239212
leaf_weight=79 545 37 53 474 38 1583 1086 70 138 470 234 261 70 12052 280 1012 154 796 430 36 313 35 679 584 38 386 1799 609 29 61
leaf_count=79 545 37 53 474 38 1583 1086 70 138 470 234 261 70 12052 280 1012 154 796 430 36 313 35 679 584 38 386 1799 609 29 61
internal_value=0 0.00493967 -0.0132934 -0.00753716 -0.0196213 0.00149774 -0.000673725 -0.0163115 -0.0188521 -0.00410844 -0.0137531 -0.0201 -0.00962121 0.00668226 -0.00241988 -0.00488404 -0.0137054 0.00695128 -0.00172222 -0.000990566 -0.0297449 -0.00978625 -0.000698315 -0.00233796 -0.0233442 -0.0223349 0.00387788 0.00368718 -0.0205303 -0.0178106
internal_weight=0 21091 3340 1749 1591 7089 3707 1199 869 1374 407 375 330 14002 2621 1078 224 12848 900 106 392 269 1543 864 462 424 3382 1154 66 322
internal_count=24431 21091 3340 1749 1591 7089 3707 1199 869 1374 407 375 330 14002 2621 1078 224 12848 900 106 392 269 1543 864 462 424 3382 1154 66 322
is_linear=0
shrinkage=0.05


Tree=32
num_leaves=31
num_cat=0
split_feature=6 6 1 7 6 1 7 6 1 6 3 6 6 6 7 1 6 6 6 7 7 7 6 7 6 6 8 1 4 7
split_gain=356.615 49.466 46.1292 45.5196 13.5362 12.7125 10.6257 10.2409 9.28731 7.76113 5.02974 5.77928 4.35029 3.5967 3.45099 2.90303 2.86552 2.77829 2.72617 2.56287 2.31922 2.26685 2.87622 2.13683 2.42147 2.0506 1.92092 2.36448 2.14775 3.12314
threshold=0.27183800929349761 0.11902439775085942 10.500000000000002 3.8176519431297078 0.20633387658238497 11.500000000000002 6.6726654566143617 0.398311605619389 12.500000000000002 0.052171512443510759 0.91597561503675362 0.41798514166690043 0.36570143646720993 0.20103088817200579 5.1149908003866509 7.5000000000000009 0.32551364991366888 0.14253560728208384 0.3854298316991861 6.8292529045770554 6.6939428633955229 5.3683070215747577 0.2968578066348283 6.8106934143582158 0.22613484019624933 0.052171512443510759 54.500000000000007 13.500000000000002 1.0000000180025095e-35 6.5388628896926706
decision_type=2 2 2 2 2 2 2 2 2 2 2 2 2 2 2 2 2 2 2 2 2 2 2 2 2 2 2 2 2 2
left_child=1 5 4 10 15 19 13 8 16 -7 12 18 -2 26 -6 -3 21 -8 -12 25 -11 22 -5 24 -16 -1 -4 28 29 -28
right_child=3 2 6 7 14 9 17 -9 -10 20 11 -13 -14 -15 23 -17 -18 -19 -20 -21 -22 -23 -24 -25 -26 -27 27 -29 -30 -31
leaf_value=-0.0030003418522437071 0.00011553302722439249 -0.0024739724358229225 2.8771062070418917e-05 -0.001595553158508508 -0.0017331240046567593 -0.0028338066576578235 -0.0016666633301627405 0.0014180352200476056 0.0011931030752448061 -0.00080504527829565258 0.00054239277330075453 0.0027478538992597207 0.0014726842725651752 0.00013998308404987903 -0.0010937708358245526 -0.0016121275767810956 -0.00011117534704946055 -0.002606617564071519 -0.0015726871455463782 -0.0028605543407484342 -0.0013608529787963856 -0.00040152951993749461 -0.0006980724818352194 -2.5797767586066471e-06 -0.00089251833466610334 -0.0020530060529557448 -0.0032190371618393285 -0.00011451073107683064 -0.00097926221079142972 -0.00076120417224687521
leaf_weight=66 1125 38 182 28 24 121 39 2903 1042 390 93 493 11788 708 142 458 1933 185 108 48 59 742 78 49 374 270 66 270 321 36
leaf_count=66 1125 38 182 28 24 121 39 2903 1042 390 93 493 11788 708 142 458 1933 185 108 48 59 742 78 49 374 270 66 270 321 36
internal_value=0 -0.0116628 -0.00840595 0.00494012 -0.0165553 -0.0215356 -0.00351273 0.00157523 -0.000124902 -0.0167982 0.0066034 0.00245677 0.00682626 -0.00207044 -0.0114304 -0.0226411 -0.00163341 -0.0137054 -0.00468905 -0.0285677 -0.0137695 -0.0040566 -0.0108962 -0.0106416 -0.0115891 -0.0270238 -0.00421429 -0.00541486 -0.00774823 -0.0140686
internal_weight=0 3846 2892 20333 1085 954 1807 6726 3823 570 13607 694 12913 1583 589 496 2781 224 201 384 449 848 106 565 516 336 875 693 423 102
internal_count=24179 3846 2892 20333 1085 954 1807 6726 3823 570 13607 694 12913 1583 589 496 2781 224 201 384 449 848 106 565 516 336 875 693 423 102
is_linear=0
shrinkage=0.05


Tree=33
num_leaves=31
num_cat=0
split_feature=6 6 7 3 6 3 6 3 6 7 6 3 2 7 4 6 7 6 2 5 3 3 6 6 4 2 2 8 7 4
split_gain=325.139 46.0501 41.4033 38.3448 16.2863 11.6705 9.8421 8.35782 8.20812 6.89658 5.47805 4.47554 4.10011 3.90617 3.40888 3.15943 3.13597 2.9616 5.05788 2.56439 2.38342 2.34466 3.74662 2.21914 2.18268 2.15489 2.05348 2.00426 1.98183 1.97537
threshold=0.26737548030958697 0.11902439775085942 3.8176519431297078 0.37940952255126054 0.20633387658238497 0.25881904510252091 0.40503129600762028 1.0000000180025095e-35 0.075590081920622762 6.3826613261450529 0.40904556870437325 0.91597561503675362 -0.5 6.176905692078182 0.6830127018922193 0.035675318879856054 6.4838712935462262 0.31944884054767991 1.0000000180025095e-35 1.0000000180025095e-35 0.91597561503675362 -1.0000000180025095e-35 0.38033171407854444 0.17523501184666293 -0.5 -0.37940952255126009 -0.9159756150367534 85.000000000000014 4.6298509007569537 0.6830127018922193
decision_type=2 2 2 2 2 2 2 2 2 2 2 2 2 2 2 2 2 2 2 2 2 2 2 2 2 2 2 2 2 2
left_child=1 5 10 9 25 8 7 -4 15 27 11 19 24 -10 -7 -1 -8 18 -9 -2 -12 22 -21 -11 -6 29 -16 -3 -29 -5
right_child=2 3 6 4 12 14 16 17 13 23 20 -13 -14 -15 26 -17 -18 -19 -20 21 -22 -23 -24 -25 -26 -27 -28 28 -30 -31
leaf_value=-0.0028231439853455484 0.00033558615807891142 -0.00011607034977086789 0.0011308464961048181 -0.0016146993046081853 0.00026855407608062255 -0.0024560569297181986 0.0016963735843188018 -0.00036071495916264242 -0.00039849424086577735 -0.0015531675962426571 0.0030057036327340806 -0.00062312293832710486 -0.0011781967664735342 -0.0011692859433283154 -0.00026235507930304132 -0.0012495856743606031 -0.00043261822102949447 -8.3194127845334881e-05 -0.0012098512447879946 -2.304918208388149e-05 0.0017275939394984674 0.0002204866859389143 0.0008063729712261187 -0.0016107540831239297 -0.0010119971282423245 -0.0023337015545987598 -0.0018380307794074206 0.00072295658571354393 -0.0021511660521749002 -0.00138353786320453
leaf_weight=62 1911 1185 1159 356 74 331 2493 719 117 227 9343 163 198 238 24 173 241 2162 56 509 532 835 465 286 266 32 44 20 39 96
leaf_count=62 1911 1185 1159 356 74 331 2493 719 117 227 9343 163 198 238 24 173 241 2162 56 509 532 835 465 286 266 32 44 20 39 96
internal_value=0 -0.0110908 0.0048844 -0.00779327 -0.0154941 -0.0203564 0.00170205 0.000151367 -0.0158898 -0.00331389 0.00646424 0.00487317 -0.00950744 -0.0110915 -0.0269612 -0.0231383 0.00402524 -0.00126745 -0.00391935 0.00522849 0.00708987 0.00387922 0.00221253 -0.00819201 -0.00617647 -0.0221488 -0.0167647 -0.00130225 -0.0102966 -0.0212611
internal_weight=0 3768 20588 2779 1022 989 6830 4096 590 1757 13758 3883 538 355 399 235 2734 2937 775 3720 9875 1809 974 513 340 484 68 1244 59 452
internal_count=24356 3768 20588 2779 1022 989 6830 4096 590 1757 13758 3883 538 355 399 235 2734 2937 775 3720 9875 1809 974 513 340 484 68 1244 59 452
is_linear=0
shrinkage=0.05


Tree=34
num_leaves=31
num_cat=0
split_feature=6 7 6 1 6 6 1 6 7 1 1 6 6 5 9 6 1 5 1 1 6 6 8 8 7 7 9 6 1 7
